{"type":"Generative_Adverserial_Network","activation_function_name":"identity","activation_function":{},"learning_rate":1,"discriminator":{"type":"Fully_Connected_Network","activation_function_name":"tanh","activation_function":{},"learning_rate":0.5,"length":4,"width":7,"weights":[{"data":[[0.5221444208307167,-0.5522608748783832,-0.7183066642069196,0.6266119001654644,-0.16192509719346407,-0.6998316895359267,-0.14384552962732905],[2.5553415326135216,2.629713967718461,-0.6761027138589228,4948.276498030586,0.8068171738370378,-0.8676968016070561,17.43282938351596],[1.5227083409326858,1.1243668727719027,-0.6192798331968326,4355.78941278056,0.43524343832625695,0.4655488998983032,11.860401039447098],[0.11517402990459681,-0.3611517876886403,-0.3294399085223907,1649.174010959347,0.32838563045743463,0.44037488054283275,0.5881153775357391],[1.73727922272293,0.5799291115509744,-0.8565790672592983,2477.7167882417293,0.8423276564525489,-0.8661356791743516,19.759801288298945],[-0.5970437502112416,0.2346826980439846,-0.9210987189840396,506.27021087434053,-0.005066391466168474,0.8255596130587433,-0.9298246163749384],[1.5039583576139186,-0.4333528839746973,0.5985639256294797,882.3542912495974,-0.06923678000694716,0.6183288159756135,20.876975905718805],[0.6733657831484714,1.0207482065881173,0.06713797680030399,0.7774428268505978,-0.5476269308404027,0.3571261071370381,21.891462471541573],[0.8656445648372326,-0.18691391602175658,0.9762663989689986,0.3817351201788397,-0.39853898330512777,0.4302992060069842,-0.39533073608789115],[2.750097020323013,2.249983555396752,-0.17474516123626943,2391.1887095359903,0.5173491959889888,-0.29224927192633443,28.22203214571332],[-0.8388279910483916,-0.21676313985827722,-0.6514855953774614,0.6533295172096502,-0.2948850044547709,0.8562176479748762,-0.6217776465321233],[0.7048222904638313,-0.25915206105545097,-0.863986513144189,1767.6982337585707,0.22500263190975803,-0.8649013428404319,-0.05828344229094982],[0.905452153469902,0.19439505895293335,0.2787696357402607,485.2313549720357,-0.19009439237582282,0.8669478188286028,0.512715951543186]],"rows":13,"cols":7},{"data":[[-10.462647311680087,1.2658447732739604,-0.9238185411436807,3.089285676110162,-9.314940326146724,2.8473215720600735,-11.29855658211412],[-8.721925463635653,2.678800051990898,-0.23758640457716693,3.4985466481096696,-7.691698779851042,2.5742211050117576,-11.076231237689145],[8.696583747117767,-1.1666819471963152,1.1038998295667721,-3.5949816643806822,7.949951544243882,-4.136513277705712,10.255897587513692],[-9.36939746516709,1.509112533973957,1.1085233795065623,3.9456680149252654,-9.185984821986214,1.8899577426080285,-10.042110662348438],[-8.575742546441825,1.6878604549954668,-1.1839678800753166,3.302899607579243,-7.408446406347945,2.8799971904684525,-9.512102615134122],[8.999505107407304,-1.789795343885309,-0.045623875250501544,-3.443022405500717,8.6707669447866,-2.695448126757786,9.9470970421004],[-8.99321205058513,2.315357079649758,1.037050769287985,2.590243454276604,-8.98926766541009,2.545629507469943,-11.052027711045673]],"rows":7,"cols":7},{"data":[[-0.6570621914244401,0.7681780720469065,-0.8436266236308614,-6.496252720211187,2.6515504271344614,-7.457228373953311,6.569499703797883],[0.8396194470915936,-1.548681004448617,0.008186704716355854,-8.25789989229554,1.7290344104775826,-7.330123748506136,5.448120432797529],[-0.22131930535748037,-0.05272274508728571,-0.36766949480257366,-7.891732584220037,1.838991328053595,-9.261993084843215,6.623249839325142],[1.8168797234674594,-0.17206667414208437,-0.1571672883552339,-5.726553756642459,1.166914873355405,-6.450088498657951,6.618874341100227],[-1.3349392586395836,1.7875801661454152,-0.32641188721594605,0.022990693241098814,-0.05604139353642581,1.701956937062068,-0.20433584153797557],[0.43448784795225265,-1.3182606963331946,0.5261083984235834,6.296069327375594,-2.1797410136543944,6.480285579284566,-3.996517607692778],[-1.5719920274446273,0.968943198320275,-0.16269597397623964,-5.712270076235748,1.5953178254920843,-6.321209152635949,4.956852918047304]],"rows":7,"cols":7},{"data":[[-0.8283189542788727],[0.9818342348048597],[-8.795264711226586],[-24.919179936374626],[26.189633293526313],[-26.906182001369963],[27.61305383760223]],"rows":7,"cols":1}],"biases":[{"data":[[2.371508298312553,0.08481061494286853,0.03341960749000559,422.76184975516117,-0.2849891596407117,-1.3443057540658148,24.851751564123624]],"rows":1,"cols":7},{"data":[[-20.584996261076462,3.3498344476614874,-7.398591165788197,7.573327297794458,-16.544799398349355,10.092399470187232,-20.681342737982064]],"rows":1,"cols":7},{"data":[[-1.0752657019505123,0.6249782136939033,4.905559207112413,20.79272977679146,-6.237479898907261,21.804419553639313,-17.917878789709448]],"rows":1,"cols":7},{"data":[[610.8323793626889]],"rows":1,"cols":1}],"weight_deltas":[{"data":[[0,0,0,0,0,0,0],[0,0,0,0,0,0,0],[0,0,0,0,0,0,0],[0,0,0,0,0,0,0],[0,0,0,0,0,0,0],[0,0,0,0,0,0,0],[0,0,0,0,0,0,0],[0,0,0,0,0,0,0],[0,0,0,0,0,0,0],[0,0,0,0,0,0,0],[0,0,0,0,0,0,0],[0,0,0,0,0,0,0],[0,0,0,0,0,0,0]],"rows":13,"cols":7},{"data":[[0,0,0,0,0,0,0],[0,0,0,0,0,0,0],[0,0,0,0,0,0,0],[0,0,0,0,0,0,0],[0,0,0,0,0,0,0],[0,0,0,0,0,0,0],[0,0,0,0,0,0,0]],"rows":7,"cols":7},{"data":[[0,0,0,0,0,0,0],[0,0,0,0,0,0,0],[0,0,0,0,0,0,0],[0,0,0,0,0,0,0],[0,0,0,0,0,0,0],[0,0,0,0,0,0,0],[0,0,0,0,0,0,0]],"rows":7,"cols":7},{"data":[[0],[0],[0],[0],[0],[0],[0]],"rows":7,"cols":1}],"bias_deltas":[{"data":[[0,0,0,0,0,0,0]],"rows":1,"cols":7},{"data":[[0,0,0,0,0,0,0]],"rows":1,"cols":7},{"data":[[0,0,0,0,0,0,0]],"rows":1,"cols":7},{"data":[[0]],"rows":1,"cols":1}],"process":[{"data":[[5956.680436261592,33888.98157821169,0,0,0,0,16989.348121809224,0,22142.80110870653,32176.515323906362,0,14114.78527786367,0]],"rows":1,"cols":13},{"data":[[1,1,-1,1,1,-1,1]],"rows":1,"cols":7},{"data":[[-1,0.9999999999999594,-0.9999999394730635,1,-1,1,-1]],"rows":1,"cols":7},{"data":[[0.9999817057345214,-0.9999845649709587,0.9999982797284807,1,-0.9999999998146977,1,-1]],"rows":1,"cols":7},{"data":[[1]],"rows":1,"cols":1}]},"generator":{"type":"Fully_Connected_Network","activation_function_name":"swish","activation_function":{},"learning_rate":0.5,"length":4,"width":13,"weights":[{"data":[[-79619238378.48535,0.26626274845713094,-14139373.289509993,-80115354398.09721,-6393184329.71789,0.08813258048266105,-21014307732.030014,-4563262487.927735,-21119418793.695854,-23391670003.692024,-923549605.1325325,-4964544369.972614,-17643918680.684235],[-73601430390.92778,-0.8769562299344927,-13070687.008366048,-74060048803.24411,-5909972527.916499,-0.011197651082524449,-19425997273.419567,-4218360370.420807,-19523163797.224236,-21623672953.027718,-853745569.6681745,-4589312513.314387,-16310350099.363855],[-87375102935.43114,-1.0670927588943624,-15516716.23418574,-87919546582.04729,-7015956825.315243,-0.24370579186794875,-23061352236.747635,-5007778736.447007,-23176702374.340714,-25670297983.689854,-1013514364.2373037,-5448150274.136771,-19362647047.57104],[-76291144552.16788,-0.16592315227943458,-13548345.335268263,-76766522865.26045,-6125948451.566389,0.32513985253045474,-20135907118.57259,-4372517577.058484,-20236624526.251934,-22413895357.951393,-884945119.1916,-4757025814.237629,-16906400738.649544],[-80258784523.30061,-1.1865974754796156,-14252948.24797865,-80758885622.59378,-6444537953.884198,-0.215549806380188,-21183106374.655098,-4599917041.964863,-21289061748.841877,-23579564947.01571,-930968070.6390936,-5004422361.465703,-17785644479.993057],[-88251412183.09212,-0.9514901143153609,-15672338.652158242,-88801316205.16336,-7086321809.222236,-0.618851220280861,-23292640963.541447,-5058003131.776239,-23409147977.95474,-25927752552.389866,-1023679181.6942991,-5502791290.232519,-19556840428.643036],[-87465101397.38213,0.3780524390647938,-15532698.620432569,-88010105832.64995,-7023183429.261329,-0.08114614858308668,-23085105986.049053,-5012936805.70513,-23200574934.997105,-25696739009.58794,-1014558308.5967313,-5453761999.262691,-19382591040.46622],[-120596659015.9776,-0.42234526636946484,-21416447.069332056,-121348109743.01329,-9683547425.578587,-0.5306425988542666,-31829685331.882282,-6911824508.921717,-31988893625.399044,-35430598290.99268,-1398870412.1227348,-7519633153.992887,-26724667156.296227],[-23407400132.09735,-0.4807145491963699,-4156860.0351954903,-23553254156.09274,-1879543521.9325342,-0.05152187174197591,-6178033344.550777,-1341561608.1574428,-6208935131.014218,-6876958267.127508,-271515976.05620825,-1459535143.7729907,-5187166731.517805],[-134277161931.69061,-0.9797222265693676,-23845932.050878454,-135113857341.12283,-10782050481.455557,-0.4218645951255472,-35440449565.080086,-7695902917.604655,-35617718469.5557,-39449850624.86989,-1557558479.5869274,-8372661456.375908,-29756317369.005203],[-120755102591.38678,-0.4449849677257021,-21444584.14263373,-121507540596.67885,-9696269963.948133,-0.40008245536252574,-31871504143.944515,-6920905506.534415,-32030921611.315712,-35477148092.850296,-1400708289.4241085,-7529512676.72938,-26759778839.739735],[-140828895149.88477,-1.6026749700634941,-25009435.96380047,-141706415112.01016,-11308134867.789013,-0.20021833901285288,-37169681603.1746,-8071406127.99321,-37355599923.85753,-41374711807.63519,-1633555822.6729167,-8781185463.421186,-31208205762.851036],[-129929059069.82216,-0.2153847544981677,-23073763.037678763,-130738660985.94704,-10432910958.840776,-0.36717468536086867,-34292832814.6605,-7446697639.175094,-34464361478.098465,-38172403246.657265,-1507122319.366047,-8101541687.614373,-28792761639.428776]],"rows":13,"cols":13},{"data":[[-363925448.1717734,-68048156.47684108,-206130629.28943524,183060.77049124046,-639533700.122017,-37526674.53385592,-57812202.87856308,-50097932.67986024,569206.9605365434,-106342809.61841534,-57740443.90157873,-1963161502.2731612,-582380219.4498152],[-0.8608582145133903,0.7602670689855044,0.911286151590602,-0.2961320519477898,0.10360316455426817,-0.05089514690429725,-0.9820696139529773,0.8635565438808093,-0.9304525043330636,0.36515429519501785,-0.19044319277383642,0.06438714485311464,0.1277032646878826],[-64629.418747985204,-12084.49851970189,-36606.42629242558,31.411946761748187,-113573.415401343,-6664.265287774615,-10266.276184135206,-8895.946035798117,101.07621266823931,-18885.467178261082,-10253.21958231919,-348632.449564278,-103423.40894092892],[-366193105.82952845,-68472172.36163926,-207415053.6398778,184198.50021802192,-643518691.929105,-37760509.90662558,-58172439.368457854,-50410099.67825202,572752.1353723641,-107005447.18951803,-58100229.745425545,-1975394175.6193726,-586009096.7084467],[-29222112.107706588,-5464062.697570296,-16551670.407793134,14696.466572370255,-51352613.83774952,-3013280.118035841,-4642148.192543317,-4022714.4922701335,45704.02322782485,-8539011.517569043,-4636382.515660036,-157635941.32332477,-46763375.61197123],[0.8059828787839896,0.15112729465435157,-0.6659301722992758,-1.8537392988501609,-0.3349654768233322,-0.4175067775013283,-1.1856615445493723,-1.1208049622058331,0.17792381092514492,-2.26041564960433,-0.8517604544553004,0.36959079734460853,-0.3174931351049963],[-96052682.16282402,-17960293.97989579,-54405098.80394562,48315.326134478,-168795361.64005223,-9904605.792410133,-15258666.042073395,-13222601.206303423,150233.1288070331,-28067594.738599554,-15239727.804448305,-518147129.88230515,-153710553.03728664],[-20857864.446154896,-3900081.679311303,-11814081.018446451,10491.58980387158,-36653960.18086011,-2150786.89953913,-3313424.184459251,-2871291.5164644085,32622.194148423896,-6094885.907535461,-3309311.9659556486,-112515784.5256891,-33378285.514184993],[-96533125.5955597,-18050128.7668708,-54677225.15274284,48557.319700488486,-169639654.8694302,-9954146.713748442,-15334989.461953107,-13288738.580699274,150985.779172081,-28207985.396457728,-15315953.851128012,-520738840.84182584,-154479394.90243265],[-106919183.19008496,-19992154.24802018,-60559982.49921439,53782.405809306096,-187891287.4642872,-11025118.783525346,-16984889.96418231,-14718482.45963208,167230.332131035,-31242899.504721694,-16963806.492778547,-576765452.3426803,-171099928.4276194],[-4221381.189399306,-789331.4976511097,-2391029.807636383,2116.6626454008197,-7418316.059993265,-435296.35175451793,-670603.487924898,-581117.3535798717,6600.686944952234,-1233538.9105009064,-669764.9330149735,-22771846.92548461,-6755367.193141167],[-22692053.2366776,-4243045.708689861,-12852984.22419836,11413.373767886898,-39877209.14237895,-2339922.98662489,-3604797.8597175684,-3123786.866505054,35492.95734294035,-6630856.120689813,-3600321.8103859317,-122410144.85052788,-36313492.11385845],[-80647229.34276268,-15079724.11984355,-45679313.11975044,40567.67053756534,-141723040.1217911,-8316050.48821416,-12811399.201634388,-11101887.73427237,126138.7481632087,-23565961.358940735,-12795496.460727444,-435043874.3044351,-129057617.9907443]],"rows":13,"cols":13},{"data":[[-980987.6851217261,-8379711.82499139,40.14705051542886,-1081884.5125459614,-13732402.142764876,-3907506.687236286,-2241732.532980379,-901487.4411508178,-848841.291396893,-6162705.402365575,-1032429.5236273042,184.06199758000142,-249448.66558520676],[-114717.72521935106,-979916.0777826209,4.626364695329484,-126518.430006139,-1605844.3664667835,-456945.7911452229,-262146.49516329885,-105416.70261307988,-99262.27448152716,-720651.5131670146,-120726.51328146025,20.22482846750431,-29168.04220520158],[-365878.5362305777,-3125321.1182519165,16.821691315493073,-403511.06343408953,-5121642.424265801,-1457368.8908086063,-836082.8553688435,-336214.804577166,-316581.2960494923,-2298425.585866607,-385041.8316817947,62.62046207043275,-93026.52196069763],[0.5803568570420053,0.2843584610474647,0.8139350516722463,-0.035321287528650915,-0.9552588859671368,0.019749914484593133,0.5999334486932942,0.9551363055175138,0.5285804724348498,-0.21426444704087136,0.7714644224282207,0.5644858938613206,-0.22811798622679627],[-2115154.29881559,-18067980.471569467,83.91594021876588,-2332695.8393437644,-29609297.255207885,-8425174.014051659,-4833531.055069115,-1943763.2316980923,-1830248.2536655571,-13287833.352604805,-2226112.078062848,404.7153439484444,-537870.2978972887],[-73153.46583189875,-624872.726549055,4.236671991202528,-80677.38527502015,-1024015.1297541233,-291382.90348227584,-167164.2201257026,-67221.91868889809,-63297.33600127916,-459545.23010586115,-76984.74101524462,12.67864585155736,-18599.839842336318],[-114212.64210273077,-975584.7542598989,4.50581699275769,-125958.88020651111,-1598750.558589351,-454925.5504352934,-260987.26638861594,-104952.03129479392,-98825.75549640732,-717469.6555996945,-120195.50539302875,18.0619392340614,-29040.119139188777],[-95079.26713775165,-812153.7569476122,3.403963037563973,-104857.57145748135,-1330921.896862666,-378714.66024785506,-217266.7889460192,-87370.63408332386,-82268.48046545843,-597276.1154439385,-100059.94487569199,16.275974518783823,-24175.21418081781],[-0.1452007151216161,-0.12235425382555477,0.07761509767049439,0.6331789964750553,-1.0182172949988284,-0.9607308351442573,-0.6846736730571547,0.9258033956354235,-0.7699108769492989,-0.7043475092457718,-0.16243340123627328,-0.8079935462801328,0.5973176143387924],[-200928.573807774,-1716316.247854293,9.689466216171079,-221593.58582740466,-2812625.7543042856,-800333.6386335493,-459147.39335350005,-184638.40182950484,-173856.7233469858,-1262218.2760294843,-211452.76217915607,35.0101095066387,-51088.12862223533],[-218539.27596704676,-1866803.5939746944,7.950822685746725,-241015.02811576155,-3059267.356834613,-870496.7648894408,-499405.4514299713,-200832.03334185612,-189103.32224139042,-1372915.856779123,-230006.40945544394,42.838987923220735,-55574.0249555483],[-4676534.827295873,-39947332.32619826,201.42989255351424,-5157535.521154346,-65464307.24822356,-18627710.999916513,-10686678.195836056,-4297503.817139754,-4046540.826593797,-29378432.539258827,-4921691.748882184,855.0153585123303,-1189134.8611047256],[-1264216.4773111343,-10798995.07186824,56.496296805087425,-1394247.0596749492,-17696996.23997477,-5035654.984161241,-2888939.4802389047,-1161744.1543651647,-1093900.9332186172,-7941872.824959725,-1330473.4750164982,227.5918542510779,-321453.84108863224]],"rows":13,"cols":13},{"data":[[-724.4234451544528,1429.615626375521,-99.71690082861966,-236.1453448558642,-545.2446882490901,-1217.943553679578,844.289601060613,220.34293060657697,86.75013174250559,1493.43129361615,-1105.727981827584,893.8966965645847,-2162.6550262561814],[-849.8442324474195,6661.224759628304,-847.6387278973675,-1846.6085715912388,-2869.7919651635157,-5633.6024251244535,3555.4269198252528,-2811.468209425696,2560.136352071308,6550.53491477012,-4467.808967839045,3310.6768980311135,-8829.469952510924],[123.82533715193067,24.003774735856528,-25.72863033192481,-46.09823115783924,-30.50671217278846,-22.91904002788497,0.22003318248279202,-207.36826967910696,124.19948573663058,8.884714051805378,11.445518763622795,-24.286774153478973,24.590829350688157],[-792.0354913657266,1570.4145487060637,-109.3831343085292,-266.60653318727594,-599.8219088101943,-1342.029864294287,928.9506613592092,243.70724831835514,93.72642090220936,1647.3368369697675,-1220.3796432279694,994.480595775896,-2380.543821150392],[854.0711130800555,11467.374789996453,-1792.7532960941498,-3873.7430996771977,-5227.424628240652,-9667.46438333203,5760.657321883247,-8353.330222100076,6355.504156387801,10907.333002529958,-7066.681496947982,4925.254375029279,-14055.586833740734],[-1326.379599581781,2877.7333584451653,-216.63256869366913,-515.5181091708572,-1112.5159630683156,-2448.2262103866283,1674.9680931789578,249.52969330346042,278.63509709276394,2983.8772826113363,-2188.2504770147666,1753.7794002949604,-4285.6784535233755],[-239.83784610670955,1777.386121909713,-223.05402234674807,-489.35166097547983,-763.9513892414832,-1505.0046525631863,950.398854706198,-731.1656415869439,672.6699848641096,1750.6946094086868,-1197.9275409655136,888.8550144930987,-2363.938203711985],[343.9040593227052,806.4848593918305,-184.39709355759894,-357.9026024715724,-416.5593034440961,-682.517157540182,384.98189531838534,-1031.7916731876246,717.5044695545193,736.9771296275087,-437.22660579320944,272.0924595290745,-866.0013758403464],[217.16923473133738,747.4695207827224,-146.74961861493648,-297.0318077289747,-365.0644307451365,-628.3432912325088,356.35191741548937,-798.2319836455775,563.1668989214035,684.8148138291541,-420.0064490353245,265.28315206250744,-838.3776268148766],[1591.111388848169,5440.271440198847,-1024.6374293990557,-2193.1835669023276,-2630.314762344394,-4570.92091025921,2552.5247171469528,-5766.5957991098,4022.668108086886,4986.342399663407,-3034.3800289756787,1940.318508103835,-6084.5649432236005],[959.1820355133607,1077.4325419241177,-305.9231787261412,-623.5135890543485,-607.5558097698254,-898.7038575546603,414.16922856929017,-2131.347243539332,1357.9721674877019,885.8629990962665,-432.41802241957436,167.89131284279335,-891.588019842096],[0.4446424484620477,-0.8249109419502422,0.8749817675594819,0.9132900029461607,-0.6524878506837092,0.6279209572465734,-0.08882433757993788,-0.1774926332104422,-0.14846616369924043,-0.42324825942551036,0.6204304745468026,-0.004168094442383469,-0.17098190332189162],[569.7820348235696,337.95502147183765,-126.89741039216268,-285.2255393404241,-218.28186598857354,-282.07474169626914,85.13410085668636,-1066.4416420700848,636.9725206499264,242.5112380718121,-66.23055061284738,-25.42834612946968,-152.31880589865852]],"rows":13,"cols":13}],"biases":[{"data":[[-105830772422.86807,-0.14826316068749493,-18794211.364716984,-106490215325.56589,-8497891335.909066,-1.417419309197514,-27932450302.04539,-6065538924.034141,-28072165091.350548,-31092466533.14579,-1227592352.904896,-6598927297.145146,-23452491893.204502]],"rows":1,"cols":13},{"data":[[-13687.398798715394,-2560.327834802965,-7754.179841888023,4.2211479031406425,-24050.72667501897,-1413.6915179811447,-2177.3092566619116,-1885.0029263414885,20.34896044927987,-4002.831065969138,-2171.6305491877056,-73845.61421023302,-21907.93201549138]],"rows":1,"cols":13},{"data":[[-3.820087275972406,-21.48134373803292,-0.3434761311052965,-3.5652564437661076,-34.02048801657436,-10.952390080087001,-4.802615145965258,-2.799906595243075,-4.030930374858412,-14.280363014433282,-2.6402666726110637,-0.19606085029776193,-0.8651864805959104]],"rows":1,"cols":13},{"data":[[-0.219429136187996,-0.18661488465863044,-0.6931027877544288,0.35101246788436463,1.0904073913634937,0.5289400599792238,-0.8552655134915098,0.34559117687463986,0.027441431952284028,0.6158562326018493,-0.28294088373752685,-0.07638458536529978,-0.37783469151542104]],"rows":1,"cols":13}],"weight_deltas":[{"data":[[0,0,0,0,0,0,0,0,0,0,0,0,0],[0,0,0,0,0,0,0,0,0,0,0,0,0],[0,0,0,0,0,0,0,0,0,0,0,0,0],[0,0,0,0,0,0,0,0,0,0,0,0,0],[0,0,0,0,0,0,0,0,0,0,0,0,0],[0,0,0,0,0,0,0,0,0,0,0,0,0],[0,0,0,0,0,0,0,0,0,0,0,0,0],[0,0,0,0,0,0,0,0,0,0,0,0,0],[0,0,0,0,0,0,0,0,0,0,0,0,0],[0,0,0,0,0,0,0,0,0,0,0,0,0],[0,0,0,0,0,0,0,0,0,0,0,0,0],[0,0,0,0,0,0,0,0,0,0,0,0,0],[0,0,0,0,0,0,0,0,0,0,0,0,0]],"rows":13,"cols":13},{"data":[[0,0,0,0,0,0,0,0,0,0,0,0,0],[0,0,0,0,0,0,0,0,0,0,0,0,0],[0,0,0,0,0,0,0,0,0,0,0,0,0],[0,0,0,0,0,0,0,0,0,0,0,0,0],[0,0,0,0,0,0,0,0,0,0,0,0,0],[0,0,0,0,0,0,0,0,0,0,0,0,0],[0,0,0,0,0,0,0,0,0,0,0,0,0],[0,0,0,0,0,0,0,0,0,0,0,0,0],[0,0,0,0,0,0,0,0,0,0,0,0,0],[0,0,0,0,0,0,0,0,0,0,0,0,0],[0,0,0,0,0,0,0,0,0,0,0,0,0],[0,0,0,0,0,0,0,0,0,0,0,0,0],[0,0,0,0,0,0,0,0,0,0,0,0,0]],"rows":13,"cols":13},{"data":[[0,0,0,0,0,0,0,0,0,0,0,0,0],[0,0,0,0,0,0,0,0,0,0,0,0,0],[0,0,0,0,0,0,0,0,0,0,0,0,0],[0,0,0,0,0,0,0,0,0,0,0,0,0],[0,0,0,0,0,0,0,0,0,0,0,0,0],[0,0,0,0,0,0,0,0,0,0,0,0,0],[0,0,0,0,0,0,0,0,0,0,0,0,0],[0,0,0,0,0,0,0,0,0,0,0,0,0],[0,0,0,0,0,0,0,0,0,0,0,0,0],[0,0,0,0,0,0,0,0,0,0,0,0,0],[0,0,0,0,0,0,0,0,0,0,0,0,0],[0,0,0,0,0,0,0,0,0,0,0,0,0],[0,0,0,0,0,0,0,0,0,0,0,0,0]],"rows":13,"cols":13},{"data":[[0,0,0,0,0,0,0,0,0,0,0,0,0],[0,0,0,0,0,0,0,0,0,0,0,0,0],[0,0,0,0,0,0,0,0,0,0,0,0,0],[0,0,0,0,0,0,0,0,0,0,0,0,0],[0,0,0,0,0,0,0,0,0,0,0,0,0],[0,0,0,0,0,0,0,0,0,0,0,0,0],[0,0,0,0,0,0,0,0,0,0,0,0,0],[0,0,0,0,0,0,0,0,0,0,0,0,0],[0,0,0,0,0,0,0,0,0,0,0,0,0],[0,0,0,0,0,0,0,0,0,0,0,0,0],[0,0,0,0,0,0,0,0,0,0,0,0,0],[0,0,0,0,0,0,0,0,0,0,0,0,0],[0,0,0,0,0,0,0,0,0,0,0,0,0]],"rows":13,"cols":13}],"bias_deltas":[{"data":[[0,0,0,0,0,0,0,0,0,0,0,0,0]],"rows":1,"cols":13},{"data":[[0,0,0,0,0,0,0,0,0,0,0,0,0]],"rows":1,"cols":13},{"data":[[0,0,0,0,0,0,0,0,0,0,0,0,0]],"rows":1,"cols":13},{"data":[[0,0,0,0,0,0,0,0,0,0,0,0,0]],"rows":1,"cols":13}],"process":[{"data":[[22.884029584964512,11.679991667857557,9.373828836475145,17.614911236238836,12.510711402062375,4.125497698499542,16.192205318222072,13.851921429025882,7.00018181882585,22.51025009305501,9.807644254482714,18.58627302771295,25.576846321335484]],"rows":1,"cols":13},{"data":[[0,-1.680746117981031e-42,0,0,0,-3.4936828736710556e-15,0,0,0,0,0,0,0]],"rows":1,"cols":13},{"data":[[0,0,0,4.160070653410325,0,0,0,0,20.34896041653373,0,0,0,0]],"rows":1,"cols":13},{"data":[[-0.054992514995474515,-2.8903008774145167e-9,4.576929269810011,9.17140191328809,-1.8601747771713294e-24,-1.8701817908552617e-12,-0.0000014386447854487462,20.012669972516086,-4.3988846522263795e-7,-4.531818173515489e-12,-0.1665479660223732,-0.000008894674968794127,10.340285884594275]],"rows":1,"cols":13},{"data":[[5956.680436259831,33888.98157820924,0,0,0,0,16989.348121808067,0,22142.801108703603,32176.515323904183,0,14114.78527786302,0]],"rows":1,"cols":13}]}}