{"discriminator":{"type":"Fully_Connected_Network","activation_function_name":"tanh","learning_rate":0.5,"length":4,"width":7,"weights":[{"data":[[0.8681127859405438,-0.7175004882967246,-0.8549659609316747,-0.9001963849714065,-0.8630870725481139,0.5275728393155332,-0.08955034005280815],[-0.2948672945510866,-0.6404376022459264,-0.9175025236015553,-0.7365112256249988,0.752484749435907,0.6733544095020743,0.02256434085725534],[-0.4835734155150373,-0.033947531720111446,0.2006146014336827,-0.45440586669314564,0.19761497265663275,0.9679384599165228,-0.5462884076511743],[-0.10292179589570472,0.04119820662006912,0.05211173113431666,0.5439612328151373,-0.25137898619168375,-0.3850956365669278,0.17465270239680164],[0.7249715366837246,0.6935407094026593,0.8755574115655085,0.8066684748894062,-0.0668748913957824,-0.5766356829525412,0.25300094590825317],[0.14056182623331637,-0.708840589173334,0.6172753532733068,-0.9567341955277007,0.07170588118093102,0.965778938709061,0.7892385942066102],[-0.3073508085660106,0.7419751615531656,0.9977179708832242,-0.1705991519632417,0.6317232300096154,0.3272741018509384,-0.15276811524216516],[-0.8112821898484501,0.6969339078091945,0.8468687957668521,0.9909548270682365,0.36525720026520236,0.626476884031629,-0.7486931394297538],[-0.5778153482209207,-0.9132406439382228,0.614395130151633,0.9713907781132782,-0.41376936996146974,0.24429253498856562,0.6608192928567949],[-0.4306962461574879,-0.5942397865984872,0.9734214615607435,0.5988400017970124,0.3001289975255421,0.5862731698440187,0.8979231413079125],[-0.2289423091869689,0.6090937533140419,0.41238477411976726,0.019527669297812356,-0.9189795880516165,-0.18392351238997628,0.4443592678695012],[-0.08408149549615951,-0.4589685121429583,0.7130198285175258,0.9491592417288817,0.5409130817516532,0.8854705813197445,0.06979292307132035],[0.07372163314144542,-0.45530455910976375,0.818134341796044,-0.8258104964199187,0.5668926746474221,-0.7395350937053751,0.8102860585135176]],"rows":13,"cols":7},{"data":[[0.12476889830876425,-0.4237824907283092,-0.026513641109832342,-0.10541837675575749,-0.29759422694410986,0.4473034312573052,0.17051373932291503],[-0.6013817492943816,0.38961579560494775,0.6696201185018249,0.8100215231753722,-0.4112581077382571,-0.08374003158868737,0.04587524738154691],[-0.6230099789447485,-0.3736019379444149,0.6622015728491846,0.6569598475245222,0.3783740259051589,0.016588872420615797,0.7423178003056008],[-0.07465501556620202,0.26428604929796373,-0.15874916683280915,-0.7600727483524867,-0.4121646302301354,-0.13040203343175794,-0.8608631587125863],[0.5080839987244037,0.813133769506595,-0.12766497702760393,0.9157291525433471,0.8580864586828616,-0.17615665349551612,0.4819429452417152],[0.7748094125977714,0.0076765701200942615,0.9265524347357994,-0.4175130753570233,0.668057778461383,0.4155984318281196,-0.022637339619126617],[-0.5726089490464177,0.0008682717555292818,0.5902930471572727,-0.13185473852517982,-0.19303136704832902,-0.24507012129352068,0.3706375738628922]],"rows":7,"cols":7},{"data":[[0.7545846791020248,-0.5346674651513363,-0.017263733970595663,-0.32056330081237583,0.8356758968838758,-0.6873723082068652,-0.5629432303745405],[0.884993298627434,-0.2604785932970177,0.9382770880728177,-0.10064915784307527,-0.6926391904006586,-0.9481364908527827,0.5058211994264745],[-0.015128679522928845,0.5712276619865273,-0.911540094416476,0.23096832621155317,0.4152906275505295,0.6159736871497508,-0.8657401996921612],[-0.27713143504729665,-0.5365146482553773,-0.46912070722327925,0.6463236008790103,0.13481473925897847,-0.20729037509402204,0.48434335904521],[-0.4181979718218036,-0.47956640542768936,0.9294230920013122,-0.8204174911731763,-0.23645865760017104,0.23262117291429485,0.7029030672492027],[-0.27548199080515356,0.7325603507774163,-0.15654494374897876,-0.8191955973520915,-0.4302029123139368,-0.904524009721563,-0.24501773299944452],[-0.9628015976884341,0.8406313806493371,0.7267904750630438,-0.750511607673384,-0.7043178312567799,-0.38308967207145805,0.0826089100332208]],"rows":7,"cols":7},{"data":[[0.5930906825163045],[-0.7836392438144459],[-0.5477555005614176],[-0.4294592334554794],[0.31352134865688885],[-0.9666500339419306],[-0.9858694843318139]],"rows":7,"cols":1}],"biases":[{"data":[[0.9284008846127154,0.2781527313541887,0.7717189113930201,0.8114620805752186,-0.23205819044332054,0.8208378372051404,0.7071235942189436]],"rows":1,"cols":7},{"data":[[-0.576271778044064,-0.7775098036819514,0.7085852482879349,-0.7611909281939115,0.2933958486473287,0.7853721078571767,-0.057232803059993564]],"rows":1,"cols":7},{"data":[[-0.4138012980805268,0.7454340746057855,0.24208546673638676,0.3094293829546335,0.9774529379609587,0.8479682710470842,-0.41499343937035427]],"rows":1,"cols":7},{"data":[[0.48387855292997184]],"rows":1,"cols":1}]},"generator":{"type":"Fully_Connected_Network","activation_function_name":"softplus","learning_rate":0.5,"length":3,"width":13,"weights":[{"data":[[-0.6250254426932154,-0.5885960106456318,-0.6487512070362191,0.6242179495567535,-0.5320597058493806,0.5957737492899806,-0.8809282848564832,-0.14294917993408696,0.33446211391851044,0.30179104382485766,0.021743668850040088,0.08214704591478839,-0.9865837004178912],[-0.9120312924837632,-0.2100733668431376,0.05184982064354271,-0.2304326284281908,-0.27095276727337625,0.23594442185718068,0.03973013764890476,-0.036618858144454425,0.2737205897457753,0.8914287483910095,0.0738908875736386,0.06520198585217774,0.20548191236212876],[0.7711548662065311,0.10208295836209613,0.032505970030543896,0.2817990008400648,-0.31869042752833376,-0.7486431926362793,-0.4766934138342527,0.8680199513208611,0.7176583914428947,-0.14627448329146286,0.8339851762667605,-0.8787735625992799,-0.11093531126627276],[-0.420320938827595,0.0026473362543391055,0.686062602052746,0.5078202695811393,-0.5167822436970924,0.7307782483405751,-0.010629505894240943,-0.017778189326388638,0.9314403423474995,-0.6784544851098473,0.0928672160460593,-0.8538239742674452,0.051183014975568764],[0.21690846977863698,0.763295886096349,-0.906929863989717,-0.12355861583871786,-0.381346653249377,-0.3526324203563136,-0.9921009271124546,-0.6522012955005332,0.305632720325137,0.004066000805921899,0.5678315006276362,0.7786952662568569,0.9783684818312763],[0.7611634731098098,0.006458666660555945,0.9272936797344906,-0.4361042396061041,0.1392786943453972,-0.573262468557358,-0.7060416909642817,0.7188722633116074,0.9160144446501359,-0.010459579925260254,0.49746017551738975,0.2076702970701496,-0.41026295882823094],[-0.940510311668687,0.16931744786343028,0.2545359606356392,-0.640494321251917,0.129970578659782,0.17678741367875483,-0.5144552661647706,-0.4600398711788545,-0.45472782949044666,-0.6704825954668148,-0.3237566413234614,-0.2181935080424422,-0.9569611036011243],[0.4671754486486055,0.8203476288447642,-0.1355313692056339,-0.17182089607273454,-0.3791359474949636,-0.18634987610920506,-0.36956370627775215,0.09330575484955439,-0.3364919277995133,0.49751314585695816,0.9711384987946086,-0.5294178725564529,-0.7819941382997326],[0.24923747054898815,0.20699122407832027,0.08272255869483613,-0.2479347133350478,-0.4370711717221556,-0.7679423783205555,-0.5724145444067803,0.5796811294199937,-0.585553935244933,-0.2286039315984998,-0.3534817644950099,0.7128162190840723,0.38688068881164916],[0.9926797353285504,0.7467740932589071,-0.20707004706217536,-0.8536136966853638,0.179481000855787,0.8887601993313363,0.39975615224411065,0.6985661047635454,-0.39126297117573827,0.07217576889071697,0.9521215530454903,0.9583629465543466,0.3067802527809764],[-0.7354344164984004,-0.930993424449555,-0.25557936145461424,0.035208421866734785,-0.5398593235983173,-0.3390975194179968,0.3099455328844649,-0.8459811503903127,0.11237221441394007,0.6025281704905843,-0.4759395118677312,-0.5123348977639521,0.3555385628635923],[-0.9710897054952423,-0.5658093452120077,-0.46483839989768816,0.8117414908074263,-0.4280853473350197,-0.5396963169615865,-0.17447516838113364,0.5252429400387584,0.6913386461545845,-0.6080305190593833,0.8167815235137761,0.7908616658345871,-0.0021778474979829987],[-0.1242606839145699,-0.0743223485914366,0.08205665358566794,0.9683433782375324,-0.7864990457308503,-0.4323287829454072,0.31983351245765723,0.7036235875315358,0.6511966304180348,-0.7313446596618869,0.8541765477746952,-0.2744589858629509,-0.5174821500829294]],"rows":13,"cols":13},{"data":[[0.7807653058369821,-0.7438205308547006,-0.6583864907588657,0.4424509292648242,0.3588958372557074,0.47369948955137575,0.7857539558390023,-0.5005361066433762,0.6745290878877559,0.2118650550492993,0.30466483134653766,-0.8995565909629089,-0.6367999274767775],[-0.8440231817617372,0.3242730088950694,0.9951520609600211,0.8847474231140442,-0.06496418086675071,-0.8876918471051742,-0.9983407315112354,0.28534642869089444,-0.7197259596425334,0.230729128172098,0.2632081805208495,0.7813996898357733,0.7316111550367785],[0.8679804417495203,0.29210748511574725,0.36281988401231535,-0.4575466378728401,0.5802038026580267,-0.367715627166195,-0.07254864637668312,-0.9695522433697037,0.9093164216876377,-0.8305750170911574,0.955178763284267,0.8963349138778938,-0.7286753260902104],[-0.23576457628313108,0.1645714849882891,-0.7903545069601519,-0.11345982668208299,-0.9674786482716913,0.5600461242579642,-0.04226500441539516,-0.42391348953984975,-0.6717719797406239,0.1557690951099162,-0.07577137673026524,-0.2028392518839479,-0.1078535593494454],[0.7388491133827744,-0.21403317877558514,0.40053749950529083,0.3184668828766055,-0.3688054276010231,-0.48169118690220536,-0.8477554303762536,-0.6663960259445352,0.9024412131853627,0.07545359488226744,-0.6608216005796432,0.6548274616487721,-0.12595496386494176],[0.4547274168764339,0.31000982455672954,0.1981455132126797,-0.031452353068939676,-0.9991245542429819,0.8805486069181492,0.02384506505172146,0.114474770728207,0.8589071932762544,0.26988929683367013,0.7162136033578714,0.6156031414118583,-0.31043498484600685],[-0.015707035131591773,-0.7745265426250403,0.5753618856119029,-0.5550699405931647,-0.10522496344664267,0.002596089739177021,0.8939275748514013,0.687207376407883,-0.519723153775125,0.9068179415670277,-0.9583817010536522,0.16505942156780096,-0.059208415359441435],[-0.46439703388880194,-0.41523254826896006,-0.20337833871328836,-0.2624083894500684,0.04813521887812389,-0.41836081240252954,0.07359534985734095,0.5500516942149152,-0.5146571536457172,0.023285503080247683,0.13875011834346784,-0.038997553071599356,-0.2291949909068638],[-0.193271518766978,-0.6307437022602853,0.15767618658613136,0.5784154994349904,0.23149532408098095,-0.4869835171756063,-0.7942488730285762,0.7833325264240774,-0.5230820746149583,-0.6877777588340215,0.4130069446987976,-0.43350652264373,0.0752593185673649],[-0.7263620177756969,-0.7138761149420616,-0.24356139923606213,-0.32163279973084613,-0.19811932683529943,-0.5464389226439144,0.3179516681439196,-0.08029177131403387,0.18185765510563323,0.09770212927132382,0.3165511370250287,-0.2849384550861571,0.5657771186980436],[-0.7359085808213002,0.7920031666543226,-0.5467131150333429,0.3681403253950566,0.019645236059710136,-0.4054440543732927,-0.27852116268751725,-0.095338728711865,-0.7787212843529643,0.7400724153400522,-0.8212526254019692,-0.8462469913437003,-0.38976280826548537],[-0.22109526581554118,-0.5592071807310783,0.1534213502732502,-0.9406815354040656,0.9163847877375995,0.7251604032128478,-0.20171634881928968,-0.38700319403565286,-0.5296351719426386,0.6134859889454498,0.49334890914964014,-0.6806289318423402,0.24294973246142337],[0.14729241015443773,-0.32658258458815004,-0.748540188392222,0.39077896261164735,0.5821381440949804,0.6877876823413378,-0.9929919071173483,-0.616331121008745,0.0696365172640645,-0.12925151874825058,-0.9449732596182119,-0.318396032550337,-0.6263161898781493]],"rows":13,"cols":13},{"data":[[0.3324249565241879,-0.03207191733838233,-0.7627363659295154,0.6701108668847464,-0.07329637089136343,-0.9794755857698916,-0.2849187406491116,-0.23099106989119056,-0.9117786412684747,0.07638070069821268,-0.08019662723976984,0.7611844810482209,0.1931324120768294],[-0.9750315173140995,-0.3638781961964499,0.6567813216792411,-0.748049820530515,0.16313847974851958,0.8690551183070658,-0.8769527784435627,0.15828834916298407,0.28937083346181103,-0.7909211706871662,-0.5737682494523306,-0.5323257226807918,-0.4676770479957635],[-0.7537070806381285,-0.25329422560188375,-0.9853591306112959,0.28040599607524985,-0.49323251573503724,0.017044396224796365,-0.22992619836115447,0.9670939701265118,-0.4454243484492175,0.8423260067534337,-0.5532508902168933,0.1621652303728136,0.8224116011200802],[0.9167524658733996,0.8148445974227378,0.9850930897646255,0.03064527149922558,-0.3737773468473278,-0.07759054951808109,0.752949660968278,0.6560202292497377,-0.4084464384914095,-0.4459390950677582,0.6489221736431756,0.7140887514819716,0.7450503923079244],[-0.7027275243616296,0.3367584518067006,0.27347378254703036,-0.6855003532461326,0.33031991219877366,-0.9957400536596288,-0.9729472010136329,-0.9647407461943427,0.953912017797355,0.053224914047922844,0.25209590471526067,0.6348876877139524,-0.3996211906256151],[0.4739299129695813,-0.5365322128560064,0.4607737632530351,-0.9990171179806842,-0.41113997854321926,0.04755587634867897,-0.3766697621881012,0.10387188622847399,-0.5972623964248238,0.4534573599737546,-0.8887089418983858,-0.47667408848018145,0.8526430726830827],[0.884461962064981,-0.5208732772101108,0.7256682072797802,-0.6590724493534155,0.6721997571146168,-0.10044370726268204,-0.18622188546671792,0.5822813078028264,-0.9790769516981457,-0.010019370753502788,0.2812666521440623,-0.4285408076144317,0.3350680542896014],[0.6855695732187717,0.10013483645965415,0.7521173314481375,0.23853372233914172,0.15966127313316747,0.3906440072718178,0.899496515565148,0.14074416750343932,0.44210501920135004,0.16085022502980495,-0.49497117414821634,-0.7668989208600832,-0.651144636947989],[0.14522472387640306,0.352885502488657,-0.4752675326614848,-0.2364472004215541,-0.8249053461480735,-0.9836033677678069,0.5076839519135072,0.13542087722306384,-0.3524062602854774,0.5529260686272917,0.6270011108273739,0.24482334574552844,-0.15507027209511026],[0.17243704701428753,0.5474005305642291,-0.5343057107215214,-0.06367956630217808,-0.3250636810882699,0.917582710092578,0.09878639848580573,0.2870888387887831,0.4730676604347779,-0.06470002278438658,0.7724283131686907,-0.4560463868218445,0.19235116231740967],[-0.6618540375838999,-0.37007382189185467,0.8197647510352071,-0.8745084625001929,-0.2836669354632124,-0.8575944066008763,0.5237954952791899,0.00009520463421575087,-0.9797748908232427,-0.9946666935170412,-0.15842904755518417,-0.5522103967692624,-0.8275954395290581],[-0.004748031365861216,0.47561832291847717,-0.018307270318024482,0.8592138706728205,0.493633552911112,-0.6428438430785701,-0.43363932249894344,0.8319052603988926,0.4115550729069599,-0.9295426981312738,-0.4164974772392651,0.5387369461895943,-0.2953932690810128],[-0.947375393960316,0.7989851783854882,-0.7591543214613528,-0.8320775200294706,0.5123095011554479,0.9681210955829771,-0.8506793590319917,0.6006887295106682,-0.4395004284971993,-0.4130445118200434,0.4248046230088902,0.29932769684280647,-0.7924561401618182]],"rows":13,"cols":13}],"biases":[{"data":[[-0.6195189082377075,0.5888966708377077,-0.743918214850602,0.2176014040509222,0.9312804454583894,0.5762633431464717,-0.16447560114960158,-0.4033186591083546,0.4627021827463276,0.7393770608843679,-0.048831198226485295,-0.9256976408691937,0.34080192039992285]],"rows":1,"cols":13},{"data":[[0.35487075664527357,0.19722202003473033,-0.7998358776818892,0.08310008981490791,0.04011752281496461,-0.8892748340233845,0.6188905874483783,0.8286188049669132,0.4424881017930784,0.33023499787066024,0.7258777153323028,-0.1610369404672385,-0.37469675437342165]],"rows":1,"cols":13},{"data":[[-0.7946383814094795,0.3153021598847383,-0.10102134848610689,-0.48702201723325533,-0.2654863775372416,-0.8334979909624534,0.9488648644154414,-0.17525588938283443,-0.5977304842361768,0.054227318717956496,0.7635138819166896,0.40277500894505813,-0.09168883555934615]],"rows":1,"cols":13}]}}