{"type":"Generative_Adverserial_Network","activation_function_name":"identity","activation_function":{},"learning_rate":1,"discriminator":{"type":"Fully_Connected_Network","activation_function_name":"tanh","activation_function":{},"learning_rate":0.5,"length":4,"width":7,"weights":[{"data":[[0.5221444208307167,-0.5522608748783832,-0.7183066642069196,0.6266119001654644,-0.16192509719346407,-0.6998316895359267,-0.14384552962732905],[2.5553415326135216,2.629713967718461,-0.6761027138589228,4948.276498030586,0.8068171738370378,-0.8676968016070561,17.43282938351596],[1.5227083409326858,1.1243668727719027,-0.6192798331968326,4355.78941278056,0.43524343832625695,0.4655488998983032,11.860401039447098],[0.11517402990459681,-0.3611517876886403,-0.3294399085223907,1649.174010959347,0.32838563045743463,0.44037488054283275,0.5881153775357391],[1.73727922272293,0.5799291115509744,-0.8565790672592983,2477.7167882417293,0.8423276564525489,-0.8661356791743516,19.759801288298945],[-0.5970437502112416,0.2346826980439846,-0.9210987189840396,506.27021087434053,-0.005066391466168474,0.8255596130587433,-0.9298246163749384],[1.5039583576139186,-0.4333528839746973,0.5985639256294797,882.3542912495974,-0.06923678000694716,0.6183288159756135,20.876975905718805],[0.6733657831484714,1.0207482065881173,0.06713797680030399,0.7774428268505978,-0.5476269308404027,0.3571261071370381,21.891462471541573],[0.8656445648372326,-0.18691391602175658,0.9762663989689986,0.3817351201788397,-0.39853898330512777,0.4302992060069842,-0.39533073608789115],[2.750097020323013,2.249983555396752,-0.17474516123626943,2391.1887095359903,0.5173491959889888,-0.29224927192633443,28.22203214571332],[-0.8388279910483916,-0.21676313985827722,-0.6514855953774614,0.6533295172096502,-0.2948850044547709,0.8562176479748762,-0.6217776465321233],[0.7048222904638313,-0.25915206105545097,-0.863986513144189,1767.6982337585707,0.22500263190975803,-0.8649013428404319,-0.05828344229094982],[0.905452153469902,0.19439505895293335,0.2787696357402607,485.2313549720357,-0.19009439237582282,0.8669478188286028,0.512715951543186]],"rows":13,"cols":7},{"data":[[-10.462647311680087,1.2658447733338454,-0.9237166936363737,3.089285676110162,-9.314940326146724,2.8473215720600735,-11.29855658211412],[-8.721925463635653,2.6788000520508466,-0.23748455706986066,3.4985466481096696,-7.691698779851042,2.5742211050117576,-11.076231237689145],[8.696583747117767,-1.1666819472562002,1.103797982059467,-3.5949816643806822,7.949951544243882,-4.136513277705712,10.255897587513692],[-9.36939746516709,1.509112534033842,1.1086252270138675,3.9456680149252654,-9.185984821986214,1.8899577426080285,-10.042110662348438],[-8.575742546441825,1.6878604550553518,-1.1838660325680115,3.302899607579243,-7.408446406347945,2.8799971904684525,-9.512102615134122],[8.999505107407304,-1.789795343945194,-0.04572572275780797,-3.443022405500717,8.6707669447866,-2.695448126757786,9.9470970421004],[-8.99321205058513,2.3153570797097065,1.03715261679529,2.590243454276604,-8.98926766541009,2.545629507469943,-11.052027711045673]],"rows":7,"cols":7},{"data":[[-0.6569472371281325,0.768063108829471,-0.8435118448869509,-6.496252720211187,2.6515503903572055,-7.457228373953311,6.569499703797883],[0.839504492795286,-1.5485660412311792,0.00807192597244471,-8.25789989229554,1.7290344472548373,-7.330123748506136,5.448120432797529],[-0.22120435106813763,-0.05283770829775673,-0.36755471606561657,-7.891732584220037,1.8389912912763429,-9.261993084843215,6.623249839325142],[1.8167647691711524,-0.17195171092464792,-0.15728206709914497,-5.726553756642459,1.1669149101326597,-6.450088498657951,6.618874341100227],[-1.3348243043432766,1.7874652029279774,-0.3262971084720347,0.022990693241098814,-0.056041430313680723,1.701956937062068,-0.20433584153797557],[0.434372893655945,-1.318145733115757,0.5259936196796728,6.296069327375594,-2.1797409768771385,6.480285579284566,-3.996517607692778],[-1.5718770731483203,0.9688282351028396,-0.16258119523232856,-5.712270076235748,1.5953177887148295,-6.321209152635949,4.956852918047304]],"rows":7,"cols":7},{"data":[[-0.8283189542788727],[0.9818342348048597],[-8.795264711226586],[-24.919179936374626],[26.189633293526313],[-26.906182001369963],[27.61305383760223]],"rows":7,"cols":1}],"biases":[{"data":[[2.371508298312553,0.08481061494286853,0.03341960749000559,422.76184975516117,-0.2849891596407117,-1.3443057540658148,24.851751564123624]],"rows":1,"cols":7},{"data":[[-20.584996261076462,3.34983444784019,-7.398287245870746,7.573327297794458,-16.544799398349355,10.092399470187232,-20.681342737982064]],"rows":1,"cols":7},{"data":[[-1.0754959372067463,0.6252084668177453,4.905329323459834,20.79272977679146,-6.237479825248234,21.804419553639313,-17.917878789709448]],"rows":1,"cols":7},{"data":[[610.8323793626889]],"rows":1,"cols":1}],"weight_deltas":[{"data":[[0,0,0,0,0,0,0],[0,0,0,0,0,0,0],[0,0,0,0,0,0,0],[0,0,0,0,0,0,0],[0,0,0,0,0,0,0],[0,0,0,0,0,0,0],[0,0,0,0,0,0,0],[0,0,0,0,0,0,0],[0,0,0,0,0,0,0],[0,0,0,0,0,0,0],[0,0,0,0,0,0,0],[0,0,0,0,0,0,0],[0,0,0,0,0,0,0]],"rows":13,"cols":7},{"data":[[0,0,0,0,0,0,0],[0,0,0,0,0,0,0],[0,0,0,0,0,0,0],[0,0,0,0,0,0,0],[0,0,0,0,0,0,0],[0,0,0,0,0,0,0],[0,0,0,0,0,0,0]],"rows":7,"cols":7},{"data":[[0,0,0,0,0,0,0],[0,0,0,0,0,0,0],[0,0,0,0,0,0,0],[0,0,0,0,0,0,0],[0,0,0,0,0,0,0],[0,0,0,0,0,0,0],[0,0,0,0,0,0,0]],"rows":7,"cols":7},{"data":[[0],[0],[0],[0],[0],[0],[0]],"rows":7,"cols":1}],"bias_deltas":[{"data":[[0,0,0,0,0,0,0]],"rows":1,"cols":7},{"data":[[0,0,0,0,0,0,0]],"rows":1,"cols":7},{"data":[[0,0,0,0,0,0,0]],"rows":1,"cols":7},{"data":[[0]],"rows":1,"cols":1}],"process":[{"data":[[10,14,17,4,0,2,4,17,0,19,14,15,18]],"rows":1,"cols":13},{"data":[[1,1,-1,1,0.9999999999989992,0.9999999079209498,1]],"rows":1,"cols":7},{"data":[[-1,0.9999999999477115,-0.9999999494879349,1,-1,1,-1]],"rows":1,"cols":7},{"data":[[0.9999816679622352,-0.9999845330995487,0.9999982761820307,1,-0.9999999998146976,1,-1]],"rows":1,"cols":7},{"data":[[1]],"rows":1,"cols":1}]},"generator":{"type":"Fully_Connected_Network","activation_function_name":"swish","activation_function":{},"learning_rate":0.5,"length":4,"width":13,"weights":[{"data":[[-79619238378.14536,0.2662627484464022,-14139373.289449614,-80115354397.7551,-6393184329.690589,0.08813258047483064,-21014307731.940277,-4563262487.908249,-21119418793.605667,-23391670003.592136,-923549605.1285887,-4964544369.951414,-17643918680.60889],[-73601430390.61249,-0.87695622994583,-13070687.008310055,-74060048802.92685,-5909972527.891182,-0.011197651089793249,-19425997273.33635,-4218360370.4027357,-19523163797.140602,-21623672952.935085,-853745569.6645172,-4589312513.294727,-16310350099.293983],[-87375102935.0591,-1.0670927589073238,-15516716.23411967,-87919546581.67293,-7015956825.285369,-0.24370579187648786,-23061352236.64944,-5007778736.425684,-23176702374.242027,-25670297983.58055,-1013514364.2329882,-5448150274.113573,-19362647047.488594],[-76291144551.82437,-0.16592315229030186,-13548345.33520726,-76766522864.91481,-6125948451.538806,0.32513985252249117,-20135907118.481926,-4372517577.038796,-20236624526.160816,-22413895357.85047,-884945119.1876154,-4757025814.21621,-16906400738.573421],[-80258784522.97975,-1.1865974754910085,-14252948.247921668,-80758885622.27092,-6444537953.858434,-0.21554980638756133,-21183106374.570408,-4599917041.946473,-21289061748.756763,-23579564946.92144,-930968070.6353717,-5004422361.445696,-17785644479.92195],[-88251412182.72566,-0.9514901143281184,-15672338.652093165,-88801316204.79463,-7086321809.192811,-0.618851220289253,-23292640963.44473,-5058003131.755237,-23409147977.857536,-25927752552.282204,-1023679181.6900485,-5502791290.20967,-19556840428.56183],[-87465101397.016,0.3780524390531002,-15532698.62036755,-88010105832.28154,-7023183429.23193,-0.08114614859151155,-23085105985.95242,-5012936805.684146,-23200574934.89999,-25696739009.480377,-1014558308.5924845,-5453761999.2398615,-19382591040.385086],[-120596659015.46063,-0.4223452663868494,-21416447.06924025,-121348109742.4931,-9683547425.537077,-0.5306425988661262,-31829685331.74584,-6911824508.892088,-31988893625.261917,-35430598290.840805,-1398870412.1167383,-7519633153.960652,-26724667156.181667],[-23407400131.99214,-0.4807145491993262,-4156860.035176806,-23553254155.986874,-1879543521.924086,-0.0515218717444556,-6178033344.523008,-1341561608.1514127,-6208935130.986311,-6876958267.096598,-271515976.05498785,-1459535143.7664304,-5187166731.49449],[-134277161931.13304,-0.9797222265885214,-23845932.050779436,-135113857340.56178,-10782050481.410786,-0.42186459513834484,-35440449564.93292,-7695902917.572699,-35617718469.40781,-39449850624.70608,-1557558479.5804598,-8372661456.341141,-29756317368.88164],[-120755102590.88252,-0.4449849677428868,-21444584.14254418,-121507540596.17145,-9696269963.907642,-0.4000824553741331,-31871504143.811424,-6920905506.505514,-32030921611.181953,-35477148092.70215,-1400708289.4182594,-7529512676.697937,-26759778839.62799],[-140828895149.30252,-1.602674970083347,-25009435.96369707,-141706415111.4243,-11308134867.74226,-0.20021833902628292,-37169681603.02092,-8071406127.959839,-37355599923.70308,-41374711807.46413,-1633555822.6661627,-8781185463.38488,-31208205762.722004],[-129929059069.25114,-0.2153847545171493,-23073763.037577357,-130738660985.37247,-10432910958.794926,-0.3671746853740023,-34292832814.50979,-7446697639.142366,-34464361477.947,-38172403246.4895,-1507122319.3594234,-8101541687.578769,-28792761639.30224]],"rows":13,"cols":13},{"data":[[-363925448.1717734,-68048156.47684108,-206130629.28943524,183060.77049124046,-639533700.122017,-37526674.53385592,-57812202.87856308,-50097932.67986024,569206.9605365434,-106342809.61841534,-57740443.90157873,-1963161502.2731612,-582380219.4498152],[-0.8608582145133903,0.7602670689855044,0.911286151590602,-0.2961320519477898,0.10360316455426817,-0.05089514690429725,-0.9820696139529773,0.8635565438808093,-0.9304525043330636,0.36515429519501785,-0.19044319277383642,0.06438714485311464,0.1277032646878826],[-64629.418747985204,-12084.49851970189,-36606.42629242558,31.411946761748187,-113573.415401343,-6664.265287774615,-10266.276184135206,-8895.946035798117,101.07621266823931,-18885.467178261082,-10253.21958231919,-348632.449564278,-103423.40894092892],[-366193105.82952845,-68472172.36163926,-207415053.6398778,184198.50021802192,-643518691.929105,-37760509.90662558,-58172439.368457854,-50410099.67825202,572752.1353723641,-107005447.18951803,-58100229.745425545,-1975394175.6193726,-586009096.7084467],[-29222112.107706588,-5464062.697570296,-16551670.407793134,14696.466572370255,-51352613.83774952,-3013280.118035841,-4642148.192543317,-4022714.4922701335,45704.02322782485,-8539011.517569043,-4636382.515660036,-157635941.32332477,-46763375.61197123],[0.8059828750403443,0.15112729421657498,-0.6659301736955096,-1.8537392988501609,-0.3349654848952365,-0.41750677778048956,-1.1856615449852148,-1.120804962568662,0.1779238109251444,-2.2604156503710926,-0.8517604552892988,0.36959077949811364,-0.31749313992944933],[-96052682.16282402,-17960293.97989579,-54405098.80394562,48315.326134478,-168795361.64005223,-9904605.792410133,-15258666.042073395,-13222601.206303423,150233.1288070331,-28067594.738599554,-15239727.804448305,-518147129.88230515,-153710553.03728664],[-20857864.446154896,-3900081.679311303,-11814081.018446451,10491.58980387158,-36653960.18086011,-2150786.89953913,-3313424.184459251,-2871291.5164644085,32622.194148423896,-6094885.907535461,-3309311.9659556486,-112515784.5256891,-33378285.514184993],[-96533125.5955597,-18050128.7668708,-54677225.15274284,48557.319700488486,-169639654.8694302,-9954146.713748442,-15334989.461953107,-13288738.580699274,150985.779172081,-28207985.396457728,-15315953.851128012,-520738840.84182584,-154479394.90243265],[-106919183.19008496,-19992154.24802018,-60559982.49921439,53782.405809306096,-187891287.4642872,-11025118.783525346,-16984889.96418231,-14718482.45963208,167230.332131035,-31242899.504721694,-16963806.492778547,-576765452.3426803,-171099928.4276194],[-4221381.189399306,-789331.4976511097,-2391029.807636383,2116.6626454008197,-7418316.059993265,-435296.35175451793,-670603.487924898,-581117.3535798717,6600.686944952234,-1233538.9105009064,-669764.9330149735,-22771846.92548461,-6755367.193141167],[-22692053.2366776,-4243045.708689861,-12852984.22419836,11413.373767886898,-39877209.14237895,-2339922.98662489,-3604797.8597175684,-3123786.866505054,35492.95734294035,-6630856.120689813,-3600321.8103859317,-122410144.85052788,-36313492.11385845],[-80647229.34276268,-15079724.11984355,-45679313.11975044,40567.67053756534,-141723040.1217911,-8316050.48821416,-12811399.201634388,-11101887.73427237,126138.7481632087,-23565961.358940735,-12795496.460727444,-435043874.3044351,-129057617.9907443]],"rows":13,"cols":13},{"data":[[-980987.6851217261,-8379711.82499139,40.14705051542886,-1081884.5125459614,-13732402.142764876,-3907506.687236286,-2241732.532980379,-901487.4411508178,-848841.291396893,-6162705.402365575,-1032429.5236273042,184.06199758000142,-249448.66558520676],[-114717.72521935106,-979916.0777826209,4.626364695329484,-126518.430006139,-1605844.3664667835,-456945.7911452229,-262146.49516329885,-105416.70261307988,-99262.27448152716,-720651.5131670146,-120726.51328146025,20.22482846750431,-29168.04220520158],[-365878.5362305777,-3125321.1182519165,16.821691315493073,-403511.06343408953,-5121642.424265801,-1457368.8908086063,-836082.8553688435,-336214.804577166,-316581.2960494923,-2298425.585866607,-385041.8316817947,62.62046207043275,-93026.52196069763],[0.5803568570485854,0.2843584610773636,0.8139350516720265,-0.03532128751222179,-0.9552588859200507,0.019749914499326022,0.5999334487013025,0.9551363055232014,0.5285804724376179,-0.21426444702077554,0.771464422429862,0.5644858938613198,-0.22811798622601542],[-2115154.29881559,-18067980.471569467,83.91594021876588,-2332695.8393437644,-29609297.255207885,-8425174.014051659,-4833531.055069115,-1943763.2316980923,-1830248.2536655571,-13287833.352604805,-2226112.078062848,404.7153439484444,-537870.2978972887],[-73153.46583189875,-624872.726549055,4.236671991202528,-80677.38527502015,-1024015.1297541233,-291382.90348227584,-167164.2201257026,-67221.91868889809,-63297.33600127916,-459545.23010586115,-76984.74101524462,12.67864585155736,-18599.839842336318],[-114212.64210273077,-975584.7542598989,4.50581699275769,-125958.88020651111,-1598750.558589351,-454925.5504352934,-260987.26638861594,-104952.03129479392,-98825.75549640732,-717469.6555996945,-120195.50539302875,18.0619392340614,-29040.119139188777],[-95079.26713775165,-812153.7569476122,3.403963037563973,-104857.57145748135,-1330921.896862666,-378714.66024785506,-217266.7889460192,-87370.63408332386,-82268.48046545843,-597276.1154439385,-100059.94487569199,16.275974518783823,-24175.21418081781],[-0.145200715089296,-0.12235425367876093,0.07761509766941538,0.6331789965557167,-1.0182172947676507,-0.9607308350719236,-0.684673673017837,0.9258033956633476,-0.7699108769357088,-0.704347509147108,-0.16243340122819555,-0.8079935462801372,0.5973176143426261],[-200928.573807774,-1716316.247854293,9.689466216171079,-221593.58582740466,-2812625.7543042856,-800333.6386335493,-459147.39335350005,-184638.40182950484,-173856.7233469858,-1262218.2760294843,-211452.76217915607,35.0101095066387,-51088.12862223533],[-218539.27596704676,-1866803.5939746944,7.950822685746725,-241015.02811576155,-3059267.356834613,-870496.7648894408,-499405.4514299713,-200832.03334185612,-189103.32224139042,-1372915.856779123,-230006.40945544394,42.838987923220735,-55574.0249555483],[-4676534.827295873,-39947332.32619826,201.42989255351424,-5157535.521154346,-65464307.24822356,-18627710.999916513,-10686678.195836056,-4297503.817139754,-4046540.826593797,-29378432.539258827,-4921691.748882184,855.0153585123303,-1189134.8611047256],[-1264216.4773111343,-10798995.07186824,56.496296805087425,-1394247.0596749492,-17696996.23997477,-5035654.984161241,-2888939.4802389047,-1161744.1543651647,-1093900.9332186172,-7941872.824959725,-1330473.4750164982,227.5918542510779,-321453.84108863224]],"rows":13,"cols":13},{"data":[[-724.4234451544581,1429.6156263755154,-99.7169008286067,-236.14534485587134,-545.2446882491101,-1217.9435536795615,844.2896010605407,220.3429306065911,86.75013174256743,1493.431293616155,-1105.727981827562,893.8966965645466,-2162.655026256113],[-849.8442324474195,6661.224759628304,-847.6387278973675,-1846.6085715912388,-2869.7919651635157,-5633.6024251244535,3555.4269198252528,-2811.468209425696,2560.136352071308,6550.53491477012,-4467.808967839045,3310.6768980311135,-8829.469952510924],[123.82533715237666,24.003774736338553,-25.72863033300346,-46.09823115724604,-30.506712171118163,-22.91904002925106,0.22003318850653386,-207.36826968028188,124.19948573148196,8.884714051396713,11.445518761786323,-24.28677415030461,24.590829344998518],[-792.0354913648301,1570.4145487070325,-109.38313431069716,-266.60653318608365,-599.8219088068371,-1342.0298642970329,928.9506613713163,243.70724831599367,93.72642089186117,1647.3368369689463,-1220.3796432316606,994.480595782276,-2380.5438211618275],[854.0711130800555,11467.374789996453,-1792.7532960941498,-3873.7430996771977,-5227.424628240652,-9667.46438333203,5760.657321883247,-8353.330222100076,6355.504156387801,10907.333002529958,-7066.681496947982,4925.254375029279,-14055.586833740734],[-1326.379599581781,2877.7333584451653,-216.63256869366913,-515.5181091708572,-1112.5159630683156,-2448.2262103866283,1674.9680931789578,249.52969330346042,278.63509709276394,2983.8772826113363,-2188.2504770147666,1753.7794002949604,-4285.6784535233755],[-239.83784610670955,1777.386121909713,-223.05402234674807,-489.35166097547983,-763.9513892414832,-1505.0046525631863,950.398854706198,-731.1656415869439,672.6699848641096,1750.6946094086868,-1197.9275409655136,888.8550144930987,-2363.938203711985],[343.9040593246596,806.4848593939428,-184.3970935623257,-357.90260246897293,-416.55930343677664,-682.5171575461684,384.98189534478206,-1031.7916731927733,717.5044695319575,736.9771296257179,-437.22660580125705,272.09245954298495,-866.0013758652791],[217.16923473133738,747.4695207827224,-146.74961861493648,-297.0318077289747,-365.0644307451365,-628.3432912325088,356.35191741548937,-798.2319836455775,563.1668989214035,684.8148138291541,-420.0064490353245,265.28315206250744,-838.3776268148766],[1591.111388848169,5440.271440198847,-1024.6374293990557,-2193.1835669023276,-2630.314762344394,-4570.92091025921,2552.5247171469528,-5766.5957991098,4022.668108086886,4986.342399663407,-3034.3800289756787,1940.318508103835,-6084.5649432236005],[959.1820355133444,1077.4325419241002,-305.923178726102,-623.5135890543701,-607.5558097698861,-898.7038575546106,414.1692285690711,-2131.347243539289,1357.9721674878892,885.8629990962814,-432.41802241950757,167.8913128426779,-891.588019841889],[0.4446424484620468,-0.8249109419502431,0.874981767559484,0.9132900029461596,-0.6524878506837124,0.627920957246576,-0.08882433757994958,-0.17749263321043993,-0.14846616369923044,-0.4232482594255096,0.6204304745468061,-0.004168094442389635,-0.17098190332188057],[569.7820348245805,337.9550214729302,-126.89741039460755,-285.2255393390796,-218.28186598478766,-282.0747416993655,85.13410087033976,-1066.4416420727478,636.9725206382566,242.5112380708858,-66.23055061700992,-25.42834612227467,-152.31880591155465]],"rows":13,"cols":13}],"biases":[{"data":[[-105830772422.47577,-0.1482631607002479,-18794211.364647314,-106490215325.17114,-8497891335.877565,-1.417419309206558,-27932450301.94185,-6065538924.011656,-28072165091.246487,-31092466533.030533,-1227592352.9003453,-6598927297.120685,-23452491893.117565]],"rows":1,"cols":13},{"data":[[-13687.420650388955,-2560.3303901068084,-7754.187991710939,4.221147902102377,-24050.773790758652,-1413.6931474465437,-2177.3118006766235,-1885.0050441747976,20.348960446120735,-4002.8355415661836,-2171.6354172399383,-73845.71838030005,-21907.960175844186]],"rows":1,"cols":13},{"data":[[-3.820080977327373,-21.481315129926042,-0.34347634139068667,-3.5652407239409474,-34.020442963213284,-10.952375983247206,-4.802607483488051,-2.799901153213855,-4.030927726319301,-14.280343786209096,-2.6402650985027614,-0.19606085115419272,-0.865185733454831]],"rows":1,"cols":13},{"data":[[-0.21942438515055565,-0.1866097497215397,-0.6931142784400854,0.35101878714266294,1.0904251847945046,0.528925507219562,-0.8552013434950929,0.34557866062982373,0.027386584440371762,0.6158518791521526,-0.28296044739939435,-0.07635076935495698,-0.37789530236161334]],"rows":1,"cols":13}],"weight_deltas":[{"data":[[0,0,0,0,0,0,0,0,0,0,0,0,0],[0,0,0,0,0,0,0,0,0,0,0,0,0],[0,0,0,0,0,0,0,0,0,0,0,0,0],[0,0,0,0,0,0,0,0,0,0,0,0,0],[0,0,0,0,0,0,0,0,0,0,0,0,0],[0,0,0,0,0,0,0,0,0,0,0,0,0],[0,0,0,0,0,0,0,0,0,0,0,0,0],[0,0,0,0,0,0,0,0,0,0,0,0,0],[0,0,0,0,0,0,0,0,0,0,0,0,0],[0,0,0,0,0,0,0,0,0,0,0,0,0],[0,0,0,0,0,0,0,0,0,0,0,0,0],[0,0,0,0,0,0,0,0,0,0,0,0,0],[0,0,0,0,0,0,0,0,0,0,0,0,0]],"rows":13,"cols":13},{"data":[[0,0,0,0,0,0,0,0,0,0,0,0,0],[0,0,0,0,0,0,0,0,0,0,0,0,0],[0,0,0,0,0,0,0,0,0,0,0,0,0],[0,0,0,0,0,0,0,0,0,0,0,0,0],[0,0,0,0,0,0,0,0,0,0,0,0,0],[0,0,0,0,0,0,0,0,0,0,0,0,0],[0,0,0,0,0,0,0,0,0,0,0,0,0],[0,0,0,0,0,0,0,0,0,0,0,0,0],[0,0,0,0,0,0,0,0,0,0,0,0,0],[0,0,0,0,0,0,0,0,0,0,0,0,0],[0,0,0,0,0,0,0,0,0,0,0,0,0],[0,0,0,0,0,0,0,0,0,0,0,0,0],[0,0,0,0,0,0,0,0,0,0,0,0,0]],"rows":13,"cols":13},{"data":[[0,0,0,0,0,0,0,0,0,0,0,0,0],[0,0,0,0,0,0,0,0,0,0,0,0,0],[0,0,0,0,0,0,0,0,0,0,0,0,0],[0,0,0,0,0,0,0,0,0,0,0,0,0],[0,0,0,0,0,0,0,0,0,0,0,0,0],[0,0,0,0,0,0,0,0,0,0,0,0,0],[0,0,0,0,0,0,0,0,0,0,0,0,0],[0,0,0,0,0,0,0,0,0,0,0,0,0],[0,0,0,0,0,0,0,0,0,0,0,0,0],[0,0,0,0,0,0,0,0,0,0,0,0,0],[0,0,0,0,0,0,0,0,0,0,0,0,0],[0,0,0,0,0,0,0,0,0,0,0,0,0],[0,0,0,0,0,0,0,0,0,0,0,0,0]],"rows":13,"cols":13},{"data":[[0,0,0,0,0,0,0,0,0,0,0,0,0],[0,0,0,0,0,0,0,0,0,0,0,0,0],[0,0,0,0,0,0,0,0,0,0,0,0,0],[0,0,0,0,0,0,0,0,0,0,0,0,0],[0,0,0,0,0,0,0,0,0,0,0,0,0],[0,0,0,0,0,0,0,0,0,0,0,0,0],[0,0,0,0,0,0,0,0,0,0,0,0,0],[0,0,0,0,0,0,0,0,0,0,0,0,0],[0,0,0,0,0,0,0,0,0,0,0,0,0],[0,0,0,0,0,0,0,0,0,0,0,0,0],[0,0,0,0,0,0,0,0,0,0,0,0,0],[0,0,0,0,0,0,0,0,0,0,0,0,0],[0,0,0,0,0,0,0,0,0,0,0,0,0]],"rows":13,"cols":13}],"bias_deltas":[{"data":[[0,0,0,0,0,0,0,0,0,0,0,0,0]],"rows":1,"cols":13},{"data":[[0,0,0,0,0,0,0,0,0,0,0,0,0]],"rows":1,"cols":13},{"data":[[0,0,0,0,0,0,0,0,0,0,0,0,0]],"rows":1,"cols":13},{"data":[[0,0,0,0,0,0,0,0,0,0,0,0,0]],"rows":1,"cols":13}],"process":[{"data":[[22.21247884958433,11.212399719238315,7.6192063871892115,6.280018632609462,6.232764312692926,1.3415380424499093,5.1113843604027664,18.58875275717391,9.785860673982153,19.4952392881274,24.47706498473521,29.8131283712114,19.829501886587686]],"rows":1,"cols":13},{"data":[[0,-1.989183665146552e-48,0,0,0,-4.943179255950148e-18,0,0,0,0,0,0,0]],"rows":1,"cols":13},{"data":[[0,0,0,4.160070653622788,0,0,0,0,20.348960417430696,0,0,0,0]],"rows":1,"cols":13},{"data":[[-0.05499234424100456,-2.8902687241184713e-9,4.576930229520723,9.171391666859227,-1.8601548227424317e-24,-1.8701658405481035e-12,-0.000001438640522231279,20.012670619404147,-4.398884391993119e-7,-4.531815968943261e-12,-0.16654810457949062,-0.000008894674967160771,10.340289464896552]],"rows":1,"cols":13},{"data":[[5956.690714793164,33888.96734994246,0,0,0,0,16989.33919829753,0,22142.802872470882,32176.499915648517,0,14114.775223895069,0]],"rows":1,"cols":13}]}}