{"type":"Generative_Adverserial_Network","activation_function_name":"identity","activation_function":{},"learning_rate":1,"discriminator":{"type":"Fully_Connected_Network","activation_function_name":"tanh","activation_function":{},"learning_rate":0.5,"length":4,"width":7,"weights":[{"data":[[0.5221444208307167,-0.5522608748783832,-0.7183066642069196,0.6266119001654644,-0.16192509719346407,-0.6998316895359267,-0.14384552962732905],[2.5553415326135216,2.629713967718461,-0.6761027138589228,4948.276498030586,0.8068171738370378,-0.8676968016070561,17.43282938351596],[1.5227083409326858,1.1243668727719027,-0.6192798331968326,4355.78941278056,0.43524343832625695,0.4655488998983032,11.860401039447098],[0.11517402990459681,-0.3611517876886403,-0.3294399085223907,1649.174010959347,0.32838563045743463,0.44037488054283275,0.5881153775357391],[1.73727922272293,0.5799291115509744,-0.8565790672592983,2477.7167882417293,0.8423276564525489,-0.8661356791743516,19.759801288298945],[-0.5970437502112416,0.2346826980439846,-0.9210987189840396,506.27021087434053,-0.005066391466168474,0.8255596130587433,-0.9298246163749384],[1.5039583576139186,-0.4333528839746973,0.5985639256294797,882.3542912495974,-0.06923678000694716,0.6183288159756135,20.876975905718805],[0.6733657831484714,1.0207482065881173,0.06713797680030399,0.7774428268505978,-0.5476269308404027,0.3571261071370381,21.891462471541573],[0.8656445648372326,-0.18691391602175658,0.9762663989689986,0.3817351201788397,-0.39853898330512777,0.4302992060069842,-0.39533073608789115],[2.750097020323013,2.249983555396752,-0.17474516123626943,2391.1887095359903,0.5173491959889888,-0.29224927192633443,28.22203214571332],[-0.8388279910483916,-0.21676313985827722,-0.6514855953774614,0.6533295172096502,-0.2948850044547709,0.8562176479748762,-0.6217776465321233],[0.7048222904638313,-0.25915206105545097,-0.863986513144189,1767.6982337585707,0.22500263190975803,-0.8649013428404319,-0.05828344229094982],[0.905452153469902,0.19439505895293335,0.2787696357402607,485.2313549720357,-0.19009439237582282,0.8669478188286028,0.512715951543186]],"rows":13,"cols":7},{"data":[[-10.462647311680087,1.2658447736332703,-0.9232043273536441,3.089285676110162,-9.314940326146724,2.8473215720600735,-11.29855658211412],[-8.721925463635653,2.678800052350589,-0.2369721907871317,3.4985466481096696,-7.691698779851042,2.5742211050117576,-11.076231237689145],[8.696583747117767,-1.1666819475556252,1.103285615776742,-3.5949816643806822,7.949951544243882,-4.136513277705712,10.255897587513692],[-9.36939746516709,1.509112534333267,1.1091375932965926,3.9456680149252654,-9.185984821986214,1.8899577426080285,-10.042110662348438],[-8.575742546441825,1.6878604553547767,-1.1833536662852864,3.302899607579243,-7.408446406347945,2.8799971904684525,-9.512102615134122],[8.999505107407304,-1.7897953442446188,-0.04623808904053604,-3.443022405500717,8.6707669447866,-2.695448126757786,9.9470970421004],[-8.99321205058513,2.315357080009449,1.0376649830780151,2.590243454276604,-8.98926766541009,2.545629507469943,-11.052027711045673]],"rows":7,"cols":7},{"data":[[-0.6563688228042635,0.7674846493256594,-0.8429343193544454,-6.496252720211187,2.6515502064558336,-7.457228373953311,6.569499703797883],[0.838926078471417,-1.5479875817273654,0.007494400439938467,-8.25789989229554,1.7290346311562097,-7.330123748506136,5.448120432797529],[-0.22062593677952935,-0.05341616776630475,-0.3669771905683175,-7.891732584220037,1.8389911073749818,-9.261993084843215,6.623249839325142],[1.8161863548472792,-0.17137325142083634,-0.1578595926316512,-5.726553756642459,1.166915094034032,-6.450088498657951,6.618874341100227],[-1.3342458900194034,1.7868867434241635,-0.32571958293952846,0.022990693241098814,-0.05604161421505331,1.701956937062068,-0.20433584153797557],[0.43379447933207493,-1.317567273611943,0.5254160941471674,6.296069327375594,-2.1797407929757666,6.480285579284566,-3.996517607692778],[-1.571298658824447,0.9682497755990279,-0.16200366969982233,-5.712270076235748,1.5953176048134572,-6.321209152635949,4.956852918047304]],"rows":7,"cols":7},{"data":[[-0.8283189542788727],[0.9818342348048597],[-8.795264711226586],[-24.919179936374626],[26.189633293526313],[-26.906182001369963],[27.61305383760223]],"rows":7,"cols":1}],"biases":[{"data":[[2.371508298312553,0.08481061494286853,0.03341960749000559,422.76184975516117,-0.2849891596407117,-1.3443057540658148,24.851751564123624]],"rows":1,"cols":7},{"data":[[-20.584996261076462,3.3498344487337017,-7.396758295465691,7.573327297794458,-16.544799398349355,10.092399470187232,-20.681342737982064]],"rows":1,"cols":7},{"data":[[-1.0766543520948693,0.6263669721896467,4.90417268859173,20.79272977679146,-6.237479456941139,21.804419553639313,-17.917878789709448]],"rows":1,"cols":7},{"data":[[610.8323793626889]],"rows":1,"cols":1}],"weight_deltas":[{"data":[[0,0,0,0,0,0,0],[0,0,0,0,0,0,0],[0,0,0,0,0,0,0],[0,0,0,0,0,0,0],[0,0,0,0,0,0,0],[0,0,0,0,0,0,0],[0,0,0,0,0,0,0],[0,0,0,0,0,0,0],[0,0,0,0,0,0,0],[0,0,0,0,0,0,0],[0,0,0,0,0,0,0],[0,0,0,0,0,0,0],[0,0,0,0,0,0,0]],"rows":13,"cols":7},{"data":[[0,0,0,0,0,0,0],[0,0,0,0,0,0,0],[0,0,0,0,0,0,0],[0,0,0,0,0,0,0],[0,0,0,0,0,0,0],[0,0,0,0,0,0,0],[0,0,0,0,0,0,0]],"rows":7,"cols":7},{"data":[[0,0,0,0,0,0,0],[0,0,0,0,0,0,0],[0,0,0,0,0,0,0],[0,0,0,0,0,0,0],[0,0,0,0,0,0,0],[0,0,0,0,0,0,0],[0,0,0,0,0,0,0]],"rows":7,"cols":7},{"data":[[0],[0],[0],[0],[0],[0],[0]],"rows":7,"cols":1}],"bias_deltas":[{"data":[[0,0,0,0,0,0,0]],"rows":1,"cols":7},{"data":[[0,0,0,0,0,0,0]],"rows":1,"cols":7},{"data":[[0,0,0,0,0,0,0]],"rows":1,"cols":7},{"data":[[0]],"rows":1,"cols":1}],"process":[{"data":[[3,17,0,21,8,3,14,18,0,20,17,20,18]],"rows":1,"cols":13},{"data":[[1,1,-1,1,1,0.9999999448790163,1]],"rows":1,"cols":7},{"data":[[-1,0.9999999999477115,-0.9999999490729722,1,-1,1,-1]],"rows":1,"cols":7},{"data":[[0.9999814760449673,-0.9999843711643283,0.9999982581631823,1,-0.9999999998146969,1,-1]],"rows":1,"cols":7},{"data":[[1]],"rows":1,"cols":1}]},"generator":{"type":"Fully_Connected_Network","activation_function_name":"swish","activation_function":{},"learning_rate":0.5,"length":4,"width":13,"weights":[{"data":[[-79619238378.17383,0.26626274844727693,-14139373.289454674,-80115354397.78377,-6393184329.692878,0.08813258047548585,-21014307731.947796,-4563262487.909882,-21119418793.613224,-23391670003.60051,-923549605.1289194,-4964544369.953192,-17643918680.615204],[-73601430390.63823,-0.8769562299448656,-13070687.008314624,-74060048802.95274,-5909972527.893249,-0.011197651089204473,-19425997273.343143,-4218360370.404211,-19523163797.14743,-21623672952.94265,-853745569.6648158,-4589312513.296332,-16310350099.299688],[-87375102935.08598,-1.0670927589064712,-15516716.23412444,-87919546581.69995,-7015956825.287527,-0.24370579187587163,-23061352236.656532,-5007778736.427224,-23176702374.249153,-25670297983.588448,-1013514364.2333,-5448150274.115249,-19362647047.49455],[-76291144551.84416,-0.1659231522896056,-13548345.335210774,-76766522864.93472,-6125948451.540396,0.3251398525229411,-20135907118.48715,-4372517577.03993,-20236624526.16606,-22413895357.85629,-884945119.187845,-4757025814.217444,-16906400738.577808],[-80258784523.0249,-1.1865974754892832,-14252948.247929687,-80758885622.31636,-6444537953.862059,-0.21554980638652352,-21183106374.58232,-4599917041.949061,-21289061748.768738,-23579564946.934708,-930968070.6358953,-5004422361.448511,-17785644479.931957],[-88251412182.77507,-0.9514901143264122,-15672338.652101938,-88801316204.84435,-7086321809.196779,-0.6188512202881168,-23292640963.457767,-5058003131.758067,-23409147977.87064,-25927752552.29672,-1023679181.6906216,-5502791290.2127495,-19556840428.57278],[-87465101397.02977,0.37805243905371444,-15532698.620369993,-88010105832.2954,-7023183429.233035,-0.08114614859119809,-23085105985.95605,-5012936805.684936,-23200574934.903645,-25696739009.48442,-1014558308.5926442,-5453761999.24072,-19382591040.388138],[-120596659015.50224,-0.42234526638540243,-21416447.069247637,-121348109742.53497,-9683547425.540417,-0.5306425988651717,-31829685331.756817,-6911824508.894473,-31988893625.272953,-35430598290.853035,-1398870412.1172206,-7519633153.963247,-26724667156.190884],[-23407400131.996178,-0.480714549199088,-4156860.0351775233,-23553254155.99094,-1879543521.92441,-0.05152187174436742,-6178033344.524075,-1341561608.1516442,-6208935130.987382,-6876958267.097785,-271515976.05503464,-1459535143.7666824,-5187166731.495384],[-134277161931.19014,-0.9797222265865375,-23845932.050789576,-135113857340.61923,-10782050481.415373,-0.42186459513703795,-35440449564.94799,-7695902917.575972,-35617718469.42296,-39449850624.722855,-1557558479.5811222,-8372661456.344702,-29756317368.894295],[-120755102590.93454,-0.4449849677411349,-21444584.14255342,-121507540596.2238,-9696269963.911818,-0.40008245537294,-31871504143.82515,-6920905506.508494,-32030921611.195755,-35477148092.71743,-1400708289.418863,-7529512676.701181,-26759778839.63952],[-140828895149.3457,-1.6026749700817733,-25009435.963704728,-141706415111.4677,-11308134867.745726,-0.20021833902529015,-37169681603.0323,-8071406127.962313,-37355599923.71452,-41374711807.4768,-1633555822.6666634,-8781185463.387573,-31208205762.731567],[-129929059069.29558,-0.21538475451557001,-23073763.037585247,-130738660985.41718,-10432910958.798494,-0.3671746853729808,-34292832814.521523,-7446697639.144914,-34464361477.958786,-38172403246.50256,-1507122319.3599389,-8101541687.581539,-28792761639.312088]],"rows":13,"cols":13},{"data":[[-363925448.1717734,-68048156.47684108,-206130629.28943524,183060.77049124046,-639533700.122017,-37526674.53385592,-57812202.87856308,-50097932.67986024,569206.9605365434,-106342809.61841534,-57740443.90157873,-1963161502.2731612,-582380219.4498152],[-0.8608582145133903,0.7602670689855044,0.911286151590602,-0.2961320519477898,0.10360316455426817,-0.05089514690429725,-0.9820696139529773,0.8635565438808093,-0.9304525043330636,0.36515429519501785,-0.19044319277383642,0.06438714485311464,0.1277032646878826],[-64629.418747985204,-12084.49851970189,-36606.42629242558,31.411946761748187,-113573.415401343,-6664.265287774615,-10266.276184135206,-8895.946035798117,101.07621266823931,-18885.467178261082,-10253.21958231919,-348632.449564278,-103423.40894092892],[-366193105.82952845,-68472172.36163926,-207415053.6398778,184198.50021802192,-643518691.929105,-37760509.90662558,-58172439.368457854,-50410099.67825202,572752.1353723641,-107005447.18951803,-58100229.745425545,-1975394175.6193726,-586009096.7084467],[-29222112.107706588,-5464062.697570296,-16551670.407793134,14696.466572370255,-51352613.83774952,-3013280.118035841,-4642148.192543317,-4022714.4922701335,45704.02322782485,-8539011.517569043,-4636382.515660036,-157635941.32332477,-46763375.61197123],[0.805982875025681,0.15112729421486026,-0.6659301737009784,-1.8537392988501609,-0.33496548492685313,-0.41750677778158296,-1.1856615449869221,-1.120804962570083,0.1779238109251444,-2.2604156503740955,-0.8517604552925654,0.36959077942821145,-0.31749313994834594],[-96052682.16282402,-17960293.97989579,-54405098.80394562,48315.326134478,-168795361.64005223,-9904605.792410133,-15258666.042073395,-13222601.206303423,150233.1288070331,-28067594.738599554,-15239727.804448305,-518147129.88230515,-153710553.03728664],[-20857864.446154896,-3900081.679311303,-11814081.018446451,10491.58980387158,-36653960.18086011,-2150786.89953913,-3313424.184459251,-2871291.5164644085,32622.194148423896,-6094885.907535461,-3309311.9659556486,-112515784.5256891,-33378285.514184993],[-96533125.5955597,-18050128.7668708,-54677225.15274284,48557.319700488486,-169639654.8694302,-9954146.713748442,-15334989.461953107,-13288738.580699274,150985.779172081,-28207985.396457728,-15315953.851128012,-520738840.84182584,-154479394.90243265],[-106919183.19008496,-19992154.24802018,-60559982.49921439,53782.405809306096,-187891287.4642872,-11025118.783525346,-16984889.96418231,-14718482.45963208,167230.332131035,-31242899.504721694,-16963806.492778547,-576765452.3426803,-171099928.4276194],[-4221381.189399306,-789331.4976511097,-2391029.807636383,2116.6626454008197,-7418316.059993265,-435296.35175451793,-670603.487924898,-581117.3535798717,6600.686944952234,-1233538.9105009064,-669764.9330149735,-22771846.92548461,-6755367.193141167],[-22692053.2366776,-4243045.708689861,-12852984.22419836,11413.373767886898,-39877209.14237895,-2339922.98662489,-3604797.8597175684,-3123786.866505054,35492.95734294035,-6630856.120689813,-3600321.8103859317,-122410144.85052788,-36313492.11385845],[-80647229.34276268,-15079724.11984355,-45679313.11975044,40567.67053756534,-141723040.1217911,-8316050.48821416,-12811399.201634388,-11101887.73427237,126138.7481632087,-23565961.358940735,-12795496.460727444,-435043874.3044351,-129057617.9907443]],"rows":13,"cols":13},{"data":[[-980987.6851217261,-8379711.82499139,40.14705051542886,-1081884.5125459614,-13732402.142764876,-3907506.687236286,-2241732.532980379,-901487.4411508178,-848841.291396893,-6162705.402365575,-1032429.5236273042,184.06199758000142,-249448.66558520676],[-114717.72521935106,-979916.0777826209,4.626364695329484,-126518.430006139,-1605844.3664667835,-456945.7911452229,-262146.49516329885,-105416.70261307988,-99262.27448152716,-720651.5131670146,-120726.51328146025,20.22482846750431,-29168.04220520158],[-365878.5362305777,-3125321.1182519165,16.821691315493073,-403511.06343408953,-5121642.424265801,-1457368.8908086063,-836082.8553688435,-336214.804577166,-316581.2960494923,-2298425.585866607,-385041.8316817947,62.62046207043275,-93026.52196069763],[0.5803568570487286,0.2843584610757162,0.8139350516717846,-0.035321287511901674,-0.9552588859249853,0.01974991449952525,0.5999334487008863,0.9551363055219122,0.5285804724371371,-0.21426444702418687,0.7714644224291115,0.5644858938613182,-0.228117986227201],[-2115154.29881559,-18067980.471569467,83.91594021876588,-2332695.8393437644,-29609297.255207885,-8425174.014051659,-4833531.055069115,-1943763.2316980923,-1830248.2536655571,-13287833.352604805,-2226112.078062848,404.7153439484444,-537870.2978972887],[-73153.46583189875,-624872.726549055,4.236671991202528,-80677.38527502015,-1024015.1297541233,-291382.90348227584,-167164.2201257026,-67221.91868889809,-63297.33600127916,-459545.23010586115,-76984.74101524462,12.67864585155736,-18599.839842336318],[-114212.64210273077,-975584.7542598989,4.50581699275769,-125958.88020651111,-1598750.558589351,-454925.5504352934,-260987.26638861594,-104952.03129479392,-98825.75549640732,-717469.6555996945,-120195.50539302875,18.0619392340614,-29040.119139188777],[-95079.26713775165,-812153.7569476122,3.403963037563973,-104857.57145748135,-1330921.896862666,-378714.66024785506,-217266.7889460192,-87370.63408332386,-82268.48046545843,-597276.1154439385,-100059.94487569199,16.275974518783823,-24175.21418081781],[-0.14520071508859608,-0.12235425368681878,0.07761509766823203,0.6331789965572793,-1.0182172947917807,-0.9607308350709517,-0.6846736730198726,0.9258033956570442,-0.769910876938059,-0.704347509163787,-0.16243340123186442,-0.8079935462801454,0.5973176143368303],[-200928.573807774,-1716316.247854293,9.689466216171079,-221593.58582740466,-2812625.7543042856,-800333.6386335493,-459147.39335350005,-184638.40182950484,-173856.7233469858,-1262218.2760294843,-211452.76217915607,35.0101095066387,-51088.12862223533],[-218539.27596704676,-1866803.5939746944,7.950822685746725,-241015.02811576155,-3059267.356834613,-870496.7648894408,-499405.4514299713,-200832.03334185612,-189103.32224139042,-1372915.856779123,-230006.40945544394,42.838987923220735,-55574.0249555483],[-4676534.827295873,-39947332.32619826,201.42989255351424,-5157535.521154346,-65464307.24822356,-18627710.999916513,-10686678.195836056,-4297503.817139754,-4046540.826593797,-29378432.539258827,-4921691.748882184,855.0153585123303,-1189134.8611047256],[-1264216.4773111343,-10798995.07186824,56.496296805087425,-1394247.0596749492,-17696996.23997477,-5035654.984161241,-2888939.4802389047,-1161744.1543651647,-1093900.9332186172,-7941872.824959725,-1330473.4750164982,227.5918542510779,-321453.84108863224]],"rows":13,"cols":13},{"data":[[-724.4234451541819,1429.615626376004,-99.7169008287045,-236.1453448557558,-545.2446882492836,-1217.943553679558,844.2896010604846,220.34293060666644,86.75013174253485,1493.4312936157557,-1105.7279818275713,893.8966965649287,-2162.6550262560204],[-849.8442324474195,6661.224759628304,-847.6387278973675,-1846.6085715912388,-2869.7919651635157,-5633.6024251244535,3555.4269198252528,-2811.468209425696,2560.136352071308,6550.53491477012,-4467.808967839045,3310.6768980311135,-8829.469952510924],[123.82533712938118,24.003774695706426,-25.728630324864028,-46.09823116685791,-30.506712156681516,-22.919040029576923,0.22003319316926725,-207.36826968655177,124.19948573419576,8.88471408459965,11.44551876254328,-24.286774182093296,24.590829337286003],[-792.0354914109079,1570.4145486256225,-109.38313429438841,-266.6065332053409,-599.8219087779128,-1342.0298642976868,928.9506613806602,243.70724830342948,93.72642089730081,1647.336837035466,-1220.379643230144,994.4805957185856,-2380.5438211772794],[854.0711130800555,11467.374789996453,-1792.7532960941498,-3873.7430996771977,-5227.424628240652,-9667.46438333203,5760.657321883247,-8353.330222100076,6355.504156387801,10907.333002529958,-7066.681496947982,4925.254375029279,-14055.586833740734],[-1326.379599581781,2877.7333584451653,-216.63256869366913,-515.5181091708572,-1112.5159630683156,-2448.2262103866283,1674.9680931789578,249.52969330346042,278.63509709276394,2983.8772826113363,-2188.2504770147666,1753.7794002949604,-4285.6784535233755],[-239.83784610670955,1777.386121909713,-223.05402234674807,-489.35166097547983,-763.9513892414832,-1505.0046525631863,950.398854706198,-731.1656415869439,672.6699848641096,1750.6946094086868,-1197.9275409655136,888.8550144930987,-2363.938203711985],[343.9040592241135,806.4848592162942,-184.397093526738,-357.9026025109956,-416.55930337365925,-682.5171575475947,384.98189536517083,-1031.791673220189,717.5044695438261,736.9771297708764,-437.2266057979474,272.09245940400274,-866.0013758989984],[217.16923473133738,747.4695207827224,-146.74961861493648,-297.0318077289747,-365.0644307451365,-628.3432912325088,356.35191741548937,-798.2319836455775,563.1668989214035,684.8148138291541,-420.0064490353245,265.28315206250744,-838.3776268148766],[1591.111388848169,5440.271440198847,-1024.6374293990557,-2193.1835669023276,-2630.314762344394,-4570.92091025921,2552.5247171469528,-5766.5957991098,4022.668108086886,4986.342399663407,-3034.3800289756787,1940.318508103835,-6084.5649432236005],[959.1820355141813,1077.4325419255788,-305.9231787263982,-623.5135890540201,-607.5558097704115,-898.7038575545987,414.1692285689014,-2131.3472435390613,1357.9721674877906,885.8629990950728,-432.4180224195351,167.89131284383492,-891.5880198416082],[0.44464244846209156,-0.824910941950164,0.8749817675594682,0.9132900029461782,-0.6524878506837405,0.6279209572465767,-0.08882433757995865,-0.17749263321042777,-0.14846616369923574,-0.42324825942557415,0.6204304745468047,-0.004168094442327838,-0.17098190332186552],[569.7820347726301,337.9550213811457,-126.89741037622038,-285.22553936079083,-218.28186595217755,-282.0747417001029,85.13410088087454,-1066.4416420869134,636.9725206443896,242.51123814588163,-66.23055061529998,-25.428346194081282,-152.31880592897608]],"rows":13,"cols":13}],"biases":[{"data":[[-105830772422.51231,-0.14826316069899517,-18794211.36465381,-106490215325.20793,-8497891335.880502,-1.417419309205719,-27932450301.9515,-6065538924.013752,-28072165091.25619,-31092466533.04128,-1227592352.9007695,-6598927297.122964,-23452491893.125668]],"rows":1,"cols":13},{"data":[[-13687.418613427617,-2560.3301519082347,-7754.187232006258,4.221147902224632,-24050.769398735763,-1413.6929955520545,-2177.311563530173,-1885.0048467559416,20.348960446408917,-4002.8351243627812,-2171.634963450865,-73845.70866982058,-21907.957550806597]],"rows":1,"cols":13},{"data":[[-3.8200808408950784,-21.48131670048507,-0.34347657203834153,-3.5652404193838585,-34.02044766643052,-10.95237579380877,-4.802607880250362,-2.799902381832744,-4.030928184411873,-14.280347037160793,-2.64026581361724,-0.19606085273688312,-0.8651868631333481]],"rows":1,"cols":13},{"data":[[-0.219668629406114,-0.18704125435312285,-0.6930278301919721,0.3509167308993072,1.0905784916034365,0.5289220401480003,-0.8551518414738913,0.3455120458733788,0.027415437502043883,0.61620443986295,-0.28295240605514044,-0.07668835182314379,-0.3779771913791742]],"rows":1,"cols":13}],"weight_deltas":[{"data":[[0,0,0,0,0,0,0,0,0,0,0,0,0],[0,0,0,0,0,0,0,0,0,0,0,0,0],[0,0,0,0,0,0,0,0,0,0,0,0,0],[0,0,0,0,0,0,0,0,0,0,0,0,0],[0,0,0,0,0,0,0,0,0,0,0,0,0],[0,0,0,0,0,0,0,0,0,0,0,0,0],[0,0,0,0,0,0,0,0,0,0,0,0,0],[0,0,0,0,0,0,0,0,0,0,0,0,0],[0,0,0,0,0,0,0,0,0,0,0,0,0],[0,0,0,0,0,0,0,0,0,0,0,0,0],[0,0,0,0,0,0,0,0,0,0,0,0,0],[0,0,0,0,0,0,0,0,0,0,0,0,0],[0,0,0,0,0,0,0,0,0,0,0,0,0]],"rows":13,"cols":13},{"data":[[0,0,0,0,0,0,0,0,0,0,0,0,0],[0,0,0,0,0,0,0,0,0,0,0,0,0],[0,0,0,0,0,0,0,0,0,0,0,0,0],[0,0,0,0,0,0,0,0,0,0,0,0,0],[0,0,0,0,0,0,0,0,0,0,0,0,0],[0,0,0,0,0,0,0,0,0,0,0,0,0],[0,0,0,0,0,0,0,0,0,0,0,0,0],[0,0,0,0,0,0,0,0,0,0,0,0,0],[0,0,0,0,0,0,0,0,0,0,0,0,0],[0,0,0,0,0,0,0,0,0,0,0,0,0],[0,0,0,0,0,0,0,0,0,0,0,0,0],[0,0,0,0,0,0,0,0,0,0,0,0,0],[0,0,0,0,0,0,0,0,0,0,0,0,0]],"rows":13,"cols":13},{"data":[[0,0,0,0,0,0,0,0,0,0,0,0,0],[0,0,0,0,0,0,0,0,0,0,0,0,0],[0,0,0,0,0,0,0,0,0,0,0,0,0],[0,0,0,0,0,0,0,0,0,0,0,0,0],[0,0,0,0,0,0,0,0,0,0,0,0,0],[0,0,0,0,0,0,0,0,0,0,0,0,0],[0,0,0,0,0,0,0,0,0,0,0,0,0],[0,0,0,0,0,0,0,0,0,0,0,0,0],[0,0,0,0,0,0,0,0,0,0,0,0,0],[0,0,0,0,0,0,0,0,0,0,0,0,0],[0,0,0,0,0,0,0,0,0,0,0,0,0],[0,0,0,0,0,0,0,0,0,0,0,0,0],[0,0,0,0,0,0,0,0,0,0,0,0,0]],"rows":13,"cols":13},{"data":[[0,0,0,0,0,0,0,0,0,0,0,0,0],[0,0,0,0,0,0,0,0,0,0,0,0,0],[0,0,0,0,0,0,0,0,0,0,0,0,0],[0,0,0,0,0,0,0,0,0,0,0,0,0],[0,0,0,0,0,0,0,0,0,0,0,0,0],[0,0,0,0,0,0,0,0,0,0,0,0,0],[0,0,0,0,0,0,0,0,0,0,0,0,0],[0,0,0,0,0,0,0,0,0,0,0,0,0],[0,0,0,0,0,0,0,0,0,0,0,0,0],[0,0,0,0,0,0,0,0,0,0,0,0,0],[0,0,0,0,0,0,0,0,0,0,0,0,0],[0,0,0,0,0,0,0,0,0,0,0,0,0],[0,0,0,0,0,0,0,0,0,0,0,0,0]],"rows":13,"cols":13}],"bias_deltas":[{"data":[[0,0,0,0,0,0,0,0,0,0,0,0,0]],"rows":1,"cols":13},{"data":[[0,0,0,0,0,0,0,0,0,0,0,0,0]],"rows":1,"cols":13},{"data":[[0,0,0,0,0,0,0,0,0,0,0,0,0]],"rows":1,"cols":13},{"data":[[0,0,0,0,0,0,0,0,0,0,0,0,0]],"rows":1,"cols":13}],"process":[{"data":[[31.623475479285794,13.797175560782847,14.498601785244379,18.865292541021056,5.669814681975615,0.14542355942369323,14.138880227635383,13.340230321241371,-7.835450487568543,25.111748825144716,12.350561032285107,18.991932776192918,17.35221494005321]],"rows":1,"cols":13},{"data":[[0,-6.737908667119142e-38,0,0,0,-1.038784203944718e-12,0,0,0,0,0,0,0]],"rows":1,"cols":13},{"data":[[0,0,0,4.160070653943166,0,0,0,0,20.348960417834956,0,0,0,0]],"rows":1,"cols":13},{"data":[[-0.05499249039463109,-2.8902765801316765e-9,4.576928589178436,9.171400377256118,-1.8601377732829996e-24,-1.8701788272157634e-12,-0.0000014386416696543168,20.01266572006432,-4.39887763474547e-7,-4.5317646904685226e-12,-0.1665477479413291,-0.000008894674941832961,10.340282358540742]],"rows":1,"cols":13},{"data":[[5956.678003200503,33888.97439807065,0,0,0,0,16989.344984144736,0,22142.795869113415,32176.50930901018,0,14114.782386669203,0]],"rows":1,"cols":13}]}}