{"type":"Generative_Adverserial_Network","activation_function_name":"identity","activation_function":{},"learning_rate":1,"discriminator":{"type":"Fully_Connected_Network","activation_function_name":"tanh","activation_function":{},"learning_rate":0.5,"length":4,"width":7,"weights":[{"data":[[0.5221444208307167,-0.5522608748783832,-0.7183066642069196,0.6266119001654644,-0.16192509719346407,-0.6998316895359267,-0.14384552962732905],[2.5553415326135216,2.629713967718461,-0.6761027138589228,4948.276498030586,0.8068171738370378,-0.8676968016070561,17.43282938351596],[1.5227083409326858,1.1243668727719027,-0.6192798331968326,4355.78941278056,0.43524343832625695,0.4655488998983032,11.860401039447098],[0.11517402990459681,-0.3611517876886403,-0.3294399085223907,1649.174010959347,0.32838563045743463,0.44037488054283275,0.5881153775357391],[1.73727922272293,0.5799291115509744,-0.8565790672592983,2477.7167882417293,0.8423276564525489,-0.8661356791743516,19.759801288298945],[-0.5970437502112416,0.2346826980439846,-0.9210987189840396,506.27021087434053,-0.005066391466168474,0.8255596130587433,-0.9298246163749384],[1.5039583576139186,-0.4333528839746973,0.5985639256294797,882.3542912495974,-0.06923678000694716,0.6183288159756135,20.876975905718805],[0.6733657831484714,1.0207482065881173,0.06713797680030399,0.7774428268505978,-0.5476269308404027,0.3571261071370381,21.891462471541573],[0.8656445648372326,-0.18691391602175658,0.9762663989689986,0.3817351201788397,-0.39853898330512777,0.4302992060069842,-0.39533073608789115],[2.750097020323013,2.249983555396752,-0.17474516123626943,2391.1887095359903,0.5173491959889888,-0.29224927192633443,28.22203214571332],[-0.8388279910483916,-0.21676313985827722,-0.6514855953774614,0.6533295172096502,-0.2948850044547709,0.8562176479748762,-0.6217776465321233],[0.7048222904638313,-0.25915206105545097,-0.863986513144189,1767.6982337585707,0.22500263190975803,-0.8649013428404319,-0.05828344229094982],[0.905452153469902,0.19439505895293335,0.2787696357402607,485.2313549720357,-0.19009439237582282,0.8669478188286028,0.512715951543186]],"rows":13,"cols":7},{"data":[[-10.462647311680087,1.2658447712977559,-0.9270683850862383,3.089285676110162,-9.314940326146724,2.8473215720600735,-11.29855658211412],[-8.721925463635653,2.678800050015061,-0.24083624851972343,3.4985466481096696,-7.691698779851042,2.5742211050117576,-11.076231237689145],[8.696583747117767,-1.1666819452201107,1.1071496735093198,-3.5949816643806822,7.949951544243882,-4.136513277705712,10.255897587513692],[-9.36939746516709,1.5091125319977525,1.1052735355640146,3.9456680149252654,-9.185984821986214,1.8899577426080285,-10.042110662348438],[-8.575742546441825,1.6878604530192622,-1.1872177240178643,3.302899607579243,-7.408446406347945,2.8799971904684525,-9.512102615134122],[8.999505107407304,-1.7897953419091044,-0.04237403130794515,-3.443022405500717,8.6707669447866,-2.695448126757786,9.9470970421004],[-8.99321205058513,2.3153570776739207,1.0338009253454372,2.590243454276604,-8.98926766541009,2.545629507469943,-11.052027711045673]],"rows":7,"cols":7},{"data":[[-0.6607264976749079,0.7718426528677053,-0.8472855179103632,-6.496252720211187,2.6515516402342483,-7.457228373953311,6.569499703797883],[0.8432837533420613,-1.5523455852694188,0.011845598995856063,-8.25789989229554,1.7290331973777926,-7.330123748506136,5.448120432797529],[-0.22498361139319903,-0.04905816448124621,-0.37132838886764347,-7.891732584220037,1.8389925411533126,-9.261993084843215,6.623249839325142],[1.8205440297179254,-0.17573125496288844,-0.15350839407573375,-5.726553756642459,1.166913660255615,-6.450088498657951,6.618874341100227],[-1.3386035648900496,1.7912447469662172,-0.3300707814954456,0.022990693241098814,-0.05604018043663402,1.701956937062068,-0.20433584153797557],[0.4381521542027214,-1.3219252771539967,0.5297672927030852,6.296069327375594,-2.1797422267541813,6.480285579284566,-3.996517607692778],[-1.5756563336950933,0.9726077791410738,-0.16635486825573978,-5.712270076235748,1.5953190385918743,-6.321209152635949,4.956852918047304]],"rows":7,"cols":7},{"data":[[-0.8283189542788727],[0.9818342348048597],[-8.795264711226586],[-24.919179936374626],[26.189633293526313],[-26.906182001369963],[27.61305383760223]],"rows":7,"cols":1}],"biases":[{"data":[[2.371508298312553,0.08481061494286853,0.03341960749000559,422.76184975516117,-0.2849891596407117,-1.3443057540658148,24.851751564123624]],"rows":1,"cols":7},{"data":[[-20.584996261076462,3.3498344417643087,-7.408288422833298,7.573327297794458,-16.544799398349355,10.092399470187232,-20.681342737982064]],"rows":1,"cols":7},{"data":[[-1.06792469338357,0.6176366550590897,4.912889373460004,20.79272977679146,-6.237482329217662,21.804419553639313,-17.917878789709448]],"rows":1,"cols":7},{"data":[[610.8323793626889]],"rows":1,"cols":1}],"weight_deltas":[{"data":[[0,0,0,0,0,0,0],[0,0,0,0,0,0,0],[0,0,0,0,0,0,0],[0,0,0,0,0,0,0],[0,0,0,0,0,0,0],[0,0,0,0,0,0,0],[0,0,0,0,0,0,0],[0,0,0,0,0,0,0],[0,0,0,0,0,0,0],[0,0,0,0,0,0,0],[0,0,0,0,0,0,0],[0,0,0,0,0,0,0],[0,0,0,0,0,0,0]],"rows":13,"cols":7},{"data":[[0,0,0,0,0,0,0],[0,0,0,0,0,0,0],[0,0,0,0,0,0,0],[0,0,0,0,0,0,0],[0,0,0,0,0,0,0],[0,0,0,0,0,0,0],[0,0,0,0,0,0,0]],"rows":7,"cols":7},{"data":[[0,0,0,0,0,0,0],[0,0,0,0,0,0,0],[0,0,0,0,0,0,0],[0,0,0,0,0,0,0],[0,0,0,0,0,0,0],[0,0,0,0,0,0,0],[0,0,0,0,0,0,0]],"rows":7,"cols":7},{"data":[[0],[0],[0],[0],[0],[0],[0]],"rows":7,"cols":1}],"bias_deltas":[{"data":[[0,0,0,0,0,0,0]],"rows":1,"cols":7},{"data":[[0,0,0,0,0,0,0]],"rows":1,"cols":7},{"data":[[0,0,0,0,0,0,0]],"rows":1,"cols":7},{"data":[[0]],"rows":1,"cols":1}],"process":[{"data":[[12,14,18,0,8,2,4,17,0,19,14,15,18]],"rows":1,"cols":13},{"data":[[1,1,-1,1,1,-0.8267619112220331,1]],"rows":1,"cols":7},{"data":[[-1,0.9999999999999244,-0.9999999441031809,1,-1,1,-1]],"rows":1,"cols":7},{"data":[[0.9999828739842276,-0.9999855507060074,0.9999983894268337,1,-0.9999999998147017,1,-1]],"rows":1,"cols":7},{"data":[[1]],"rows":1,"cols":1}]},"generator":{"type":"Fully_Connected_Network","activation_function_name":"swish","activation_function":{},"learning_rate":0.5,"length":4,"width":13,"weights":[{"data":[[-79619238380.53473,0.26626274852497916,-14139373.289873943,-80115354400.15938,-6393184329.882447,0.0881325805296316,-21014307732.57092,-4563262488.045193,-21119418794.23946,-23391670004.294117,-923549605.1563041,-4964544370.1004,-17643918681.138382],[-73601430392.99506,-0.8769562298598,-13070687.008733166,-74060048805.32431,-5909972528.082496,-0.011197651035075517,-19425997273.96519,-4218360370.539291,-19523163797.7726,-21623672953.635075,-853745569.6921542,-4589312513.443286,-16310350099.821972],[-87375102937.85492,-1.0670927588061578,-15516716.234616162,-87919546584.48615,-7015956825.509862,-0.24370579181224283,-23061352237.387344,-5007778736.585919,-23176702374.98363,-25670297984.40192,-1013514364.2654182,-5448150274.287901,-19362647048.10815],[-76291144554.414,-0.16592315220547138,-13548345.335667152,-76766522867.52063,-6125948451.746747,0.32513985258190814,-20135907119.165432,-4372517577.18722,-20236624526.847744,-22413895358.611313,-884945119.217655,-4757025814.377684,-16906400739.147303],[-80258784525.41328,-1.186597475403504,-14252948.24835385,-80758885624.71968,-6444537954.053842,-0.21554980633170906,-21183106375.21272,-4599917042.085954,-21289061749.402283,-23579564947.636406,-930968070.6636004,-5004422361.597437,-17785644480.46123],[-88251412185.596,-0.9514901142271062,-15672338.652602907,-88801316207.68285,-7086321809.423289,-0.6188512202233412,-23292640964.202316,-5058003131.919748,-23409147978.61891,-25927752553.125496,-1023679181.7233434,-5502791290.388648,-19556840429.19791],[-87465101399.88107,0.37805243914622033,-15532698.620876348,-88010105835.16444,-7023183429.4619875,-0.0811461485257429,-23085105986.708614,-5012936805.848353,-23200574935.65996,-25696739010.322113,-1014558308.625718,-5453761999.418509,-19382591041.019997],[-120596659019.4752,-0.42234526625007157,-21416447.06995319,-121348109746.53271,-9683547425.859432,-0.5306425987739594,-31829685332.805435,-6911824509.122179,-31988893626.32681,-35430598292.02026,-1398870412.1633053,-7519633154.210978,-26724667157.071316],[-23407400132.795887,-0.4807145491757916,-4156860.035319543,-23553254156.79563,-1879543521.9886243,-0.051521871726065704,-6178033344.7351465,-1341561608.197479,-6208935131.19951,-6876958267.332733,-271515976.064311,-1459535143.8165472,-5187166731.672604],[-134277161935.28828,-0.9797222264450058,-23845932.05151736,-135113857344.74289,-10782050481.744442,-0.421864595042968,-35440449566.02962,-7695902917.81085,-35617718470.509995,-39449850625.92687,-1557558479.6286595,-8372661456.600237,-29756317369.802475],[-120755102594.80284,-0.4449849676102568,-21444584.14324038,-121507540600.11618,-9696269964.222435,-0.4000824552840693,-31871504144.84613,-6920905506.730201,-32030921612.22183,-35477148093.85391,-1400708289.4637341,-7529512676.942385,-26759778840.496746],[-140828895153.8728,-1.6026749699245189,-25009435.964508675,-141706415116.0229,-11308134868.109232,-0.20021833892130286,-37169681604.22717,-8071406128.221774,-37355599924.915344,-41374711808.80683,-1633555822.7191749,-8781185463.669853,-31208205763.734783],[-129929059073.62929,-0.21538475437040022,-23073763.03835487,-130738660989.77794,-10432910959.146479,-0.36717468527343167,-34292832815.665344,-7446697639.393296,-34464361479.108345,-38172403247.77579,-1507122319.4102087,-8101541687.851766,-28792761640.27246]],"rows":13,"cols":13},{"data":[[-363925448.1717734,-68048156.47684108,-206130629.28943524,183060.77049124046,-639533700.122017,-37526674.53385592,-57812202.87856308,-50097932.67986024,569206.9605365434,-106342809.61841534,-57740443.90157873,-1963161502.2731612,-582380219.4498152],[-0.8608582145133903,0.7602670689855044,0.911286151590602,-0.2961320519477898,0.10360316455426816,-0.05089514690429725,-0.9820696139529773,0.8635565438808093,-0.9304525043330636,0.36515429519501785,-0.19044319277383642,0.06438714485311459,0.12770326468788257],[-64629.418747985204,-12084.49851970189,-36606.42629242558,31.411946761748187,-113573.415401343,-6664.265287774615,-10266.276184135206,-8895.946035798117,101.07621266823931,-18885.467178261082,-10253.21958231919,-348632.449564278,-103423.40894092892],[-366193105.82952845,-68472172.36163926,-207415053.6398778,184198.50021802192,-643518691.929105,-37760509.90662558,-58172439.368457854,-50410099.67825202,572752.1353723641,-107005447.18951803,-58100229.745425545,-1975394175.6193726,-586009096.7084467],[-29222112.107706588,-5464062.697570296,-16551670.407793134,14696.466572370255,-51352613.83774952,-3013280.118035841,-4642148.192543317,-4022714.4922701335,45704.02322782485,-8539011.517569043,-4636382.515660036,-157635941.32332477,-46763375.61197123],[0.805982871346618,0.15112729378463516,-0.6659301750731274,-1.853739298850161,-0.33496549285950367,-0.4175067780559287,-1.1856615454152453,-1.1208049629266534,0.1779238109251438,-2.260415651127632,-0.8517604561121758,0.3695907618895836,-0.31749314468957435],[-96052682.16282402,-17960293.97989579,-54405098.80394562,48315.326134478,-168795361.64005223,-9904605.792410133,-15258666.042073395,-13222601.206303423,150233.1288070331,-28067594.738599554,-15239727.804448305,-518147129.88230515,-153710553.03728664],[-20857864.446154896,-3900081.679311303,-11814081.018446451,10491.58980387158,-36653960.18086011,-2150786.89953913,-3313424.184459251,-2871291.5164644085,32622.194148423896,-6094885.907535461,-3309311.9659556486,-112515784.5256891,-33378285.514184993],[-96533125.5955597,-18050128.7668708,-54677225.15274284,48557.319700488486,-169639654.8694302,-9954146.713748442,-15334989.461953107,-13288738.580699274,150985.779172081,-28207985.396457728,-15315953.851128012,-520738840.84182584,-154479394.90243265],[-106919183.19008496,-19992154.24802018,-60559982.49921439,53782.405809306096,-187891287.4642872,-11025118.783525346,-16984889.96418231,-14718482.45963208,167230.332131035,-31242899.504721694,-16963806.492778547,-576765452.3426803,-171099928.4276194],[-4221381.189399306,-789331.4976511097,-2391029.807636383,2116.6626454008197,-7418316.059993265,-435296.35175451793,-670603.487924898,-581117.3535798717,6600.686944952234,-1233538.9105009064,-669764.9330149735,-22771846.92548461,-6755367.193141167],[-22692053.2366776,-4243045.708689861,-12852984.22419836,11413.373767886898,-39877209.14237895,-2339922.98662489,-3604797.8597175684,-3123786.866505054,35492.95734294035,-6630856.120689813,-3600321.8103859317,-122410144.85052788,-36313492.11385845],[-80647229.34276268,-15079724.11984355,-45679313.11975044,40567.67053756534,-141723040.1217911,-8316050.48821416,-12811399.201634388,-11101887.73427237,126138.7481632087,-23565961.358940735,-12795496.460727444,-435043874.3044351,-129057617.9907443]],"rows":13,"cols":13},{"data":[[-980987.6851217261,-8379711.82499139,40.14705051542886,-1081884.5125459614,-13732402.142764876,-3907506.687236286,-2241732.532980379,-901487.4411508178,-848841.291396893,-6162705.402365575,-1032429.5236273042,184.06199758000142,-249448.66558520676],[-114717.72521935106,-979916.0777826209,4.626364695329484,-126518.430006139,-1605844.3664667835,-456945.7911452229,-262146.49516329885,-105416.70261307988,-99262.27448152716,-720651.5131670146,-120726.51328146025,20.22482846750431,-29168.04220520158],[-365878.5362305777,-3125321.1182519165,16.821691315493073,-403511.06343408953,-5121642.424265801,-1457368.8908086063,-836082.8553688435,-336214.804577166,-316581.2960494923,-2298425.585866607,-385041.8316817947,62.62046207043275,-93026.52196069763],[0.5803568570134752,0.28435846087233974,0.8139350516681442,-0.0353212875994638,-0.9552588862908007,0.019749914418451447,0.599933448646664,0.9551363054656206,0.5285804724119668,-0.21426444720596594,0.7714644224049902,0.5644858938613423,-0.22811798625607346],[-2115154.29881559,-18067980.471569467,83.91594021876588,-2332695.8393437644,-29609297.255207885,-8425174.014051659,-4833531.055069115,-1943763.2316980923,-1830248.2536655571,-13287833.352604805,-2226112.078062848,404.7153439484444,-537870.2978972887],[-73153.46583189875,-624872.726549055,4.236671991202528,-80677.38527502015,-1024015.1297541233,-291382.90348227584,-167164.2201257026,-67221.91868889809,-63297.33600127916,-459545.23010586115,-76984.74101524462,12.67864585155736,-18599.839842336318],[-114212.64210273077,-975584.7542598989,4.50581699275769,-125958.88020651111,-1598750.558589351,-454925.5504352934,-260987.26638861594,-104952.03129479392,-98825.75549640732,-717469.6555996945,-120195.50539302875,18.0619392340614,-29040.119139188777],[-95079.26713775165,-812153.7569476122,3.403963037563973,-104857.57145748135,-1330921.896862666,-378714.66024785506,-217266.7889460192,-87370.63408332386,-82268.48046545843,-597276.1154439385,-100059.94487569199,16.275974518783823,-24175.21418081781],[-0.14520071526088427,-0.1223542546812625,0.07761509765038699,0.6331789961293225,-1.0182172965808642,-0.96073083546722,-0.6846736732850012,0.9258033953816456,-0.7699108770611852,-0.7043475100529917,-0.16243340134994827,-0.807993546280027,0.5973176141954623],[-200928.573807774,-1716316.247854293,9.689466216171079,-221593.58582740466,-2812625.7543042856,-800333.6386335493,-459147.39335350005,-184638.40182950484,-173856.7233469858,-1262218.2760294843,-211452.76217915607,35.0101095066387,-51088.12862223533],[-218539.27596704676,-1866803.5939746944,7.950822685746725,-241015.02811576155,-3059267.356834613,-870496.7648894408,-499405.4514299713,-200832.03334185612,-189103.32224139042,-1372915.856779123,-230006.40945544394,42.838987923220735,-55574.0249555483],[-4676534.827295873,-39947332.32619826,201.42989255351424,-5157535.521154346,-65464307.24822356,-18627710.999916513,-10686678.195836056,-4297503.817139754,-4046540.826593797,-29378432.539258827,-4921691.748882184,855.0153585123303,-1189134.8611047256],[-1264216.4773111343,-10798995.07186824,56.496296805087425,-1394247.0596749492,-17696996.23997477,-5035654.984161241,-2888939.4802389047,-1161744.1543651647,-1093900.9332186172,-7941872.824959725,-1330473.4750164982,227.5918542510779,-321453.84108863224]],"rows":13,"cols":13},{"data":[[-724.4234451551212,1429.615626376042,-99.71690082868272,-236.14534485604986,-545.2446882489087,-1217.9435536793605,844.2896010602511,220.34293060636935,86.75013174338214,1493.4312936162705,-1105.727981827747,893.8966965639652,-2162.655026256562],[-849.8442324474195,6661.224759628304,-847.6387278973675,-1846.6085715912388,-2869.7919651635157,-5633.6024251244535,3555.4269198252528,-2811.468209425696,2560.136352071308,6550.53491477012,-4467.808967839045,3310.6768980311135,-8829.469952510924],[123.82533720755245,24.003774692473034,-25.728630326679685,-46.098231142380904,-30.50671218789084,-22.91904004597326,0.2200332126284901,-207.36826966182076,124.19948566363614,8.88471404184257,11.445518777190651,-24.28677410193328,24.590829382428467],[-792.0354912542653,1570.4145486192913,-109.3831342980189,-266.6065331563151,-599.8219088404488,-1342.0298643305152,928.9506614196854,243.7072483530063,93.72642075569799,1647.3368369498896,-1220.3796432007086,994.4805958792516,-2380.5438210868438],[854.0711130800555,11467.374789996453,-1792.7532960941498,-3873.7430996771977,-5227.424628240652,-9667.46438333203,5760.657321883247,-8353.330222100076,6355.504156387801,10907.333002529958,-7066.681496947982,4925.254375029279,-14055.586833740734],[-1326.379599581781,2877.7333584451653,-216.63256869366913,-515.5181091708572,-1112.5159630683156,-2448.2262103866283,1674.9680931789578,249.52969330346042,278.63509709276394,2983.8772826113363,-2188.2504770147666,1753.7794002949604,-4285.6784535233755],[-239.83784610670955,1777.386121909713,-223.05402234674807,-489.35166097547983,-763.9513892414832,-1505.0046525631863,950.398854706198,-731.1656415869439,672.6699848641096,1750.6946094086868,-1197.9275409655136,888.8550144930987,-2363.938203711985],[343.9040595659193,806.484859202389,-184.39709353466458,-357.90260240400397,-416.55930351011915,-682.517157619247,384.98189545030783,-1031.791673112021,717.5044692349647,736.9771295840811,-437.2266057337674,272.09245975456497,-866.0013757016466],[217.16923473133738,747.4695207827224,-146.74961861493648,-297.0318077289747,-365.0644307451365,-628.3432912325088,356.35191741548937,-798.2319836455775,563.1668989214035,684.8148138291541,-420.0064490353245,265.28315206250744,-838.3776268148766],[1591.111388848169,5440.271440198847,-1024.6374293990557,-2193.1835669023276,-2630.314762344394,-4570.92091025921,2552.5247171469528,-5766.5957991098,4022.668108086886,4986.342399663407,-3034.3800289756787,1940.318508103835,-6084.5649432236005],[959.1820355113371,1077.4325419256973,-305.9231787263321,-623.5135890549108,-607.5558097692762,-898.7038575540021,414.16922856819394,-2131.3472435399603,1357.9721674903567,885.8629990966293,-432.4180224200678,167.89131284091798,-891.5880198432512],[0.4446424484619395,-0.8249109419501577,0.8749817675594719,0.9132900029461305,-0.65248785068368,0.6279209572466086,-0.0888243375799964,-0.17749263321047581,-0.1484661636990987,-0.42324825942549094,0.6204304745467761,-0.004168094442483627,-0.17098190332195337],[569.7820349492368,337.9550213740193,-126.89741038031278,-285.2255393055181,-218.28186602268386,-282.0747417371144,85.13410092487727,-1066.4416420310167,636.972520484719,242.51123804940767,-66.23055058210514,-25.428346012934846,-152.31880582701544]],"rows":13,"cols":13}],"biases":[{"data":[[-105830772425.46478,-0.1482631606019435,-18794211.365178138,-106490215328.1788,-8497891336.117577,-1.4174193091379472,-27932450302.730755,-6065538924.182967,-28072165092.039345,-31092466533.9087,-1227592352.9350173,-6598927297.307062,-23452491893.77995]],"rows":1,"cols":13},{"data":[[-13687.25415903451,-2560.3109208594847,-7754.125896974063,4.221147910559063,-24050.414808388025,-1413.6807323007795,-2177.292417438399,-1884.9889080794835,20.348960470097033,-4002.8014413088777,-2171.5983267651145,-73844.9246922561,-21907.745617745466]],"rows":1,"cols":13},{"data":[[-3.8201144231746933,-21.48151053307559,-0.3434800500210528,-3.5653238361026487,-34.020796384336265,-10.952453033693454,-4.802659557954817,-2.799956060295432,-4.030952183286567,-14.280520354593369,-2.640288829232068,-0.19606082966615096,-0.8652144166544213]],"rows":1,"cols":13},{"data":[[-0.21883810260923867,-0.18707502679397875,-0.6930470761406431,0.35117672182776255,1.09024690507321,0.5287479689119485,-0.8549449058539895,0.3457749008673603,0.026664679158826393,0.6157509080244653,-0.2827963264928258,-0.07583660541405504,-0.377497706467269]],"rows":1,"cols":13}],"weight_deltas":[{"data":[[0,0,0,0,0,0,0,0,0,0,0,0,0],[0,0,0,0,0,0,0,0,0,0,0,0,0],[0,0,0,0,0,0,0,0,0,0,0,0,0],[0,0,0,0,0,0,0,0,0,0,0,0,0],[0,0,0,0,0,0,0,0,0,0,0,0,0],[0,0,0,0,0,0,0,0,0,0,0,0,0],[0,0,0,0,0,0,0,0,0,0,0,0,0],[0,0,0,0,0,0,0,0,0,0,0,0,0],[0,0,0,0,0,0,0,0,0,0,0,0,0],[0,0,0,0,0,0,0,0,0,0,0,0,0],[0,0,0,0,0,0,0,0,0,0,0,0,0],[0,0,0,0,0,0,0,0,0,0,0,0,0],[0,0,0,0,0,0,0,0,0,0,0,0,0]],"rows":13,"cols":13},{"data":[[0,0,0,0,0,0,0,0,0,0,0,0,0],[0,0,0,0,0,0,0,0,0,0,0,0,0],[0,0,0,0,0,0,0,0,0,0,0,0,0],[0,0,0,0,0,0,0,0,0,0,0,0,0],[0,0,0,0,0,0,0,0,0,0,0,0,0],[0,0,0,0,0,0,0,0,0,0,0,0,0],[0,0,0,0,0,0,0,0,0,0,0,0,0],[0,0,0,0,0,0,0,0,0,0,0,0,0],[0,0,0,0,0,0,0,0,0,0,0,0,0],[0,0,0,0,0,0,0,0,0,0,0,0,0],[0,0,0,0,0,0,0,0,0,0,0,0,0],[0,0,0,0,0,0,0,0,0,0,0,0,0],[0,0,0,0,0,0,0,0,0,0,0,0,0]],"rows":13,"cols":13},{"data":[[0,0,0,0,0,0,0,0,0,0,0,0,0],[0,0,0,0,0,0,0,0,0,0,0,0,0],[0,0,0,0,0,0,0,0,0,0,0,0,0],[0,0,0,0,0,0,0,0,0,0,0,0,0],[0,0,0,0,0,0,0,0,0,0,0,0,0],[0,0,0,0,0,0,0,0,0,0,0,0,0],[0,0,0,0,0,0,0,0,0,0,0,0,0],[0,0,0,0,0,0,0,0,0,0,0,0,0],[0,0,0,0,0,0,0,0,0,0,0,0,0],[0,0,0,0,0,0,0,0,0,0,0,0,0],[0,0,0,0,0,0,0,0,0,0,0,0,0],[0,0,0,0,0,0,0,0,0,0,0,0,0],[0,0,0,0,0,0,0,0,0,0,0,0,0]],"rows":13,"cols":13},{"data":[[0,0,0,0,0,0,0,0,0,0,0,0,0],[0,0,0,0,0,0,0,0,0,0,0,0,0],[0,0,0,0,0,0,0,0,0,0,0,0,0],[0,0,0,0,0,0,0,0,0,0,0,0,0],[0,0,0,0,0,0,0,0,0,0,0,0,0],[0,0,0,0,0,0,0,0,0,0,0,0,0],[0,0,0,0,0,0,0,0,0,0,0,0,0],[0,0,0,0,0,0,0,0,0,0,0,0,0],[0,0,0,0,0,0,0,0,0,0,0,0,0],[0,0,0,0,0,0,0,0,0,0,0,0,0],[0,0,0,0,0,0,0,0,0,0,0,0,0],[0,0,0,0,0,0,0,0,0,0,0,0,0],[0,0,0,0,0,0,0,0,0,0,0,0,0]],"rows":13,"cols":13}],"bias_deltas":[{"data":[[0,0,0,0,0,0,0,0,0,0,0,0,0]],"rows":1,"cols":13},{"data":[[0,0,0,0,0,0,0,0,0,0,0,0,0]],"rows":1,"cols":13},{"data":[[0,0,0,0,0,0,0,0,0,0,0,0,0]],"rows":1,"cols":13},{"data":[[0,0,0,0,0,0,0,0,0,0,0,0,0]],"rows":1,"cols":13}],"process":[{"data":[[33.0452430295491,0.8888234521793388,11.547533081952274,10.95851261647113,14.17438809116667,-0.5691518974285401,22.311858908494006,27.089320207494602,9.457862146524022,25.868079124662234,20.973644979407492,19.555909666837614,15.047459061482254]],"rows":1,"cols":13},{"data":[[0,-7.016216686568631e-42,0,0,0,-5.414002310038342e-19,0,0,0,0,0,0,0]],"rows":1,"cols":13},{"data":[[0,0,0,4.160070662335077,0,0,0,0,20.34896044073736,0,0,0,0]],"rows":1,"cols":13},{"data":[[-0.054991104747857185,-2.88975548794461e-9,4.576925430736497,9.171317781870666,-1.859522498594892e-24,-1.87004081071716e-12,-0.0000014385737578012958,20.01261463381658,-4.3987822733292203e-7,-4.531038292745594e-12,-0.16654568241049733,-0.000008894675029920093,10.340257033079942]],"rows":1,"cols":13},{"data":[[5956.712891522249,33888.798975314676,0,0,0,0,16989.248613114567,0,22142.737153549147,32176.33294394084,0,14114.689536996011,0]],"rows":1,"cols":13}]}}