{"type":"Generative_Adverserial_Network","activation_function_name":"identity","activation_function":{},"learning_rate":1,"discriminator":{"type":"Fully_Connected_Network","activation_function_name":"tanh","activation_function":{},"learning_rate":0.5,"length":4,"width":7,"weights":[{"data":[[0.5221444208307167,-0.5522608748783832,-0.7183066642069196,0.6266119001654644,-0.16192509719346407,-0.6998316895359267,-0.14384552962732905],[2.5553415326135216,2.629713967718461,-0.6761027138589228,4948.276498030586,0.8068171738370378,-0.8676968016070561,17.43282938351596],[1.5227083409326858,1.1243668727719027,-0.6192798331968326,4355.78941278056,0.43524343832625695,0.4655488998983032,11.860401039447098],[0.11517402990459681,-0.3611517876886403,-0.3294399085223907,1649.174010959347,0.32838563045743463,0.44037488054283275,0.5881153775357391],[1.73727922272293,0.5799291115509744,-0.8565790672592983,2477.7167882417293,0.8423276564525489,-0.8661356791743516,19.759801288298945],[-0.5970437502112416,0.2346826980439846,-0.9210987189840396,506.27021087434053,-0.005066391466168474,0.8255596130587433,-0.9298246163749384],[1.5039583576139186,-0.4333528839746973,0.5985639256294797,882.3542912495974,-0.06923678000694716,0.6183288159756135,20.876975905718805],[0.6733657831484714,1.0207482065881173,0.06713797680030399,0.7774428268505978,-0.5476269308404027,0.3571261071370381,21.891462471541573],[0.8656445648372326,-0.18691391602175658,0.9762663989689986,0.3817351201788397,-0.39853898330512777,0.4302992060069842,-0.39533073608789115],[2.750097020323013,2.249983555396752,-0.17474516123626943,2391.1887095359903,0.5173491959889888,-0.29224927192633443,28.22203214571332],[-0.8388279910483916,-0.21676313985827722,-0.6514855953774614,0.6533295172096502,-0.2948850044547709,0.8562176479748762,-0.6217776465321233],[0.7048222904638313,-0.25915206105545097,-0.863986513144189,1767.6982337585707,0.22500263190975803,-0.8649013428404319,-0.05828344229094982],[0.905452153469902,0.19439505895293335,0.2787696357402607,485.2313549720357,-0.19009439237582282,0.8669478188286028,0.512715951543186]],"rows":13,"cols":7},{"data":[[-10.462647311680087,1.2658447722559156,-0.9255190055305422,3.089285676110162,-9.314940326146724,2.8473215720600735,-11.29855658211412],[-8.721925463635653,2.6788000509722045,-0.2392868689640262,3.4985466481096696,-7.691698779851042,2.5742211050117576,-11.076231237689145],[8.696583747117767,-1.1666819461782705,1.1056002939536302,-3.5949816643806822,7.949951544243882,-4.136513277705712,10.255897587513692],[-9.36939746516709,1.5091125329559123,1.1068229151197042,3.9456680149252654,-9.185984821986214,1.8899577426080285,-10.042110662348438],[-8.575742546441825,1.687860453977422,-1.1856683444621747,3.302899607579243,-7.408446406347945,2.8799971904684525,-9.512102615134122],[8.999505107407304,-1.7897953428672642,-0.043923410863642307,-3.443022405500717,8.6707669447866,-2.695448126757786,9.9470970421004],[-8.99321205058513,2.3153570786310644,1.0353503049011268,2.590243454276604,-8.98926766541009,2.545629507469943,-11.052027711045673]],"rows":7,"cols":7},{"data":[[-0.6589804201102232,0.7700964468083528,-0.8455419752394714,-6.496252720211187,2.651551052196285,-7.457228373953311,6.569499703797883],[0.8415376757773766,-1.5505993792100654,0.010102056324962186,-8.25789989229554,1.7290337854157565,-7.330123748506136,5.448120432797529],[-0.2232375339291061,-0.05080437043999985,-0.36958484629719507,-7.891732584220037,1.8389919531153816,-9.261993084843215,6.623249839325142],[1.8187979521532494,-0.1739850489035347,-0.15525193674662738,-5.726553756642459,1.1669142482935788,-6.450088498657951,6.618874341100227],[-1.3368574873253736,1.7894985409068636,-0.3283272388245514,0.022990693241098814,-0.05604076847459895,1.701956937062068,-0.20433584153797557],[0.4364060766380348,-1.320179071094643,0.5280237500321934,6.296069327375594,-2.179741638716218,6.480285579284566,-3.996517607692778],[-1.5739102561304172,0.9708615730817213,-0.16461132558484615,-5.712270076235748,1.5953184505539104,-6.321209152635949,4.956852918047304]],"rows":7,"cols":7},{"data":[[-0.8283189542788727],[0.9818342348048597],[-8.795264711226586],[-24.919179936374626],[26.189633293526313],[-26.906182001369963],[27.61305383760223]],"rows":7,"cols":1}],"biases":[{"data":[[2.371508298312553,0.08481061494286853,0.03341960749000559,422.76184975516117,-0.2849891596407117,-1.3443057540658148,24.851751564123624]],"rows":1,"cols":7},{"data":[[-20.584996261076462,3.349834444623547,-7.403665327178612,7.573327297794458,-16.544799398349355,10.092399470187232,-20.681342737982064]],"rows":1,"cols":7},{"data":[[-1.0714232350608215,0.6211354541954897,4.909395910838808,20.79272977679146,-6.237481150990129,21.804419553639313,-17.917878789709448]],"rows":1,"cols":7},{"data":[[610.8323793626889]],"rows":1,"cols":1}],"weight_deltas":[{"data":[[0,0,0,0,0,0,0],[0,0,0,0,0,0,0],[0,0,0,0,0,0,0],[0,0,0,0,0,0,0],[0,0,0,0,0,0,0],[0,0,0,0,0,0,0],[0,0,0,0,0,0,0],[0,0,0,0,0,0,0],[0,0,0,0,0,0,0],[0,0,0,0,0,0,0],[0,0,0,0,0,0,0],[0,0,0,0,0,0,0],[0,0,0,0,0,0,0]],"rows":13,"cols":7},{"data":[[0,0,0,0,0,0,0],[0,0,0,0,0,0,0],[0,0,0,0,0,0,0],[0,0,0,0,0,0,0],[0,0,0,0,0,0,0],[0,0,0,0,0,0,0],[0,0,0,0,0,0,0]],"rows":7,"cols":7},{"data":[[0,0,0,0,0,0,0],[0,0,0,0,0,0,0],[0,0,0,0,0,0,0],[0,0,0,0,0,0,0],[0,0,0,0,0,0,0],[0,0,0,0,0,0,0],[0,0,0,0,0,0,0]],"rows":7,"cols":7},{"data":[[0],[0],[0],[0],[0],[0],[0]],"rows":7,"cols":1}],"bias_deltas":[{"data":[[0,0,0,0,0,0,0]],"rows":1,"cols":7},{"data":[[0,0,0,0,0,0,0]],"rows":1,"cols":7},{"data":[[0,0,0,0,0,0,0]],"rows":1,"cols":7},{"data":[[0]],"rows":1,"cols":1}],"process":[{"data":[[7,0,11,19,8,2,14,18,0,20,17,20,18]],"rows":1,"cols":13},{"data":[[1,1,-1,1,0.9999999999118777,1,1]],"rows":1,"cols":7},{"data":[[-1,0.9999999999477115,-0.9999999509209172,1,-1,1,-1]],"rows":1,"cols":7},{"data":[[0.9999823269551327,-0.9999850891399854,0.999998338058311,1,-0.9999999998146998,1,-1]],"rows":1,"cols":7},{"data":[[1]],"rows":1,"cols":1}]},"generator":{"type":"Fully_Connected_Network","activation_function_name":"swish","activation_function":{},"learning_rate":0.5,"length":4,"width":13,"weights":[{"data":[[-79619238380.33829,0.266262748516154,-14139373.289839054,-80115354399.9617,-6393184329.866674,0.08813258052520286,-21014307732.519062,-4563262488.033935,-21119418794.18735,-23391670004.23641,-923549605.1540254,-4964544370.088152,-17643918681.094852],[-73601430392.75168,-0.876956229870201,-13070687.008689947,-74060048805.07939,-5909972528.062954,-0.011197651040653992,-19425997273.90096,-4218360370.525342,-19523163797.708035,-21623672953.56357,-853745569.689331,-4589312513.428112,-16310350099.768038],[-87375102937.47475,-1.0670927588228736,-15516716.234548654,-87919546584.10362,-7015956825.479337,-0.24370579182100413,-23061352237.287014,-5007778736.564133,-23176702374.882793,-25670297984.290253,-1013514364.2610086,-5448150274.264197,-19362647048.023907],[-76291144554.06956,-0.16592315221708195,-13548345.335605979,-76766522867.174,-6125948451.719089,0.32513985257412453,-20135907119.074512,-4372517577.167478,-20236624526.756367,-22413895358.510105,-884945119.213659,-4757025814.356206,-16906400739.070967],[-80258784525.05876,-1.1865974754173927,-14252948.248290885,-80758885624.36293,-6444537954.025374,-0.21554980633981205,-21183106375.119137,-4599917042.065633,-21289061749.308243,-23579564947.532246,-930968070.6594877,-5004422361.575331,-17785644480.38267],[-88251412185.2596,-0.9514901142398912,-15672338.652543161,-88801316207.34435,-7086321809.396279,-0.6188512202310907,-23292640964.113533,-5058003131.900466,-23409147978.529675,-25927752553.02667,-1023679181.7194412,-5502791290.367672,-19556840429.12336],[-87465101399.46375,0.378052439132095,-15532698.620802239,-88010105834.74455,-7023183429.428477,-0.08114614853528408,-23085105986.598473,-5012936805.824436,-23200574935.549267,-25696739010.19951,-1014558308.6208775,-5453761999.392488,-19382591040.927525],[-120596659018.9446,-0.4223452662691329,-21416447.06985896,-121348109745.99878,-9683547425.816828,-0.5306425987861274,-31829685332.66539,-6911824509.091767,-31988893626.18606,-35430598291.86437,-1398870412.1571507,-7519633154.177891,-26724667156.953728],[-23407400132.740494,-0.4807145491777464,-4156860.0353097054,-23553254156.739895,-1879543521.9841766,-0.05152187172720133,-6178033344.720527,-1341561608.194304,-6208935131.184815,-6876958267.31646,-271515976.06366843,-1459535143.8130932,-5187166731.660329],[-134277161934.79561,-0.9797222264630636,-23845932.051429864,-135113857344.24716,-10782050481.704882,-0.42186459505424617,-35440449565.8996,-7695902917.782614,-35617718470.37932,-39449850625.78212,-1557558479.6229444,-8372661456.569516,-29756317369.693287],[-120755102594.30946,-0.4449849676279385,-21444584.143152762,-121507540599.61972,-9696269964.182816,-0.400082455295412,-31871504144.71591,-6920905506.701923,-32030921612.09096,-35477148093.708954,-1400708289.4580107,-7529512676.911619,-26759778840.387417],[-140828895153.2071,-1.6026749699490017,-25009435.964390464,-141706415115.35312,-11308134868.055782,-0.2002183389365388,-37169681604.05148,-8071406128.183622,-37355599924.73878,-41374711808.61126,-1633555822.711454,-8781185463.628345,-31208205763.587273],[-129929059073.04445,-0.21538475439122484,-23073763.03825101,-130738660989.18945,-10432910959.099518,-0.36717468528686326,-34292832815.510983,-7446697639.3597765,-34464361478.95321,-38172403247.603966,-1507122319.4034245,-8101541687.815294,-28792761640.14285]],"rows":13,"cols":13},{"data":[[-363925448.1717734,-68048156.47684108,-206130629.28943524,183060.77049124046,-639533700.122017,-37526674.53385592,-57812202.87856308,-50097932.67986024,569206.9605365434,-106342809.61841534,-57740443.90157873,-1963161502.2731612,-582380219.4498152],[-0.8608582145133903,0.7602670689855044,0.911286151590602,-0.2961320519477898,0.10360316455426817,-0.05089514690429725,-0.9820696139529773,0.8635565438808093,-0.9304525043330636,0.36515429519501785,-0.19044319277383642,0.06438714485311463,0.1277032646878826],[-64629.418747985204,-12084.49851970189,-36606.42629242558,31.411946761748187,-113573.415401343,-6664.265287774615,-10266.276184135206,-8895.946035798117,101.07621266823931,-18885.467178261082,-10253.21958231919,-348632.449564278,-103423.40894092892],[-366193105.82952845,-68472172.36163926,-207415053.6398778,184198.50021802192,-643518691.929105,-37760509.90662558,-58172439.368457854,-50410099.67825202,572752.1353723641,-107005447.18951803,-58100229.745425545,-1975394175.6193726,-586009096.7084467],[-29222112.107706588,-5464062.697570296,-16551670.407793134,14696.466572370255,-51352613.83774952,-3013280.118035841,-4642148.192543317,-4022714.4922701335,45704.02322782485,-8539011.517569043,-4636382.515660036,-157635941.32332477,-46763375.61197123],[0.8059828788653708,0.1511272946638681,-0.6659301722689239,-1.8537392988501609,-0.33496547664786047,-0.41750677749525983,-1.1856615445398975,-1.1208049621979463,0.17792381092514492,-2.2604156495876624,-0.8517604544371705,0.3695907977325639,-0.31749313500012016],[-96052682.16282402,-17960293.97989579,-54405098.80394562,48315.326134478,-168795361.64005223,-9904605.792410133,-15258666.042073395,-13222601.206303423,150233.1288070331,-28067594.738599554,-15239727.804448305,-518147129.88230515,-153710553.03728664],[-20857864.446154896,-3900081.679311303,-11814081.018446451,10491.58980387158,-36653960.18086011,-2150786.89953913,-3313424.184459251,-2871291.5164644085,32622.194148423896,-6094885.907535461,-3309311.9659556486,-112515784.5256891,-33378285.514184993],[-96533125.5955597,-18050128.7668708,-54677225.15274284,48557.319700488486,-169639654.8694302,-9954146.713748442,-15334989.461953107,-13288738.580699274,150985.779172081,-28207985.396457728,-15315953.851128012,-520738840.84182584,-154479394.90243265],[-106919183.19008496,-19992154.24802018,-60559982.49921439,53782.405809306096,-187891287.4642872,-11025118.783525346,-16984889.96418231,-14718482.45963208,167230.332131035,-31242899.504721694,-16963806.492778547,-576765452.3426803,-171099928.4276194],[-4221381.189399306,-789331.4976511097,-2391029.807636383,2116.6626454008197,-7418316.059993265,-435296.35175451793,-670603.487924898,-581117.3535798717,6600.686944952234,-1233538.9105009064,-669764.9330149735,-22771846.92548461,-6755367.193141167],[-22692053.2366776,-4243045.708689861,-12852984.22419836,11413.373767886898,-39877209.14237895,-2339922.98662489,-3604797.8597175684,-3123786.866505054,35492.95734294035,-6630856.120689813,-3600321.8103859317,-122410144.85052788,-36313492.11385845],[-80647229.34276268,-15079724.11984355,-45679313.11975044,40567.67053756534,-141723040.1217911,-8316050.48821416,-12811399.201634388,-11101887.73427237,126138.7481632087,-23565961.358940735,-12795496.460727444,-435043874.3044351,-129057617.9907443]],"rows":13,"cols":13},{"data":[[-980987.6851217261,-8379711.82499139,40.14705051542886,-1081884.5125459614,-13732402.142764876,-3907506.687236286,-2241732.532980379,-901487.4411508178,-848841.291396893,-6162705.402365575,-1032429.5236273042,184.06199758000142,-249448.66558520676],[-114717.72521935106,-979916.0777826209,4.626364695329484,-126518.430006139,-1605844.3664667835,-456945.7911452229,-262146.49516329885,-105416.70261307988,-99262.27448152716,-720651.5131670146,-120726.51328146025,20.22482846750431,-29168.04220520158],[-365878.5362305777,-3125321.1182519165,16.821691315493073,-403511.06343408953,-5121642.424265801,-1457368.8908086063,-836082.8553688435,-336214.804577166,-316581.2960494923,-2298425.585866607,-385041.8316817947,62.62046207043275,-93026.52196069763],[0.580356857017313,0.2843584608976836,0.8139350516688674,-0.03532128759002824,-0.9552588862424601,0.01974991442744412,0.5999334486534303,0.9551363054735094,0.5285804724154938,-0.21426444718058554,0.7714644224087815,0.564485893861324,-0.22811798625105562],[-2115154.29881559,-18067980.471569467,83.91594021876588,-2332695.8393437644,-29609297.255207885,-8425174.014051659,-4833531.055069115,-1943763.2316980923,-1830248.2536655571,-13287833.352604805,-2226112.078062848,404.7153439484444,-537870.2978972887],[-73153.46583189875,-624872.726549055,4.236671991202528,-80677.38527502015,-1024015.1297541233,-291382.90348227584,-167164.2201257026,-67221.91868889809,-63297.33600127916,-459545.23010586115,-76984.74101524462,12.67864585155736,-18599.839842336318],[-114212.64210273077,-975584.7542598989,4.50581699275769,-125958.88020651111,-1598750.558589351,-454925.5504352934,-260987.26638861594,-104952.03129479392,-98825.75549640732,-717469.6555996945,-120195.50539302875,18.0619392340614,-29040.119139188777],[-95079.26713775165,-812153.7569476122,3.403963037563973,-104857.57145748135,-1330921.896862666,-378714.66024785506,-217266.7889460192,-87370.63408332386,-82268.48046545843,-597276.1154439385,-100059.94487569199,16.275974518783823,-24175.21418081781],[-0.14520071524238784,-0.12235425455820792,0.07761509765396057,0.633178996174853,-1.0182172963456162,-0.9607308354237815,-0.6846736732521491,0.9258033954201593,-0.7699108770439848,-0.7043475099292297,-0.16243340133137565,-0.8079935462801161,0.5973176142201027],[-200928.573807774,-1716316.247854293,9.689466216171079,-221593.58582740466,-2812625.7543042856,-800333.6386335493,-459147.39335350005,-184638.40182950484,-173856.7233469858,-1262218.2760294843,-211452.76217915607,35.0101095066387,-51088.12862223533],[-218539.27596704676,-1866803.5939746944,7.950822685746725,-241015.02811576155,-3059267.356834613,-870496.7648894408,-499405.4514299713,-200832.03334185612,-189103.32224139042,-1372915.856779123,-230006.40945544394,42.838987923220735,-55574.0249555483],[-4676534.827295873,-39947332.32619826,201.42989255351424,-5157535.521154346,-65464307.24822356,-18627710.999916513,-10686678.195836056,-4297503.817139754,-4046540.826593797,-29378432.539258827,-4921691.748882184,855.0153585123303,-1189134.8611047256],[-1264216.4773111343,-10798995.07186824,56.496296805087425,-1394247.0596749492,-17696996.23997477,-5035654.984161241,-2888939.4802389047,-1161744.1543651647,-1093900.9332186172,-7941872.824959725,-1330473.4750164982,227.5918542510779,-321453.84108863224]],"rows":13,"cols":13},{"data":[[-724.4234451548748,1429.615626375816,-99.7169008287929,-236.14534485590255,-545.2446882492654,-1217.9435536794706,844.2896010603944,220.34293060641465,86.7501317429895,1493.4312936164697,-1105.7279818273694,893.8966965644502,-2162.6550262564774],[-849.8442324474195,6661.224759628304,-847.6387278973675,-1846.6085715912388,-2869.7919651635157,-5633.6024251244535,3555.4269198252528,-2811.468209425696,2560.136352071308,6550.53491477012,-4467.808967839045,3310.6768980311135,-8829.469952510924],[123.82533718704207,24.00377471129574,-25.728630317505253,-46.09823115464229,-30.506712158199832,-22.919040036811992,0.22003320069132043,-207.36826966559755,124.19948569635102,8.88471402519201,11.445518745746266,-24.28677414228336,24.59082937533675],[-792.035491295381,1570.4145486568536,-109.3831342796338,-266.60653318086037,-599.8219087809651,-1342.0298643121678,928.9506613957074,243.70724834542696,93.72642082149031,1647.3368369164257,-1220.379643263788,994.4805957983388,-2380.5438211010073],[854.0711130800555,11467.374789996453,-1792.7532960941498,-3873.7430996771977,-5227.424628240652,-9667.46438333203,5760.657321883247,-8353.330222100076,6355.504156387801,10907.333002529958,-7066.681496947982,4925.254375029279,-14055.586833740734],[-1326.379599581781,2877.7333584451653,-216.63256869366913,-515.5181091708572,-1112.5159630683156,-2448.2262103866283,1674.9680931789578,249.52969330346042,278.63509709276394,2983.8772826113363,-2188.2504770147666,1753.7794002949604,-4285.6784535233755],[-239.83784610670955,1777.386121909713,-223.05402234674807,-489.35166097547983,-763.9513892414832,-1505.0046525631863,950.398854706198,-731.1656415869439,672.6699848641096,1750.6946094086868,-1197.9275409655136,888.8550144930987,-2363.938203711985],[343.90405947621167,806.4848592844469,-184.39709349454748,-357.9026024575786,-416.55930338031357,-682.5171575792046,384.98189539802087,-1031.791673128553,717.5044693783873,736.9771295111204,-437.22660587136966,272.0924595780413,-866.0013757325808],[217.16923473133738,747.4695207827224,-146.74961861493648,-297.0318077289747,-365.0644307451365,-628.3432912325088,356.35191741548937,-798.2319836455775,563.1668989214035,684.8148138291541,-420.0064490353245,265.28315206250744,-838.3776268148766],[1591.111388848169,5440.271440198847,-1024.6374293990557,-2193.1835669023276,-2630.314762344394,-4570.92091025921,2552.5247171469528,-5766.5957991098,4022.668108086886,4986.342399663407,-3034.3800289756787,1940.318508103835,-6084.5649432236005],[959.182035512083,1077.4325419250117,-305.9231787266658,-623.5135890544647,-607.5558097703564,-898.7038575543353,414.1692285686277,-2131.3472435398235,1357.9721674891675,885.8629990972346,-432.4180224189239,167.89131284238613,-891.588019842993],[0.4446424484619795,-0.8249109419501943,0.874981767559454,0.9132900029461543,-0.6524878506837376,0.6279209572465907,-0.08882433757997325,-0.17749263321046846,-0.14846616369916213,-0.4232482594254586,0.620430474546837,-0.00416809444240522,-0.17098190332193955],[569.7820349028794,337.9550214163562,-126.89741035958427,-285.22553933318983,-218.28186595561954,-282.07474171642866,85.13410089783791,-1066.4416420395626,636.9725205589189,242.51123801167026,-66.2305506532305,-25.42834610416559,-152.31880584298003]],"rows":13,"cols":13}],"biases":[{"data":[[-105830772425.08098,-0.14826316061549297,-18794211.36510998,-106490215327.79262,-8497891336.086759,-1.4174193091466947,-27932450302.629456,-6065538924.16097,-28072165091.937542,-31092466533.79594,-1227592352.930565,-6598927297.283131,-23452491893.69489]],"rows":1,"cols":13},{"data":[[-13687.275537217587,-2560.3134207911103,-7754.133870194317,4.221147909441214,-24050.460903223935,-1413.6823264567715,-2177.294906326317,-1884.9909800207574,20.348960467017076,-4002.805819922744,-2171.6030893372445,-73845.0266050977,-21907.773167894808]],"rows":1,"cols":13},{"data":[[-3.820110815736061,-21.481486540092554,-0.3434793536990041,-3.5653149565888973,-34.020750519989974,-10.952444562484194,-4.802653152518258,-2.7999485524912715,-4.030948830119653,-14.280496227573042,-2.640285209028142,-0.19606084703901147,-0.8652096143729927]],"rows":1,"cols":13},{"data":[[-0.2190561847755931,-0.18687580215406013,-0.6929495821573911,0.35104647665033684,1.0905623552295245,0.5288452571404507,-0.8550719934588737,0.34573470775602194,0.02701347837145381,0.6155734345862008,-0.28313079278425085,-0.07626560436890156,-0.3775728654151258]],"rows":1,"cols":13}],"weight_deltas":[{"data":[[0,0,0,0,0,0,0,0,0,0,0,0,0],[0,0,0,0,0,0,0,0,0,0,0,0,0],[0,0,0,0,0,0,0,0,0,0,0,0,0],[0,0,0,0,0,0,0,0,0,0,0,0,0],[0,0,0,0,0,0,0,0,0,0,0,0,0],[0,0,0,0,0,0,0,0,0,0,0,0,0],[0,0,0,0,0,0,0,0,0,0,0,0,0],[0,0,0,0,0,0,0,0,0,0,0,0,0],[0,0,0,0,0,0,0,0,0,0,0,0,0],[0,0,0,0,0,0,0,0,0,0,0,0,0],[0,0,0,0,0,0,0,0,0,0,0,0,0],[0,0,0,0,0,0,0,0,0,0,0,0,0],[0,0,0,0,0,0,0,0,0,0,0,0,0]],"rows":13,"cols":13},{"data":[[0,0,0,0,0,0,0,0,0,0,0,0,0],[0,0,0,0,0,0,0,0,0,0,0,0,0],[0,0,0,0,0,0,0,0,0,0,0,0,0],[0,0,0,0,0,0,0,0,0,0,0,0,0],[0,0,0,0,0,0,0,0,0,0,0,0,0],[0,0,0,0,0,0,0,0,0,0,0,0,0],[0,0,0,0,0,0,0,0,0,0,0,0,0],[0,0,0,0,0,0,0,0,0,0,0,0,0],[0,0,0,0,0,0,0,0,0,0,0,0,0],[0,0,0,0,0,0,0,0,0,0,0,0,0],[0,0,0,0,0,0,0,0,0,0,0,0,0],[0,0,0,0,0,0,0,0,0,0,0,0,0],[0,0,0,0,0,0,0,0,0,0,0,0,0]],"rows":13,"cols":13},{"data":[[0,0,0,0,0,0,0,0,0,0,0,0,0],[0,0,0,0,0,0,0,0,0,0,0,0,0],[0,0,0,0,0,0,0,0,0,0,0,0,0],[0,0,0,0,0,0,0,0,0,0,0,0,0],[0,0,0,0,0,0,0,0,0,0,0,0,0],[0,0,0,0,0,0,0,0,0,0,0,0,0],[0,0,0,0,0,0,0,0,0,0,0,0,0],[0,0,0,0,0,0,0,0,0,0,0,0,0],[0,0,0,0,0,0,0,0,0,0,0,0,0],[0,0,0,0,0,0,0,0,0,0,0,0,0],[0,0,0,0,0,0,0,0,0,0,0,0,0],[0,0,0,0,0,0,0,0,0,0,0,0,0],[0,0,0,0,0,0,0,0,0,0,0,0,0]],"rows":13,"cols":13},{"data":[[0,0,0,0,0,0,0,0,0,0,0,0,0],[0,0,0,0,0,0,0,0,0,0,0,0,0],[0,0,0,0,0,0,0,0,0,0,0,0,0],[0,0,0,0,0,0,0,0,0,0,0,0,0],[0,0,0,0,0,0,0,0,0,0,0,0,0],[0,0,0,0,0,0,0,0,0,0,0,0,0],[0,0,0,0,0,0,0,0,0,0,0,0,0],[0,0,0,0,0,0,0,0,0,0,0,0,0],[0,0,0,0,0,0,0,0,0,0,0,0,0],[0,0,0,0,0,0,0,0,0,0,0,0,0],[0,0,0,0,0,0,0,0,0,0,0,0,0],[0,0,0,0,0,0,0,0,0,0,0,0,0],[0,0,0,0,0,0,0,0,0,0,0,0,0]],"rows":13,"cols":13}],"bias_deltas":[{"data":[[0,0,0,0,0,0,0,0,0,0,0,0,0]],"rows":1,"cols":13},{"data":[[0,0,0,0,0,0,0,0,0,0,0,0,0]],"rows":1,"cols":13},{"data":[[0,0,0,0,0,0,0,0,0,0,0,0,0]],"rows":1,"cols":13},{"data":[[0,0,0,0,0,0,0,0,0,0,0,0,0]],"rows":1,"cols":13}],"process":[{"data":[[24.351253201671817,0.6918295608923248,14.14656910953067,23.489591599162914,8.332723459709863,8.222674202863288,21.96342668938062,17.680576347332245,-3.6802201076638186,13.847544437239808,17.64526298641121,19.573013223317016,11.572625810630052]],"rows":1,"cols":13},{"data":[[0,-3.920540556295239e-35,0,0,0,-5.726045173969662e-14,0,0,0,0,0,0,0]],"rows":1,"cols":13},{"data":[[0,0,0,4.160070661698765,0,0,0,0,20.348960439193473,0,0,0,0]],"rows":1,"cols":13},{"data":[[-0.05499113092882379,-2.8897837008022774e-9,4.576926221573771,9.171319219921685,-1.859566172370656e-24,-1.870044047338432e-12,-0.0000014385774226110497,20.012619409316866,-4.398790747023996e-7,-4.531102210465501e-12,-0.16654594902894287,-0.000008894674876729003,10.340261332010172]],"rows":1,"cols":13},{"data":[[5956.715419610975,33888.80643420137,0,0,0,0,16989.25179602289,0,22142.743541804266,32176.339403857728,0,14114.691596901966,0]],"rows":1,"cols":13}]}}