{"type":"Generative_Adverserial_Network","activation_function_name":"identity","activation_function":{},"learning_rate":1,"discriminator":{"type":"Fully_Connected_Network","activation_function_name":"tanh","activation_function":{},"learning_rate":0.5,"length":4,"width":7,"weights":[{"data":[[-0.5683487623569169,0.09994358852310942,-0.1125251786232549,0.6455163708946979,0.8091376923254809,0.8055278544711093,-0.4622677196063006],[-0.892476851432282,0.7763728434242735,0.3038819935016176,0.11092082489111624,628.4532014537867,0.033486771825354304,0.825747885948769],[-0.3734557878158868,0.8078043928675782,-0.47343563835096464,-0.7574878277927637,2338.899280399571,-0.4444376119794929,0.2552677234143975],[0.0956624168997704,0.7627661012767154,-0.030267401765520202,0.8172602791260647,-0.8024359009990292,0.3096170234256102,-0.3007994595506528],[0.41127285185918805,-0.020469288487167187,-0.8268148596796646,-0.9930258906123253,4355.168101357544,0.6494527085111514,0.9002418203338007],[0.14488207843948198,-0.8396077554002871,-0.2696158987053011,0.22020234638571268,0.2629451524334004,-0.13204856470421678,0.8719325018702474],[0.7961565158179883,-0.3705812904304237,-0.3175140848759624,-0.5688379691040762,256.3267325657012,0.6419629171576037,-0.5362611782907188],[-0.6365514336073375,-0.5721249935188444,0.16328632763909232,-0.5440890413781067,-0.31522154214112885,0.4702000010787004,-0.7912680329617027],[-0.7164312699847103,-0.8174703966466949,0.7790935400933237,-0.8908298416143214,-0.5864384521850248,-0.20924055170647166,0.18605667595592357],[-1.1900122171284195,0.8354715430602522,-0.694673109161029,-0.7394144340175162,5870.882663407365,0.20215434718069952,0.4227687223763042],[-0.28601239644701026,-0.6132877655048133,-0.38208439470671235,-0.4246255251187202,0.46824369745766703,0.2984409376727612,-0.20251740759484113],[0.04651648761079366,-0.563065265313758,-0.6189753460377263,-0.5612741971357633,0.07948143170433213,1.0042962896521594,0.9530915817234829],[0.21828442993536995,-0.5381438293525361,-0.9090534336927678,0.9743072764671332,-0.4238585760092151,-0.9588299745625317,0.8272386832595892]],"rows":13,"cols":7},{"data":[[2.487253197150536,0.37132513667088646,-1.0870238308065259,-5.313805710492741,2.057784854114021,-2.000123291361915,-0.9791205590325108],[-1.767665371668222,4.148442418050266,-0.26109962185358443,-14.283658062241141,-3.0873446989673,0.5233578001388846,-0.6516136367327222],[1.6188691904659809,0.8350361237571104,-1.6707171636637481,-7.6954686827458785,2.7441165212625434,-1.4164040140802932,-0.5078145638513868],[1.1965011551067395,-0.5869189656250082,-1.5075738820145528,11.07016609612558,1.7919203118813756,-0.7657188213119626,-1.2901336096743796],[0.14185301966335065,-4.5038736824596235,0.7442333849928374,14.230256606941936,-0.4919520003654455,0.30545081823935794,0.8279175572964733],[-2.0216611339870685,0.14113375184959476,1.1518709860818424,8.173417020763981,-3.043662833121861,1.6716843253502778,1.1303882834727177],[-1.3108415077941244,4.876275904474381,0.5808783241505221,8.439344002598379,-2.6942164467027014,0.9361604851712622,-0.06679781327259603]],"rows":7,"cols":7},{"data":[[7.469202147487161,1.097771520987958,-1.5506809954230227,-0.4365955993396979,-1.8269929556859865,-5.8916746971772245,-1.2415825693430762],[7.292364874709529,-0.33272404386732096,-0.20647521878375236,-0.6032576578712279,-0.12734386939199965,-5.463431305490831,-0.4814864351369413],[-8.979789148367235,-1.5057196760846447,0.5498761751736494,-0.1434034524691371,0.8400057819898611,6.610948450647225,1.4260611552155285],[-7.532476149801854,0.8213439056451459,0.8335486268622987,0.7632945841196227,-0.964133714669608,5.266628658108834,-0.4630131024238655],[8.042374920726411,1.5903019348751621,-1.098858002231207,0.06326979275808883,-1.3434426444963483,-6.907611119041604,-1.254668870968509],[-9.299035153848372,-1.1770392441469923,0.6167195817201858,0.7387473508787193,1.6317492531634186,7.32954926778283,0.08427643846317533],[-8.02872992445929,-1.295601837643973,1.7911878927550287,1.2307273174816495,0.4952016232084695,5.818024584875056,0.6533349125988257]],"rows":7,"cols":7},{"data":[[18.522093341837433],[17.140668967960945],[-5.336075814414228],[-7.3258303307757],[-15.12012213220236],[-19.851277729083627],[-3.1118152420138934]],"rows":7,"cols":1}],"biases":[{"data":[[0.4992823368391142,-0.7467436182512535,0.8658148148256517,0.2773706684060887,1621.285932074549,-0.7424265313432725,-0.6931281826101382]],"rows":1,"cols":7},{"data":[[-5.596073230487189,-4.2281454968073655,5.040069949924984,22.814272597173492,-6.213323606373437,5.356395196645098,5.581722941891096]],"rows":1,"cols":7},{"data":[[-20.939105571950968,-2.477369064175862,0.9022581722316786,4.1128844534981654,2.626416592910045,16.33425894989299,2.4585074073694932]],"rows":1,"cols":7},{"data":[[300.0132238896121]],"rows":1,"cols":1}],"weight_deltas":[{"data":[[0,0,0,0,0,0,0],[0,0,0,0,0,0,0],[0,0,0,0,0,0,0],[0,0,0,0,0,0,0],[0,0,0,0,0,0,0],[0,0,0,0,0,0,0],[0,0,0,0,0,0,0],[0,0,0,0,0,0,0],[0,0,0,0,0,0,0],[0,0,0,0,0,0,0],[0,0,0,0,0,0,0],[0,0,0,0,0,0,0],[0,0,0,0,0,0,0]],"rows":13,"cols":7},{"data":[[0,0,0,0,0,0,0],[0,0,0,0,0,0,0],[0,0,0,0,0,0,0],[0,0,0,0,0,0,0],[0,0,0,0,0,0,0],[0,0,0,0,0,0,0],[0,0,0,0,0,0,0]],"rows":7,"cols":7},{"data":[[0,0,0,0,0,0,0],[0,0,0,0,0,0,0],[0,0,0,0,0,0,0],[0,0,0,0,0,0,0],[0,0,0,0,0,0,0],[0,0,0,0,0,0,0],[0,0,0,0,0,0,0]],"rows":7,"cols":7},{"data":[[0],[0],[0],[0],[0],[0],[0]],"rows":7,"cols":1}],"bias_deltas":[{"data":[[0,0,0,0,0,0,0]],"rows":1,"cols":7},{"data":[[0,0,0,0,0,0,0]],"rows":1,"cols":7},{"data":[[0,0,0,0,0,0,0]],"rows":1,"cols":7},{"data":[[0]],"rows":1,"cols":1}],"process":[{"data":[[0,2.313271551667711e+137,0,1.0404307267447898e+149,4.224062949228468e+135,0,0,2.0645265784415547e+158,0,0,9.630294749081535e+157,4.234561474437279e+136,0]],"rows":1,"cols":13},{"data":[[-1,-1,-1,-1,-1,1,-1]],"rows":1,"cols":7},{"data":[[-0.999999995741122,-0.9999999806669005,0.9999999861272217,1,-0.9999999903994047,0.9999999875003228,0.9999999857455647]],"rows":1,"cols":7},{"data":[[-1,-0.9999997702607658,0.9999994459774298,0.9999995721607893,0.9999997395586948,1,0.9999987352804914]],"rows":1,"cols":7},{"data":[[1]],"rows":1,"cols":1}]},"generator":{"type":"Fully_Connected_Network","activation_function_name":"swish","activation_function":{},"learning_rate":0.5,"length":4,"width":13,"weights":[{"data":[[-2.0163732788263684e+169,-3.271493151107657e+186,-2.4471150220577777e+183,-2.0608843069782167e+168,-1.677071577016253e+169,-8.124486951285338e+169,-6.475972942893431e+169,-1.309508079647305e+164,-3.17506904113782e+183,-3.667735887837672e+169,-6.63036090435213e+185,-2.4213999304466782e+169,-2.5321828285907396e+184],[-1.932566905751679e+169,-3.135520323847915e+186,-2.34540576184847e+183,-1.9752279253409273e+168,-1.6073675754148308e+169,-7.78680950255612e+169,-6.206812559658428e+169,-1.2550810924323592e+164,-3.043103882010951e+183,-3.51529405309244e+169,-6.354783705722825e+185,-2.3207594646832368e+169,-2.426937901446245e+184],[-2.2159542419667564e+169,-3.595306088355709e+186,-2.68933087472067e+183,-2.2648709791022533e+168,-1.8430684011712997e+169,-8.928650023562716e+169,-7.116965823916954e+169,-1.4391234075831384e+164,-3.4893379039132426e+183,-4.0307689971959103e+169,-7.286635131527566e+185,-2.6610704990568197e+169,-2.7828187069197033e+184],[-2.0186543104936894e+169,-3.275194042978949e+186,-2.449883332329244e+183,-2.0632156919535434e+168,-1.6789687720523648e+169,-8.133677815006457e+169,-6.483298917461014e+169,-1.3109894667642903e+164,-3.1786608527854015e+183,-3.67188503115125e+169,-6.637861531020515e+185,-2.424139150400936e+169,-2.5350473722147384e+184],[-1.9581215508006885e+169,-3.1769818166849383e+186,-2.376419441924204e+183,-2.001346683958156e+168,-1.6286220570737912e+169,-7.889775745178733e+169,-6.288886246926763e+169,-1.2716772328968245e+164,-3.083343337276694e+183,-3.561777355431062e+169,-6.438814039409933e+185,-2.351447242781684e+169,-2.4590296942027374e+184],[-2.1720277338396566e+169,-3.524036908190055e+186,-2.6360206969707754e+183,-2.2199748022831584e+168,-1.8065335496975627e+169,-8.751658815713614e+169,-6.975887343511546e+169,-1.4105958934035148e+164,-3.4201693141961536e+183,-3.950867705120205e+169,-7.142193323451157e+185,-2.6083205222342596e+169,-2.727655334756716e+184],[-2.0598249350549913e+169,-3.3419919011401773e+186,-2.4998489090850045e+183,-2.105295149640197e+168,-1.713211481467736e+169,-8.299564858609447e+169,-6.615526344545452e+169,-1.3377272072775606e+164,-3.243489908407974e+183,-3.746773435403499e+169,-6.773241275617165e+185,-2.4735796723995255e+169,-2.5867498767317405e+184],[-3.0715769817170545e+169,-4.98352322176978e+186,-3.7277334768796784e+183,-3.1393814160147324e+168,-2.5547127145293913e+169,-1.2376174277787324e+170,-9.864963811260047e+169,-1.9947967556673443e+164,-4.836638674262634e+183,-5.587126771813292e+169,-1.0100145716143653e+186,-3.68856122424926e+169,-3.857318767051689e+184],[-6.965432447019549e+168,-1.1301163720137625e+186,-8.453402232225259e+182,-7.11919294513503e+167,-5.7933364328863195e+168,-2.8065520218958845e+169,-2.237083407924633e+169,-4.523611854705125e+163,-1.096807280323665e+183,-1.2669958895265882e+169,-2.2904157411521157e+185,-8.36457109397973e+168,-8.747263525688922e+183],[-3.06517245081377e+169,-4.97313210063851e+186,-3.719960797114854e+183,-3.13283550640031e+168,-2.549385894909828e+169,-1.2350368774263152e+170,-9.844394421020098e+169,-1.990637414213919e+164,-4.826553821419384e+183,-5.5754770797223486e+169,-1.0079085949205773e+186,-3.6808702223665276e+169,-3.849275889599998e+184],[-3.054284383097946e+169,-4.955466602223523e+186,-3.706746798323872e+183,-3.121707086814269e+168,-2.5403299978263927e+169,-1.230649794686683e+170,-9.809425284765173e+169,-1.9835662965814155e+164,-4.809408996557166e+183,-5.555671938913408e+169,-1.0043283144603562e+186,-3.667795080632281e+169,-3.835602539334909e+184],[-3.505564232233777e+169,-5.687651932779027e+186,-4.254429962730337e+183,-3.582948846415875e+168,-2.915671516290869e+169,-1.412482061766522e+170,-1.1258797840613415e+170,-2.2766442771472715e+164,-5.52001386963628e+183,-6.376539441728583e+169,-1.1527208913731846e+186,-4.2097230097434597e+169,-4.402324533159337e+184],[-3.231160936487991e+169,-5.24244245093338e+186,-3.921408079246285e+183,-3.3024881539816133e+168,-2.6874429572401887e+169,-1.3019179108185425e+170,-1.0377498560688035e+170,-2.0984365332566648e+164,-5.087926508502566e+183,-5.8774062573543395e+169,-1.0624899354661908e+186,-3.880200630028173e+169,-4.05772598045455e+184]],"rows":13,"cols":13},{"data":[[8.542223260372523e+23,1.662015797711179e+24,1.769249425323194e+24,2.8639348581661625e+35,8.399696642431336e+23,5630.889236228464,-8.59654498898917,4.250180130182577e+23,3.3866776502423404e+24,5.165189008993371e+23,7.255091103912501e+29,-6.848171051434245,4503.667527434577],[1.2734042975506122e+31,2.4775962832026126e+31,2.637451347306656e+31,4.2693251277668544e+42,1.2521576026574992e+31,6.371811129943923e+32,-3705989537597.9097,6.335818536628233e+30,5.048580185284981e+31,7.699838420759601e+30,1.0795378142624286e+37,-439014497264.1577,1.832663949830762e+32],[9.527250580288829e+27,1.8536674230061377e+28,1.9732664580641442e+28,3.194188238492919e+39,9.368288821922707e+27,4.766109574236536e+29,-2772710829.2088704,4.7402801251576964e+27,3.777204819585677e+28,5.760801200640989e+27,8.076796725062668e+33,-328457552.36292183,1.3711302181180584e+29],[8.730791093528463e+22,1.6987044568684757e+23,1.8083052449004313e+23,2.92715563501116e+34,8.585118229616758e+22,574.877819654262,-1.188945545256862,4.344001988174617e+22,3.461437867417465e+23,5.279209501033787e+22,7.415245757696869e+28,-1.6251644659494133,461.82800184980806],[7.104795518236724e+23,1.382342983892236e+24,1.47153205957426e+24,2.3820112076927297e+35,6.986252318707446e+23,4684.638020323531,-7.5492243682796625,3.5349884708238224e+23,2.8167903668330185e+24,4.296025824117985e+23,6.0342532837556364e+29,-4.555148764687111,3744.7322198665825],[3.4418816269107494e+24,6.696689448887166e+24,7.128761336280902e+24,1.1539530715287678e+36,3.3844539839324616e+24,22691.80692313875,-35.78978978939626,1.712506973330805e+24,1.3645795977627075e+25,2.0811876027693913e+24,2.9232629505203406e+30,-24.92924565761014,18140.08274001271],[2.7435002877307476e+24,5.337885325927222e+24,5.682286870163078e+24,9.198080953784782e+35,2.697725106561591e+24,18087.45453797323,-28.62801807265577,1.3650275876253442e+24,1.0876970578600824e+25,1.6589003940104263e+24,2.3301128903330392e+30,-19.974558630304138,14459.72628461948],[5547638671512578000,10793751030624868000,11490166239282210000,1.8599462092685484e+30,5455076565218959000,-0.6218013468299617,-0.6280699830220292,2760225638268670500,21994348927392023000,3354466561988891000,4.7117269997057714e+24,-0.009139109894770181,0.49167511744425413],[1.2361392127973486e+28,2.4050915526495986e+28,2.5602685953884027e+28,4.144386989029129e+39,1.2155142842101453e+28,6.1838642951262665e+29,-3597506560.903032,6.15040624046909e+27,4.900837815598962e+28,7.474509252413635e+27,1.0479461303695622e+34,-426163517.2681737,1.779148042029279e+29],[1.5538104547897937e+24,3.023167908159788e+24,3.218223371602824e+24,5.2094305999928234e+35,1.5278851959558085e+24,9822.941033898484,-18.94143209091925,7.730978364442254e+23,6.160287526505127e+24,9.395358138636656e+23,1.3196841225173105e+30,-14.215902268283886,8053.843968750472],[2.5808191981275874e+30,5.0213652217117e+30,5.345344824380843e+30,8.652677137954626e+41,2.537758342920503e+30,1.29137997850501e+32,-751096022092.6743,1.2840856707202109e+30,1.0231999915919987e+31,1.5605327276655398e+30,2.1879083662719004e+36,-88975438055.88982,3.714274288848797e+31],[1.0258090119388219e+24,1.9958630573212938e+24,2.1246365841121396e+24,3.4392102589279116e+35,1.0086934338663688e+24,6496.760956267115,-13.00000332596054,5.103909072629964e+23,4.066955812623988e+24,6.202714764401611e+23,8.712413162221732e+29,-9.28594245125442,5319.191252954185],[9.858342376610206e+28,1.9180862258593824e+29,2.0418415764274785e+29,3.3051929310545596e+40,9.693856366133768e+28,4.931794745256888e+30,-28690655296.764244,4.9050147302233665e+28,3.90847055236401e+29,5.961001038117206e+28,8.357482474552426e+34,-3398718070.1428447,1.4187824885490863e+30]],"rows":13,"cols":13},{"data":[[1961.7740161596653,279986603654130240000,-28844109513.59688,379.4943997938638,-61223301946.868774,7.161408064923038e+21,3497149101976243700,5342.14234941736,5.013982314333761e+24,2.9968901297282368e+23,-16406706.702676482,-559712639.0542827,16279.86821542651],[3818.156486273052,544755322159544530000,-56120478494.13853,751.6899946887802,-119118983315.15675,1.3933577916243778e+22,6804220490609416000,10404.394334468416,9.755443708110541e+24,5.8308927169580855e+23,-31921673.02225901,-1089003668.155728,31890.58049350489],[4063.544410707359,579903056283195870000,-59741384201.815994,805.966145684108,-126804566503.84085,1.4832575451611148e+22,7243230304760397000,11082.60073841412,1.038486709820401e+25,6.207103207415223e+23,-33981266.4737356,-1159266425.7904346,34062.99983043014],[1.9197758805236122e+82,0.40382224075904793,-2527388296270.888,0.5185492210295541,-9468051805565.363,-0.016040463758130286,-1.1959097108052492,0.3638471227596548,-1.1516784237700184,-1.440197333265094,-231.27345963757512,-614331377687.4088,-0.7698433761650388],[1931.2407987239694,275315039531057020000,-28362846778.006847,460.29666860858373,-60201793668.969475,7.041920287462056e+21,3438799323539932000,5329.895151392363,4.930324240797977e+24,2.9468871501825605e+23,-16133227.42356911,-550373850.2771883,17531.88753681473],[1.2930265771936924e+102,6.600721788314468e+25,-1.7022717449049647e+32,110414996.04112421,-6.377016579405874e+32,1.6883115703440784e+27,8.24457598072419e+23,1277839899.3199084,1.1820530652891733e+30,7.0652087343390055e+28,2912244323353366,-4.137705898965467e+31,4203627269.552739],[-0.5872559744979453,0.09068858483234186,0.2494254159727674,0.4783509384382364,0.9254303694201704,0.586096664495742,-0.4101709419402878,0.0507219478750456,0.09486715684700359,0.9631359021337794,-27.992891450797444,0.42905379671602206,0.24265508726040647],[976.4693884054459,139307234579889440000,-14351376358.710573,233.0559919525913,-30461631909.297096,3.563156023189967e+21,1740005285786364700,2697.6471262469354,2.4947051084847564e+24,1.4911016129427774e+23,-8163240.076160109,-278484820.05922455,8871.250131263563],[7778.155227144556,1.1100440062096648e+21,-114356295855.35886,1472.6338366717384,-242727896607.43842,2.8392351615275044e+22,13864911209483932000,21151.345000640726,1.987859755601986e+25,1.1881568197828877e+24,-65046563.500657976,-2219054955.556528,64007.01226319604],[1185.7259033153061,169298282639871000000,-17441042335.275166,208.67580074241693,-37019627916.716354,4.330257486811278e+21,2114605946786212400,3212.7556009890836,3.031782892097963e+24,1.8121165284533694e+23,-9920571.925098361,-338439010.3671893,9485.220381117386],[1668061190.2000527,2.377985514356459e+26,-24497912976968164,397782644.515836,-51998246646531704,6.082335518376424e+27,2.9702027873499703e+24,4603564453.993358,4.258481354924796e+30,2.5453222488344133e+29,-13934563805494.686,-475375790028683.1,15144048256.312748],[0.23512822527745678,0.15162543293421116,0.5608978322068628,0.4101651704899909,0.5071665132556765,-0.5223990891117661,0.2698976232096112,-0.4863996082918524,0.1951875226921797,-0.6025340643089511,0.14178116626799944,-0.24757559336945603,0.7079213853527646],[3.7190104526401424e+101,5.275795539028727e+25,-4.896083749705637e+31,88251988.71672577,-1.8341611637204038e+32,1.3494261592846775e+27,6.589688003104764e+23,1021346190.4454223,9.447861141168199e+29,5.647048598370151e+28,835642349564060.1,-1.1900893422934056e+31,3359856273.016737]],"rows":13,"cols":13},{"data":[[-1464011.084873701,841241.0929335947,-10178185292477886,378361581050648100,15361.168166648922,-1151029.4268661279,-3.2927195886315164e+26,7.507828443169758e+26,-2271913.877386322,-2.4174867968530065e+127,3.5021395020180194e+26,153993.46956400102,-5.663472031959354e+27],[-2.0870478341828468e+23,1.1992646571536169e+23,-4.4672701649410834e+23,1.0697290367365943e+23,2.192769847207344e+21,-1.6409285052861505e+23,-9.30939591276809e+31,2.122663211934276e+32,-3.2388419716264776e+23,-3.446365632417874e+144,9.90148181948185e+31,1.7394764307989952e+22,-1.6012144957414154e+33],[-1240650375966.1714,-4448065775050.765,2517913550210.3076,4424651924332.825,-1618348053059.0757,-2461394263239.0894,2.188234029248122e+22,4.720568996348396e+22,-1789651998479.0051,6.246170227598942e+21,831984782314664900000,-1.1839133136525373e+22,6.177140473385218e+22],[-349150.90806188114,200624.91402389403,-2427192404401589,90227906965125310,3661.556330462794,-274476.986076309,-7.852150207225195e+25,1.7903922602272942e+26,-541806.7805803249,-5.764982154392882e+126,8.351553989427722e+25,36729.40413015737,-1.3505684857861233e+27],[-4647699781522.353,-16663255604516.693,9432557700044.93,16575543102332.693,-6062623312890.351,-9220826270596.834,8.197518830881163e+22,1.7684101756399452e+23,-6704358748740.89,2.339927876874533e+22,3.116764856442002e+21,-4.435152526227872e+22,2.3140680875423777e+23],[-5.33818439756586e+24,3.067440897429078e+24,-1.1411885987341586e+25,2.202482336850572e+24,5.608596792587685e+22,-4.197114604152004e+24,-1.9167265135605053e+33,4.370385462613639e+33,-8.284206713398036e+24,-8.81500411538036e+145,2.0386320336616418e+33,5.478388750816292e+23,-3.2967663057604194e+34],[-2.6068095272969406e+21,1.4979314235987838e+21,-6.023140726124136e+21,1.781655478963161e+22,27388607079076532000,-2.0495879353205224e+21,-1.55049883214951e+31,3.5353387742702887e+31,-4.045448298186215e+21,-4.304653979528104e+142,1.6491119458951915e+31,-488690084762215800000,-2.6668553259246697e+32],[-4040440.53423347,2321678.0248172767,-28090055983420356,1044213451443337000,42388.4243211722,-3176641.9535183925,-9.087344641949104e+26,2.0720326386513603e+27,-6270104.6478063455,-6.671851436068491e+127,9.66530789591123e+26,425012.5810816491,-1.5630217162173878e+28],[-3.7374720052021764e+27,2.1476355307251467e+27,-7.958001183193795e+27,3.5593211037446704e+26,3.926798315735482e+25,-2.9385643446093724e+27,-3.097525477478891e+35,7.062760480831816e+35,-5.800097630713526e+27,-6.171729684348767e+148,3.2945308567467034e+35,3.928603031837661e+26,-5.327738478337526e+36],[-2.2339115417836906e+26,1.283655848914126e+26,-4.75875248169895e+26,2.9463516088632e+25,2.3470731198881564e+24,-1.7563991908327644e+26,-2.5640842445199153e+34,5.84644517851763e+34,-3.466756412539941e+26,-3.6888833295460354e+147,2.727162289462126e+34,2.3416014822497407e+25,-4.4102204819395075e+35],[-653932.9643940687,-1225022.0626004422,-75122.80822533644,-94798.62629776099,1901845.4438027162,-405323.73053747456,-1051797.280389094,302047.57131391385,-458872.8742931874,635342.6955250681,-397878.9830064802,91981.46663154163,580360.9191633655],[-301564447307.7583,-1081189771933.1069,612028354519.3046,1075498575534.5995,-393371287854.8517,-598290231460.7769,5.318932701689421e+21,1.1474270333820713e+22,-435010077172.29315,1.5182543841213494e+21,202230246253959740000,-2.8777338967330096e+21,1.5014753462227789e+22],[-13291866.091530338,7637424.909901296,-92406038912215410,3435081399755269000,139344.8013549569,-10449937.347568614,-2.9894049448968395e+27,6.816231649648831e+27,-20626479.104305554,-2.194795786886846e+128,3.179533775423119e+27,1398358.3656044325,-5.141771366161391e+28]],"rows":13,"cols":13}],"biases":[{"data":[[-2.115982206897774e+169,-3.4331050557071882e+186,-2.5680026110643575e+183,-2.1626920817850486e+168,-1.7599189861938016e+169,-8.525836961645815e+169,-6.795886289214136e+169,-1.3741978359956048e+164,-3.3319175904920085e+183,-3.848922200943938e+169,-6.957901022714284e+185,-2.5410171928041542e+169,-2.6572727709567325e+184]],"rows":1,"cols":13},{"data":[[-1.3011452116293302e+101,-2.5315703311996484e+101,-2.6949078100269934e+101,-3.888938377236071e+137,-1.2794356612217919e+101,1.9752972808139832e+29,-3.963404232671326e+75,-6.473843350130507e+100,-5.158562675816273e+101,-7.867578195232938e+100,-1.1050901810987111e+107,-4.096827685538865e+75,5.262689403019965e+28]],"rows":1,"cols":13},{"data":[[-4.5429560413623544e+104,38798779607248210000,-1079.17302290283,-0.24560017752364144,-2436.3194524929163,1.0419583834341626e+21,609137287133571700,-0.21886293963124298,7.193623265775204e+23,4.287241431008045e+22,-0.668192765996989,-44.453803435523994,-0.4824811840230728]],"rows":1,"cols":13},{"data":[[1.0355781854844999,-0.691319656621313,-1635763.172395162,70457724.50391535,-0.7680906628102503,0.3494804866049651,-54662050591282390,165810428487178700,0.36548767245198854,-6.399314250015622e+65,65987381037730170,-5732.549585754953,-1083846934612248800]],"rows":1,"cols":13}],"weight_deltas":[{"data":[[0,0,0,0,0,0,0,0,0,0,0,0,0],[0,0,0,0,0,0,0,0,0,0,0,0,0],[0,0,0,0,0,0,0,0,0,0,0,0,0],[0,0,0,0,0,0,0,0,0,0,0,0,0],[0,0,0,0,0,0,0,0,0,0,0,0,0],[0,0,0,0,0,0,0,0,0,0,0,0,0],[0,0,0,0,0,0,0,0,0,0,0,0,0],[0,0,0,0,0,0,0,0,0,0,0,0,0],[0,0,0,0,0,0,0,0,0,0,0,0,0],[0,0,0,0,0,0,0,0,0,0,0,0,0],[0,0,0,0,0,0,0,0,0,0,0,0,0],[0,0,0,0,0,0,0,0,0,0,0,0,0],[0,0,0,0,0,0,0,0,0,0,0,0,0]],"rows":13,"cols":13},{"data":[[0,0,0,0,0,0,0,0,0,0,0,0,0],[0,0,0,0,0,0,0,0,0,0,0,0,0],[0,0,0,0,0,0,0,0,0,0,0,0,0],[0,0,0,0,0,0,0,0,0,0,0,0,0],[0,0,0,0,0,0,0,0,0,0,0,0,0],[0,0,0,0,0,0,0,0,0,0,0,0,0],[0,0,0,0,0,0,0,0,0,0,0,0,0],[0,0,0,0,0,0,0,0,0,0,0,0,0],[0,0,0,0,0,0,0,0,0,0,0,0,0],[0,0,0,0,0,0,0,0,0,0,0,0,0],[0,0,0,0,0,0,0,0,0,0,0,0,0],[0,0,0,0,0,0,0,0,0,0,0,0,0],[0,0,0,0,0,0,0,0,0,0,0,0,0]],"rows":13,"cols":13},{"data":[[0,0,0,0,0,0,0,0,0,0,0,0,0],[0,0,0,0,0,0,0,0,0,0,0,0,0],[0,0,0,0,0,0,0,0,0,0,0,0,0],[0,0,0,0,0,0,0,0,0,0,0,0,0],[0,0,0,0,0,0,0,0,0,0,0,0,0],[0,0,0,0,0,0,0,0,0,0,0,0,0],[0,0,0,0,0,0,0,0,0,0,0,0,0],[0,0,0,0,0,0,0,0,0,0,0,0,0],[0,0,0,0,0,0,0,0,0,0,0,0,0],[0,0,0,0,0,0,0,0,0,0,0,0,0],[0,0,0,0,0,0,0,0,0,0,0,0,0],[0,0,0,0,0,0,0,0,0,0,0,0,0],[0,0,0,0,0,0,0,0,0,0,0,0,0]],"rows":13,"cols":13},{"data":[[0,0,0,0,0,0,0,0,0,0,0,0,0],[0,0,0,0,0,0,0,0,0,0,0,0,0],[0,0,0,0,0,0,0,0,0,0,0,0,0],[0,0,0,0,0,0,0,0,0,0,0,0,0],[0,0,0,0,0,0,0,0,0,0,0,0,0],[0,0,0,0,0,0,0,0,0,0,0,0,0],[0,0,0,0,0,0,0,0,0,0,0,0,0],[0,0,0,0,0,0,0,0,0,0,0,0,0],[0,0,0,0,0,0,0,0,0,0,0,0,0],[0,0,0,0,0,0,0,0,0,0,0,0,0],[0,0,0,0,0,0,0,0,0,0,0,0,0],[0,0,0,0,0,0,0,0,0,0,0,0,0],[0,0,0,0,0,0,0,0,0,0,0,0,0]],"rows":13,"cols":13}],"bias_deltas":[{"data":[[0,0,0,0,0,0,0,0,0,0,0,0,0]],"rows":1,"cols":13},{"data":[[0,0,0,0,0,0,0,0,0,0,0,0,0]],"rows":1,"cols":13},{"data":[[0,0,0,0,0,0,0,0,0,0,0,0,0]],"rows":1,"cols":13},{"data":[[0,0,0,0,0,0,0,0,0,0,0,0,0]],"rows":1,"cols":13}],"process":[{"data":[[32.826243158423594,-1.4415280045436525,2.536518788257726,23.543415742633975,14.341953804949965,11.52043838091433,20.874001454561945,16.65900851520592,3.1596972173614146,18.81007125953388,13.464618537949335,29.845928815071673,15.86454863914448]],"rows":1,"cols":13},{"data":[[0,0,0,0,0,0,0,0,0,0,0,0,0]],"rows":1,"cols":13},{"data":[[0,0,0,0,0,1.9752972808139832e+29,0,0,0,0,0,0,5.262689403019965e+28]],"rows":1,"cols":13},{"data":[[2.7498318509392104e+131,1.581487512744183e+55,0,2.645467220226144e+37,0,4.045078328929985e+56,1.9753436638503495e+53,3.0616164557694227e+38,2.832117792731838e+59,1.6927753883021178e+58,6.192320906762411e+44,0,1.0071601515470568e+39]],"rows":1,"cols":13},{"data":[[0,2.313271551667711e+137,0,1.0404307267447898e+149,4.224062949228468e+135,0,0,2.0645265784415547e+158,0,0,9.630294749081535e+157,4.234561474437279e+136,0]],"rows":1,"cols":13}]}}