{"type":"Generative_Adverserial_Network","activation_function_name":"identity","activation_function":{},"learning_rate":1,"discriminator":{"type":"Fully_Connected_Network","activation_function_name":"tanh","activation_function":{},"learning_rate":0.5,"length":4,"width":7,"weights":[{"data":[[-0.2764494451492875,0.35275201692154445,-0.7371989467363851,0.4069261010060209,-0.4303567512050759,0.9488104873079964,-0.7795966721377013],[0.37786618178310166,-0.36682679108106453,-0.9275577022041996,-0.9741815527683241,-0.9699982621420232,-0.5346383518019991,-0.5130690292854846],[-0.7785154301818926,-0.4590790733084152,0.6401285381894328,0.22669928939692513,-0.9802394442116467,0.7112031412086398,-0.5514922452184692],[0.9448959868977184,-0.20072716776890598,0.8522531830352463,-0.967294850499986,0.07098183045447257,0.29568783469477794,0.8645689665171689],[0.1216743091699428,-0.6593732413600263,0.907240429983932,0.36957422098148124,0.5923753359915008,-0.5680930822678137,-0.8785498544523943],[0.1485613856245796,0.027850518637786734,0.19989105803032584,0.20531326208549483,-0.12151586707710589,-0.6679398681647727,-0.196141902277587],[-0.2866941036575407,0.38275441950761013,-0.10482581139039081,-0.5178302280350783,0.4659817123639083,0.5389211799394544,-0.5751654419625201],[0.7559765843680978,-0.23985043964967512,0.5751072409932094,-0.7623605499759031,0.06545629104829534,-0.6036413753912855,0.38215987448033906],[-0.5116856268138293,0.5511031195181643,-0.664053263273655,0.02438147188346171,0.11363027440560185,0.4941938936843631,0.4674621477271676],[0.6512246227457247,0.09362030356918113,-0.38066684699728814,0.32350037452728986,0.5185176657827327,-0.33923444357445737,0.6129323886768379],[-0.19236746910126765,-0.3046074125253475,0.19431770054789532,-0.828112456059737,-0.8657742440813234,0.339885157240109,0.08935122355099834],[-0.6623252457682061,-0.46367842030976153,-0.46091093598016225,-0.6686532502608838,0.9008793456156271,-0.7251659173156708,0.20304155562869045],[-0.4300467555904414,-0.04267436410468925,-0.5009395498351867,-0.07386256922382417,-0.9881555747004461,-0.18345238407456946,-0.9802953160613601]],"rows":13,"cols":7},{"data":[[-0.8504942143301601,0.41458872432966154,-0.11936370456993399,-0.4162634645126715,-0.48277254556566074,0.2541565276427925,-0.1876190072025016],[-0.1323395343721104,-0.3757260629744646,0.16212352839762434,0.058943460631730504,0.32424551701693366,-0.7733605170340762,0.896571612048371],[-0.40644612003226377,-0.8769940205863893,0.6942354606663211,0.38599758187148697,0.12697644549917844,-0.8012769137411402,0.2746627342229999],[-0.35302432468037814,-0.9873403256123122,0.5596731185499348,-0.27263876824609884,-0.19870791727225584,0.6202610662507305,-0.09337496587214102],[-0.38908356028671354,0.03768524212423743,-0.7621505078155982,-0.3409770458533214,0.8596527028247578,-0.014748800561284798,-0.5546452752808609],[-0.22233144115303974,0.6322031540166267,1.0939956525493424,-0.504166183215776,0.573639509445217,0.3193155510327576,0.935510220252266],[0.7860447454872195,0.08545022044286436,-0.831121032556731,-0.004431253964925796,-0.9459706569249432,0.9536109060279814,0.060238406916940296]],"rows":7,"cols":7},{"data":[[0.13879702081743767,-0.5866499944972896,-0.7118637287914227,-0.6383600890094681,-0.8565983932325728,0.037382886816447095,0.6391613385192447],[-0.21338349844379703,0.22126853253292245,-0.5779602768792153,0.4366338208399975,0.5519795160121813,-0.8980121604243557,-0.6998143963679758],[0.2703377862317181,-0.6031590430899736,0.2583241905874369,-0.39638805171640745,-0.7426226081737439,-0.014414410186406199,0.4735261933552886],[-0.5280203775005323,0.8952852908497771,-0.14953310382859744,0.750579558888313,-0.8260759371499736,-0.8040970567478976,-0.5920470432485281],[0.5257027864333349,0.7883525838228632,0.7547471111878572,-0.033254472665387634,0.7118510492791043,-0.15097826742827028,-0.9556121411950317],[-0.05133050683902952,-0.13252207211591369,0.03693497240190814,0.775375621388371,-0.4673690286573363,-0.8419548372046077,0.07579639775701302],[0.8902769710454076,-0.5781953519608634,0.4673089216391517,0.31056463706751836,-0.6023881561421784,-0.7069227872556451,0.33544645789678246]],"rows":7,"cols":7},{"data":[[1.2968298587279652],[-1.2792480829911757],[0.11410437007054414],[-0.7976511189000478],[-0.7898029447034588],[-0.0058342312755218055],[1.0738398345029956]],"rows":7,"cols":1}],"biases":[{"data":[[-0.36458449748619,0.7941593066808472,0.061853665943517766,0.572064227632302,-0.8412416525511773,-0.18662093849805014,-0.7830330466620222]],"rows":1,"cols":7},{"data":[[-0.4325698044165397,0.4445057004752697,-1.526003507982274,1.7632905059884534,0.09399900930690018,-0.32176187490639296,-0.8472562330061191]],"rows":1,"cols":7},{"data":[[-0.8276855185056677,0.683901657201072,0.06644854039055277,1.0215014267598352,0.11662351207378226,-0.7172081532559953,-1.0813260541847995]],"rows":1,"cols":7},{"data":[[-5.187446075579248]],"rows":1,"cols":1}],"weight_deltas":[{"data":[[0,0,0,0,0,0,0],[0,0,0,0,0,0,0],[0,0,0,0,0,0,0],[0,0,0,0,0,0,0],[0,0,0,0,0,0,0],[0,0,0,0,0,0,0],[0,0,0,0,0,0,0],[0,0,0,0,0,0,0],[0,0,0,0,0,0,0],[0,0,0,0,0,0,0],[0,0,0,0,0,0,0],[0,0,0,0,0,0,0],[0,0,0,0,0,0,0]],"rows":13,"cols":7},{"data":[[0,0,0,0,0,0,0],[0,0,0,0,0,0,0],[0,0,0,0,0,0,0],[0,0,0,0,0,0,0],[0,0,0,0,0,0,0],[0,0,0,0,0,0,0],[0,0,0,0,0,0,0]],"rows":7,"cols":7},{"data":[[0,0,0,0,0,0,0],[0,0,0,0,0,0,0],[0,0,0,0,0,0,0],[0,0,0,0,0,0,0],[0,0,0,0,0,0,0],[0,0,0,0,0,0,0],[0,0,0,0,0,0,0]],"rows":7,"cols":7},{"data":[[0],[0],[0],[0],[0],[0],[0]],"rows":7,"cols":1}],"bias_deltas":[{"data":[[0,0,0,0,0,0,0]],"rows":1,"cols":7},{"data":[[0,0,0,0,0,0,0]],"rows":1,"cols":7},{"data":[[0,0,0,0,0,0,0]],"rows":1,"cols":7},{"data":[[0]],"rows":1,"cols":1}],"process":[{"data":[[null,null,null,null,null,null,null,null,null,null,null,null,null]],"rows":1,"cols":13},{"data":[[-0.3492457936734154,0.6607588330983463,0.06177492851909188,0.5168736634723209,-0.6864661795651877,-0.18448415971689247,-0.654444144892415]],"rows":1,"cols":7},{"data":[[-0.5627666345960884,-0.6116052921254868,-0.1778262317083967,0.973776356593238,0.295996092173403,-0.8676025352528322,-0.05182701596981376]],"rows":1,"cols":7},{"data":[[-0.8285634093611943,0.977412627478823,0.6618703241348731,0.8385978610428967,0.23186083231671975,-0.2421281590224081,-0.9667306150240544]],"rows":1,"cols":7},{"data":[[-0.9999999841149367]],"rows":1,"cols":1}]},"generator":{"type":"Fully_Connected_Network","activation_function_name":"softplus","activation_function":{},"learning_rate":0.1,"length":3,"width":13,"weights":[{"data":[[12.864918662284566,-0.5378353605732255,-6.261533431209694,-6.230825576009307,1.4936720220954351,6.980289585312075,0.5753710637102439,-22.100155062954425,-0.8887493538783418,-1.8003251992480633,16.407230470112143,-0.9458112997270853,-37.39445919348938],[20.500277760588308,-0.8947388482850147,-6.237544205198768,-6.4894720931920675,2.052494656426548,7.051279849569682,1.0599201647879692,-20.332590555429828,-0.4273082703346008,-1.010157760032929,15.730501617026938,-0.7842022146603057,-33.56045514028089],[13.530726228323738,-0.4459764144699092,-6.184872355802448,-6.95393047014971,0.018017553976643147,5.883233107635433,2.071133782165971,-19.61121668248716,-0.25854950718747255,-1.0142935987106068,16.115666459887365,-0.13920307609436144,-32.68321953542327],[11.954361427026484,-0.9802062516990631,-6.679468942323603,-6.3620964832314595,3.243054612979164,6.368111374169949,3.012460646689552,-18.497018446573012,-0.9492446654152896,-1.117798218531877,17.033951816063453,0.3391031543960417,-31.19436349984249],[17.27090483367368,-1.4614318697958142,-6.704343160866485,-4.741605044635005,1.1868525662251816,5.786397773524511,-0.19966242134923215,-19.855742227760974,0.3581354872106082,-0.7083932290334013,14.368203192985087,-0.9470697176371438,-33.50184992099788],[9.837088853239225,-1.2275608326792058,-6.617279895227502,-6.330663612851917,-0.12897059555809987,4.4237910337888335,3.123753531569988,-17.879266942819548,-0.6131935298415607,-0.9424752270153587,15.623024984653659,-0.9390975572364765,-28.638581131369534],[16.096870454619587,-0.315532194718667,-7.839964526792788,-7.049842394358947,0.6764774742982581,7.717820903495473,0.6639304680466124,-22.237254264954036,-1.1078437851290697,-0.8449723888146035,18.13836932587619,-0.9428018238184057,-36.81189194081475],[20.25617797024017,-1.4767247367253844,-10.49168962706373,-9.489502372700409,1.882600616782365,10.897375157448554,2.128892390436163,-32.115580492622,0.1857709233293095,-1.815970557767924,24.291167358397495,-0.15242490883278356,-53.12918209892383],[7.697326205664821,-0.5711924929746532,-1.846630704822152,-0.956716922157362,-0.5430640990576537,1.789515593041123,-1.3993449387559351,-6.069262724853278,-0.19212147459320733,-0.28102922641959216,4.111132340289519,0.26919743521271244,-10.372064326663335],[21.295006543494676,-0.6920992575434929,-11.065883207642816,-10.146102161423357,1.3750904096056717,10.358209568283995,3.7483776807642792,-31.98542618103271,-0.31839600490147135,-1.2915784827548815,24.933147997473192,-0.8788159050249343,-52.510269839648025],[17.902769750989275,-1.736471494543238,-9.289056447930095,-8.436228164923413,1.429562745493617,8.024535200397876,2.5730255748084456,-25.649951894135288,-0.6687006702995085,-1.0566497969239244,20.703772449962766,-0.8788150991001249,-41.513723504815765],[26.411834669275198,-1.0437224446597944,-11.092489571215385,-10.33626516845021,2.0458696897956745,11.026154701039534,4.172561469144232,-33.237740264788876,-0.018723216445168053,-1.262394510868052,27.90563498765676,-0.29300554428713343,-54.12945678269452],[24.54915998495891,-1.8465602480297152,-11.103801336873168,-10.123833800574731,3.26884968273156,10.028211152562777,2.145829176918332,-32.87833977259012,-0.810442244413686,-1.3137485868477023,28.03986808489607,-0.43131283166924084,-55.3308400125974]],"rows":13,"cols":13},{"data":[[0.9033810075841976,-0.7713551153406207,0.24631089609343276,-0.6704467032118009,0.8938829698999875,-0.7461756959728925,-0.26933228174310153,3.1265504962593376,1.4470554149699915,-0.4471960214210068,-7.069855688019892,-6.391015820531333,-3.946509115318342],[0.47911226104879673,-0.378891380983174,-0.31718107597561085,-0.43059059503214037,0.8146025369220701,-0.5236636358324139,0.13196977520874936,0.3891388997132127,0.6553923809115721,-0.5350981452160313,-1.9514030285862445,-0.6948594828831263,-0.45722551070199724],[0.7212960077945682,-1.297845018377549,-0.5920264395010885,0.06524488753678978,0.13250026708012874,-0.9739458183783029,-0.48832853361850026,16.239290401001067,7.3471649736213145,-0.5353615581205889,-63.440271912225285,-50.5276157977655,-31.59604474629923],[0.38355348374710313,-0.23236024528927213,0.31499871862402334,0.6339629746918075,-0.4023236309762227,-0.6510440455136591,-0.5839812128918775,0.9262184160210138,1.467676374825896,-0.6298074136916461,-8.244942769060964,-5.965664336115614,-3.877228533395115],[-0.4102796775159952,0.9534049646375763,-0.02034964835507153,-0.38368529570252746,0.2800285366095938,-0.09739717879081108,-0.7320706420049248,0.4282341276489857,0.9170532367590841,-0.3567073766204718,-1.568838408812918,-0.6309645833935063,-0.5071641275460532],[-0.8759707582330531,-0.6277537820875458,-0.35576010845311556,0.12552967272132187,0.23061755555831517,0.09382750104138565,0.4545084767978419,11.274763227653363,3.2864782375728074,0.7103206047732454,-37.42975134345691,-30.521712695891175,-19.03428619629535],[-0.6664749260221703,0.2096453341477229,-0.8234189000974598,-0.3857506860111026,-0.8837186887306997,-0.7490931783466167,0.847311605441603,-0.04736374879014338,0.7817719324075534,-0.357542099597775,-9.000372695797193,-5.914565177797282,-4.788690808225182],[-0.06538557206117201,-0.280083477662321,-0.4144262203612615,-0.5701547972583241,0.46622057085389107,0.6938857584400808,-0.5162316688829839,5.033040537186102,4.764212639891982,-0.42183786364534964,-34.80825588965091,-29.840803320207307,-17.24879640851381],[0.6103159085785295,0.4243099426210064,-0.9382740053637221,-0.1397626960086723,0.26232200149337215,-0.3735349693368157,-0.6663537398363897,0.38649554908786765,0.1384188844880587,-0.8033353999635121,0.7447850500607993,0.29134940866183456,-0.5072090173519588],[-0.30224153754170063,-0.6657653297345949,0.6640120440283157,-0.7536536922992014,0.7883878565222296,-0.0741659262943843,-0.30809430554279377,-0.2449986343790867,-0.8717781971306431,-0.6081944431991362,0.6646320840271522,0.375313952859337,0.23555518887382357],[-0.8194057469011802,0.31407408776303425,-0.31385257926725013,0.173652363304068,-0.5520959152349247,-0.2911467345997561,0.8518545536621954,4.7566775081586705,3.3772775393640204,0.23323396347961678,-26.48910738138312,-20.18630193907326,-13.177376955131486],[-0.3929304649815253,0.29342214985842385,0.48935293639738237,0.7818520023144547,0.40344039734787074,0.13221663920053275,0.5881053694963296,-0.06318660491182393,-0.48388135434364454,-0.6794930489318628,-0.05961462593933642,0.6254601766747849,-0.3378891748869473],[-0.4953232233627391,-2.093330590517083,-0.9715990440314836,-0.6520251671729611,-0.8519817605114239,-0.3331355431365662,-0.7270675138399606,14.71833854075198,8.997543082969024,-0.35614710141785966,-76.98343685186406,-62.83693488800323,-37.615839052536586]],"rows":13,"cols":13},{"data":[[-0.7544340138343129,0.6313640685498692,0.30692176519677,-0.2685140025813192,0.3285859063438907,-0.9329364627891367,0.4328150882976933,-0.755259206664275,-0.05906992854315169,0.06699199511683188,0.6692154735874759,-0.6797541634352414,-0.9028168390317333],[-1.076311307964628,-1.8068525739153505,-0.44409282079041296,-1.0714130662186236,-0.9621226342830482,0.5929188163886473,0.10047640722979774,-0.786840181273529,-0.7038311174183643,-0.7133835554271142,-0.30550983891835226,-1.5549362517010752,0.017473964998964447],[-0.9835778569171332,0.36211421318409903,-0.848622200264941,0.09329400735364352,-0.4367940940896614,-0.19132613718003458,0.6729561162974163,-0.7843165524290184,0.6109236467365918,-0.26888417225963496,0.8089543226653998,-0.08116046651940917,0.15933179692294366],[-0.2572028544618525,0.48306096190578496,-0.49550202878669414,-0.4762799778829121,0.901796401403895,0.12540281478345894,0.2852641147158468,-0.6397330513250529,-0.04906878673855412,-0.5584761896273205,-0.288745535605075,-0.24433432336139596,0.06530170260815907],[-0.7294548588327646,0.1944541718222515,0.8087771257062691,0.2341788028749584,0.7419083032894647,-0.1351556379655358,-0.8740433287261996,-0.10754460770819314,0.08725688775033186,-0.7922831842164167,0.9912560784708999,-0.9247268689864895,-0.9546009734715919],[0.4661756872198278,-0.43463783680763424,-0.38953106371152707,-0.17096201393436705,0.552070088447636,0.784606763025207,-0.6890551996953402,-0.12313804617622373,-0.8465375263893713,-0.7786528280681029,-0.8174288042944835,-0.6583187731392146,-0.057630713571246474],[-0.8615084948113781,-0.9987176480438529,0.7395373549992322,-0.5078907432760139,0.7452532884727858,-0.4431079123344761,-0.9772693386140916,0.5362924346910666,-0.5250083660425314,0.4818820849062552,0.9774697916519104,0.8621752430100607,-0.7137346357309486],[-0.06097129581665328,-1.5666689333497397,-0.9544381436672489,-1.4441799114956324,-1.5200986534766256,0.34287889690812057,0.4635411092958491,-0.8287323430840828,-0.6400426412152145,-0.8769240397184717,0.5120574322879409,-1.9650597216838184,-0.0396556933154801],[-2.032312546748664,-3.5443679891844946,-1.192546367437525,-3.970375599445254,-3.5433431069595756,0.312372557533755,0.02605516808945763,-1.2198796098724043,0.42144230859107845,-2.3200334791492465,0.05427085581847396,-5.140134693533675,0.3856399871843046],[-0.060859771737624864,0.5954887628242013,-0.813808060999044,-0.08782162187757311,0.738566081017657,-0.15512807815327087,-0.9129991857559083,-0.7499048049890482,0.5566893700550154,0.41737246058379,-0.6227812705758455,-0.32393778054240957,0.8759034496845085],[-8.999098816951749,-17.07748468650715,-7.591064991702197,-21.298482367692763,-17.0455383176544,-0.42610168478789506,0.2378654220158829,-4.578471221228476,-0.42908439510082624,-14.649786376063453,-0.39693415574067353,-27.762834225863852,-0.2922580542823775],[-8.963915558735527,-16.90210425530436,-8.079109235253114,-19.971872940271577,-16.47923404898797,-0.06331020673258134,-0.8579373054703053,-3.8103468601753505,-0.6863762118029577,-13.821893462584693,-0.42722088488539606,-26.52439895464152,-0.5035809929500668],[-4.942685347824684,-10.310934056751146,-5.146488713715275,-12.518774293568894,-10.274299564501892,-0.25153713993858406,-0.43539827889414284,-2.5323191063649557,0.33138568852761974,-8.554110790153636,-0.14347899343231632,-16.573841964116514,-0.47570378096473503]],"rows":13,"cols":13}],"biases":[{"data":[[17.971245346625913,-0.5863033783305202,-8.994529378778754,-7.416698132663521,2.234823196451991,9.01252444704492,2.2545746059942666,-27.095063565581032,0.5975179981494289,-1.2781065512487808,20.65380142614696,-0.4096490568184129,-44.20958616183488]],"rows":1,"cols":13},{"data":[[-0.2622629811009104,0.3510333056230364,-0.23037087801721454,0.4513884673661807,-0.1564232161104836,-0.9294391579649921,-0.1974313728570722,3.960187697785616,2.0044048140032475,-0.46186311908190875,-21.6442875643066,-18.046323219861208,-11.238961065873747]],"rows":1,"cols":13},{"data":[[-1.0912497275446704,-2.4820339187002993,-1.2049865122838628,-4.822822476129348,-4.211797858422678,-0.8855605254343216,-0.8884254977252473,-0.6916966535726562,-0.4125853290896777,-2.0603383545781218,-0.387191693214942,-5.573521817340719,0.09452004836257044]],"rows":1,"cols":13}],"weight_deltas":[{"data":[[0,0,0,0,0,0,0,0,0,0,0,0,0],[0,0,0,0,0,0,0,0,0,0,0,0,0],[0,0,0,0,0,0,0,0,0,0,0,0,0],[0,0,0,0,0,0,0,0,0,0,0,0,0],[0,0,0,0,0,0,0,0,0,0,0,0,0],[0,0,0,0,0,0,0,0,0,0,0,0,0],[0,0,0,0,0,0,0,0,0,0,0,0,0],[0,0,0,0,0,0,0,0,0,0,0,0,0],[0,0,0,0,0,0,0,0,0,0,0,0,0],[0,0,0,0,0,0,0,0,0,0,0,0,0],[0,0,0,0,0,0,0,0,0,0,0,0,0],[0,0,0,0,0,0,0,0,0,0,0,0,0],[0,0,0,0,0,0,0,0,0,0,0,0,0]],"rows":13,"cols":13},{"data":[[0,0,0,0,0,0,0,0,0,0,0,0,0],[0,0,0,0,0,0,0,0,0,0,0,0,0],[0,0,0,0,0,0,0,0,0,0,0,0,0],[0,0,0,0,0,0,0,0,0,0,0,0,0],[0,0,0,0,0,0,0,0,0,0,0,0,0],[0,0,0,0,0,0,0,0,0,0,0,0,0],[0,0,0,0,0,0,0,0,0,0,0,0,0],[0,0,0,0,0,0,0,0,0,0,0,0,0],[0,0,0,0,0,0,0,0,0,0,0,0,0],[0,0,0,0,0,0,0,0,0,0,0,0,0],[0,0,0,0,0,0,0,0,0,0,0,0,0],[0,0,0,0,0,0,0,0,0,0,0,0,0],[0,0,0,0,0,0,0,0,0,0,0,0,0]],"rows":13,"cols":13},{"data":[[0,0,0,0,0,0,0,0,0,0,0,0,0],[0,0,0,0,0,0,0,0,0,0,0,0,0],[0,0,0,0,0,0,0,0,0,0,0,0,0],[0,0,0,0,0,0,0,0,0,0,0,0,0],[0,0,0,0,0,0,0,0,0,0,0,0,0],[0,0,0,0,0,0,0,0,0,0,0,0,0],[0,0,0,0,0,0,0,0,0,0,0,0,0],[0,0,0,0,0,0,0,0,0,0,0,0,0],[0,0,0,0,0,0,0,0,0,0,0,0,0],[0,0,0,0,0,0,0,0,0,0,0,0,0],[0,0,0,0,0,0,0,0,0,0,0,0,0],[0,0,0,0,0,0,0,0,0,0,0,0,0],[0,0,0,0,0,0,0,0,0,0,0,0,0]],"rows":13,"cols":13}],"bias_deltas":[{"data":[[0,0,0,0,0,0,0,0,0,0,0,0,0]],"rows":1,"cols":13},{"data":[[0,0,0,0,0,0,0,0,0,0,0,0,0]],"rows":1,"cols":13},{"data":[[0,0,0,0,0,0,0,0,0,0,0,0,0]],"rows":1,"cols":13}],"process":[{"data":[[24.428418945255196,15.364080735956634,27.258415960542525,-2.3221032685589744,-1.9055476125504107,9.066875279448135,16.554953069900595,8.879044502106872,23.68031334409328,8.67010543897544,26.223419985314766,3.4504412933965867,19.444336493846293]],"rows":1,"cols":13},{"data":[[null,0,0,0,194.87542915297448,null,263.6378678155398,0,0,0,null,0,0]],"rows":1,"cols":13},{"data":[[null,null,null,null,null,null,null,null,null,null,0,0,0]],"rows":1,"cols":13},{"data":[[null,null,null,null,null,null,null,null,null,null,null,null,null]],"rows":1,"cols":13}]}}