{"type":"Generative_Adverserial_Network","activation_function_name":"identity","activation_function":{},"learning_rate":1,"discriminator":{"type":"Fully_Connected_Network","activation_function_name":"tanh","activation_function":{},"learning_rate":0.5,"length":4,"width":7,"weights":[{"data":[[-0.6828497128033435,-0.9389871959253955,0.71562571123107,0.2652595130830365,-0.22098181532855588,0.4379049936997302,-0.537444123955721],[0.2666173499229245,-0.09025170150768291,-0.38739571698670705,0.7881197621844394,-0.907824366102564,0.6452658751116909,-0.8317072867701794],[-0.19654926492664293,-0.08090328520786194,0.2173041034944791,-1.2219517119520804,0.6751991971390239,0.6661810024064924,0.2578553317728667],[0.22510193006346801,0.9514691271793909,-0.3693230409815852,-1.6476061431461684,0.8886282255061788,-0.6695935923197227,-0.8400922367751016],[-0.47416318238847266,-0.833832440440966,-0.4751291078098022,0.8332967064395834,0.030653754640951103,0.46727414665944084,0.5432803609073202],[-0.6970569263085058,0.3401625834189934,0.6704509444652409,0.7213762546799549,0.6489247371152134,-0.4345110218924492,-0.2922943116928791],[0.7120603962876126,0.0306181929549747,0.8777898450825847,-0.5826921846997037,0.3697176556866282,0.05761938718952573,-0.059578579764497874],[0.4014645359932394,0.8762312485658863,0.9584135428086935,0.2437696392155052,-0.06676114546136569,-0.062458631238880645,-0.003326538087377262],[0.7297988486341795,0.8677472421661623,0.4410381884469935,-0.3996353927236218,-0.750422006629468,0.13630856598324195,0.07834866199434964],[-0.7557413321432938,-0.736971209821863,0.4287165852016819,-0.053624361758112665,0.3298932651381592,0.6137089605567114,0.43540760103353415],[-0.8420266120588678,0.544582462140716,0.6481112654048318,-0.3460568419229113,0.25257410458601415,0.7362666410231823,0.39976758723787365],[-0.35635346873941254,0.04450998173853682,-0.357990505383592,0.18728710784621994,0.5552278432594799,-0.7327692306350366,-0.35937439563056417],[-0.8524078455721362,0.035771076044686545,0.7219934654010705,-0.32692144931815964,-0.007920752536473508,0.039384832452807404,0.11777459554999492]],"rows":13,"cols":7},{"data":[[-1.0453214807873605,1.3435369766001832,-0.9721591142565151,0.41268614132921316,0.9308441761368892,-0.4781777759715658,0.4010549155751798],[-0.3702078043804439,0.3500214472541125,-0.4040414712629977,-0.9579466364168462,-0.7385985358105862,-0.31744582313541314,-0.30514377443794943],[1.1715886477153301,-0.10507047084434601,-0.19836855769628986,0.1465318412115507,0.4378520754572316,1.4204347080254618,-1.1444553054325215],[-0.674596427295579,0.4820105729520033,0.10159523388489106,0.17018824328416193,0.7335522060656005,-0.07152087506034067,0.46956701151933994],[1.2219856522326107,-0.252053442117714,1.4609083560702356,0.2763321825413816,-0.9244522068393749,0.38497523849733895,-0.4523009055793807],[-0.06212231666897796,-1.205036905806191,-0.41945329786074304,-1.1178999772905542,-1.1065822039649078,0.8467775627534805,0.10604433890730387],[-0.20230274315357763,0.5415487267232549,-0.9175283127243199,1.1624819884783488,-0.4185352578263713,-0.236040873808257,0.590486973054383]],"rows":7,"cols":7},{"data":[[-0.9718060427932713,-0.750361452933801,1.0863977452871032,-0.5193443001556243,0.3343429221089556,-0.09336643445996534,0.13741498166184718],[0.5902862111994986,0.19519632102342308,0.18182654507807558,0.5957361753771182,-0.975388783234851,0.16375785682738742,-1.197770831263096],[-0.6724468579122171,-0.9109931266262069,-0.007524337355822551,-0.15855408799177614,0.31621209673168815,-0.6065390563812365,-0.29395323827803216],[0.4147546991084472,1.0459766297104136,0.30404506203815795,0.39453945235573074,0.2973412078092945,1.161737813275044,0.23541604038795882],[0.019161174938392814,0.8789320410115492,0.022049890478551364,1.2009550158576279,-1.0142058990470337,1.0267969322144324,-0.827896851647433],[0.7054345058092557,-0.6531830244622392,0.8116670108714453,-0.6511366038157332,1.190558230289918,-0.5962657196977154,0.576482203322175],[-0.6266410242445937,0.6126749764620693,-0.6343668211072822,-0.6620076539138312,0.4220424168959544,-0.7327157219600378,-0.8235202440721499]],"rows":7,"cols":7},{"data":[[0.14115980944120804],[1.2027022732081583],[-0.10526251617953958],[1.2662628641584477],[-0.40463064982547015],[0.15811920601994145],[-1.2237925310284923]],"rows":7,"cols":1}],"biases":[{"data":[[-4.526293802078013,3.2482811667089355,4.00312908150968,-4.137576102588178,4.358431011657227,4.455596917595712,-3.863516086728418]],"rows":1,"cols":7},{"data":[[1.2772322877845965,-1.5818936169605275,2.355005488165495,-1.3544062925154947,-1.9944221345299866,1.9232599353568567,-0.8893981847621314]],"rows":1,"cols":7},{"data":[[-2.2961482561989066,0.10509203645820062,1.457270902124995,-1.8845213810311459,1.0533401137912553,-0.7861657158612316,1.6930058999240802]],"rows":1,"cols":7},{"data":[[136.2513390647206]],"rows":1,"cols":1}],"weight_deltas":[{"data":[[0,0,0,0,0,0,0],[0,0,0,0,0,0,0],[0,0,0,0,0,0,0],[0,0,0,0,0,0,0],[0,0,0,0,0,0,0],[0,0,0,0,0,0,0],[0,0,0,0,0,0,0],[0,0,0,0,0,0,0],[0,0,0,0,0,0,0],[0,0,0,0,0,0,0],[0,0,0,0,0,0,0],[0,0,0,0,0,0,0],[0,0,0,0,0,0,0]],"rows":13,"cols":7},{"data":[[0,0,0,0,0,0,0],[0,0,0,0,0,0,0],[0,0,0,0,0,0,0],[0,0,0,0,0,0,0],[0,0,0,0,0,0,0],[0,0,0,0,0,0,0],[0,0,0,0,0,0,0]],"rows":7,"cols":7},{"data":[[0,0,0,0,0,0,0],[0,0,0,0,0,0,0],[0,0,0,0,0,0,0],[0,0,0,0,0,0,0],[0,0,0,0,0,0,0],[0,0,0,0,0,0,0],[0,0,0,0,0,0,0]],"rows":7,"cols":7},{"data":[[0],[0],[0],[0],[0],[0],[0]],"rows":7,"cols":1}],"bias_deltas":[{"data":[[0,0,0,0,0,0,0]],"rows":1,"cols":7},{"data":[[0,0,0,0,0,0,0]],"rows":1,"cols":7},{"data":[[0,0,0,0,0,0,0]],"rows":1,"cols":7},{"data":[[0]],"rows":1,"cols":1}],"process":[{"data":[[null,null,null,null,null,null,null,null,null,null,null,null,null]],"rows":1,"cols":13},{"data":[[-0.9997657357021762,0.9969851619878203,0.9993331151004836,-0.9994903253451299,0.9996722850327664,0.9997301624684334,-0.99911836733594]],"rows":1,"cols":7},{"data":[[0.9999340327431882,-0.999934129203157,0.9997904795062509,-0.9998497943829082,-0.999970913077131,0.9999166505458786,-0.9994964775941823]],"rows":1,"cols":7},{"data":[[-0.9986013896992522,-0.9998978906958863,0.9980792725483025,-0.9998480848925193,0.9995172022574059,-0.9987822810477474,0.9998429528541648]],"rows":1,"cols":7},{"data":[[1]],"rows":1,"cols":1}]},"generator":{"type":"Fully_Connected_Network","activation_function_name":"softplus","activation_function":{},"learning_rate":1,"length":3,"width":13,"weights":[{"data":[[-0.9297087094148879,19.042039045909558,-21.59735583922937,16.09549917802381,18.201537906393288,48.91289095065824,-0.8777159341594192,10.10133533518501,-102.78858533846628,1.4132928842196646,0.1964840528015856,1.0524665746173725,-12.67823487695167],[-0.9804548344544513,8.653454148121051,-24.650771360980375,15.47476399946708,29.41542353928883,48.533251716949756,-0.7543409333496075,11.265942348423845,-92.35157531085501,1.9746561217377465,-0.5620373810195458,-0.8490081072798282,-11.814919145355613],[0.18753259605233433,15.59364002154907,-28.815324283725356,12.874432792710024,37.085325309027915,59.51641861513042,-1.616758244684494,9.664647942918691,-120.26249934165895,4.741670172788483,-0.28298761532869127,-0.7705359512470306,-15.63541185929181],[-0.8343723096654992,12.668666638397093,-15.184298239607266,14.210343272883124,16.86954157596703,50.307655124763855,-1.3647645807220201,7.765737338587532,-116.41253330861193,4.246994279496897,-0.6522825968992212,-1.1286619387219408,-20.889036040937942],[-0.70568558234437,10.6663380324716,-15.259871845631585,12.308909283438837,30.071898575853638,44.23924432236764,-1.066073976600962,10.32222782234653,-95.36427234913421,5.674557288174737,0.35186885237321797,-0.6871963839152666,-11.844682116372454],[-0.572265195759039,23.891091907336175,-19.471652915477357,13.044493070031672,20.220465724536197,57.09116104002593,-1.1518320349258149,10.805924579456905,-118.81498657585063,1.1772164413013129,-0.4885814872860194,-0.06622626127120619,-17.136395270000445],[0.006598965404647181,17.040110217617997,-26.379803495070824,14.691689821648144,20.016005057304927,57.25793179440575,-0.6326733092783189,12.288253123790394,-116.87699045849907,-0.28774814227913986,-0.6546499488878847,0.20694967756945537,-16.972050727248405],[0.4959980617065008,27.97041962961971,-33.6192410118022,24.21329672686817,43.916392868406696,82.62430569097803,-1.5721738509141723,15.854031427470616,-165.86304895891482,0.811993847339074,-0.22382226743420364,-0.5763130130705453,-23.85140713430126],[-0.8665634688727653,6.868396164878187,-10.44365134548493,3.472229540065899,11.434693543370452,22.78103458744912,-0.4555597625776402,2.222002392548662,-45.91383007651596,4.843184115010093,0.5315670894172567,0.16149722366248262,-6.616432511050002],[-0.8800234716298049,19.799419582247214,-31.10801211791791,21.233729098670945,35.787676372444174,74.47007850864102,-1.572306122536996,16.636779292947143,-146.9685447102142,0.5945635154249532,-0.7698818188477038,-0.03062622690119885,-18.39698130736967],[1.0128901764636373,20.499807012875735,-33.02422824402344,19.847637527109175,40.55275789631396,74.43510784145475,-1.3591413470207034,15.079200867244227,-156.07452857925142,2.210450794807017,0.5419881642162843,-0.6278551047754374,-21.3184997362822],[-0.8848708229315874,31.437297041135597,-33.450730496490024,26.358840772416176,35.97148692365165,92.39847381988963,-1.9766824107310597,18.353889498487607,-188.51958811896608,4.221388645864155,-0.3192612537553316,0.36869754752676703,-27.788882060422477],[0.8608407872419337,28.023744377490832,-33.00711775731743,26.08291134831753,45.5842742603892,88.9090620269324,-1.7862192665731014,15.50538655020302,-180.16376223306872,2.2847662535226516,-0.5074123058318887,0.020878588683310904,-26.79113790089262]],"rows":13,"cols":13},{"data":[[-0.15514699632947693,-0.010609255338627277,0.4123238285597419,0.9528484081733998,-0.8163649191522895,0.2734056949248898,0.36457088203520316,-0.47682087247042393,0.7599692952879755,0.3194686535021992,-1.1611816224922697,0.17770511693415444,-0.3702016243377191],[0.8479223549969245,-24.1409384749335,-0.27011339066527956,-2.0052322257582538,-0.08916900767316849,0.9506465000404256,-0.6692713945586759,-0.7425041483572931,-1.0192760533345175,-1.8359514947693438,-48.99198960776312,-0.27432019924534884,-0.07313717219171445],[0.6306058164783954,-21.236070390410394,-0.5526161822306607,-1.2339815184073726,0.2699182780278072,2.8416551344703462,0.262255053553461,0.6499323852140285,0.11980693579353396,-4.832559985531972,-39.291197115266804,0.5858146177854835,0.0056501411560615986],[-0.7618330342979539,-29.043703342973316,0.2124965804217385,-2.154683609335767,-0.7998616262904898,1.6025085646748591,0.4145465547945674,-0.8283926233338296,-1.589493825154158,-3.054370014208823,-46.09781882730493,0.9564881921753338,0.7015339790962649],[0.08113259052509066,-13.149722787268503,-0.4306021339042843,-0.5883489162211972,0.02362070548687309,3.186412257659137,-0.3516117967491453,-0.33165003133781823,-0.5635226851141637,-2.188567479159857,-24.457948560011246,0.8818495137736186,-0.972369532515782],[-0.7735940666281094,-112.4825894882881,-0.2599667944936036,-12.340181727168838,-0.9241401014311988,9.89526196933093,-0.24118462790517967,-0.29328885420166395,-3.604730300836216,-6.58279889214432,-210.48423730261712,0.5889635416230043,-0.8502205418067237],[-0.8221521211016376,0.06782936070627255,0.9724369331078541,-0.8970744601771318,-0.16434394361098725,-0.15971008029512257,0.2476240683127889,0.35811472073748796,-0.48172165814205015,-0.7733128407326346,-1.2399041275569087,-0.06666129979434156,-0.6611571111435941],[-0.9259964629970554,-204.8973110034221,-0.5322828813065094,-26.2746716970463,-0.40477101525553255,42.79031825445558,-0.8719230203946196,-0.7326163343974983,-5.255011647479187,-3.066656655935332,-470.3057718221307,-0.027067136172167106,-0.27805116530461066],[0.0041818791434571215,-129.03366047049886,0.020278543939432143,-14.7838517402141,-0.478117761025349,15.84610273948465,-0.7655088257760613,-0.056245420115611296,-4.979477168251563,-1.9613970805059868,-274.69331115643917,-0.6149561000963515,-0.4281755454330158],[0.010911725542013084,-1.5301102208650108,-0.4514234400782819,-0.39307723011899504,-0.037479475980700866,0.9652567973242938,-0.10272331523535172,-0.05001929884785946,-0.9662826509049008,-0.4537284251205327,-2.38316298360391,-0.8321367076334552,-0.5718882792392381],[0.9102539740191471,-0.5804519713035128,0.283137183996397,0.38718888486479175,0.1608642495245684,-0.21639711865437805,-0.5270293287831613,-0.8090419129539796,-0.9782449977453532,-0.2816461097722692,0.42104592704050736,0.9990037342229828,0.9345064126328925],[0.8248545649244179,-0.6745153393549135,0.47868143291426285,-0.3802779429637695,0.9571122937650717,-0.19438308411040484,0.38875868545744335,0.15831651807453218,-0.19323607347022717,-0.7396195495953718,-2.0032766582091073,-0.374754824506735,-0.7925855481902006],[-0.03645081643791562,-39.66488472588319,-0.7970327732972847,-10.253228198352723,-0.7944342104780746,15.895746121808374,-0.4417172353567796,-0.398129241095702,-0.811721734099816,2.481983370021187,-103.42552830069192,-0.6635051838432755,-0.7342746369987465]],"rows":13,"cols":13},{"data":[[-0.2716319472637152,-0.1786527257710362,0.5022292129845156,0.03982562911189097,0.8910493185865569,-0.668096465356482,0.32538162340735255,0.40154601676548923,-0.30068176289194315,0.017051559817719015,0.5425246049299439,0.8309077443727814,-0.24222581104202856],[-76.60282882436564,-0.5480784145563348,-27.165204746607834,-78.65059362137914,-0.041582623958069,-28.19546658314028,-9.154906958269915,-33.467297942370045,-23.35092280673619,-26.766297761976624,-44.03625327162481,-21.057345182839605,0.46471770953612834],[-0.4364902869886121,0.5465512760683131,0.042728670518795905,0.7210532816977883,0.30209898912608885,-0.1691107594008309,-0.5863030151670033,0.7388001681221519,-0.38701518990569805,0.029419413001055054,0.8526671234744951,0.41217249062038747,-0.784849343428432],[-11.907968352033556,-0.16553695523437026,-4.402055777554379,-12.416551753672412,0.0024094521317142813,-8.393265914593375,-1.6932224050014935,-8.801031061274353,-7.909250495739165,-6.172580316353271,-9.918453314912671,-3.8092822363963132,0.023861468359184866],[-0.49676002837664374,-0.4139531770584419,-0.6444700789481866,0.21554520354757822,-0.2748122777414048,0.7825160045911161,-0.44901061205223236,0.4957024824006591,-0.009579783937758832,-0.10502128524328477,0.4720592619030323,0.15784939575461446,0.42899671048201826],[-9.785566177538138,0.5335027632780229,-3.7388228074146186,-11.563786477186834,0.27481590638644793,-7.792108995290132,-0.5154919957811936,-8.751686154538499,-7.683507748436794,-4.966460568842276,-9.107541755041098,-2.39576484160611,-0.3464099512980363],[0.4972478478356443,0.5252542935449114,-0.5065807665587903,0.09275304506042359,-0.5033739699060344,0.9361715946362112,-0.17995008761487297,0.2029306952424612,0.7419214695472602,0.19832226487173932,0.4727408840233518,-0.2671791387934608,-0.9868617347632886],[0.8490238007466303,0.35746127437844555,0.001771630102466349,0.9458185451781331,0.1001865770382353,-0.705235406316403,0.4246387772253368,0.2939913778153908,-0.4567875056641241,-0.9155075745996579,-0.19163294864163222,-0.6659385492874931,0.3033461379172002],[0.27090863977666774,-0.40973920483808224,-0.2964662480792875,-0.24031696804528363,0.6960919288193887,-0.08940864322055557,0.4628154521374178,-0.00493651832716023,0.31679590670936286,-0.6475882367355807,0.7451658762917202,-0.1128821059558607,-0.6882398952525731],[-7.273356366016746,0.8824998160178423,-4.169424829473927,-9.679545786013058,0.12994826564895642,-3.0325340006525825,-0.9338332435612308,-4.441017723071161,-3.5859400948012885,-2.874468424138541,-5.469056617105405,-1.291864334462821,-0.803496912511931],[-149.12833453490578,-0.8639171120465257,-60.457690709583375,-156.1891950469029,-0.43445787521208795,-78.42866020819456,-18.585308949478694,-88.98872331425648,-69.5545949446669,-62.82667709948607,-106.38219727859703,-41.95420734509838,-0.4416495481880203],[0.009316782704174756,-0.06317026260163283,-0.426210911180944,-1.0726072111170284,-0.05168933445992186,0.24080894051782467,0.3866031978274291,0.916550754924567,0.9231781233286501,-0.7792226977474358,0.04772570875309332,0.4111271341915013,-0.8996714964601178],[-0.13339928665014583,0.38466044052588355,-0.15619022790455867,0.5090716146309611,-0.13189869913525643,-0.31570602058155783,-0.46786320527435743,0.07600107245683847,-0.6387539174665685,-0.7316344921851753,-0.9225933500299279,-0.984685620043869,-0.7841338927532826]],"rows":13,"cols":13}],"biases":[{"data":[[-0.8015602981698987,18.795119469682437,-24.25014252574449,16.334525747095032,28.24138597734073,60.66863805048891,-0.21815577886282736,12.315382087766487,-122.44893894950025,3.6907444477596782,-0.7848987923136636,0.08650906338857713,-17.62845025771962]],"rows":1,"cols":13},{"data":[[-0.5570329914106145,-46.66541752580049,0.22543287514216567,-5.954887996820038,-0.061561769181980336,7.19874401262439,0.6181906374762647,0.48705550884685667,-1.2893500393773745,-0.9616970368877014,-101.15924514782778,0.5135202517296745,-0.34225035744030363]],"rows":1,"cols":13},{"data":[[-26.92411741137247,-0.06249647577755871,-8.778208121710943,-27.857545757525333,-0.5774251375180084,-10.948335357194045,-2.384864889917559,-13.410187837796169,-9.394955274918557,-9.881151651099058,-15.506209328849593,-7.567556684244298,0.9064172032697706]],"rows":1,"cols":13}],"weight_deltas":[{"data":[[0,0,0,0,0,0,0,0,0,0,0,0,0],[0,0,0,0,0,0,0,0,0,0,0,0,0],[0,0,0,0,0,0,0,0,0,0,0,0,0],[0,0,0,0,0,0,0,0,0,0,0,0,0],[0,0,0,0,0,0,0,0,0,0,0,0,0],[0,0,0,0,0,0,0,0,0,0,0,0,0],[0,0,0,0,0,0,0,0,0,0,0,0,0],[0,0,0,0,0,0,0,0,0,0,0,0,0],[0,0,0,0,0,0,0,0,0,0,0,0,0],[0,0,0,0,0,0,0,0,0,0,0,0,0],[0,0,0,0,0,0,0,0,0,0,0,0,0],[0,0,0,0,0,0,0,0,0,0,0,0,0],[0,0,0,0,0,0,0,0,0,0,0,0,0]],"rows":13,"cols":13},{"data":[[0,0,0,0,0,0,0,0,0,0,0,0,0],[0,0,0,0,0,0,0,0,0,0,0,0,0],[0,0,0,0,0,0,0,0,0,0,0,0,0],[0,0,0,0,0,0,0,0,0,0,0,0,0],[0,0,0,0,0,0,0,0,0,0,0,0,0],[0,0,0,0,0,0,0,0,0,0,0,0,0],[0,0,0,0,0,0,0,0,0,0,0,0,0],[0,0,0,0,0,0,0,0,0,0,0,0,0],[0,0,0,0,0,0,0,0,0,0,0,0,0],[0,0,0,0,0,0,0,0,0,0,0,0,0],[0,0,0,0,0,0,0,0,0,0,0,0,0],[0,0,0,0,0,0,0,0,0,0,0,0,0],[0,0,0,0,0,0,0,0,0,0,0,0,0]],"rows":13,"cols":13},{"data":[[0,0,0,0,0,0,0,0,0,0,0,0,0],[0,0,0,0,0,0,0,0,0,0,0,0,0],[0,0,0,0,0,0,0,0,0,0,0,0,0],[0,0,0,0,0,0,0,0,0,0,0,0,0],[0,0,0,0,0,0,0,0,0,0,0,0,0],[0,0,0,0,0,0,0,0,0,0,0,0,0],[0,0,0,0,0,0,0,0,0,0,0,0,0],[0,0,0,0,0,0,0,0,0,0,0,0,0],[0,0,0,0,0,0,0,0,0,0,0,0,0],[0,0,0,0,0,0,0,0,0,0,0,0,0],[0,0,0,0,0,0,0,0,0,0,0,0,0],[0,0,0,0,0,0,0,0,0,0,0,0,0],[0,0,0,0,0,0,0,0,0,0,0,0,0]],"rows":13,"cols":13}],"bias_deltas":[{"data":[[0,0,0,0,0,0,0,0,0,0,0,0,0]],"rows":1,"cols":13},{"data":[[0,0,0,0,0,0,0,0,0,0,0,0,0]],"rows":1,"cols":13},{"data":[[0,0,0,0,0,0,0,0,0,0,0,0,0]],"rows":1,"cols":13}],"process":[{"data":[[10.592425748075302,3.9077820147102127,13.182169774547498,33.84812773265277,5.882529760270916,4.501822294893785,26.143447696121534,19.5954908415359,-9.016708523526784,15.293764725529662,13.672258621077924,28.24612378295075,14.07671246992032]],"rows":1,"cols":13},{"data":[[0,null,0,null,null,null,0,null,0,429.79500416770514,0,0,0]],"rows":1,"cols":13},{"data":[[null,0,null,0,null,null,null,0,0,0,0,null,null]],"rows":1,"cols":13},{"data":[[null,null,null,null,null,null,null,null,null,null,null,null,null]],"rows":1,"cols":13}]}}