{"population":[{"type":"Genetic_Combined_Network","activation_function_name":"tanh","activation_function":{},"networks":[{"type":"Genetic_Convolutional_Neural_Network","activation_function_name":"swish","activation_function":{},"length":1,"width":4,"height":4,"weights":[],"biases":[],"kernels":[{"data":[[-0.05516488966745814,-0.03403080328243513,-0.03137677099081004,0.0800739176371067],[-0.00864297232775263,-0.036514401871026,0.12471967400559225,0.005519513104358054],[0.11844490507509736,-0.0010214147498732173,-0.09429104337332828,-0.005047288336399891],[0.10073797433921211,-0.08309710874351489,-0.10697707909471316,-0.056276485467879]],"rows":4,"cols":4}]},{"type":"Genetic_Flatten","activation_function_name":"identity","activation_function":{}},{"type":"Genetic_Fully_Connected_Neural_Network","activation_function_name":"tanh","activation_function":{},"length":3,"width":9,"weights":[{"data":[[0.4227682014282585,0.35454598253029135,0.14720710800844972,0.31897280804133454,-0.4013439399042383,0.2436476752643951,-0.2761388582085651,-0.37591224510440363,-0.3114799304941709],[0.429864673925629,0.3466697433721541,-0.2282482914231595,0.3115720144481302,-0.0903659963574841,-0.16964872105496911,-0.2402323123933783,-0.1525227883032369,0.38673729088022996],[0.34438205463571814,-0.24151376555031054,0.43727649103472205,0.31252440120967123,-0.05698047975239893,0.07232120682719595,-0.31818445305270737,0.3610300554773242,0.4361147107594317],[-0.13093820075924362,0.4126183608136782,0.024406753025556487,-0.04333055566657941,-0.00565615759603478,-0.18789466572175878,0.4030404077488942,-0.20797807482605773,-0.42586517115610045],[-0.3478671158980079,-0.39207985626399555,0.22838832548052548,0.3761315476353565,0.1368551990875695,-0.09807401377845702,-0.23694340084602394,-0.24028206154557713,-0.39670658418005705],[0.07489065032485617,-0.3920529537486949,-0.05130586980526575,0.19007012918523208,-0.0711808935029452,-0.24933672221172398,-0.42427722301927273,-0.2431960765514063,-0.11170507277770848],[0.4710887722801746,0.2138549235523369,-0.18963732429586008,-0.04220242523356735,0.06173531671341457,0.18004991291917283,-0.07700922748828741,0.1361477510516206,-0.2384611436508146],[0.17818149710068523,0.2731471244068538,-0.1915848282138774,0.26743864472433837,-0.2800665175785196,-0.42275098983750725,-0.19533294634407827,0.06175669141496947,-0.40949947775408224],[-0.2422577539043031,-0.3972343585610514,0.10575495248323111,-0.4078389135026374,0.2993043681077387,0.200917225858188,-0.31277880973080313,-0.3138263650475036,-0.160084707560067],[0.040960325763877634,0.17617027953032982,0.17970825836176316,0.37183217023038895,-0.001633030705014938,0.1971079060826862,0.0028750098653393995,-0.04212894935854438,-0.16354711921803367],[0.43074369461400197,-0.08471878328073996,0.2564641745118911,-0.297252786499685,-0.27179672450022196,-0.42200492138303236,-0.3774790734715915,0.10835443787964873,0.25858420717928876],[0.2382845257720644,0.3395859086170461,-0.43528646053797815,-0.12822739944404712,0.07291514689122244,0.27162767524237585,0.18368359962649422,0.26893855616570933,0.21621521644057068],[0.35913380991006516,-0.04078992376374371,0.24286771135667706,0.4486943714379622,-0.09380715451566085,0.17660082379967,0.07242136306182091,0.004278381664208069,-0.0856515586182671],[0.0718020994326389,-0.15523418447840692,0.4120623381642936,-0.4002377506349688,-0.1891801545372977,-0.4268207608576121,-0.1495195873437869,-0.3399541792220657,-0.04757771941483697],[-0.14170230873653547,0.44994703370563677,0.3548073734792359,0.33374187147381645,0.3328908562561428,-0.0396581096937287,0.2915469894054782,0.33459094778975,-0.46941383141273496],[0.4328881666220751,0.37997722475645923,-0.3438673493701608,0.15240260246949516,-0.16035652207613066,-0.19795748550157669,-0.42041907618347746,0.15794839722999068,0.39575837906070876]],"rows":16,"cols":9},{"data":[[-0.15909610872636712,-0.01085020273355225,0.08722293040199647,0.1761589091892133,0.4601847788393492,0.326632405262801,-0.28938834478152214,-0.3435065041335107,-0.1711895675494441],[0.2225260102634439,-0.13643983304945806,-0.30032947534167725,-0.1521311139328537,0.006913204057238475,0.41624869904826167,-0.4620542765023409,-0.2516113153414042,-0.28078690805054396],[-0.3689696875896182,0.3857373706685082,0.34856142556376607,0.03939389919603148,-0.08683978968231144,-0.4493848826041486,0.011210716891179334,0.10505738165772188,0.4382238143401337],[-0.0575393156917997,-0.37037317316054585,-0.36894885425445706,-0.255803808964267,-0.20328016076595307,0.11916530498343733,-0.3736713799840696,0.17657923253832916,0.035494641438658735],[-0.24435257969695673,0.04979467230006179,-0.32110058727663393,-0.31341491682572264,-0.4338581939267497,0.32879127133223485,-0.3732045229682375,0.40189202506759947,0.09509401588717663],[0.1698172790040581,0.24730016910261618,0.24460757308461145,-0.37554324394140337,0.45722127926216816,-0.14187126569823835,-0.45583900062368643,-0.2320310882473266,0.14927918354930392],[0.3064669574514174,-0.43444269624699977,-0.40390777087898416,-0.3570719186848366,-0.17958960301313934,-0.4287788767048085,0.03945761991459665,-0.02798202623078564,-0.2203624130791461],[0.11457566122368752,-0.2255358109852669,0.0913028044523345,0.31673919142238804,-0.13079076643261361,0.46777983100018067,-0.34764097322243065,0.3638067899969215,0.26271243530563726],[0.25347630348233896,-0.30804398929797455,-0.40817053904345596,-0.23789749213100161,0.05090009023429793,0.0031522692340386397,-0.34496384207430236,-0.21503615422748543,-0.2448358361941538]],"rows":9,"cols":9},{"data":[[0.4333819073502137],[0.35068224575871493],[0.14964025116689333],[0.34517118766096994],[0.2895252169707337],[-0.04346796646371151],[-0.04390062860601428],[-0.07218761351332353],[-0.431229237489452]],"rows":9,"cols":1}],"biases":[{"data":[[-0.47016630236236645,-0.33941228239931576,0.4232159291924871,-0.17380848858621312,0.059142165730268446,0.2687914737995545,0.05608484985501833,-0.13185747101279408,-0.23933206814231883]],"rows":1,"cols":9},{"data":[[0.005043273853173472,0.06787141718554052,-0.35716227938008066,-0.011594772891720562,-0.18050942516656113,-0.24703492331204205,0.219091994851274,0.4325666437012892,0.18012382892702855]],"rows":1,"cols":9},{"data":[[-1.680590717737851]],"rows":1,"cols":1}]}],"length":3},{"type":"Genetic_Combined_Network","activation_function_name":"tanh","activation_function":{},"networks":[{"type":"Genetic_Convolutional_Neural_Network","activation_function_name":"swish","activation_function":{},"length":1,"width":4,"height":4,"weights":[],"biases":[],"kernels":[{"data":[[0.025756971669041062,-0.11949399257313731,0.12233565404612151,-0.02568636493159049],[0.032855278966699875,0.07361778796836915,-0.028082786829672635,0.03708091537051694],[-0.10605776803130079,0.026462023789283196,0.027403088804252018,-0.044588853925181415],[0.08539292509231361,0.06784484539784102,-0.041008494324175915,-0.03234476437794914]],"rows":4,"cols":4}]},{"type":"Genetic_Flatten","activation_function_name":"identity","activation_function":{}},{"type":"Genetic_Fully_Connected_Neural_Network","activation_function_name":"tanh","activation_function":{},"length":3,"width":9,"weights":[{"data":[[-0.48920518815499303,1.48044876393122,-0.6075129051560444,-0.7296491286045703,-0.1900126265435378,-0.03962415058797086,-0.22417449468897344,-0.5194416936425568,0.051021189537590494],[0.7618340559818055,-0.06292885593690012,-1.7270573058755314,-0.4295316885386089,3.1356770465028223,-1.5009294737461376,-0.5896039964230528,0.8701064995225436,1.4176119320163063],[0.2563838525456763,2.5334777881085135,0.46386144629883086,0.06901271212943372,-1.706363707542792,0.3384949701486306,-0.7231698212128076,-0.2036074365483389,-0.1862041573773796],[-0.02137277004546667,0.20705514080687326,0.45757904215178025,1.0994955531941168,0.5372471351981372,0.8044839992433825,-1.250835065883341,-0.372286475164185,-3.0826678685008937],[0.9942595370870047,4.20137956067156,0.30650950701318047,0.7046069839573812,0.20390289208716328,-0.9535095325416805,1.9020123432866938,1.0416368186382345,1.271886152579925],[1.870785284534609,-0.22256119650196415,0.42251205482430576,-0.747810373818502,-0.9453586326301131,1.47957594993813,0.8438961564737726,0.24970792044321222,-0.15225960419398454],[0.36748927969515854,-0.1195767695539307,-0.08313175289821828,0.9323130298442366,0.1118150565147975,0.33495828008570894,1.6993119631893108,-0.9859654664052927,-0.07291437487390962],[-0.7722313166551191,1.7726515651083057,-0.48350757575294534,-0.7983209922027947,-0.7277663230982954,-1.3951943208386377,-0.4465966237120189,-0.47937328350504305,-0.10559643573546762],[-0.3718941336971897,-0.5772329568281054,-0.2669265889497445,-0.6291856901489146,-0.9643112218332295,1.381513582066221,1.6848713674222648,0.7442831786755608,1.161144623282456],[0.10538101449207926,-0.29337281782039404,-1.5405882799403883,0.4952945650112175,1.0528012649369671,2.2503176319214346,0.7565824354004087,-1.5266397583403455,-0.12887173987993727],[0.43074369461400197,1.5237746115435096,-0.09226468653302244,0.5068735230358605,-0.0925254019898124,0.6303518239385322,-0.03416918768161947,-0.8621852264464749,1.2071910189286732],[-0.9194032704314847,0.7154252623489579,0.13782398039165988,0.7256433574720429,0.30689523923343764,-1.2073362560251548,0.7821600126628367,-0.23389416004253394,0.9885865872584632],[-0.4782117547156628,0.8444603971091753,-0.7302293333849261,1.9000713778612086,0.3001020169665405,-0.22069039636522772,-0.15482122103149853,-0.9532017847652072,-0.23263410355950698],[0.11796813125689348,-0.9340810264825221,0.5325237614731229,-0.9344976057904837,2.2030993286532707,-0.42558455746102253,2.2805569185971186,0.08168473100458074,0.7176602819205837],[-0.013041688851379574,0.35435910194667103,-0.425944451496,-0.06850032357761549,-0.6591731192728512,-1.2259038823558228,0.2269143662643629,0.10042775264606707,-0.63392656169512],[0.4328881666220751,1.5022204328805264,-1.5979829601558277,-0.2229765296526729,-0.6425901506451488,0.6192312143125434,-0.76551483456665,-0.48261943416696096,-0.3101780196005326]],"rows":16,"cols":9},{"data":[[-0.080032797276826,0.2508517532395069,0.5221207439901545,0.2634288012119965,-0.0034816989907979767,1.664747835413595,-0.4247399583285154,0.5168546830586012,0.545555486008295],[0.6161693052066792,0.05112530951357308,-0.0390357359993041,0.4112047444080451,0.9797143642065136,0.2559648113013193,0.18825952096802268,0.3012479193336186,-0.17475928103659769],[1.3776131196393373,1.8048379833226256,-0.5868391459666848,-0.5217206894768767,1.0050594045643413,0.7633680193293708,-0.30441788659216307,-1.1394461792098682,-1.594183212138708],[1.183736101102665,-1.04443042176313,-1.5832720644282396,0.9022048775277041,-0.7018503725661146,0.40633753789559846,-0.8669120404091799,1.124010924095209,0.05648984161467137],[-0.1166157804401855,0.7361925783287973,-0.28574996575747535,0.17927158102401153,-0.059383302936801385,0.5295039397434309,1.4188414450680922,-1.6559045290809336,0.7770114743473506],[0.04466540806632224,1.4303057665968746,0.21617518971059374,0.2996637663164865,-0.7971578832069102,-0.7335992694104085,-1.8871509834235758,0.6204939859637129,-0.16756508175811913],[-0.11040262265322294,0.7108175015525544,0.3882782224272092,1.066430097406768,-0.1968768155865176,-0.3884960416419686,-0.34274049250681804,0.5916600223706183,-1.0151313868249476],[0.9906876884419635,0.013222595905837903,0.0913028044523345,-2.8648613701391548,1.2201636305840502,0.2449327176563869,-0.6313653112604086,-0.5330213595098461,1.1482631218467363],[-1.3613124916696309,-0.3730715288124077,0.613834147815538,0.7955901450184475,-0.06300991504722009,0.4556152673273175,0.26564670937320345,-2.1944743280096937,0.2056997821396791]],"rows":9,"cols":9},{"data":[[-0.9508626748368307],[0.15993636354974683],[-0.271461067243709],[0.5513217239550583],[1.2833568799721955],[0.17850557347401175],[-0.16818201686553746],[-0.4270639261834943],[0.3279696327370476]],"rows":9,"cols":1}],"biases":[{"data":[[-0.3281508949381896,-2.133740226196453,0.45353763950378356,0.3205788622974157,0.8773766687020244,0.2687914737995545,1.3774001918537078,-0.2632767631878701,0.06902560554714698]],"rows":1,"cols":9},{"data":[[-1.234661178418352,-0.4167927938086702,0.3318849364549199,-0.5974100277835106,-1.2782634150134742,-0.32353700837173627,-0.23382796502019643,0.9862083995936226,1.8387489556526964]],"rows":1,"cols":9},{"data":[[-1.8869768378095433]],"rows":1,"cols":1}]}],"length":3},{"type":"Genetic_Combined_Network","activation_function_name":"tanh","activation_function":{},"networks":[{"type":"Genetic_Convolutional_Neural_Network","activation_function_name":"swish","activation_function":{},"length":1,"width":4,"height":4,"weights":[],"biases":[],"kernels":[{"data":[[-0.10607469815664572,-0.08734073810128601,0.004905751087378618,0.04922458738365321],[-0.08280375270054052,-0.06964851520168486,-0.08031731118071272,0.12495004881824612],[-0.043362036153145433,0.061244907190788234,0.001635951515125189,0.07195728909076621],[-0.010702781724146126,0.09626791977697624,0.0817439933501371,-0.07978018752385435]],"rows":4,"cols":4}]},{"type":"Genetic_Flatten","activation_function_name":"identity","activation_function":{}},{"type":"Genetic_Fully_Connected_Neural_Network","activation_function_name":"tanh","activation_function":{},"length":3,"width":9,"weights":[{"data":[[-0.48920518815499303,1.48044876393122,-0.6075129051560444,-0.7296491286045703,-0.1900126265435378,-0.03962415058797086,-0.22417449468897344,-0.5194416936425568,0.051021189537590494],[1.1572499589962177,-0.06292885593690012,-1.7270573058755314,-0.4295316885386089,3.1356770465028223,-1.5009294737461376,-0.5896039964230528,0.8701064995225436,0.7529925566179987],[0.2563838525456763,2.5334777881085135,0.46386144629883086,0.06901271212943372,-1.4835341308072847,0.2797555656464654,-0.7231698212128076,-0.2036074365483389,-0.1862041573773796],[-0.02137277004546667,0.20705514080687326,0.45757904215178025,1.0994955531941168,0.5372471351981372,0.8044839992433825,-1.250835065883341,-0.372286475164185,-3.0826678685008937],[0.9942595370870047,4.20137956067156,-0.5894328785751379,0.7046069839573812,0.20390289208716328,-0.09807401377845702,1.318712208712209,1.0416368186382345,1.271886152579925],[1.870785284534609,-0.22256119650196415,0.42251205482430576,-0.747810373818502,-0.9453586326301131,0.6912425318109672,0.8438961564737726,0.24970792044321222,-0.15225960419398454],[0.36748927969515854,-0.1195767695539307,-0.5519804055780653,0.9323130298442366,0.1118150565147975,0.33495828008570894,1.6993119631893108,-0.9859654664052927,-0.07291437487390962],[-0.7722313166551191,0.8736588461032304,-0.48350757575294534,-0.7983209922027947,-0.26378468672312994,-1.3951943208386377,-0.4465966237120189,-0.47937328350504305,-0.10559643573546762],[-0.3718941336971897,0.3624644275541613,-0.2669265889497445,-0.6291856901489146,-0.5148074212828524,0.9728125487221777,1.6848713674222648,0.7442831786755608,1.161144623282456],[0.10538101449207926,-0.29337281782039404,-1.5405882799403883,0.4952945650112175,1.9816545226270321,2.2503176319214346,0.7565824354004087,-1.5266397583403455,-0.12887173987993727],[0.43074369461400197,2.161664228692088,-0.09226468653302244,0.5068735230358605,-0.0925254019898124,1.100010510216479,0.15919054062726135,-0.8621852264464749,1.2071910189286732],[-0.9194032704314847,0.7154252623489579,0.13782398039165988,0.7256433574720429,0.30689523923343764,-0.41058510334519105,0.7821600126628367,-0.23389416004253394,0.9885865872584632],[-0.4782117547156628,0.8444603971091753,-0.7302293333849261,1.9000713778612086,0.5383649991895161,-0.22069039636522772,-0.15482122103149853,-0.4120402976836861,-0.23263410355950698],[0.8961943801582579,-0.1744159023956502,0.5325237614731229,-0.8998065729749343,2.2030993286532707,-0.42558455746102253,2.2805569185971186,0.08168473100458074,0.7176602819205837],[-0.013041688851379574,0.35435910194667103,-0.425944451496,-0.06850032357761549,-0.6591731192728512,-1.2259038823558228,0.2269143662643629,0.10042775264606707,-0.7211102049742943],[0.4328881666220751,1.5022204328805264,-1.5979829601558277,-0.03661942040494015,-0.6425901506451488,0.6192312143125434,-0.76551483456665,-0.48261943416696096,-0.3101780196005326]],"rows":16,"cols":9},{"data":[[-0.080032797276826,0.2508517532395069,0.5221207439901545,0.2634288012119965,-0.0034816989907979767,1.664747835413595,-0.4247399583285154,0.5168546830586012,0.545555486008295],[0.6161693052066792,0.05112530951357308,-0.0390357359993041,0.4112047444080451,0.9797143642065136,-0.716259024808181,0.18825952096802268,0.3012479193336186,-0.17475928103659769],[1.3776131196393373,1.8048379833226256,-0.5868391459666848,-0.22755401900012465,1.0050594045643413,0.7633680193293708,-0.30441788659216307,-1.1394461792098682,-1.594183212138708],[1.183736101102665,-1.04443042176313,-1.5832720644282396,1.763654238082598,-0.7018503725661146,0.40633753789559846,-0.8669120404091799,1.124010924095209,-0.8924704827211832],[-0.1166157804401855,0.7361925783287973,-0.28574996575747535,0.17927158102401153,-0.059383302936801385,0.5295039397434309,1.4188414450680922,-1.6559045290809336,0.7103188065505339],[0.04466540806632224,1.4303057665968746,0.21617518971059374,0.2996637663164865,-0.7971578832069102,-0.7335992694104085,-1.8871509834235758,0.6204939859637129,-0.11207974447375602],[0.3887483700231673,0.7108175015525544,-0.26086537633639206,1.066430097406768,-0.1968768155865176,-0.7442456618149574,-0.5941448251959986,0.45563359804604264,-0.733574325731184],[0.9906876884419635,0.013222595905837903,0.0913028044523345,-3.0644504587827375,1.2201636305840502,0.16586863615980696,-0.15492059418388215,-0.5330213595098461,0.809369841187614],[-1.3613124916696309,-0.2033118271189741,0.613834147815538,0.29651345989787603,-0.06300991504722009,0.4556152673273175,0.26564670937320345,-2.1944743280096937,0.2056997821396791]],"rows":9,"cols":9},{"data":[[-0.9508626748368307],[0.15993636354974683],[-0.271461067243709],[0.5513217239550583],[1.2833568799721955],[0.17850557347401175],[-0.16818201686553746],[-0.4270639261834943],[1.1006019366935815]],"rows":9,"cols":1}],"biases":[{"data":[[-0.3281508949381896,-2.133740226196453,0.45353763950378356,0.3205788622974157,0.8773766687020244,0.2687914737995545,0.38923797088810597,-0.2632767631878701,0.06902560554714698]],"rows":1,"cols":9},{"data":[[-1.234661178418352,-0.4167927938086702,0.3318849364549199,-0.5974100277835106,-1.2782634150134742,-0.32353700837173627,-0.23382796502019643,0.9862083995936226,1.8387489556526964]],"rows":1,"cols":9},{"data":[[-1.8869768378095433]],"rows":1,"cols":1}]}],"length":3},{"type":"Genetic_Combined_Network","activation_function_name":"tanh","activation_function":{},"networks":[{"type":"Genetic_Convolutional_Neural_Network","activation_function_name":"swish","activation_function":{},"length":1,"width":4,"height":4,"weights":[],"biases":[],"kernels":[{"data":[[-0.04244682988987203,-0.010584628062484447,0.08573126681239518,-0.026371634784413622],[0.10849864363861056,0.10274271327294254,-0.0707223953524313,-0.09491655970501173],[-0.10139411112024782,-0.12077125875356998,-0.10537734529528414,-0.08848267174847929],[0.07949125395180984,-0.12339091421410153,0.10696864841642684,0.008192759508871883]],"rows":4,"cols":4}]},{"type":"Genetic_Flatten","activation_function_name":"identity","activation_function":{}},{"type":"Genetic_Fully_Connected_Neural_Network","activation_function_name":"tanh","activation_function":{},"length":3,"width":9,"weights":[{"data":[[-0.8101328025654619,1.48044876393122,-0.6075129051560444,-0.700990428570226,-0.1900126265435378,-0.03962415058797086,-0.22417449468897344,-0.5194416936425568,0.051021189537590494],[0.7618340559818055,-0.06292885593690012,-1.7270573058755314,-0.4295316885386089,3.1356770465028223,-1.5009294737461376,-0.5896039964230528,0.8701064995225436,1.4176119320163063],[0.2563838525456763,2.5334777881085135,0.46386144629883086,-0.6319448769729743,-2.0759541385345686,0.2797555656464654,-0.7231698212128076,-0.2036074365483389,-0.16951235613620952],[-0.02137277004546667,0.20705514080687326,0.45757904215178025,1.0994955531941168,0.6050297933694806,0.8044839992433825,-1.250835065883341,-0.372286475164185,-3.0826678685008937],[0.9942595370870047,4.20137956067156,0.30650950701318047,1.4493809061323333,0.20390289208716328,-0.09807401377845702,1.318712208712209,0.8589881498024599,1.4844687059699901],[1.870785284534609,0.6242767017334931,0.42251205482430576,-0.747810373818502,-0.14995713838562774,0.6912425318109672,0.8438961564737726,0.24970792044321222,-0.15225960419398454],[0.36748927969515854,-0.1195767695539307,-0.08313175289821828,0.9323130298442366,0.1118150565147975,0.33495828008570894,2.618994340136517,-0.9859654664052927,-0.07291437487390962],[-0.7722313166551191,1.7726515651083057,-0.48350757575294534,-0.7983209922027947,-0.26378468672312994,-1.3951943208386377,-0.4465966237120189,-0.47937328350504305,-0.10559643573546762],[-0.3718941336971897,-1.1486378050408461,-0.2669265889497445,-0.6291856901489146,-0.9643112218332295,0.9728125487221777,1.6848713674222648,0.7442831786755608,1.161144623282456],[0.10538101449207926,-0.29337281782039404,-1.5405882799403883,0.4952945650112175,1.9816545226270321,1.4789751070776278,-0.16527415789170274,-1.5266397583403455,-0.12887173987993727],[0.43074369461400197,2.161664228692088,-0.09226468653302244,0.5068735230358605,-0.0925254019898124,1.100010510216479,-0.18681358915172153,-0.8621852264464749,1.2071910189286732],[-0.714721430240314,0.7154252623489579,-0.08339375093648682,0.7256433574720429,0.30689523923343764,-0.41058510334519105,0.7821600126628367,-0.23389416004253394,0.14289980081679388],[-0.4782117547156628,0.8444603971091753,-0.7302293333849261,2.5249381123854495,0.5383649991895161,-0.22069039636522772,-0.15482122103149853,-0.28853968849514255,-0.5811183947858363],[0.8961943801582579,-0.5521987067575258,0.5325237614731229,-0.9344976057904837,2.2030993286532707,-0.42558455746102253,2.2805569185971186,0.08168473100458074,0.3780790814678787],[-0.013041688851379574,0.35435910194667103,-0.425944451496,-0.06850032357761549,-0.6591731192728512,-1.2259038823558228,0.2269143662643629,0.10042775264606707,-0.63392656169512],[0.4328881666220751,1.5022204328805264,-1.5979829601558277,-0.2229765296526729,-0.6425901506451488,1.1934057611462872,-0.7254561521124798,-0.48261943416696096,-1.0848688009459548]],"rows":16,"cols":9},{"data":[[-0.080032797276826,0.2508517532395069,0.5221207439901545,-0.3445896786949505,-0.0034816989907979767,1.664747835413595,-0.4247399583285154,0.7914530456838342,0.545555486008295],[0.6161693052066792,0.05112530951357308,-0.0390357359993041,0.4112047444080451,1.5606433221750153,-0.716259024808181,0.24520550290761478,0.3012479193336186,-0.17475928103659769],[1.3776131196393373,1.8048379833226256,-0.24546986253349656,-0.22755401900012465,1.0050594045643413,0.7633680193293708,-0.30441788659216307,-2.0646799447097473,-1.594183212138708],[0.4775685098630884,-0.13815162416130544,-1.5832720644282396,0.9022048775277041,-1.6094367166995909,0.40633753789559846,-0.8669120404091799,1.124010924095209,0.30704752357797105],[-0.1166157804401855,0.7361925783287973,-0.28574996575747535,0.17927158102401153,-0.059383302936801385,0.5295039397434309,1.4188414450680922,-1.6559045290809336,0.901890071397379],[0.04466540806632224,1.4303057665968746,0.21617518971059374,-0.5810543931722707,-0.7971578832069102,-0.7335992694104085,-1.8871509834235758,0.6204939859637129,-0.16756508175811913],[-0.11040262265322294,0.7108175015525544,0.3882782224272092,0.3428421095612624,-0.1968768155865176,-0.7442456618149574,-0.34274049250681804,0.45563359804604264,-1.0151313868249476],[0.9906876884419635,0.013222595905837903,0.6236876954271555,-2.996871467117931,1.2201636305840502,0.16586863615980696,-0.15492059418388215,-0.5330213595098461,0.809369841187614],[-1.3613124916696309,-0.3730715288124077,0.613834147815538,0.29651345989787603,-0.06300991504722009,0.12534024232090424,0.01262952882407653,-1.9619494779730888,0.2056997821396791]],"rows":9,"cols":9},{"data":[[-0.9508626748368307],[0.5199484875752689],[-0.271461067243709],[0.25074717058266494],[1.2833568799721955],[0.17850557347401175],[0.6591148183700619],[0.10625750175130078],[0.3279696327370476]],"rows":9,"cols":1}],"biases":[{"data":[[0.4648555158262937,-2.133740226196453,0.45353763950378356,0.41874339507859015,0.8773766687020244,1.2551409763354489,0.38923797088810597,-0.2632767631878701,0.5953892449687257]],"rows":1,"cols":9},{"data":[[-0.2936017707444871,-0.4167927938086702,0.3318849364549199,-0.5974100277835106,-1.2782634150134742,-0.32353700837173627,-0.23382796502019643,0.9862083995936226,1.8387489556526964]],"rows":1,"cols":9},{"data":[[-1.8869768378095433]],"rows":1,"cols":1}]}],"length":3},{"type":"Genetic_Combined_Network","activation_function_name":"tanh","activation_function":{},"networks":[{"type":"Genetic_Convolutional_Neural_Network","activation_function_name":"swish","activation_function":{},"length":1,"width":4,"height":4,"weights":[],"biases":[],"kernels":[{"data":[[-0.0689189897247216,0.020133824339269413,-0.06563411452474627,-0.08616436836596358],[-0.054481168833737104,0.09527887571422738,0.015146677165871647,0.11510406758302821],[-0.07151429953432331,0.05142833195754326,0.028171930311173043,0.00799112398749019],[-0.035529574447590806,0.11055094405531263,0.017561591616686467,-0.07799073111667665]],"rows":4,"cols":4}]},{"type":"Genetic_Flatten","activation_function_name":"identity","activation_function":{}},{"type":"Genetic_Fully_Connected_Neural_Network","activation_function_name":"tanh","activation_function":{},"length":3,"width":9,"weights":[{"data":[[-0.8389290821278528,1.48044876393122,-0.6075129051560444,-0.020384023807025198,0.6153714361787985,-0.03962415058797086,-1.6268569624018379,-0.5194416936425568,0.051021189537590494],[1.4853506912235526,-0.06292885593690012,-1.7270573058755314,-0.4295316885386089,3.1356770465028223,-1.5009294737461376,-0.5896039964230528,0.8701064995225436,0.7529925566179987],[0.9006222979629204,1.8952463006850353,0.46386144629883086,0.06901271212943372,-1.4835341308072847,0.3384949701486306,-0.7231698212128076,-0.2036074365483389,-0.1862041573773796],[0.29598976731752447,0.20705514080687326,0.45757904215178025,1.0994955531941168,0.5372471351981372,0.8044839992433825,-1.250835065883341,-0.5289000009019997,-3.0826678685008937],[0.9942595370870047,4.20137956067156,-0.5894328785751379,0.7046069839573812,0.20390289208716328,-0.09807401377845702,1.9020123432866938,1.0416368186382345,1.271886152579925],[1.870785284534609,0.4379018827033252,0.42251205482430576,-0.747810373818502,-0.9453586326301131,1.0490721315413172,0.8438961564737726,-1.2075380818489378,-0.15225960419398454],[0.36748927969515854,-0.1195767695539307,-0.75277958024353,0.9323130298442366,-0.790625347528316,0.33495828008570894,1.6993119631893108,-0.9859654664052927,-0.07291437487390962],[-0.7722313166551191,1.28097979934044,-0.48350757575294534,-0.7983209922027947,-0.7277663230982954,-1.3951943208386377,-0.4465966237120189,-0.47937328350504305,-0.10559643573546762],[-0.3718941336971897,0.3624644275541613,-0.17799215020762715,-0.6291856901489146,-0.5148074212828524,1.381513582066221,1.6848713674222648,0.7442831786755608,1.9005801669389912],[0.10538101449207926,-0.29337281782039404,-1.5405882799403883,-0.22187886508206067,1.0528012649369671,2.2503176319214346,1.7565625560246736,-1.5266397583403455,-0.12887173987993727],[0.362761537537887,1.5237746115435096,-0.09226468653302244,0.11043215421955521,0.4939393288977372,0.6303518239385322,-0.03416918768161947,-0.3589617595018033,1.2071910189286732],[-0.9194032704314847,0.7154252623489579,0.13782398039165988,0.7256433574720429,0.30689523923343764,-1.2073362560251548,1.5984706121291814,-0.23389416004253394,0.9885865872584632],[-0.4782117547156628,0.8444603971091753,-0.7302293333849261,1.9000713778612086,0.5383649991895161,-0.22069039636522772,-0.15482122103149853,-0.9532017847652072,-0.23263410355950698],[-0.2933268072669748,0.6147680986032749,0.5325237614731229,-0.8998065729749343,2.2030993286532707,-0.42558455746102253,2.2805569185971186,0.08168473100458074,0.7176602819205837],[-0.64523270195518,0.8228288911085595,-0.425944451496,-0.06850032357761549,-0.6591731192728512,-1.777281944794641,0.2269143662643629,-0.8338639161502561,-0.7211102049742943],[0.4328881666220751,1.5022204328805264,-1.5979829601558277,-0.2854162466611503,-0.6425901506451488,0.6192312143125434,-1.5871258429126787,-0.48261943416696096,-0.3101780196005326]],"rows":16,"cols":9},{"data":[[0.10246841194660705,0.2508517532395069,1.048356659056895,0.2634288012119965,-0.6146759799308574,2.4834088230151363,-0.4247399583285154,0.5168546830586012,1.253377444123049],[0.6161693052066792,-0.20647145034264036,-0.0390357359993041,0.4112047444080451,0.9797143642065136,-0.716259024808181,0.18825952096802268,0.3012479193336186,0.5065022489337878],[1.3776131196393373,1.8048379833226256,0.29486957440032535,-0.22755401900012465,1.0050594045643413,0.7633680193293708,-0.30441788659216307,-1.1576702369514358,-1.594183212138708],[1.9001886069513199,-1.04443042176313,-1.5832720644282396,0.9022048775277041,-0.7018503725661146,0.49513684193287144,-0.9746300328494903,1.4793272671219122,0.05648984161467137],[-0.9577101258866814,0.7361925783287973,-0.28574996575747535,0.17927158102401153,-0.5873817529384886,0.5295039397434309,1.4188414450680922,-1.6559045290809336,0.7103188065505339],[0.04466540806632224,0.9356064391559087,0.1383959310252152,0.2996637663164865,-0.7971578832069102,-0.7335992694104085,-1.8871509834235758,0.6204939859637129,-0.16756508175811913],[-0.11040262265322294,0.7108175015525544,0.38105222012164797,1.066430097406768,0.00008995861073879396,-0.7442456618149574,-0.5941448251959986,0.5916600223706183,-0.733574325731184],[0.9906876884419635,0.013222595905837903,0.0913028044523345,-3.6279879173254823,1.2201636305840502,0.2449327176563869,-0.6313653112604086,0.18136237829458413,-0.07980370469759324],[-1.1338145541762603,-0.2033118271189741,0.613834147815538,0.08834853014922683,-0.06300991504722009,0.4556152673273175,0.5742891167356765,-2.1944743280096937,0.2056997821396791]],"rows":9,"cols":9},{"data":[[-1.9298365186703372],[0.15993636354974683],[-0.271461067243709],[0.5513217239550583],[1.2833568799721955],[0.17850557347401175],[-0.16818201686553746],[-0.4270639261834943],[1.1006019366935815]],"rows":9,"cols":1}],"biases":[{"data":[[-0.3281508949381896,-2.133740226196453,0.45353763950378356,0.3205788622974157,0.8773766687020244,0.2687914737995545,0.38923797088810597,-0.2632767631878701,0.06902560554714698]],"rows":1,"cols":9},{"data":[[-1.382412094993696,-0.4167927938086702,0.6028328162290975,-0.5974100277835106,-0.9039600438058336,-0.32353700837173627,-1.1584735355344797,0.9862083995936226,1.8387489556526964]],"rows":1,"cols":9},{"data":[[-1.8869768378095433]],"rows":1,"cols":1}]}],"length":3},{"type":"Genetic_Combined_Network","activation_function_name":"tanh","activation_function":{},"networks":[{"type":"Genetic_Convolutional_Neural_Network","activation_function_name":"swish","activation_function":{},"length":1,"width":4,"height":4,"weights":[],"biases":[],"kernels":[{"data":[[-0.050799616204354914,0.0874791820924396,-0.07204804891521432,-0.025359048316607458],[-0.11543585802688322,-0.06883527824521546,-0.029813608016179383,0.020840430361506068],[0.041330557140696,-0.0503455862091961,0.06880858916931326,-0.03481027968654932],[0.11443845729827051,-0.03241133786187317,0.11994005194768043,0.054407122039629996]],"rows":4,"cols":4}]},{"type":"Genetic_Flatten","activation_function_name":"identity","activation_function":{}},{"type":"Genetic_Fully_Connected_Neural_Network","activation_function_name":"tanh","activation_function":{},"length":3,"width":9,"weights":[{"data":[[-0.48920518815499303,1.48044876393122,-0.6075129051560444,-0.7296491286045703,0.11578214523207242,-0.03962415058797086,-0.22417449468897344,-0.5194416936425568,0.3177247178281166],[0.7618340559818055,-0.06292885593690012,-1.7270573058755314,-0.4295316885386089,3.1356770465028223,-1.5009294737461376,0.0275696534640284,0.8701064995225436,1.4176119320163063],[0.2563838525456763,2.5334777881085135,0.46386144629883086,0.06901271212943372,-1.706363707542792,0.2797555656464654,-0.7231698212128076,-0.2036074365483389,-0.1862041573773796],[-0.02137277004546667,0.20705514080687326,0.45757904215178025,1.0994955531941168,0.5372471351981372,0.8044839992433825,-1.250835065883341,-0.372286475164185,-3.283247447743179],[0.9942595370870047,4.20137956067156,0.30650950701318047,0.7046069839573812,0.20390289208716328,-0.09807401377845702,1.318712208712209,0.8589881498024599,1.271886152579925],[1.870785284534609,-0.22256119650196415,0.42251205482430576,-0.747810373818502,-0.9453586326301131,0.6912425318109672,0.8438961564737726,0.24970792044321222,-0.15225960419398454],[0.36748927969515854,-0.1195767695539307,-0.08313175289821828,0.9323130298442366,0.2774758407805844,0.33495828008570894,1.6993119631893108,-0.9859654664052927,-0.07291437487390962],[-0.7722313166551191,1.7726515651083057,-0.48350757575294534,-0.7983209922027947,-0.26378468672312994,-1.3951943208386377,-0.4465966237120189,-0.47937328350504305,-0.10559643573546762],[-0.3718941336971897,-0.5772329568281054,0.3711241040707687,-0.6291856901489146,-0.5943392337848672,0.9728125487221777,1.6848713674222648,0.7442831786755608,1.161144623282456],[0.10538101449207926,-0.29337281782039404,-1.5405882799403883,0.4952945650112175,1.9816545226270321,2.2503176319214346,0.7565824354004087,-1.5266397583403455,-0.12887173987993727],[0.43074369461400197,2.161664228692088,-0.09226468653302244,0.5068735230358605,-0.0925254019898124,1.100010510216479,0.15919054062726135,-1.63844599203865,1.2071910189286732],[-0.9194032704314847,0.7154252623489579,0.13782398039165988,0.7256433574720429,0.30689523923343764,-0.41058510334519105,0.7821600126628367,-0.23389416004253394,0.9885865872584632],[-0.4782117547156628,0.8444603971091753,-0.7302293333849261,1.9000713778612086,0.5383649991895161,-0.22069039636522772,-0.15482122103149853,-0.4120402976836861,-0.23263410355950698],[0.8961943801582579,-0.1744159023956502,0.5325237614731229,-0.9344976057904837,2.2030993286532707,-0.42558455746102253,2.2805569185971186,0.08168473100458074,0.7176602819205837],[-0.013041688851379574,0.35435910194667103,-0.425944451496,-0.06850032357761549,-0.6591731192728512,-1.2259038823558228,0.2269143662643629,0.10042775264606707,-0.63392656169512],[0.4328881666220751,1.5022204328805264,-1.5979829601558277,-0.2229765296526729,-0.6425901506451488,0.6192312143125434,-0.76551483456665,-0.48261943416696096,-0.3101780196005326]],"rows":16,"cols":9},{"data":[[-0.080032797276826,0.2508517532395069,0.5221207439901545,0.2634288012119965,-0.0034816989907979767,1.664747835413595,-0.4247399583285154,0.38934333073073946,0.545555486008295],[0.6161693052066792,0.05112530951357308,-0.0390357359993041,0.4112047444080451,0.9797143642065136,-0.716259024808181,0.18825952096802268,0.3012479193336186,-0.17475928103659769],[1.3776131196393373,1.8048379833226256,-0.5868391459666848,-0.22755401900012465,1.0050594045643413,0.7633680193293708,-0.30441788659216307,-1.306157630766784,-1.594183212138708],[1.183736101102665,-1.04443042176313,-1.5832720644282396,0.9022048775277041,-0.7018503725661146,0.7666534091252006,-0.8669120404091799,1.124010924095209,0.05648984161467137],[-0.1166157804401855,0.7361925783287973,-0.28574996575747535,0.17927158102401153,-0.059383302936801385,0.5295039397434309,1.4188414450680922,-1.6559045290809336,0.399791947832568],[0.04466540806632224,1.4303057665968746,0.21617518971059374,0.2996637663164865,-0.7971578832069102,-0.6547834992966362,-1.8871509834235758,0.6204939859637129,-0.16756508175811913],[-0.11040262265322294,0.7108175015525544,0.3882782224272092,1.066430097406768,-0.1968768155865176,-0.7442456618149574,-0.34274049250681804,0.45563359804604264,-1.0151313868249476],[0.9906876884419635,0.013222595905837903,0.0913028044523345,-2.8648613701391548,1.2201636305840502,-0.6484710783581991,-0.15492059418388215,-0.5330213595098461,0.809369841187614],[-1.3613124916696309,0.1138927755822925,0.613834147815538,0.29651345989787603,-0.06300991504722009,0.4556152673273175,0.26564670937320345,-2.1944743280096937,0.2056997821396791]],"rows":9,"cols":9},{"data":[[-0.9508626748368307],[0.15993636354974683],[-0.271461067243709],[0.5513217239550583],[1.2833568799721955],[0.17850557347401175],[-0.16818201686553746],[-0.4270639261834943],[0.3279696327370476]],"rows":9,"cols":1}],"biases":[{"data":[[-0.3281508949381896,-2.133740226196453,0.45353763950378356,0.3205788622974157,0.8773766687020244,0.2687914737995545,0.38923797088810597,-0.2632767631878701,0.06902560554714698]],"rows":1,"cols":9},{"data":[[-1.234661178418352,-0.4167927938086702,0.3318849364549199,-0.5974100277835106,-1.2782634150134742,-0.32353700837173627,-0.23382796502019643,0.9862083995936226,1.8387489556526964]],"rows":1,"cols":9},{"data":[[-1.8869768378095433]],"rows":1,"cols":1}]}],"length":3},{"type":"Genetic_Combined_Network","activation_function_name":"tanh","activation_function":{},"networks":[{"type":"Genetic_Convolutional_Neural_Network","activation_function_name":"swish","activation_function":{},"length":1,"width":4,"height":4,"weights":[],"biases":[],"kernels":[{"data":[[-0.004357428847759526,0.0757165114603065,0.038592340601787845,0.08407192631905391],[-0.0906940602348758,-0.0919577231533053,-0.05891611411075287,-0.0952701126156637],[-0.07754163662218921,-0.04167525519986687,-0.0938127494717837,0.05631044356678089],[-0.10291174975605438,-0.08807833364988932,-0.0018255620443893839,-0.08359743823031263]],"rows":4,"cols":4}]},{"type":"Genetic_Flatten","activation_function_name":"identity","activation_function":{}},{"type":"Genetic_Fully_Connected_Neural_Network","activation_function_name":"tanh","activation_function":{},"length":3,"width":9,"weights":[{"data":[[-0.8389290821278528,2.1065688678070402,-0.6075129051560444,-0.020384023807025198,-0.1900126265435378,-1.0111759858080842,-0.8819686119428347,-0.5194416936425568,0.051021189537590494],[1.4853506912235526,-0.06292885593690012,-1.1606233800366255,-0.4295316885386089,3.1356770465028223,-0.974862366364428,-0.390385160508782,0.8701064995225436,0.7529925566179987],[0.2563838525456763,1.8952463006850353,0.46386144629883086,0.06901271212943372,-1.4835341308072847,0.3384949701486306,-0.7231698212128076,-0.2036074365483389,-0.1862041573773796],[-0.02137277004546667,0.20705514080687326,0.45757904215178025,1.0994955531941168,0.5372471351981372,0.8044839992433825,-1.250835065883341,-1.3062032281133498,-3.0826678685008937],[0.9942595370870047,4.20137956067156,-0.5894328785751379,0.7046069839573812,0.20390289208716328,-0.09807401377845702,1.9020123432866938,1.0416368186382345,1.271886152579925],[1.870785284534609,-0.22256119650196415,0.42251205482430576,-0.747810373818502,-0.9453586326301131,1.5896248566293507,0.8438961564737726,-0.3708472319044791,-0.15225960419398454],[-0.4734350269294767,-0.1195767695539307,-0.19830468403623502,0.9323130298442366,-0.790625347528316,0.33495828008570894,1.6993119631893108,-0.9859654664052927,-0.05286116092504045],[-0.7722313166551191,1.3246450106538687,-0.48350757575294534,-0.7983209922027947,-0.7277663230982954,-1.3951943208386377,-0.4465966237120189,-0.47937328350504305,-0.10559643573546762],[-0.3718941336971897,0.3624644275541613,-0.2669265889497445,-0.6291856901489146,-0.5148074212828524,1.381513582066221,1.6848713674222648,0.7442831786755608,1.161144623282456],[0.10538101449207926,-0.6830882480325837,-1.5405882799403883,-0.22187886508206067,1.0528012649369671,2.2503176319214346,1.1537334218655007,-0.9858331077443379,-0.12887173987993727],[0.43074369461400197,1.5237746115435096,0.8766807212048158,0.5068735230358605,0.4939393288977372,0.6303518239385322,-0.03416918768161947,-0.8621852264464749,1.2071910189286732],[-0.8731168190818246,1.3607226395550818,0.13782398039165988,1.0763852415741844,0.30689523923343764,-1.8685420407749034,0.7821600126628367,-0.23389416004253394,0.9885865872584632],[-0.4782117547156628,0.8444603971091753,-0.7302293333849261,1.9000713778612086,0.5383649991895161,-0.22069039636522772,-0.15482122103149853,-0.9532017847652072,-0.23263410355950698],[0.11796813125689348,-0.12569235494566988,0.5325237614731229,-0.8998065729749343,2.2030993286532707,-0.42558455746102253,2.2805569185971186,0.08168473100458074,0.7176602819205837],[-0.09519724551320574,0.35435910194667103,-0.425944451496,-0.06850032357761549,-0.6591731192728512,-1.2259038823558228,0.2269143662643629,0.10042775264606707,-0.7211102049742943],[0.4845391109913799,1.5022204328805264,-1.5979829601558277,-0.7260267186946683,-0.6425901506451488,0.6192312143125434,-0.76551483456665,-0.48261943416696096,-0.3101780196005326]],"rows":16,"cols":9},{"data":[[0.10246841194660705,0.2508517532395069,0.5221207439901545,0.2634288012119965,-0.6146759799308574,1.664747835413595,-0.4247399583285154,0.5168546830586012,0.545555486008295],[0.6161693052066792,-0.20647145034264036,-0.0390357359993041,0.4112047444080451,0.9797143642065136,0.12838524390078399,0.18825952096802268,0.3012479193336186,-0.26671146148613345],[1.0128970181620818,2.0420629986238166,-0.5868391459666848,-0.22755401900012465,1.0050594045643413,0.7633680193293708,-1.1984045509147099,-1.1394461792098682,-1.594183212138708],[1.9001886069513199,-1.04443042176313,-1.5832720644282396,0.9022048775277041,-0.7018503725661146,0.40633753789559846,-0.8669120404091799,1.124010924095209,0.5421651970233672],[-0.11345859346441656,0.7361925783287973,0.19182922459540963,0.17927158102401153,-0.5873817529384886,0.5295039397434309,1.4188414450680922,-1.6559045290809336,0.34423138724526137],[0.9969532419719509,0.023779350747288097,0.21617518971059374,0.6900601898229253,-0.7971578832069102,0.21677388026442035,-1.8871509834235758,0.6204939859637129,-0.16756508175811913],[-0.11040262265322294,0.7108175015525544,-0.26086537633639206,1.066430097406768,-0.1968768155865176,-0.7442456618149574,-0.5941448251959986,1.512203003178183,-0.733574325731184],[1.3111765653443737,0.013222595905837903,0.0913028044523345,-3.0644504587827375,1.2201636305840502,0.2449327176563869,-0.6313653112604086,-0.07357063450274515,0.809369841187614],[-1.3613124916696309,-0.2033118271189741,0.613834147815538,-0.3579774759206493,-0.775913475827273,-0.33207055310581257,0.26564670937320345,-2.1944743280096937,0.2056997821396791]],"rows":9,"cols":9},{"data":[[-1.9298365186703372],[0.15993636354974683],[-0.271461067243709],[0.5513217239550583],[1.2833568799721955],[-0.41067018074202233],[-0.6968227490818111],[-0.4270639261834943],[1.1006019366935815]],"rows":9,"cols":1}],"biases":[{"data":[[-0.3281508949381896,-1.6639209693443884,0.45353763950378356,0.3205788622974157,0.4294063051231918,0.2687914737995545,0.38923797088810597,-0.2632767631878701,0.06902560554714698]],"rows":1,"cols":9},{"data":[[-1.234661178418352,-0.4167927938086702,0.3318849364549199,-0.5974100277835106,-0.9039600438058336,-0.32353700837173627,-0.23382796502019643,0.9862083995936226,1.8387489556526964]],"rows":1,"cols":9},{"data":[[-1.8869768378095433]],"rows":1,"cols":1}]}],"length":3},{"type":"Genetic_Combined_Network","activation_function_name":"tanh","activation_function":{},"networks":[{"type":"Genetic_Convolutional_Neural_Network","activation_function_name":"swish","activation_function":{},"length":1,"width":4,"height":4,"weights":[],"biases":[],"kernels":[{"data":[[-0.002735933530170931,-0.09160269923717568,-0.09718420315960424,0.09525209289882663],[0.1240624788880495,0.04983230465077354,0.007605308174122305,-0.015344224343120771],[-0.10155165387432225,0.02223381383330386,-0.07529867485481728,0.09870512052393837],[0.01107833868372854,0.06924824889750597,0.040820655004539186,0.05241688649815501]],"rows":4,"cols":4}]},{"type":"Genetic_Flatten","activation_function_name":"identity","activation_function":{}},{"type":"Genetic_Fully_Connected_Neural_Network","activation_function_name":"tanh","activation_function":{},"length":3,"width":9,"weights":[{"data":[[-0.48920518815499303,1.48044876393122,-0.6075129051560444,-0.7296491286045703,-0.1900126265435378,-0.03962415058797086,-0.22417449468897344,-0.5194416936425568,0.051021189537590494],[0.7618340559818055,-0.06292885593690012,-1.7270573058755314,-0.4295316885386089,3.1356770465028223,-1.5009294737461376,-0.5896039964230528,1.182450138478996,1.4176119320163063],[0.2563838525456763,2.5334777881085135,0.46386144629883086,0.06901271212943372,-1.706363707542792,0.2797555656464654,-0.7231698212128076,-0.2036074365483389,-0.1862041573773796],[-0.02137277004546667,0.20705514080687326,0.35684535309417065,1.0994955531941168,0.5372471351981372,0.8044839992433825,-1.250835065883341,-0.372286475164185,-3.0826678685008937],[0.9942595370870047,4.20137956067156,0.30650950701318047,0.7046069839573812,0.20390289208716328,-0.09807401377845702,1.318712208712209,0.8589881498024599,1.271886152579925],[1.870785284534609,-0.22256119650196415,0.42251205482430576,-0.747810373818502,-0.9453586326301131,0.6912425318109672,0.8438961564737726,0.24970792044321222,-0.15225960419398454],[0.36748927969515854,-0.1195767695539307,-0.08313175289821828,0.9323130298442366,0.46208039336720064,0.33495828008570894,1.6993119631893108,-0.9859654664052927,-0.07291437487390962],[-0.7722313166551191,1.7726515651083057,-0.48350757575294534,-0.7983209922027947,-0.26378468672312994,-1.3951943208386377,-0.4465966237120189,-1.253415885646332,-0.10559643573546762],[-0.3718941336971897,-0.5772329568281054,-0.2669265889497445,-0.6291856901489146,-0.9643112218332295,0.9728125487221777,1.774227428417205,0.7442831786755608,1.161144623282456],[0.10538101449207926,-0.29337281782039404,-1.5405882799403883,0.4952945650112175,1.9816545226270321,2.2503176319214346,0.7565824354004087,-1.5266397583403455,-0.12887173987993727],[0.43074369461400197,2.161664228692088,-0.09226468653302244,0.5068735230358605,-0.0925254019898124,1.100010510216479,0.15919054062726135,-1.094527748682667,1.2071910189286732],[-0.9194032704314847,0.7154252623489579,0.13782398039165988,0.7256433574720429,0.30689523923343764,0.06672450076826064,0.7821600126628367,-0.23389416004253394,0.9885865872584632],[-0.4782117547156628,0.8444603971091753,-0.7302293333849261,1.9000713778612086,0.5383649991895161,-0.22069039636522772,-0.15482122103149853,-0.4120402976836861,-0.23263410355950698],[0.8961943801582579,-0.1744159023956502,0.5325237614731229,-0.9344976057904837,2.2030993286532707,-0.42558455746102253,2.2805569185971186,0.08168473100458074,0.7176602819205837],[-0.013041688851379574,0.35435910194667103,-0.425944451496,-0.06850032357761549,-0.6591731192728512,-1.2259038823558228,0.2269143662643629,0.10042775264606707,-0.63392656169512],[0.4328881666220751,1.358134447840412,-1.5979829601558277,-0.2229765296526729,-0.6425901506451488,0.6192312143125434,-0.76551483456665,-0.48261943416696096,-0.3101780196005326]],"rows":16,"cols":9},{"data":[[-0.080032797276826,0.2508517532395069,0.5221207439901545,0.2634288012119965,0.42868149564784375,1.664747835413595,-0.4247399583285154,0.5168546830586012,0.545555486008295],[0.6161693052066792,0.05112530951357308,-0.0390357359993041,0.4112047444080451,0.9797143642065136,-0.716259024808181,0.18825952096802268,0.3012479193336186,-0.17475928103659769],[1.3776131196393373,1.8048379833226256,-0.5868391459666848,-0.22755401900012465,1.0050594045643413,0.7633680193293708,-0.30441788659216307,-1.306157630766784,-1.594183212138708],[1.183736101102665,-1.04443042176313,-1.5832720644282396,0.9022048775277041,-0.7018503725661146,0.40633753789559846,-0.8669120404091799,1.8404613948065527,0.05648984161467137],[-0.1166157804401855,0.7361925783287973,-0.28574996575747535,0.17927158102401153,-0.059383302936801385,0.5295039397434309,1.4188414450680922,-1.6559045290809336,0.901890071397379],[0.04466540806632224,1.4303057665968746,0.21617518971059374,0.2996637663164865,-0.7971578832069102,-0.7335992694104085,-1.8871509834235758,0.6204939859637129,-0.16756508175811913],[-0.11040262265322294,0.7108175015525544,0.3882782224272092,1.066430097406768,-0.1968768155865176,-0.7442456618149574,-0.34274049250681804,0.45563359804604264,-1.0151313868249476],[0.9906876884419635,0.994091585104556,0.0913028044523345,-2.8648613701391548,1.2201636305840502,0.16586863615980696,-0.15492059418388215,-0.5330213595098461,0.809369841187614],[-1.3613124916696309,-0.3730715288124077,0.613834147815538,0.29651345989787603,-0.06300991504722009,0.4556152673273175,0.26564670937320345,-2.1944743280096937,0.2056997821396791]],"rows":9,"cols":9},{"data":[[-0.9508626748368307],[0.15993636354974683],[-0.271461067243709],[0.5513217239550583],[1.2833568799721955],[0.17850557347401175],[-0.16818201686553746],[-0.4270639261834943],[0.3279696327370476]],"rows":9,"cols":1}],"biases":[{"data":[[-0.3281508949381896,-2.133740226196453,0.45353763950378356,0.3205788622974157,0.8773766687020244,0.2687914737995545,0.38923797088810597,-0.2632767631878701,0.06902560554714698]],"rows":1,"cols":9},{"data":[[-1.234661178418352,-0.4167927938086702,0.3318849364549199,-0.5974100277835106,-1.7904125107730628,-0.32353700837173627,-0.23382796502019643,0.9862083995936226,1.8387489556526964]],"rows":1,"cols":9},{"data":[[-1.8869768378095433]],"rows":1,"cols":1}]}],"length":3},{"type":"Genetic_Combined_Network","activation_function_name":"tanh","activation_function":{},"networks":[{"type":"Genetic_Convolutional_Neural_Network","activation_function_name":"swish","activation_function":{},"length":1,"width":4,"height":4,"weights":[],"biases":[],"kernels":[{"data":[[0.11484652615526153,-0.10166848761524533,-0.01891340142179393,-0.039545590434212685],[-0.07682731625909722,0.08007704363761237,-0.0728122044986913,-0.0587732895075459],[-0.04518001816349243,-0.12025794122398276,-0.039797126973992625,0.0918030904022068],[0.05174980286548664,0.11077623390298363,0.11718889297607893,0.10909408038119933]],"rows":4,"cols":4}]},{"type":"Genetic_Flatten","activation_function_name":"identity","activation_function":{}},{"type":"Genetic_Fully_Connected_Neural_Network","activation_function_name":"tanh","activation_function":{},"length":3,"width":9,"weights":[{"data":[[-0.48920518815499303,1.48044876393122,-0.6075129051560444,-0.7296491286045703,-0.1900126265435378,-0.03962415058797086,-0.8819686119428347,-0.5194416936425568,0.051021189537590494],[0.7618340559818055,-0.06292885593690012,-1.7270573058755314,-0.4295316885386089,3.1356770465028223,-1.5009294737461376,-0.5896039964230528,0.8701064995225436,1.4176119320163063],[0.2563838525456763,2.5334777881085135,0.46386144629883086,0.06901271212943372,-1.706363707542792,0.2797555656464654,-0.7231698212128076,-0.2036074365483389,-0.1862041573773796],[-0.02137277004546667,0.20705514080687326,0.45757904215178025,1.0994955531941168,0.5372471351981372,0.8044839992433825,-1.250835065883341,-0.372286475164185,-3.0826678685008937],[0.9942595370870047,4.20137956067156,0.30650950701318047,0.7046069839573812,0.20390289208716328,-0.09807401377845702,1.9020123432866938,1.0416368186382345,1.271886152579925],[1.870785284534609,-0.22256119650196415,0.42251205482430576,-0.747810373818502,-0.9453586326301131,0.6912425318109672,0.8438961564737726,0.24970792044321222,0.5508045576845237],[0.36748927969515854,-0.1195767695539307,-0.08313175289821828,0.9323130298442366,-0.790625347528316,0.33495828008570894,1.6993119631893108,-0.9859654664052927,0.8919604004383532],[-0.7722313166551191,0.8736588461032304,-0.48350757575294534,-0.7983209922027947,-0.7435459015085628,-1.3951943208386377,-0.4465966237120189,-0.47937328350504305,-0.10559643573546762],[-0.3718941336971897,-0.5772329568281054,-0.2669265889497445,-0.6291856901489146,-1.5849539594331432,0.9728125487221777,1.6848713674222648,0.7442831786755608,1.161144623282456],[0.10538101449207926,-0.29337281782039404,-1.5405882799403883,0.4952945650112175,1.0528012649369671,2.2503176319214346,1.6105031001394599,-1.5266397583403455,-0.12887173987993727],[0.43074369461400197,1.5237746115435096,-0.09226468653302244,0.5068735230358605,-0.0925254019898124,0.6303518239385322,0.15919054062726135,-0.8621852264464749,1.2071910189286732],[-0.9194032704314847,0.7154252623489579,0.13782398039165988,0.7256433574720429,0.30689523923343764,-0.41058510334519105,0.7821600126628367,-0.23389416004253394,0.9885865872584632],[-0.4782117547156628,0.8444603971091753,-0.7302293333849261,1.9000713778612086,0.5383649991895161,-0.22069039636522772,-0.15482122103149853,-0.4120402976836861,-0.23263410355950698],[0.8961943801582579,-0.1744159023956502,0.5325237614731229,-0.9344976057904837,2.2030993286532707,-0.42558455746102253,2.2805569185971186,0.08168473100458074,0.7176602819205837],[-0.013041688851379574,0.35435910194667103,-0.425944451496,-0.06850032357761549,-1.0911289405121658,-1.2259038823558228,0.2269143662643629,0.10042775264606707,-0.63392656169512],[0.4328881666220751,1.5022204328805264,-1.5979829601558277,-0.2229765296526729,-0.6425901506451488,0.6192312143125434,-0.76551483456665,-0.48261943416696096,-0.3101780196005326]],"rows":16,"cols":9},{"data":[[0.10246841194660705,0.2508517532395069,0.5221207439901545,0.2634288012119965,-0.0034816989907979767,1.664747835413595,-0.8562034337953879,0.5168546830586012,0.545555486008295],[0.6161693052066792,-0.6835087308579337,-0.0390357359993041,0.4112047444080451,0.9797143642065136,-0.716259024808181,0.18825952096802268,0.3012479193336186,-0.26671146148613345],[1.3776131196393373,1.8048379833226256,-0.5868391459666848,-0.22755401900012465,1.0050594045643413,0.7633680193293708,-0.30441788659216307,-1.1394461792098682,-1.594183212138708],[1.183736101102665,-1.04443042176313,-1.5832720644282396,0.9022048775277041,-0.7018503725661146,0.40633753789559846,-0.8669120404091799,1.124010924095209,0.05648984161467137],[-0.1166157804401855,0.7361925783287973,-0.28574996575747535,0.17927158102401153,-0.5873817529384886,0.5295039397434309,1.4188414450680922,-1.6559045290809336,0.7103188065505339],[0.04466540806632224,0.9356064391559087,0.21617518971059374,0.2996637663164865,-0.17982047847264848,-0.7335992694104085,-1.8871509834235758,0.6204939859637129,-0.16756508175811913],[-0.11040262265322294,0.7108175015525544,-0.26086537633639206,1.066430097406768,-0.1968768155865176,-0.7442456618149574,-0.34274049250681804,0.45563359804604264,-1.0151313868249476],[0.9906876884419635,0.013222595905837903,0.0913028044523345,-3.5680001980329883,1.3476154570966812,0.2449327176563869,-0.15492059418388215,-0.5330213595098461,0.809369841187614],[-1.3613124916696309,-0.3730715288124077,0.613834147815538,0.29651345989787603,-0.06300991504722009,0.4556152673273175,0.26564670937320345,-2.1944743280096937,0.2056997821396791]],"rows":9,"cols":9},{"data":[[-1.9298365186703372],[0.15993636354974683],[-0.271461067243709],[0.5513217239550583],[1.2833568799721955],[0.17850557347401175],[-0.16818201686553746],[-0.4270639261834943],[1.1006019366935815]],"rows":9,"cols":1}],"biases":[{"data":[[-0.3281508949381896,-2.133740226196453,0.45353763950378356,0.3205788622974157,0.8152389215078921,0.2687914737995545,1.2986166727804465,-0.2632767631878701,0.06902560554714698]],"rows":1,"cols":9},{"data":[[-1.234661178418352,-0.4167927938086702,0.3318849364549199,-0.5974100277835106,-1.2782634150134742,-0.32353700837173627,-0.23382796502019643,0.9862083995936226,1.8387489556526964]],"rows":1,"cols":9},{"data":[[-1.8869768378095433]],"rows":1,"cols":1}]}],"length":3},{"type":"Genetic_Combined_Network","activation_function_name":"tanh","activation_function":{},"networks":[{"type":"Genetic_Convolutional_Neural_Network","activation_function_name":"swish","activation_function":{},"length":1,"width":4,"height":4,"weights":[],"biases":[],"kernels":[{"data":[[0.08101222134804931,0.05999538746391836,0.04703813415165603,-0.09920915691452359],[-0.07433305382416666,0.039965495630100656,-0.10418332945936637,-0.09321801024297122],[0.09370770796496874,-0.02868561098881922,-0.058019787799367506,-0.08609956480910386],[-0.0761279071119692,0.0246303245543113,0.12137333577000337,0.05335041366229476]],"rows":4,"cols":4}]},{"type":"Genetic_Flatten","activation_function_name":"identity","activation_function":{}},{"type":"Genetic_Fully_Connected_Neural_Network","activation_function_name":"tanh","activation_function":{},"length":3,"width":9,"weights":[{"data":[[-0.48920518815499303,1.48044876393122,-0.6075129051560444,-0.7296491286045703,-0.1900126265435378,-0.03962415058797086,-0.22417449468897344,-0.6664696995215609,0.051021189537590494],[0.7618340559818055,-0.06292885593690012,-1.7270573058755314,-0.4295316885386089,3.1356770465028223,-1.5009294737461376,-0.5896039964230528,0.8701064995225436,1.4176119320163063],[0.2563838525456763,2.5334777881085135,0.46386144629883086,0.06901271212943372,-1.706363707542792,0.2797555656464654,-0.7231698212128076,-0.2036074365483389,-0.1862041573773796],[-0.02137277004546667,0.20705514080687326,0.45757904215178025,1.0994955531941168,0.5372471351981372,0.8044839992433825,-1.250835065883341,-0.372286475164185,-3.0826678685008937],[0.9942595370870047,4.20137956067156,0.30650950701318047,0.7046069839573812,0.20390289208716328,-0.09807401377845702,1.318712208712209,0.8589881498024599,1.271886152579925],[1.870785284534609,-0.22256119650196415,0.42251205482430576,-0.747810373818502,-0.9453586326301131,0.6912425318109672,0.8438961564737726,0.24970792044321222,-0.15225960419398454],[0.36748927969515854,-0.1195767695539307,-0.08313175289821828,0.9323130298442366,0.1118150565147975,0.33495828008570894,1.6993119631893108,-0.9859654664052927,-0.07291437487390962],[-0.7722313166551191,1.7726515651083057,-0.48350757575294534,-0.7983209922027947,-0.26378468672312994,-1.3951943208386377,-0.4465966237120189,-0.47937328350504305,-0.10559643573546762],[-0.3718941336971897,-0.5772329568281054,-0.2669265889497445,-0.6291856901489146,-0.9643112218332295,0.9728125487221777,1.6848713674222648,0.7442831786755608,1.161144623282456],[0.10538101449207926,-0.29337281782039404,-1.5405882799403883,0.4952945650112175,1.9816545226270321,2.2503176319214346,0.7565824354004087,-1.5266397583403455,-0.12887173987993727],[0.43074369461400197,2.161664228692088,-0.09226468653302244,0.5068735230358605,-0.0925254019898124,1.100010510216479,0.15919054062726135,-0.8621852264464749,1.2071910189286732],[-0.9194032704314847,0.7154252623489579,0.13782398039165988,0.7256433574720429,0.30689523923343764,-0.41058510334519105,0.7821600126628367,-0.23389416004253394,0.9885865872584632],[-0.4782117547156628,0.8444603971091753,-0.7302293333849261,1.9000713778612086,0.5383649991895161,-0.22069039636522772,-0.15482122103149853,-0.4120402976836861,-0.23263410355950698],[0.8961943801582579,-0.1744159023956502,0.5325237614731229,-0.9344976057904837,2.2030993286532707,-0.42558455746102253,2.2805569185971186,0.08168473100458074,0.7176602819205837],[-0.013041688851379574,0.35435910194667103,-0.425944451496,-0.06850032357761549,-0.6591731192728512,-1.2259038823558228,0.2269143662643629,0.10042775264606707,-0.63392656169512],[0.4328881666220751,1.5022204328805264,-1.5979829601558277,-0.2229765296526729,-0.6425901506451488,0.6192312143125434,-0.76551483456665,-0.48261943416696096,-0.3101780196005326]],"rows":16,"cols":9},{"data":[[-0.080032797276826,0.2508517532395069,0.5221207439901545,0.2634288012119965,-0.0034816989907979767,1.664747835413595,-0.4247399583285154,0.5168546830586012,0.545555486008295],[0.6161693052066792,0.05112530951357308,-0.0390357359993041,0.4112047444080451,0.9797143642065136,-0.716259024808181,0.20230497237669298,0.3012479193336186,-0.17475928103659769],[1.3776131196393373,1.8048379833226256,-0.5868391459666848,-0.22755401900012465,1.0050594045643413,0.7633680193293708,-0.30441788659216307,-1.306157630766784,-1.594183212138708],[1.183736101102665,-1.04443042176313,-1.5832720644282396,0.9022048775277041,-0.7018503725661146,0.40633753789559846,-0.8669120404091799,1.124010924095209,0.05648984161467137],[-0.1166157804401855,0.7361925783287973,-0.28574996575747535,0.17927158102401153,-0.059383302936801385,0.5295039397434309,1.4188414450680922,-1.6559045290809336,0.901890071397379],[0.04466540806632224,1.4303057665968746,0.21617518971059374,0.2996637663164865,-0.7971578832069102,-0.7335992694104085,-2.1835167427696636,0.6204939859637129,-0.16756508175811913],[-0.11040262265322294,0.7108175015525544,0.3882782224272092,1.066430097406768,-0.1968768155865176,-0.7442456618149574,-0.34274049250681804,0.45563359804604264,-1.0151313868249476],[0.9906876884419635,0.013222595905837903,-0.6107234666907366,-2.8648613701391548,1.2201636305840502,0.16586863615980696,-0.15492059418388215,-0.5330213595098461,0.809369841187614],[-1.3613124916696309,-0.3730715288124077,0.613834147815538,0.29651345989787603,-0.06300991504722009,0.4556152673273175,0.26564670937320345,-2.1944743280096937,0.2056997821396791]],"rows":9,"cols":9},{"data":[[-0.9508626748368307],[0.15993636354974683],[-0.271461067243709],[0.5513217239550583],[1.2833568799721955],[0.17850557347401175],[-0.16818201686553746],[-0.4270639261834943],[0.3279696327370476]],"rows":9,"cols":1}],"biases":[{"data":[[-0.3281508949381896,-2.133740226196453,0.45353763950378356,0.3205788622974157,0.8773766687020244,0.2687914737995545,0.38923797088810597,-0.2632767631878701,0.06902560554714698]],"rows":1,"cols":9},{"data":[[-1.234661178418352,-0.4167927938086702,0.3318849364549199,-0.3147956710421185,-1.2782634150134742,-0.32353700837173627,-0.23382796502019643,0.9862083995936226,1.8387489556526964]],"rows":1,"cols":9},{"data":[[-2.0720847189218463]],"rows":1,"cols":1}]}],"length":3},{"type":"Genetic_Combined_Network","activation_function_name":"tanh","activation_function":{},"networks":[{"type":"Genetic_Convolutional_Neural_Network","activation_function_name":"swish","activation_function":{},"length":1,"width":4,"height":4,"weights":[],"biases":[],"kernels":[{"data":[[0.010994775970717463,-0.06138289262646485,-0.10660472969871349,-0.05341806696467144],[-0.012864406070800471,-0.023905504948673995,0.05457543240682322,0.050488513409115976],[-0.07831534235457516,0.04368156762565922,0.10145561078001714,-0.10211460708966147],[0.00831355062092376,0.11149988856110804,-0.014259933052139018,-0.07767356335590125]],"rows":4,"cols":4}]},{"type":"Genetic_Flatten","activation_function_name":"identity","activation_function":{}},{"type":"Genetic_Fully_Connected_Neural_Network","activation_function_name":"tanh","activation_function":{},"length":3,"width":9,"weights":[{"data":[[-0.48920518815499303,1.48044876393122,-0.6075129051560444,-0.7296491286045703,-0.1900126265435378,-0.03962415058797086,-0.22417449468897344,-0.5194416936425568,0.051021189537590494],[1.4853506912235526,-0.06292885593690012,-1.7270573058755314,-0.4295316885386089,3.181319103120533,-1.5009294737461376,-0.5896039964230528,0.8701064995225436,1.4176119320163063],[0.2563838525456763,1.8952463006850353,1.3258833354737374,0.06901271212943372,-1.4835341308072847,0.3384949701486306,-0.7231698212128076,-0.2036074365483389,-0.1862041573773796],[-0.02137277004546667,0.20705514080687326,0.45757904215178025,1.0994955531941168,0.8998528996177539,0.8044839992433825,-1.250835065883341,-0.5289000009019997,-3.0826678685008937],[0.9942595370870047,4.20137956067156,0.30650950701318047,0.336197022164318,0.20390289208716328,-0.09807401377845702,1.318712208712209,0.8589881498024599,1.271886152579925],[1.870785284534609,-0.22256119650196415,0.42251205482430576,-0.747810373818502,-0.9453586326301131,1.47957594993813,1.6144380219203436,0.24970792044321222,-0.15225960419398454],[0.36748927969515854,-0.1195767695539307,-0.08313175289821828,0.9323130298442366,0.1118150565147975,0.33495828008570894,1.6993119631893108,-0.9859654664052927,-0.07291437487390962],[-0.7722313166551191,0.8736588461032304,-0.48350757575294534,-0.7983209922027947,-0.26378468672312994,-1.3951943208386377,-0.4465966237120189,-0.47937328350504305,-0.10559643573546762],[-0.3718941336971897,-0.5772329568281054,-0.2669265889497445,-0.6291856901489146,-0.9643112218332295,0.9728125487221777,1.6848713674222648,0.7442831786755608,1.161144623282456],[0.10538101449207926,-0.29337281782039404,-1.5405882799403883,-0.22187886508206067,1.9816545226270321,2.2503176319214346,1.1537334218655007,-1.5266397583403455,-0.12887173987993727],[0.43074369461400197,2.161664228692088,-0.09226468653302244,0.5068735230358605,-0.0925254019898124,1.100010510216479,0.15919054062726135,-0.8621852264464749,0.4146355688316401],[-0.9194032704314847,0.7154252623489579,0.13782398039165988,0.7256433574720429,0.30689523923343764,-0.41058510334519105,0.7821600126628367,-0.23389416004253394,0.9885865872584632],[-0.4782117547156628,0.8444603971091753,-0.7302293333849261,1.9000713778612086,0.5383649991895161,-0.22069039636522772,-0.6150520014014873,-0.9532017847652072,-0.23263410355950698],[0.11796813125689348,-0.1744159023956502,0.5325237614731229,-0.8998065729749343,2.2030993286532707,-0.42558455746102253,2.2805569185971186,0.08168473100458074,0.7176602819205837],[-0.013041688851379574,0.35435910194667103,-0.425944451496,-0.06850032357761549,-0.6591731192728512,-1.2259038823558228,0.2269143662643629,0.10042775264606707,-0.63392656169512],[-0.5341667444407036,1.5022204328805264,-1.5979829601558277,-0.2854162466611503,-1.343634671384777,0.6192312143125434,-0.76551483456665,-0.48261943416696096,-0.3101780196005326]],"rows":16,"cols":9},{"data":[[0.10246841194660705,0.2508517532395069,0.5221207439901545,0.2634288012119965,0.0986050295570311,1.664747835413595,-0.4247399583285154,0.5168546830586012,0.545555486008295],[0.6161693052066792,0.05112530951357308,-0.0390357359993041,0.4112047444080451,0.9797143642065136,-0.716259024808181,0.18825952096802268,0.3012479193336186,-0.17475928103659769],[1.3776131196393373,1.8048379833226256,-0.5868391459666848,-0.22755401900012465,1.0050594045643413,0.7633680193293708,-0.30441788659216307,-1.306157630766784,-1.594183212138708],[1.183736101102665,-1.04443042176313,-1.5832720644282396,0.9022048775277041,-0.7018503725661146,0.40633753789559846,-0.8669120404091799,1.124010924095209,0.05648984161467137],[-0.1166157804401855,0.7361925783287973,-0.28574996575747535,0.17927158102401153,-0.059383302936801385,0.5295039397434309,1.4188414450680922,-1.6559045290809336,0.901890071397379],[0.04466540806632224,0.9356064391559087,0.21617518971059374,0.2996637663164865,-0.7971578832069102,-0.7335992694104085,-1.8871509834235758,0.6204939859637129,-0.16756508175811913],[-0.11040262265322294,0.7108175015525544,-0.26086537633639206,1.066430097406768,-0.1968768155865176,-0.7442456618149574,-0.5941448251959986,0.45563359804604264,-1.0151313868249476],[0.9906876884419635,0.013222595905837903,0.0913028044523345,-2.8648613701391548,1.2201636305840502,0.16586863615980696,-0.15492059418388215,-0.5330213595098461,0.809369841187614],[-1.3613124916696309,-0.2033118271189741,0.613834147815538,0.29651345989787603,-0.06300991504722009,0.4556152673273175,0.26564670937320345,-2.1944743280096937,0.2056997821396791]],"rows":9,"cols":9},{"data":[[-0.9508626748368307],[0.15993636354974683],[-0.271461067243709],[0.5513217239550583],[1.2833568799721955],[0.17850557347401175],[-0.16818201686553746],[-0.4270639261834943],[1.1006019366935815]],"rows":9,"cols":1}],"biases":[{"data":[[-0.3281508949381896,-2.133740226196453,0.45353763950378356,0.9926449145079312,0.8773766687020244,0.2687914737995545,0.9270949529861094,-0.2632767631878701,0.06902560554714698]],"rows":1,"cols":9},{"data":[[-1.234661178418352,-0.4167927938086702,0.3318849364549199,-0.5974100277835106,-1.2782634150134742,-0.32353700837173627,-0.23382796502019643,0.9862083995936226,1.8387489556526964]],"rows":1,"cols":9},{"data":[[-1.8869768378095433]],"rows":1,"cols":1}]}],"length":3},{"type":"Genetic_Combined_Network","activation_function_name":"tanh","activation_function":{},"networks":[{"type":"Genetic_Convolutional_Neural_Network","activation_function_name":"swish","activation_function":{},"length":1,"width":4,"height":4,"weights":[],"biases":[],"kernels":[{"data":[[-0.02401606200360018,-0.08145418263883603,-0.10248630156871341,-0.05131568190271851],[-0.010847235959584145,0.08819526129460914,-0.10250947698103458,-0.0238058964209506],[0.01964020409109629,0.0681204560982086,-0.09630366266382162,0.05195601069878192],[0.119890729266247,0.020578618498799328,-0.03829737856061277,-0.06713545431799733]],"rows":4,"cols":4}]},{"type":"Genetic_Flatten","activation_function_name":"identity","activation_function":{}},{"type":"Genetic_Fully_Connected_Neural_Network","activation_function_name":"tanh","activation_function":{},"length":3,"width":9,"weights":[{"data":[[-0.48920518815499303,1.48044876393122,-0.6075129051560444,-0.7296491286045703,-0.1900126265435378,-0.03962415058797086,-0.22417449468897344,-0.5194416936425568,0.051021189537590494],[0.7618340559818055,-0.06292885593690012,-1.7270573058755314,-0.4295316885386089,3.1356770465028223,-1.5009294737461376,-0.5896039964230528,0.8701064995225436,1.4176119320163063],[0.2563838525456763,2.5334777881085135,0.46386144629883086,0.06901271212943372,-1.706363707542792,0.2797555656464654,-0.7231698212128076,-0.2036074365483389,-0.1862041573773796],[-0.02137277004546667,0.20705514080687326,0.45757904215178025,1.0994955531941168,0.5372471351981372,0.8044839992433825,-1.250835065883341,-0.372286475164185,-3.0826678685008937],[0.9942595370870047,4.20137956067156,0.30650950701318047,0.7046069839573812,0.20390289208716328,-0.09807401377845702,1.318712208712209,0.8589881498024599,1.271886152579925],[1.870785284534609,-0.22256119650196415,0.42251205482430576,-0.747810373818502,-0.9453586326301131,0.6912425318109672,0.8438961564737726,1.0010208699440817,-0.15225960419398454],[0.36748927969515854,-0.1195767695539307,-0.08313175289821828,0.9323130298442366,0.1118150565147975,0.33495828008570894,1.6993119631893108,-0.9859654664052927,-0.07291437487390962],[-0.7722313166551191,1.7726515651083057,-0.48350757575294534,-0.7983209922027947,-0.26378468672312994,-1.3951943208386377,-0.4465966237120189,-0.47937328350504305,-0.10559643573546762],[-0.3718941336971897,-0.5772329568281054,-0.2669265889497445,-0.6291856901489146,-0.9643112218332295,0.9728125487221777,1.6848713674222648,0.7442831786755608,1.161144623282456],[0.10538101449207926,-0.29337281782039404,-1.5405882799403883,0.4952945650112175,1.9816545226270321,2.2503176319214346,0.7565824354004087,-1.5266397583403455,-0.12887173987993727],[0.43074369461400197,2.161664228692088,-0.09226468653302244,0.5068735230358605,-0.0925254019898124,1.100010510216479,0.15919054062726135,-0.8621852264464749,1.2071910189286732],[-0.9194032704314847,0.7154252623489579,0.13782398039165988,0.7256433574720429,0.30689523923343764,-0.41058510334519105,0.7821600126628367,-0.23389416004253394,0.9885865872584632],[-0.4782117547156628,0.8444603971091753,-0.7302293333849261,1.185337154127378,0.5383649991895161,-0.22069039636522772,-0.15482122103149853,-0.4120402976836861,-0.23263410355950698],[0.8961943801582579,-0.1744159023956502,0.5325237614731229,-0.9344976057904837,2.2030993286532707,-0.42558455746102253,2.2805569185971186,0.08168473100458074,0.7176602819205837],[-0.013041688851379574,0.35435910194667103,-0.425944451496,-0.06850032357761549,-0.6591731192728512,-1.2259038823558228,0.2269143662643629,0.10042775264606707,-0.63392656169512],[0.4328881666220751,1.5022204328805264,-1.5979829601558277,-0.2229765296526729,-0.6425901506451488,0.6192312143125434,-0.76551483456665,-0.39065104812518103,-0.3101780196005326]],"rows":16,"cols":9},{"data":[[-0.080032797276826,0.2508517532395069,0.5221207439901545,0.2634288012119965,-0.9623392015975907,1.664747835413595,-0.4247399583285154,0.5168546830586012,0.545555486008295],[0.6161693052066792,0.05112530951357308,-0.0390357359993041,1.0887350433370693,0.9797143642065136,-0.716259024808181,0.18825952096802268,0.3012479193336186,-0.17475928103659769],[1.3776131196393373,1.8048379833226256,-0.5868391459666848,-0.22755401900012465,1.0050594045643413,0.7633680193293708,-0.30441788659216307,-1.306157630766784,-1.594183212138708],[1.183736101102665,-1.04443042176313,-1.5832720644282396,0.9022048775277041,-0.7018503725661146,0.5795915292451395,-0.8669120404091799,1.124010924095209,0.05648984161467137],[-0.1166157804401855,0.7361925783287973,-0.28574996575747535,0.17927158102401153,-0.059383302936801385,0.5295039397434309,1.4188414450680922,-1.6559045290809336,0.901890071397379],[0.04466540806632224,1.4303057665968746,0.21617518971059374,0.2996637663164865,-0.7971578832069102,-0.7335992694104085,-1.8871509834235758,0.6204939859637129,-0.16756508175811913],[-0.11040262265322294,0.7108175015525544,0.3753986309501225,1.066430097406768,-0.9590799963000302,-0.7442456618149574,-0.34274049250681804,0.45563359804604264,-1.0151313868249476],[0.9906876884419635,0.013222595905837903,0.0913028044523345,-2.8648613701391548,1.2201636305840502,0.16586863615980696,-0.15492059418388215,-0.5330213595098461,0.809369841187614],[-1.3613124916696309,-0.3730715288124077,0.613834147815538,0.29651345989787603,0.10481199428039889,0.4556152673273175,0.26564670937320345,-2.1944743280096937,0.2056997821396791]],"rows":9,"cols":9},{"data":[[-0.9508626748368307],[0.15993636354974683],[-0.271461067243709],[0.5513217239550583],[1.2833568799721955],[0.17850557347401175],[-0.16818201686553746],[-0.4270639261834943],[0.3279696327370476]],"rows":9,"cols":1}],"biases":[{"data":[[-0.3281508949381896,-2.133740226196453,0.45353763950378356,0.3205788622974157,1.3712694877313507,0.2687914737995545,0.38923797088810597,-0.2632767631878701,0.06902560554714698]],"rows":1,"cols":9},{"data":[[-1.234661178418352,-0.4167927938086702,0.3318849364549199,-0.5974100277835106,-1.2782634150134742,-1.2633568865591376,-0.23382796502019643,0.9862083995936226,1.8387489556526964]],"rows":1,"cols":9},{"data":[[-1.8869768378095433]],"rows":1,"cols":1}]}],"length":3},{"type":"Genetic_Combined_Network","activation_function_name":"tanh","activation_function":{},"networks":[{"type":"Genetic_Convolutional_Neural_Network","activation_function_name":"swish","activation_function":{},"length":1,"width":4,"height":4,"weights":[],"biases":[],"kernels":[{"data":[[0.01753425069111353,0.08095730964380843,-0.0959062222053737,0.0008765632895428865],[0.053342198451026335,0.020001609112016816,-0.09922634897503324,-0.09730036344164522],[0.06826426878896857,-0.025640018747862592,-0.11421240361859192,-0.08170130070211823],[-0.1037528455943394,-0.10707318272904859,-0.08672749615910696,-0.034732269935946525]],"rows":4,"cols":4}]},{"type":"Genetic_Flatten","activation_function_name":"identity","activation_function":{}},{"type":"Genetic_Fully_Connected_Neural_Network","activation_function_name":"tanh","activation_function":{},"length":3,"width":9,"weights":[{"data":[[-0.8389290821278528,2.1572967626178214,-0.6075129051560444,-0.020384023807025198,-0.1900126265435378,-0.03962415058797086,-0.8819686119428347,-0.5194416936425568,0.051021189537590494],[1.4853506912235526,-0.06292885593690012,-1.7270573058755314,-0.4295316885386089,3.1356770465028223,-1.5009294737461376,-0.5896039964230528,0.8701064995225436,0.7529925566179987],[0.2563838525456763,1.8952463006850353,0.46386144629883086,0.06901271212943372,-1.5088535441888284,0.3384949701486306,-0.7231698212128076,-0.2036074365483389,-0.1862041573773796],[-0.02137277004546667,-0.6602078515325802,0.45757904215178025,1.0994955531941168,0.5372471351981372,0.8044839992433825,-1.250835065883341,-0.5289000009019997,-3.0826678685008937],[0.9942595370870047,4.20137956067156,-0.5894328785751379,0.7046069839573812,0.20390289208716328,-0.15640105563008921,1.9020123432866938,1.0416368186382345,1.271886152579925],[1.870785284534609,-0.22256119650196415,0.42251205482430576,-0.747810373818502,-0.9453586326301131,1.47957594993813,0.8438961564737726,-0.9921532215552924,-0.15225960419398454],[0.36748927969515854,-0.1195767695539307,-0.08313175289821828,0.9323130298442366,-0.790625347528316,0.33495828008570894,1.6993119631893108,-0.9859654664052927,-0.07291437487390962],[-0.7044111507595798,0.8736588461032304,-0.48350757575294534,-0.7983209922027947,-0.7277663230982954,-2.103981671734023,-0.4465966237120189,-0.47937328350504305,-0.10559643573546762],[-0.3718941336971897,-0.19002038808469002,-0.2669265889497445,-0.6291856901489146,-0.5148074212828524,1.381513582066221,1.6848713674222648,0.7442831786755608,1.161144623282456],[0.10538101449207926,-0.29337281782039404,-1.5405882799403883,-0.22187886508206067,0.6400275188365514,2.2503176319214346,1.1537334218655007,-1.5266397583403455,-0.12887173987993727],[0.43074369461400197,1.5237746115435096,-0.09226468653302244,0.5068735230358605,0.4939393288977372,0.6303518239385322,-0.03416918768161947,-1.7870827924862949,1.2071910189286732],[-1.2544040212237775,0.7154252623489579,0.13782398039165988,0.7256433574720429,0.30689523923343764,-1.2073362560251548,0.7821600126628367,-0.23389416004253394,0.9885865872584632],[-0.4782117547156628,0.8444603971091753,-0.7302293333849261,1.9000713778612086,0.5383649991895161,-0.22069039636522772,-0.8928213017432665,-1.0447196206920075,-0.7721542485638941],[0.11796813125689348,-0.1744159023956502,0.5325237614731229,-0.8998065729749343,2.2030993286532707,-0.42558455746102253,2.2805569185971186,0.08168473100458074,0.7176602819205837],[-0.013041688851379574,0.8598576732895482,-0.425944451496,-0.06850032357761549,-0.6591731192728512,-1.2259038823558228,0.2269143662643629,0.10042775264606707,-0.7211102049742943],[0.4328881666220751,1.5022204328805264,-1.5979829601558277,-0.24362160814839084,-0.6425901506451488,0.6192312143125434,-0.49112627998653124,-0.48261943416696096,-0.3101780196005326]],"rows":16,"cols":9},{"data":[[-0.06707464789087725,0.2508517532395069,-0.4419168160652278,0.2634288012119965,-0.6146759799308574,1.664747835413595,-0.33864471097328597,0.9104528138903816,0.545555486008295],[0.6161693052066792,-0.20647145034264036,-0.0390357359993041,0.4112047444080451,0.9797143642065136,-0.716259024808181,0.18825952096802268,-0.2493765764756657,-0.9134573321475148],[1.3776131196393373,1.8048379833226256,-0.4052439723491732,-0.22755401900012465,1.2883535535342938,0.7633680193293708,-1.2131581195843535,-1.1394461792098682,-1.594183212138708],[1.9001886069513199,-0.990672304697044,-1.5832720644282396,0.9022048775277041,-0.7018503725661146,0.40633753789559846,-1.016884218510582,1.124010924095209,0.05648984161467137],[-0.11345859346441656,0.7361925783287973,-0.03133444992212553,0.17927158102401153,-0.5873817529384886,0.5295039397434309,1.4188414450680922,-1.7893372898478261,0.7103188065505339],[0.04466540806632224,0.9356064391559087,0.21617518971059374,-0.5260115494264248,-0.7971578832069102,-0.7335992694104085,-1.8871509834235758,1.09593705485441,-0.16756508175811913],[-0.11040262265322294,0.7108175015525544,-0.26086537633639206,1.7972270707459637,-0.2654229777414142,-0.7442456618149574,-0.5941448251959986,0.5916600223706183,-0.733574325731184],[0.9906876884419635,-0.6492200033268825,0.0913028044523345,-3.0644504587827375,1.2201636305840502,0.2449327176563869,-0.6313653112604086,-1.276662682093201,0.809369841187614],[-1.3613124916696309,-0.361306086855001,0.613834147815538,-0.3579774759206493,-0.06300991504722009,0.9424697739569465,0.26564670937320345,-2.2143590899208285,-0.688339521184391]],"rows":9,"cols":9},{"data":[[-1.9298365186703372],[0.15993636354974683],[-0.271461067243709],[0.5513217239550583],[1.2833568799721955],[0.17850557347401175],[-0.16818201686553746],[-0.4270639261834943],[1.1006019366935815]],"rows":9,"cols":1}],"biases":[{"data":[[-0.3281508949381896,-2.133740226196453,0.45353763950378356,0.3205788622974157,0.8773766687020244,0.2687914737995545,0.38923797088810597,0.6375576358828017,0.06902560554714698]],"rows":1,"cols":9},{"data":[[-1.234661178418352,-0.4167927938086702,0.3318849364549199,-0.6400207232493371,-0.9039600438058336,0.09720961617925639,0.7391185355034287,0.9862083995936226,1.763582683970255]],"rows":1,"cols":9},{"data":[[-1.0991785963418241]],"rows":1,"cols":1}]}],"length":3},{"type":"Genetic_Combined_Network","activation_function_name":"tanh","activation_function":{},"networks":[{"type":"Genetic_Convolutional_Neural_Network","activation_function_name":"swish","activation_function":{},"length":1,"width":4,"height":4,"weights":[],"biases":[],"kernels":[{"data":[[0.11550115935412819,0.015474032181020725,-0.08590873125912885,-0.05352986057516396],[-0.03785642328652811,0.06773268840236579,-0.042758175223957307,0.024875522600361133],[-0.10864463845025751,0.08953989512136556,-0.11680839170905494,0.12474522511838615],[0.02193174903159939,-0.06230464088937632,-0.011016647914362077,0.10038792554733594]],"rows":4,"cols":4}]},{"type":"Genetic_Flatten","activation_function_name":"identity","activation_function":{}},{"type":"Genetic_Fully_Connected_Neural_Network","activation_function_name":"tanh","activation_function":{},"length":3,"width":9,"weights":[{"data":[[-0.48920518815499303,1.48044876393122,-0.6075129051560444,-0.7296491286045703,-0.1900126265435378,-0.03962415058797086,-0.22417449468897344,-0.5194416936425568,0.051021189537590494],[0.7618340559818055,-0.06292885593690012,-1.7270573058755314,-0.4295316885386089,3.1356770465028223,-1.5009294737461376,-0.5896039964230528,0.8701064995225436,1.4176119320163063],[0.2563838525456763,2.5334777881085135,0.46386144629883086,0.06901271212943372,-1.706363707542792,0.2797555656464654,-0.7231698212128076,-0.2036074365483389,-0.1862041573773796],[-0.02137277004546667,0.20705514080687326,0.45757904215178025,1.0994955531941168,0.5372471351981372,0.8044839992433825,-1.250835065883341,-0.372286475164185,-3.0826678685008937],[0.9942595370870047,4.20137956067156,0.30650950701318047,0.7046069839573812,0.20390289208716328,-0.09807401377845702,1.318712208712209,0.8589881498024599,1.271886152579925],[1.870785284534609,-0.22256119650196415,0.42251205482430576,-0.747810373818502,-0.9453586326301131,0.6912425318109672,1.1772353241299522,0.24970792044321222,-0.15225960419398454],[0.36748927969515854,-0.1195767695539307,-0.08313175289821828,0.9323130298442366,0.1118150565147975,0.33495828008570894,1.6993119631893108,-0.9859654664052927,-0.07291437487390962],[-0.7722313166551191,1.7726515651083057,-0.48350757575294534,-0.7983209922027947,-0.26378468672312994,-1.3951943208386377,-0.4465966237120189,-0.47937328350504305,-0.10559643573546762],[-0.3718941336971897,-0.5772329568281054,-0.2669265889497445,-0.6291856901489146,-0.9643112218332295,0.9728125487221777,1.6848713674222648,0.7442831786755608,1.161144623282456],[0.10538101449207926,-0.29337281782039404,-1.5405882799403883,0.4952945650112175,1.9816545226270321,2.2503176319214346,0.7565824354004087,-1.5266397583403455,-0.12887173987993727],[0.43074369461400197,1.2145100593612836,-0.08200154151391892,0.5068735230358605,-0.0925254019898124,1.100010510216479,0.15919054062726135,-0.8621852264464749,1.2071910189286732],[-1.0192026496324145,0.7154252623489579,0.13782398039165988,0.7256433574720429,0.30689523923343764,-0.41058510334519105,0.7821600126628367,-0.23389416004253394,0.9885865872584632],[-0.4782117547156628,0.8444603971091753,-0.7302293333849261,1.9000713778612086,0.5383649991895161,-0.22069039636522772,-0.15482122103149853,-0.4120402976836861,-0.23263410355950698],[0.8961943801582579,-0.1744159023956502,0.5325237614731229,-0.9344976057904837,2.2030993286532707,-0.42558455746102253,2.2805569185971186,0.08168473100458074,0.7176602819205837],[-0.013041688851379574,0.35435910194667103,-0.425944451496,-0.06850032357761549,-0.6591731192728512,-1.2259038823558228,0.2269143662643629,0.10042775264606707,-0.63392656169512],[0.4328881666220751,1.5022204328805264,-1.5979829601558277,-0.2229765296526729,-0.6425901506451488,0.6192312143125434,-0.76551483456665,-0.48261943416696096,-0.3101780196005326]],"rows":16,"cols":9},{"data":[[-0.080032797276826,0.2508517532395069,0.5221207439901545,0.2634288012119965,-0.0034816989907979767,1.664747835413595,-0.4247399583285154,0.5168546830586012,0.545555486008295],[0.6161693052066792,0.05112530951357308,-0.6673169214550703,0.4112047444080451,0.9797143642065136,-0.716259024808181,0.18825952096802268,0.3012479193336186,-0.17475928103659769],[1.3776131196393373,1.8048379833226256,-0.5868391459666848,-0.22755401900012465,1.0050594045643413,0.7633680193293708,-0.30441788659216307,-1.306157630766784,-1.594183212138708],[1.183736101102665,-1.04443042176313,-1.5832720644282396,0.9022048775277041,-0.7018503725661146,0.40633753789559846,-0.8669120404091799,1.124010924095209,0.05648984161467137],[-0.1166157804401855,0.7361925783287973,-0.28574996575747535,0.17927158102401153,-0.7093153288419427,0.5295039397434309,1.4188414450680922,-1.6559045290809336,0.901890071397379],[0.04466540806632224,1.4303057665968746,0.21617518971059374,0.2996637663164865,-0.7971578832069102,-0.7335992694104085,-1.8871509834235758,0.6204939859637129,-0.16756508175811913],[-0.11040262265322294,-0.1763183251693563,0.3882782224272092,1.066430097406768,-0.1968768155865176,-0.7442456618149574,-0.34274049250681804,0.45563359804604264,-1.0151313868249476],[0.9906876884419635,0.013222595905837903,0.0913028044523345,-2.8648613701391548,1.2201636305840502,0.16586863615980696,-0.15492059418388215,-0.5330213595098461,0.809369841187614],[-1.3613124916696309,-0.3730715288124077,1.0452548015815601,0.29651345989787603,-0.06300991504722009,0.4556152673273175,0.26564670937320345,-2.1944743280096937,0.2056997821396791]],"rows":9,"cols":9},{"data":[[-0.9508626748368307],[0.15993636354974683],[-0.271461067243709],[0.5513217239550583],[1.2833568799721955],[0.17850557347401175],[-0.16818201686553746],[-0.4270639261834943],[0.3279696327370476]],"rows":9,"cols":1}],"biases":[{"data":[[-0.3281508949381896,-2.133740226196453,0.45353763950378356,0.3205788622974157,0.8773766687020244,0.2687914737995545,0.38923797088810597,-0.2632767631878701,0.06902560554714698]],"rows":1,"cols":9},{"data":[[-1.234661178418352,-0.4167927938086702,0.3318849364549199,-0.5974100277835106,-1.2782634150134742,-0.32353700837173627,-0.23382796502019643,0.9862083995936226,1.8387489556526964]],"rows":1,"cols":9},{"data":[[-1.8869768378095433]],"rows":1,"cols":1}]}],"length":3},{"type":"Genetic_Combined_Network","activation_function_name":"tanh","activation_function":{},"networks":[{"type":"Genetic_Convolutional_Neural_Network","activation_function_name":"swish","activation_function":{},"length":1,"width":4,"height":4,"weights":[],"biases":[],"kernels":[{"data":[[0.009439922590487204,-0.06790245896134461,0.08585299227927173,-0.002151144630946733],[-0.08953179250767468,0.08828677283333869,-0.09251141927106493,-0.07615855974997265],[-0.10951721621495153,0.012915834373059987,0.030994657120643143,-0.07309609190151195],[-0.02103636402968212,-0.025386803629739718,0.03778280815685964,-0.010466554437854436]],"rows":4,"cols":4}]},{"type":"Genetic_Flatten","activation_function_name":"identity","activation_function":{}},{"type":"Genetic_Fully_Connected_Neural_Network","activation_function_name":"tanh","activation_function":{},"length":3,"width":9,"weights":[{"data":[[-1.5996377136718594,1.48044876393122,-0.9186654210666376,-0.020384023807025198,-0.1900126265435378,-0.03962415058797086,-0.8819686119428347,-0.5194416936425568,0.051021189537590494],[1.4853506912235526,-0.06292885593690012,-1.7270573058755314,-0.4295316885386089,3.1356770465028223,-1.2815989247331894,-0.5896039964230528,0.8701064995225436,0.7529925566179987],[-0.17297314884269488,2.806922885987907,1.3179247705696104,0.06901271212943372,-1.4835341308072847,0.4818065753537306,-0.7231698212128076,0.5173110263168439,-0.1862041573773796],[-0.02137277004546667,0.8853644425254905,0.45757904215178025,1.0994955531941168,0.5372471351981372,1.6009272083310133,-1.250835065883341,-1.0650870087697542,-3.0826678685008937],[0.9942595370870047,4.20137956067156,-0.9240029205867071,0.8607880587965469,0.20390289208716328,-0.09807401377845702,1.146039478602383,1.0416368186382345,1.271886152579925],[1.870785284534609,-0.22256119650196415,-0.47560858717235455,-0.747810373818502,-0.9453586326301131,1.47957594993813,0.8438961564737726,-0.3708472319044791,-0.15225960419398454],[0.36748927969515854,-0.1195767695539307,-0.37458135420121774,0.9323130298442366,-0.790625347528316,0.33495828008570894,1.6993119631893108,-0.9206731309119539,-0.6541241119230019],[-1.3452336066857957,0.8736588461032304,-0.48350757575294534,-0.7615160598004687,-0.7277663230982954,-1.3951943208386377,-0.4465966237120189,-0.47937328350504305,-0.3259999703037245],[-0.3718941336971897,0.3624644275541613,-0.2669265889497445,-1.0809242593622277,-0.5148074212828524,1.381513582066221,1.6848713674222648,0.7442831786755608,1.161144623282456],[0.10538101449207926,-0.08829475161815803,-1.5405882799403883,-0.22187886508206067,1.0528012649369671,2.2503176319214346,1.1537334218655007,-1.5266397583403455,-0.12887173987993727],[0.43074369461400197,1.5237746115435096,-0.09226468653302244,0.5068735230358605,0.4939393288977372,0.6303518239385322,-0.03416918768161947,-0.2097531706101654,1.2071910189286732],[-0.5880202379496082,0.7154252623489579,0.13782398039165988,0.7256433574720429,0.30689523923343764,-1.2073362560251548,0.7821600126628367,-0.23389416004253394,0.9885865872584632],[-0.4782117547156628,0.8444603971091753,-0.7302293333849261,1.9962217688370316,0.5383649991895161,-0.18357289247042996,-0.15482122103149853,-0.9532017847652072,-0.23263410355950698],[-0.6272568394989027,-0.1744159023956502,0.5325237614731229,-0.8998065729749343,2.2030993286532707,-0.42558455746102253,2.2805569185971186,0.08168473100458074,0.7176602819205837],[-0.013041688851379574,0.35435910194667103,-0.425944451496,-1.0015977962344165,-0.6591731192728512,-1.2259038823558228,0.2269143662643629,0.10042775264606707,0.25630694550891553],[0.4328881666220751,1.6156319769572485,-1.5979829601558277,-0.2854162466611503,-0.6425901506451488,0.6192312143125434,-0.76551483456665,-0.48261943416696096,-0.3101780196005326]],"rows":16,"cols":9},{"data":[[0.10246841194660705,0.2508517532395069,0.5221207439901545,0.2634288012119965,-0.6146759799308574,1.664747835413595,-0.4247399583285154,0.5168546830586012,0.545555486008295],[0.6161693052066792,-0.20647145034264036,-0.0390357359993041,0.4112047444080451,1.788253478622571,-0.716259024808181,0.18825952096802268,0.3012479193336186,-0.26671146148613345],[1.3776131196393373,1.8048379833226256,-0.5868391459666848,-0.22755401900012465,1.0050594045643413,0.7936974372767414,-1.06918823008315,-1.1394461792098682,-1.594183212138708],[2.125237127470807,-1.04443042176313,-1.5832720644282396,0.9022048775277041,-0.7018503725661146,-0.34221783375555237,-0.8669120404091799,1.3768189629593515,0.05648984161467137],[-0.11345859346441656,0.7361925783287973,-0.28574996575747535,0.17927158102401153,-0.5873817529384886,0.5295039397434309,1.4188414450680922,-1.6559045290809336,0.7103188065505339],[0.04466540806632224,0.9356064391559087,0.21617518971059374,0.2996637663164865,-0.7971578832069102,-0.7335992694104085,-1.8871509834235758,0.6204939859637129,0.7903191323670749],[-0.11040262265322294,0.7108175015525544,-0.26086537633639206,1.066430097406768,0.6286857882313401,-0.7442456618149574,-0.5941448251959986,0.7436098918850842,-0.733574325731184],[0.9906876884419635,0.14943406672077852,-0.6005426989506166,-3.235020502134456,0.4882210546536925,0.2449327176563869,0.057745922896260016,-0.5330213595098461,0.809369841187614],[-1.3613124916696309,-0.2033118271189741,0.613834147815538,-0.4711739062769522,-0.06300991504722009,0.4556152673273175,0.26564670937320345,-2.425663173798396,0.2056997821396791]],"rows":9,"cols":9},{"data":[[-1.9298365186703372],[0.15993636354974683],[-0.271461067243709],[0.5513217239550583],[1.2833568799721955],[0.17850557347401175],[-0.16818201686553746],[-0.4270639261834943],[1.1006019366935815]],"rows":9,"cols":1}],"biases":[{"data":[[-0.3281508949381896,-2.133740226196453,0.8926055424775954,0.3205788622974157,0.8773766687020244,0.8122865436469846,0.38923797088810597,-0.2632767631878701,0.06902560554714698]],"rows":1,"cols":9},{"data":[[-1.234661178418352,-0.4167927938086702,0.3318849364549199,-0.5974100277835106,-0.9039600438058336,-0.6056102756511558,-0.14270224263301046,0.9862083995936226,1.8387489556526964]],"rows":1,"cols":9},{"data":[[-1.8869768378095433]],"rows":1,"cols":1}]}],"length":3},{"type":"Genetic_Combined_Network","activation_function_name":"tanh","activation_function":{},"networks":[{"type":"Genetic_Convolutional_Neural_Network","activation_function_name":"swish","activation_function":{},"length":1,"width":4,"height":4,"weights":[],"biases":[],"kernels":[{"data":[[0.06673360989609911,-0.09315044755691104,0.11139449743220059,0.10005626699103665],[-0.010091531811279475,-0.04510159021487531,-0.03518627589698731,0.04636003511485709],[0.0045415591629613394,-0.07779693282936095,-0.07326520978988138,0.10823808670780882],[0.006401941324517324,0.03446044901756118,-0.07582953297330441,0.04199588974760943]],"rows":4,"cols":4}]},{"type":"Genetic_Flatten","activation_function_name":"identity","activation_function":{}},{"type":"Genetic_Fully_Connected_Neural_Network","activation_function_name":"tanh","activation_function":{},"length":3,"width":9,"weights":[{"data":[[-0.7091153140838888,1.48044876393122,-0.6075129051560444,-0.7296491286045703,-0.1900126265435378,-0.03962415058797086,-0.22417449468897344,-0.5194416936425568,0.051021189537590494],[0.7618340559818055,-0.06292885593690012,-1.7270573058755314,-0.4295316885386089,2.2306011935883987,-1.5009294737461376,-0.5896039964230528,0.8701064995225436,1.4176119320163063],[0.2563838525456763,2.5334777881085135,0.46386144629883086,0.3070769454756561,-1.706363707542792,0.2797555656464654,-0.7231698212128076,-0.7170578728860988,-0.1862041573773796],[-0.02137277004546667,0.20705514080687326,0.45757904215178025,0.8239010063565542,0.5372471351981372,0.8044839992433825,-1.250835065883341,-0.372286475164185,-3.0826678685008937],[0.9942595370870047,4.20137956067156,0.30650950701318047,0.7046069839573812,0.20390289208716328,-0.09807401377845702,1.318712208712209,0.8589881498024599,1.271886152579925],[1.870785284534609,0.16721362155846098,0.42251205482430576,-0.747810373818502,-0.9453586326301131,0.6912425318109672,0.8438961564737726,0.24970792044321222,-0.15225960419398454],[0.36748927969515854,-0.1195767695539307,-0.8966172252543201,0.9323130298442366,0.1118150565147975,0.33495828008570894,1.6993119631893108,-0.9859654664052927,-0.07291437487390962],[-0.7722313166551191,1.7726515651083057,-0.48350757575294534,-0.33571126048154487,-0.26378468672312994,-1.3951943208386377,-0.4465966237120189,-0.47937328350504305,-0.10559643573546762],[-0.16630775730578873,-0.5772329568281054,-0.2669265889497445,-0.6291856901489146,-0.9643112218332295,0.9728125487221777,1.6848713674222648,0.7442831786755608,1.161144623282456],[0.10538101449207926,-0.6477539927600369,-1.5405882799403883,0.4952945650112175,1.9816545226270321,2.2503176319214346,0.7565824354004087,-1.5266397583403455,-0.12887173987993727],[0.43074369461400197,2.161664228692088,-0.09226468653302244,0.5068735230358605,-0.0925254019898124,1.1719871753145052,1.1387236090945665,-0.8621852264464749,1.2071910189286732],[-0.9194032704314847,0.8794402929640759,0.13782398039165988,0.7256433574720429,0.30689523923343764,-0.41058510334519105,0.7821600126628367,-0.23389416004253394,0.9885865872584632],[0.3398932837012074,0.8444603971091753,-0.2052300921142709,1.9000713778612086,0.987377961596065,-0.22450129520536166,-0.15482122103149853,-0.4120402976836861,-0.23263410355950698],[0.8961943801582579,-0.34616120766983083,1.019499189895229,-0.9344976057904837,2.2030993286532707,-0.42558455746102253,2.8379207872638514,0.08168473100458074,0.7176602819205837],[-0.013041688851379574,0.35435910194667103,-0.425944451496,0.3980147811300294,-0.6591731192728512,-1.2259038823558228,0.2269143662643629,0.10042775264606707,-0.63392656169512],[0.4328881666220751,1.5022204328805264,-0.8944610760764107,-0.2229765296526729,-1.5033374172335694,0.6192312143125434,0.17536679303706793,-0.48261943416696096,-0.3101780196005326]],"rows":16,"cols":9},{"data":[[-0.080032797276826,-0.4954780261097149,0.5221207439901545,1.1200468391840142,-0.0034816989907979767,1.664747835413595,-0.4247399583285154,0.5168546830586012,1.08792512439868],[0.6161693052066792,-0.7523001187492657,-0.0390357359993041,0.4112047444080451,0.9797143642065136,-0.8728595813208948,0.18825952096802268,0.3012479193336186,-0.17475928103659769],[1.3776131196393373,1.8048379833226256,-0.5868391459666848,-0.22755401900012465,1.0050594045643413,-0.17488738650979307,-0.30441788659216307,-1.306157630766784,-1.594183212138708],[1.183736101102665,-1.04443042176313,-1.5832720644282396,1.3707095733017125,-0.7018503725661146,0.40633753789559846,-0.8669120404091799,1.124010924095209,0.05648984161467137],[-0.1166157804401855,0.7361925783287973,-0.28574996575747535,0.17927158102401153,-0.059383302936801385,0.01596373644082605,1.4188414450680922,-1.6559045290809336,0.901890071397379],[0.04466540806632224,1.4303057665968746,0.21617518971059374,0.2996637663164865,-0.7971578832069102,-0.7335992694104085,-1.8871509834235758,0.6512112349112062,-0.16756508175811913],[-0.11040262265322294,0.7108175015525544,0.3882782224272092,1.066430097406768,-0.1968768155865176,-0.7442456618149574,-0.34274049250681804,0.45563359804604264,-0.32534942271149814],[0.9906876884419635,0.013222595905837903,0.0913028044523345,-2.8648613701391548,1.2201636305840502,0.16586863615980696,-0.15492059418388215,-0.5330213595098461,0.809369841187614],[-1.3613124916696309,-0.7035012010355183,0.613834147815538,0.29651345989787603,-0.06300991504722009,0.4556152673273175,0.26564670937320345,-2.1944743280096937,0.2056997821396791]],"rows":9,"cols":9},{"data":[[-0.9508626748368307],[0.15993636354974683],[-0.271461067243709],[1.2652360886237557],[1.2351092411555036],[0.17850557347401175],[-0.16818201686553746],[-0.4270639261834943],[0.3279696327370476]],"rows":9,"cols":1}],"biases":[{"data":[[-0.3281508949381896,-1.62871177757025,0.45353763950378356,1.2725968502753426,1.3780006532945355,0.2687914737995545,0.38923797088810597,-0.2632767631878701,0.06902560554714698]],"rows":1,"cols":9},{"data":[[-1.234661178418352,-0.4167927938086702,0.3318849364549199,-0.5974100277835106,-1.2782634150134742,-0.32353700837173627,0.0023547759355886377,0.9862083995936226,1.8387489556526964]],"rows":1,"cols":9},{"data":[[-1.8869768378095433]],"rows":1,"cols":1}]}],"length":3},{"type":"Genetic_Combined_Network","activation_function_name":"tanh","activation_function":{},"networks":[{"type":"Genetic_Convolutional_Neural_Network","activation_function_name":"swish","activation_function":{},"length":1,"width":4,"height":4,"weights":[],"biases":[],"kernels":[{"data":[[-0.0009447810602433715,-0.11963211872464025,-0.09638183107320714,0.04466640082510731],[0.006799525350856317,-0.021408073444309395,0.07548419032979004,-0.02410758285998532],[-0.034494371303379234,0.0034107780683551026,0.10553756958778349,-0.10404811868271152],[-0.009460760377825006,-0.11625038322467646,0.01094183069535487,-0.09166300216803303]],"rows":4,"cols":4}]},{"type":"Genetic_Flatten","activation_function_name":"identity","activation_function":{}},{"type":"Genetic_Fully_Connected_Neural_Network","activation_function_name":"tanh","activation_function":{},"length":3,"width":9,"weights":[{"data":[[-0.48920518815499303,1.48044876393122,-0.6075129051560444,-0.7296491286045703,-0.1900126265435378,-0.03962415058797086,-0.8819686119428347,-0.5194416936425568,0.051021189537590494],[1.4853506912235526,-0.06292885593690012,-1.7270573058755314,-0.4295316885386089,3.1356770465028223,-1.5009294737461376,-0.5896039964230528,0.8701064995225436,0.7529925566179987],[0.2563838525456763,2.5334777881085135,0.05297994152304586,0.06901271212943372,-1.4835341308072847,0.3384949701486306,-0.7231698212128076,-0.2036074365483389,-0.1862041573773796],[-0.02137277004546667,0.20705514080687326,0.45757904215178025,1.0994955531941168,0.5372471351981372,1.709473309704074,-1.250835065883341,-0.372286475164185,-3.0826678685008937],[0.9942595370870047,4.20137956067156,-0.5894328785751379,0.7046069839573812,0.20390289208716328,-0.09807401377845702,1.9020123432866938,0.8589881498024599,1.271886152579925],[1.870785284534609,-0.22256119650196415,