{
    "population": [
        {
            "type": "Genetic_Fully_Connected_Neural_Network",
            "activation_function_name": "tanh",
            "activation_function": {},
            "length": 3,
            "width": 5,
            "weights": [
                {
                    "data": [
                        [
                            0.3403279722177627,
                            0.24689520435687687,
                            -0.5226585053423729,
                            -0.2164923616652151,
                            -0.563968259736961
                        ],
                        [
                            -0.4788535201916742,
                            0.17684712643989642,
                            0.12291142350506161,
                            0.04103616633307,
                            -0.5364040479681176
                        ],
                        [
                            0.5522114964648017,
                            -0.09225000139307576,
                            -0.5777135614352573,
                            -0.4192907468705844,
                            -0.4480437166384182
                        ],
                        [
                            0.41496840120104844,
                            -0.20125893612714568,
                            0.3089977621749029,
                            0.4801129581678541,
                            0.42219763665041904
                        ],
                        [
                            0.16409849078591823,
                            0.0481616007270315,
                            0.5346504883262472,
                            0.07352749127496516,
                            -0.36829053318291677
                        ],
                        [
                            -0.5426255105764825,
                            -0.39547560146995697,
                            -0.11721155890988506,
                            -0.40240574625434045,
                            -0.2810757984541084
                        ],
                        [
                            -0.19285853890338514,
                            0.34637456585582266,
                            -0.13444149791226578,
                            0.3199575933922183,
                            -0.3549930008945942
                        ],
                        [
                            -0.2434197210266644,
                            -0.48583292536241995,
                            -0.15092030617118163,
                            -0.30252642416774006,
                            0.18764013621604472
                        ],
                        [
                            -0.3531296596003391,
                            0.26091802906910744,
                            -0.10154278483952195,
                            -0.43909393577877714,
                            -0.6168284517351141
                        ],
                        [
                            -0.37325048257705407,
                            -0.3228238806954197,
                            0.5285673686099739,
                            -0.0781101903993192,
                            0.20051054383336916
                        ],
                        [
                            0.38654618806491803,
                            -0.33811852584330165,
                            -0.5274048213431684,
                            0.4540185826932905,
                            -0.17288932320637584
                        ],
                        [
                            -0.20770665119217252,
                            -0.023996969369371603,
                            0.4123962587945187,
                            -0.5283726070991497,
                            0.5105140252398754
                        ],
                        [
                            0.36557882793249513,
                            0.5727301913849246,
                            -0.3678428826330554,
                            -0.2098359819782091,
                            -0.13718434659792142
                        ],
                        [
                            -0.5008066272515762,
                            -0.11546587324577326,
                            0.45049730969916135,
                            -0.5591177606392476,
                            -0.05665772143461119
                        ],
                        [
                            0.33612857768933724,
                            -0.29584816685901283,
                            -0.43053262728248126,
                            -0.3221092484546502,
                            0.30804876010821325
                        ],
                        [
                            -0.12162096278134008,
                            0.376645673147913,
                            -0.36871074096790657,
                            -0.31093902963630493,
                            -0.5748635014246548
                        ],
                        [
                            0.3484729018608603,
                            -0.26209694482704227,
                            -0.42740179436589393,
                            0.1791303891637287,
                            -0.06083362129275498
                        ],
                        [
                            0.0014731108789169862,
                            -0.2659889341055672,
                            0.5073926967021368,
                            -0.5348683008395051,
                            -0.5491166465605964
                        ],
                        [
                            0.4739678220748834,
                            -0.2719931714175978,
                            -0.27487007348463427,
                            0.05907851682775334,
                            0.49145774471755743
                        ],
                        [
                            0.5495953157600603,
                            -0.2597083319630355,
                            -0.17713352602805052,
                            0.459757441696359,
                            0.304517214767736
                        ],
                        [
                            0.08686479495173297,
                            -0.19189963081825642,
                            -0.09760481470266995,
                            -0.3752786057004073,
                            -0.514124152516188
                        ],
                        [
                            -0.09579780767675528,
                            -0.23597564419502698,
                            -0.44296783957981867,
                            -0.13213923445177075,
                            0.6070645581825784
                        ],
                        [
                            -0.40420936024695764,
                            -0.006140938658586837,
                            -0.3058778892507324,
                            -0.1555042715828747,
                            -0.37315940215933546
                        ],
                        [
                            0.10858202299547046,
                            -0.2303063081889852,
                            -0.5242467024843802,
                            -0.21749478695029945,
                            0.6102061014494331
                        ],
                        [
                            -0.5310684162510594,
                            0.14021196172186348,
                            -0.25653414632960275,
                            -0.06351334900818376,
                            0.506318576377471
                        ],
                        [
                            -0.25618973181196963,
                            0.5618360515203874,
                            -0.5319196317248813,
                            -0.011643396041350066,
                            0.40355801355214
                        ],
                        [
                            -0.4441258347985106,
                            0.3317305802106608,
                            -0.1471084574181763,
                            0.04573256327420931,
                            -0.4789548990789138
                        ],
                        [
                            0.3855535818032698,
                            0.030936858045459488,
                            0.12331850499561618,
                            0.022323972012786006,
                            -0.2657315956659092
                        ],
                        [
                            -0.00773311736712935,
                            -0.202942835784346,
                            0.11464691258878319,
                            0.17660084145289257,
                            0.5020005734711973
                        ],
                        [
                            -0.2897883945248262,
                            -0.09755080862886112,
                            0.21673263866519554,
                            -0.5605582424824741,
                            0.09988803921059064
                        ],
                        [
                            0.6271123776172788,
                            -0.2583655768670765,
                            0.061858869947468,
                            0.4958059021286048,
                            0.13271449808986982
                        ],
                        [
                            -0.36643190469146253,
                            -0.2176107171187218,
                            -0.1603749323381383,
                            0.3226032521220141,
                            0.6100548082957948
                        ],
                        [
                            0.44899653812058554,
                            0.24572351913324444,
                            -0.05771875060743118,
                            0.6214239817527416,
                            0.493394674601102
                        ],
                        [
                            -0.3298057049177234,
                            0.3020978259407964,
                            0.47906653312457986,
                            0.4891866516013744,
                            -0.5981120940086478
                        ],
                        [
                            0.5528314784673012,
                            -0.5885276547638282,
                            0.4984560028525641,
                            -0.47250190102827516,
                            -0.42153379162098087
                        ],
                        [
                            0.19614421488810296,
                            -0.004086394085369059,
                            0.33740430955333495,
                            -0.5213057323424451,
                            0.19807323029836257
                        ],
                        [
                            -0.5672365559034039,
                            -0.18313794561331964,
                            0.6095135169583641,
                            -0.5060487289364094,
                            -0.0755840303200257
                        ],
                        [
                            -0.44805136502226556,
                            0.2974872251175438,
                            -0.03356658802340015,
                            -0.2390263541347397,
                            0.09969630204421126
                        ],
                        [
                            -0.19788835903829885,
                            0.4444566121578296,
                            -0.09352985188144337,
                            -0.3504210822606415,
                            -0.3671502596990632
                        ],
                        [
                            0.36828587628043724,
                            -0.6020948948235227,
                            -0.06658445579809041,
                            -0.5887146930787566,
                            -0.11892180535577014
                        ],
                        [
                            0.2994948187933067,
                            -0.1421975273801614,
                            -0.5250968560440527,
                            -0.5410957951376142,
                            -0.16643166129333503
                        ],
                        [
                            -0.12787098321434057,
                            0.49772570807694505,
                            -0.4963368704391465,
                            -0.158264879014929,
                            0.07294934641734278
                        ],
                        [
                            0.03769432255293133,
                            0.3990216924110555,
                            0.5724347621332335,
                            -0.06708619532262075,
                            0.4938990595677046
                        ],
                        [
                            -0.5256534600882956,
                            0.5962260349838844,
                            -0.2997497266446807,
                            0.6179152777330995,
                            0.23450232737037688
                        ],
                        [
                            0.23061979868732374,
                            -0.5701275833047309,
                            0.3260809909775218,
                            0.5275506394930265,
                            -0.05115923447017604
                        ],
                        [
                            -0.12383936238112637,
                            -0.3802745334408804,
                            -0.04576659703412027,
                            -0.4969673542067319,
                            0.5932896466150057
                        ],
                        [
                            -0.251690661302846,
                            0.44298872841320286,
                            -0.08059348582528846,
                            -0.11737746031316472,
                            0.2979582632851951
                        ],
                        [
                            0.29887455964232545,
                            -0.5005088284252188,
                            -0.10437627967529889,
                            -0.4581919314192592,
                            -0.49067719060947984
                        ],
                        [
                            0.01957028047887438,
                            -0.038281911569931354,
                            0.35100656513131645,
                            -0.5978263937680303,
                            -0.30360271682284595
                        ]
                    ],
                    "rows": 49,
                    "cols": 5
                },
                {
                    "data": [
                        [
                            -0.1722247399152482,
                            -0.4120673696741694,
                            0.3477134026453501,
                            -0.048106773258087064,
                            -0.24730672155772485
                        ],
                        [
                            -0.01569424339792654,
                            -0.01851128275694517,
                            0.28758713572949846,
                            -0.24493548080167515,
                            0.19600151568607055
                        ],
                        [
                            0.16868982627531268,
                            -0.2517067049930598,
                            0.2508065918230289,
                            -0.49020438301853336,
                            0.6256770041262905
                        ],
                        [
                            0.42044074319382324,
                            -0.20509443021449966,
                            -0.4187947477881202,
                            0.3684657592807135,
                            -0.3062285606320821
                        ],
                        [
                            -0.4675390530357243,
                            0.6087364885772863,
                            0.5905633175768369,
                            0.30821553911906596,
                            0.07634647272962203
                        ]
                    ],
                    "rows": 5,
                    "cols": 5
                },
                {
                    "data": [
                        [
                            0.04036905971465188
                        ],
                        [
                            0.45572701524461967
                        ],
                        [
                            -0.11964105655027547
                        ],
                        [
                            -0.5808469363943612
                        ],
                        [
                            -0.48776000731929914
                        ]
                    ],
                    "rows": 5,
                    "cols": 1
                }
            ],
            "biases": [
                {
                    "data": [
                        [
                            -0.5016815010661926,
                            -0.11520703503843202,
                            0.5103007271665969,
                            0.5225453812891924,
                            -0.6288727734533969
                        ]
                    ],
                    "rows": 1,
                    "cols": 5
                },
                {
                    "data": [
                        [
                            -0.10213570081401836,
                            0.2736791584819583,
                            -0.33390464583727825,
                            0.4324557952210116,
                            -0.324340548745028
                        ]
                    ],
                    "rows": 1,
                    "cols": 5
                },
                {
                    "data": [
                        [
                            -0.780846831259816
                        ]
                    ],
                    "rows": 1,
                    "cols": 1
                }
            ]
        },
        {
            "type": "Genetic_Fully_Connected_Neural_Network",
            "activation_function_name": "tanh",
            "activation_function": {},
            "length": 3,
            "width": 5,
            "weights": [
                {
                    "data": [
                        [
                            -0.29817273384503407,
                            0.9619400971504237,
                            0.19344823585603232,
                            -0.27387958680364277,
                            -1.34330110036638
                        ],
                        [
                            -0.3086265993742816,
                            1.1163669404211243,
                            0.7999584257010588,
                            -0.2293366053353365,
                            0.22808208870634017
                        ],
                        [
                            0.7509613267696704,
                            -0.35897151911842595,
                            -0.9415797000713593,
                            -0.0622413142652356,
                            1.2686199676659622
                        ],
                        [
                            0.24939710111384805,
                            -1.1084216775567421,
                            1.978685765043695,
                            0.4801129581678541,
                            1.4590706109736762
                        ],
                        [
                            -0.7642932118231154,
                            0.3006115926867179,
                            -0.01367513261457709,
                            0.8335902618030842,
                            -1.7822398285213488
                        ],
                        [
                            -1.665846447753816,
                            -0.39547560146995697,
                            -1.1055894968853213,
                            -0.3444907573258851,
                            -0.0569355155085971
                        ],
                        [
                            0.7234578900289192,
                            0.34637456585582266,
                            -0.13444149791226578,
                            0.5193704753457042,
                            -0.3549930008945942
                        ],
                        [
                            -0.2434197210266644,
                            -0.7718742280445642,
                            1.5270002203060917,
                            -0.30252642416774006,
                            -0.0483259311497819
                        ],
                        [
                            -1.0411743379609841,
                            0.26091802906910744,
                            -0.2707796386316227,
                            -0.43909393577877714,
                            0.17425533088129752
                        ],
                        [
                            0.1954522961586882,
                            -0.3228238806954197,
                            1.118213213852353,
                            1.3443275121066716,
                            2.774384033000667
                        ],
                        [
                            0.38654618806491803,
                            -0.6350805091968217,
                            -1.7521591582975673,
                            0.4540185826932905,
                            0.24492795260692812
                        ],
                        [
                            -0.20770665119217252,
                            -0.023996969369371603,
                            0.4123962587945187,
                            -0.3363381662419145,
                            2.252617484553362
                        ],
                        [
                            1.202154014399503,
                            1.198646305092208,
                            -0.9458911904833179,
                            -1.5291273723996808,
                            -0.13718434659792142
                        ],
                        [
                            -0.46024367190966176,
                            0.2795968263680366,
                            1.301049937920535,
                            -0.9873679087839372,
                            -0.04220024082115181
                        ],
                        [
                            1.3768160087020767,
                            0.15933356594645787,
                            0.25400083417043473,
                            -0.3221092484546502,
                            0.30804876010821325
                        ],
                        [
                            0.48192232300823656,
                            -1.4576652868644753,
                            -0.36871074096790657,
                            -0.31093902963630493,
                            -0.5348456524269518
                        ],
                        [
                            -0.10164951303139569,
                            0.15969047708374728,
                            -0.3813158797190399,
                            0.5777195262145125,
                            -1.3193240564215445
                        ],
                        [
                            -0.1191527949288056,
                            -0.2659889341055672,
                            0.5073926967021368,
                            -1.3853463085492859,
                            -0.8139992446100207
                        ],
                        [
                            0.4739678220748834,
                            -0.22275992679357315,
                            0.23275137461362627,
                            0.11783623856248315,
                            0.1677294509979368
                        ],
                        [
                            -0.03676816526460247,
                            1.3919252837080336,
                            1.11904809033964,
                            -0.6409189387223104,
                            0.6794461295299559
                        ],
                        [
                            0.7400612080023243,
                            -0.743510569562869,
                            -2.3697893704994413,
                            -0.43348569921189817,
                            -0.514124152516188
                        ],
                        [
                            0.1412698872417657,
                            0.5126765606202524,
                            0.05243436804536983,
                            -0.4513717672240033,
                            -0.18745066125393994
                        ],
                        [
                            -0.7624372961901986,
                            0.30780543677138295,
                            -0.8113970258461278,
                            -0.24653251204371807,
                            -1.0389610627018087
                        ],
                        [
                            0.10858202299547046,
                            0.828899771745855,
                            -0.5242467024843802,
                            -0.21749478695029945,
                            -0.30299992744071336
                        ],
                        [
                            -0.5310684162510594,
                            0.6959155182451304,
                            -0.8497130734579434,
                            0.8669660368590655,
                            0.506318576377471
                        ],
                        [
                            -0.25618973181196963,
                            0.5618360515203874,
                            0.1314768760018239,
                            0.5270775825443821,
                            -0.12073133725998741
                        ],
                        [
                            -0.9370697869492204,
                            0.9323079089777746,
                            -0.48237830267070536,
                            0.04573256327420931,
                            -0.7096526455085037
                        ],
                        [
                            0.3855535818032698,
                            -1.555075378307921,
                            0.12331850499561618,
                            -0.016421395468498523,
                            0.7908706986208456
                        ],
                        [
                            -0.5024251606097616,
                            -1.574553777374482,
                            0.8347075186805522,
                            -0.42860838668423296,
                            -0.8113379596798587
                        ],
                        [
                            -0.5787612133828856,
                            -0.09755080862886112,
                            -0.2295372189927638,
                            0.8896604897631404,
                            1.0751031597692142
                        ],
                        [
                            0.8032547922120088,
                            -0.6023608108366567,
                            -0.6485293274154824,
                            0.920879223740872,
                            -0.0312553591316167
                        ],
                        [
                            -0.597432313001597,
                            0.02463278166176952,
                            -0.17517954510121836,
                            0.3226032521220141,
                            0.9122769905689405
                        ],
                        [
                            1.6997008307699546,
                            0.7564711540612239,
                            1.0211306154654154,
                            -0.01696190201445158,
                            0.5318468162193861
                        ],
                        [
                            0.27092266875500326,
                            -0.37330757197708797,
                            0.47906653312457986,
                            1.9172864268248557,
                            -0.6670281565001743
                        ],
                        [
                            0.33187283661873446,
                            0.2220555926173442,
                            1.0774946379928312,
                            -0.47250190102827516,
                            -0.3872986840676189
                        ],
                        [
                            0.012973548663457679,
                            -0.004086394085369059,
                            0.33740430955333495,
                            -0.5213057323424451,
                            0.2452672331516581
                        ],
                        [
                            -1.5579284648683225,
                            -0.9245209910953642,
                            1.3307326061368494,
                            0.06747475875561948,
                            -0.0755840303200257
                        ],
                        [
                            -1.545614672052386,
                            1.3960536795746794,
                            -0.03356658802340015,
                            -0.6831648469501141,
                            0.38616385993716174
                        ],
                        [
                            -0.19788835903829885,
                            1.3284595557770533,
                            0.31400598937253754,
                            -0.8205673225764165,
                            0.15711315576834473
                        ],
                        [
                            -0.5741889761628616,
                            -0.3039021604066694,
                            0.2688510727765674,
                            -0.7675625990270905,
                            0.29641224812013633
                        ],
                        [
                            1.229212227767127,
                            -0.06575128821292409,
                            0.26624953826938746,
                            -0.09062364710446447,
                            0.5085431285509379
                        ],
                        [
                            -1.0537791186196406,
                            -0.2564525773586528,
                            -0.5819729689059381,
                            -0.158264879014929,
                            1.5653478732293404
                        ],
                        [
                            0.11698237493803076,
                            0.3990216924110555,
                            0.4354105078838362,
                            -0.7618222692666208,
                            2.13685198394758
                        ],
                        [
                            -0.13325435413459275,
                            0.5962260349838844,
                            -1.8483890065458994,
                            0.5263967650981893,
                            0.8563807908530519
                        ],
                        [
                            -0.06117589779128174,
                            -1.5242258787749692,
                            1.0767278000699827,
                            1.5238058026511911,
                            -0.10548742938556066
                        ],
                        [
                            0.2889499703313658,
                            -0.3802745334408804,
                            0.6235040860742003,
                            -0.38771128734504967,
                            0.43473974024774065
                        ],
                        [
                            -0.22519043413554374,
                            -0.36922888908355134,
                            0.8927481875244578,
                            -0.16412417555924597,
                            -0.828949490836097
                        ],
                        [
                            -0.22464602605263106,
                            -0.5005088284252188,
                            -0.22923764452899786,
                            -0.4308945707115205,
                            -0.49067719060947984
                        ],
                        [
                            0.01957028047887438,
                            -0.8139494649859011,
                            -0.25437101630893355,
                            -0.5172609716663162,
                            -0.30360271682284595
                        ]
                    ],
                    "rows": 49,
                    "cols": 5
                },
                {
                    "data": [
                        [
                            0.3142075212798332,
                            -0.11394854749559968,
                            -0.05981944112942461,
                            -0.048106773258087064,
                            1.6808366079260413
                        ],
                        [
                            0.9125575170967282,
                            0.06981758269267013,
                            1.143672350823119,
                            -1.1573680995023676,
                            -1.3202096451984464
                        ],
                        [
                            -0.4663682198556196,
                            -0.8947031757397403,
                            0.2508065918230289,
                            -1.0002632515363061,
                            0.8364666487413985
                        ],
                        [
                            -0.21766719170145588,
                            0.5551087853769918,
                            -1.5629150581947469,
                            0.06421235311074236,
                            -0.6913939592520082
                        ],
                        [
                            -1.3315421786200483,
                            0.6087364885772863,
                            -0.5438122701869204,
                            0.2925802403551909,
                            -0.8553057913661589
                        ]
                    ],
                    "rows": 5,
                    "cols": 5
                },
                {
                    "data": [
                        [
                            0.12577368951532097
                        ],
                        [
                            0.9952827164189446
                        ],
                        [
                            0.49446040748046705
                        ],
                        [
                            -0.6928948412606907
                        ],
                        [
                            -0.48776000731929914
                        ]
                    ],
                    "rows": 5,
                    "cols": 1
                }
            ],
            "biases": [
                {
                    "data": [
                        [
                            -0.5016815010661926,
                            0.21683763854888438,
                            0.5103007271665969,
                            0.9185754904537511,
                            -0.24536501165934166
                        ]
                    ],
                    "rows": 1,
                    "cols": 5
                },
                {
                    "data": [
                        [
                            -1.0397523933366535,
                            0.8919110387859717,
                            -0.833229760863714,
                            0.9718299140280349,
                            -0.5739905508230487
                        ]
                    ],
                    "rows": 1,
                    "cols": 5
                },
                {
                    "data": [
                        [
                            0.14044969384422945
                        ]
                    ],
                    "rows": 1,
                    "cols": 1
                }
            ]
        },
        {
            "type": "Genetic_Fully_Connected_Neural_Network",
            "activation_function_name": "tanh",
            "activation_function": {},
            "length": 3,
            "width": 5,
            "weights": [
                {
                    "data": [
                        [
                            -0.6572349776161767,
                            0.9619400971504237,
                            0.19344823585603232,
                            -0.27387958680364277,
                            -1.34330110036638
                        ],
                        [
                            -0.3086265993742816,
                            1.1277729431762635,
                            0.7999584257010588,
                            -0.2293366053353365,
                            0.22808208870634017
                        ],
                        [
                            -0.09840835660034597,
                            -0.35897151911842595,
                            -0.9415797000713593,
                            -0.0622413142652356,
                            1.2686199676659622
                        ],
                        [
                            0.24939710111384805,
                            -1.1084216775567421,
                            1.978685765043695,
                            0.4801129581678541,
                            1.8025869557344496
                        ],
                        [
                            -0.7642932118231154,
                            0.3006115926867179,
                            0.5506932728639549,
                            0.06151312247275653,
                            -1.2274381361437936
                        ],
                        [
                            -2.3765891780642687,
                            -0.39547560146995697,
                            -1.1055894968853213,
                            -0.40240574625434045,
                            -0.0569355155085971
                        ],
                        [
                            0.22444005204535777,
                            0.45688078202366533,
                            -0.13444149791226578,
                            0.5193704753457042,
                            -0.3549930008945942
                        ],
                        [
                            -0.2434197210266644,
                            -0.7718742280445642,
                            1.5270002203060917,
                            0.21121231770910343,
                            -0.0483259311497819
                        ],
                        [
                            -1.0411743379609841,
                            0.26091802906910744,
                            -0.2707796386316227,
                            -0.43909393577877714,
                            0.17425533088129752
                        ],
                        [
                            0.1954522961586882,
                            -0.3228238806954197,
                            1.118213213852353,
                            1.3443275121066716,
                            2.774384033000667
                        ],
                        [
                            0.38654618806491803,
                            -0.6350805091968217,
                            -1.7521591582975673,
                            0.4540185826932905,
                            0.24492795260692812
                        ],
                        [
                            0.5499233010769489,
                            -0.5837170473485662,
                            0.4123962587945187,
                            -0.3363381662419145,
                            1.6382065592442028
                        ],
                        [
                            1.202154014399503,
                            1.198646305092208,
                            -0.9458911904833179,
                            -1.894083810744331,
                            -0.13718434659792142
                        ],
                        [
                            -0.46024367190966176,
                            0.0377815805865398,
                            1.301049937920535,
                            -0.9873679087839372,
                            -0.04220024082115181
                        ],
                        [
                            1.3768160087020767,
                            0.15933356594645787,
                            0.25400083417043473,
                            -0.3221092484546502,
                            -0.35408311178051777
                        ],
                        [
                            0.48192232300823656,
                            -0.7751214051864497,
                            -0.36871074096790657,
                            -0.41494488424016984,
                            -0.5348456524269518
                        ],
                        [
                            -0.10164951303139569,
                            0.15969047708374728,
                            -0.3813158797190399,
                            0.06635197419209327,
                            -0.6303062904599666
                        ],
                        [
                            -0.9105535034581651,
                            -0.2659889341055672,
                            0.5073926967021368,
                            -1.3853463085492859,
                            -0.5491166465605964
                        ],
                        [
                            0.4739678220748834,
                            -0.22275992679357315,
                            1.2314145785889994,
                            0.11783623856248315,
                            0.1677294509979368
                        ],
                        [
                            -0.03676816526460247,
                            1.3919252837080336,
                            1.11904809033964,
                            -0.6409189387223104,
                            1.2620293443107338
                        ],
                        [
                            0.7400612080023243,
                            -1.1336019826872907,
                            -1.852218624113327,
                            -0.43348569921189817,
                            -0.514124152516188
                        ],
                        [
                            0.1412698872417657,
                            0.5126765606202524,
                            0.05243436804536983,
                            -0.4513717672240033,
                            -0.8310693243039566
                        ],
                        [
                            -0.7624372961901986,
                            -0.21291531842954092,
                            -0.8113970258461278,
                            -0.24653251204371807,
                            -1.0389610627018087
                        ],
                        [
                            0.10858202299547046,
                            0.828899771745855,
                            0.42859468774719334,
                            -0.21749478695029945,
                            0.16474357018584662
                        ],
                        [
                            -0.5310684162510594,
                            0.6959155182451304,
                            -0.8497130734579434,
                            1.175665730540258,
                            0.506318576377471
                        ],
                        [
                            -0.25618973181196963,
                            0.5618360515203874,
                            0.1314768760018239,
                            0.5270775825443821,
                            -0.12073133725998741
                        ],
                        [
                            -0.9370697869492204,
                            1.4442272726460872,
                            -0.48237830267070536,
                            0.04573256327420931,
                            -0.36506452901027897
                        ],
                        [
                            0.3855535818032698,
                            -2.2985804965476877,
                            0.12331850499561618,
                            -0.016421395468498523,
                            0.7908706986208456
                        ],
                        [
                            -0.5024251606097616,
                            -1.574553777374482,
                            0.8347075186805522,
                            -0.42860838668423296,
                            -0.8113379596798587
                        ],
                        [
                            -0.5787612133828856,
                            -0.09755080862886112,
                            -0.2295372189927638,
                            0.8896604897631404,
                            1.0751031597692142
                        ],
                        [
                            0.8032547922120088,
                            -0.6023608108366567,
                            -0.6485293274154824,
                            1.2032536210807168,
                            -0.0312553591316167
                        ],
                        [
                            -0.597432313001597,
                            -0.46972387866694865,
                            -0.17517954510121836,
                            0.3226032521220141,
                            0.535969959890187
                        ],
                        [
                            1.8267201974085046,
                            0.7564711540612239,
                            1.0180726910036424,
                            -0.01696190201445158,
                            0.5318468162193861
                        ],
                        [
                            0.27092266875500326,
                            -1.2899503455052126,
                            0.4620740470476179,
                            2.2865929501257325,
                            -0.6670281565001743
                        ],
                        [
                            0.33187283661873446,
                            0.2220555926173442,
                            1.0774946379928312,
                            -0.47250190102827516,
                            -0.3872986840676189
                        ],
                        [
                            0.14408090588785982,
                            0.22563683653708488,
                            0.33740430955333495,
                            -0.5213057323424451,
                            1.0412639837912003
                        ],
                        [
                            -1.750598842349643,
                            -0.4896252709386206,
                            1.0343046271832264,
                            -0.5537208696250335,
                            -0.0755840303200257
                        ],
                        [
                            -1.545614672052386,
                            1.6997238017356016,
                            0.9230439633095475,
                            -0.6831648469501141,
                            -0.06455213588287112
                        ],
                        [
                            -0.19788835903829885,
                            1.3284595557770533,
                            0.4949573540753742,
                            -0.8205673225764165,
                            0.15711315576834473
                        ],
                        [
                            -0.803698421699659,
                            -0.3039021604066694,
                            0.4893175752890533,
                            -0.1414075959988388,
                            0.29641224812013633
                        ],
                        [
                            1.229212227767127,
                            0.004309312107585006,
                            0.26624953826938746,
                            -0.09062364710446447,
                            0.5085431285509379
                        ],
                        [
                            -1.0537791186196406,
                            -0.2564525773586528,
                            -0.5819729689059381,
                            -0.158264879014929,
                            1.5653478732293404
                        ],
                        [
                            0.7554516438961587,
                            0.3990216924110555,
                            0.4354105078838362,
                            -0.7618222692666208,
                            2.13685198394758
                        ],
                        [
                            -0.84727788307569,
                            1.3260300462214425,
                            -0.6630549520843467,
                            0.5263967650981893,
                            0.8563807908530519
                        ],
                        [
                            -0.06117589779128174,
                            -0.8665379595735905,
                            0.3260809909775218,
                            1.5238058026511911,
                            -0.10548742938556066
                        ],
                        [
                            0.1898302249359738,
                            -0.3802745334408804,
                            0.6235040860742003,
                            -0.38771128734504967,
                            0.43473974024774065
                        ],
                        [
                            -0.898617371563952,
                            -0.36922888908355134,
                            1.0487436182525536,
                            -0.16412417555924597,
                            -0.828949490836097
                        ],
                        [
                            -0.22464602605263106,
                            0.10283539787122664,
                            -0.22923764452899786,
                            -0.4308945707115205,
                            -0.49067719060947984
                        ],
                        [
                            0.4171471769149584,
                            -0.8139494649859011,
                            -0.25437101630893355,
                            -0.5172609716663162,
                            -0.30360271682284595
                        ]
                    ],
                    "rows": 49,
                    "cols": 5
                },
                {
                    "data": [
                        [
                            0.3142075212798332,
                            0.7881344049568688,
                            -0.05981944112942461,
                            -0.048106773258087064,
                            1.6808366079260413
                        ],
                        [
                            0.9125575170967282,
                            0.06981758269267013,
                            1.143672350823119,
                            -1.1573680995023676,
                            -1.3202096451984464
                        ],
                        [
                            -0.4663682198556196,
                            -1.095476740870902,
                            0.2508065918230289,
                            -1.0002632515363061,
                            1.626226894906611
                        ],
                        [
                            -0.21766719170145588,
                            0.5551087853769918,
                            -1.2191137358554813,
                            0.06421235311074236,
                            -0.6913939592520082
                        ],
                        [
                            -1.3315421786200483,
                            0.6087364885772863,
                            -0.5438122701869204,
                            0.7868649047055767,
                            -0.3971725383239094
                        ]
                    ],
                    "rows": 5,
                    "cols": 5
                },
                {
                    "data": [
                        [
                            0.6520904704325496
                        ],
                        [
                            0.9952827164189446
                        ],
                        [
                            0.49446040748046705
                        ],
                        [
                            -0.6928948412606907
                        ],
                        [
                            -0.48776000731929914
                        ]
                    ],
                    "rows": 5,
                    "cols": 1
                }
            ],
            "biases": [
                {
                    "data": [
                        [
                            -0.5016815010661926,
                            0.21683763854888438,
                            0.6344421612600082,
                            1.0766007951444556,
                            -0.24536501165934166
                        ]
                    ],
                    "rows": 1,
                    "cols": 5
                },
                {
                    "data": [
                        [
                            -1.0397523933366535,
                            0.8919110387859717,
                            0.0594417070613984,
                            0.9718299140280349,
                            0.32514298314100465
                        ]
                    ],
                    "rows": 1,
                    "cols": 5
                },
                {
                    "data": [
                        [
                            0.07993047450177304
                        ]
                    ],
                    "rows": 1,
                    "cols": 1
                }
            ]
        },
        {
            "type": "Genetic_Fully_Connected_Neural_Network",
            "activation_function_name": "tanh",
            "activation_function": {},
            "length": 3,
            "width": 5,
            "weights": [
                {
                    "data": [
                        [
                            -0.29817273384503407,
                            0.9619400971504237,
                            0.19344823585603232,
                            -0.27387958680364277,
                            -1.34330110036638
                        ],
                        [
                            -0.3086265993742816,
                            1.1163669404211243,
                            0.6049642561768727,
                            -0.2293366053353365,
                            0.22808208870634017
                        ],
                        [
                            0.7509613267696704,
                            -0.35897151911842595,
                            -0.9415797000713593,
                            -0.0622413142652356,
                            1.2686199676659622
                        ],
                        [
                            0.7805878746320642,
                            -0.3392335039991936,
                            1.978685765043695,
                            0.4801129581678541,
                            1.4590706109736762
                        ],
                        [
                            -0.7642932118231154,
                            0.3006115926867179,
                            -0.01367513261457709,
                            0.8335902618030842,
                            -1.7822398285213488
                        ],
                        [
                            -1.665846447753816,
                            -0.016156691961185077,
                            -1.1055894968853213,
                            -0.40240574625434045,
                            -0.0569355155085971
                        ],
                        [
                            0.7289929216629458,
                            0.34637456585582266,
                            -0.13444149791226578,
                            0.5193704753457042,
                            -0.3549930008945942
                        ],
                        [
                            -0.2434197210266644,
                            0.019997924609345574,
                            1.5270002203060917,
                            -0.30252642416774006,
                            -0.0483259311497819
                        ],
                        [
                            -0.3732142209943199,
                            0.26091802906910744,
                            -0.2707796386316227,
                            -0.9434142521801794,
                            0.17425533088129752
                        ],
                        [
                            -0.6746308411554298,
                            -0.3228238806954197,
                            1.118213213852353,
                            1.3443275121066716,
                            2.774384033000667
                        ],
                        [
                            0.4987492416800632,
                            -0.6350805091968217,
                            -0.8855321281058117,
                            0.4540185826932905,
                            0.24492795260692812
                        ],
                        [
                            -0.20770665119217252,
                            -0.023996969369371603,
                            0.4123962587945187,
                            -0.026990684890705108,
                            2.959117142109846
                        ],
                        [
                            0.5856485332215255,
                            1.198646305092208,
                            -0.9458911904833179,
                            -1.5291273723996808,
                            -0.11303257814189793
                        ],
                        [
                            -0.46024367190966176,
                            0.2795968263680366,
                            1.301049937920535,
                            -1.61514530335835,
                            -0.04220024082115181
                        ],
                        [
                            1.3768160087020767,
                            0.15933356594645787,
                            0.25400083417043473,
                            -0.0040132787041076146,
                            0.30804876010821325
                        ],
                        [
                            0.17579859562455802,
                            -1.4576652868644753,
                            -0.36871074096790657,
                            -0.658569354375537,
                            -0.5348456524269518
                        ],
                        [
                            0.32836058141235647,
                            0.15969047708374728,
                            -0.3813158797190399,
                            0.5777195262145125,
                            -1.3193240564215445
                        ],
                        [
                            -0.1191527949288056,
                            -0.2659889341055672,
                            0.5073926967021368,
                            0.04977850669918782,
                            -0.5491166465605964
                        ],
                        [
                            0.5982249732138469,
                            0.4143210678939069,
                            -0.6738479415076468,
                            0.11783623856248315,
                            0.9731956481801678
                        ],
                        [
                            0.1598160025294959,
                            1.3919252837080336,
                            1.11904809033964,
                            -0.6409189387223104,
                            0.6794461295299559
                        ],
                        [
                            0.7400612080023243,
                            0.015931824259832528,
                            -1.852218624113327,
                            -0.43348569921189817,
                            -0.28322191692087995
                        ],
                        [
                            0.1412698872417657,
                            0.5593570350570372,
                            0.05243436804536983,
                            -0.4513717672240033,
                            -0.18745066125393994
                        ],
                        [
                            -0.7624372961901986,
                            0.30780543677138295,
                            -0.8113970258461278,
                            -0.24653251204371807,
                            -1.2756614774851802
                        ],
                        [
                            0.10858202299547046,
                            0.828899771745855,
                            -1.3116500900699597,
                            -1.0791452442805212,
                            -0.30299992744071336
                        ],
                        [
                            -0.5310684162510594,
                            0.7197435845911413,
                            -0.8497130734579434,
                            0.8669660368590655,
                            0.506318576377471
                        ],
                        [
                            -0.8321873448182813,
                            0.5618360515203874,
                            0.1314768760018239,
                            0.5270775825443821,
                            -0.12073133725998741
                        ],
                        [
                            -1.5473523296295155,
                            0.9323079089777746,
                            -0.48237830267070536,
                            0.04573256327420931,
                            -0.7096526455085037
                        ],
                        [
                            0.3855535818032698,
                            -1.555075378307921,
                            0.4727129249884885,
                            -0.016421395468498523,
                            0.7908706986208456
                        ],
                        [
                            -1.40837508267377,
                            -1.574553777374482,
                            -0.14363458837623755,
                            -0.42860838668423296,
                            -0.8113379596798587
                        ],
                        [
                            -0.5328979291663537,
                            -0.09755080862886112,
                            -0.2295372189927638,
                            0.0903642683360597,
                            1.0751031597692142
                        ],
                        [
                            0.8032547922120088,
                            -0.8102444952778358,
                            -0.6485293274154824,
                            0.920879223740872,
                            -0.0312553591316167
                        ],
                        [
                            -0.597432313001597,
                            0.02463278166176952,
                            -0.17517954510121836,
                            0.3226032521220141,
                            0.2059677791608876
                        ],
                        [
                            1.6997008307699546,
                            0.7564711540612239,
                            1.0211306154654154,
                            0.162578191311743,
                            0.5318468162193861
                        ],
                        [
                            0.27092266875500326,
                            -0.37330757197708797,
                            0.47906653312457986,
                            1.9172864268248557,
                            -0.6670281565001743
                        ],
                        [
                            0.33187283661873446,
                            0.2220555926173442,
                            1.0774946379928312,
                            -0.07112800556951071,
                            -0.9743582908239463
                        ],
                        [
                            0.012973548663457679,
                            -0.004086394085369059,
                            0.33740430955333495,
                            -0.5213057323424451,
                            0.2452672331516581
                        ],
                        [
                            -1.5579284648683225,
                            -0.9245209910953642,
                            1.3072703772702394,
                            0.06747475875561948,
                            -0.0755840303200257
                        ],
                        [
                            -1.545614672052386,
                            1.3960536795746794,
                            -0.03356658802340015,
                            -0.6831648469501141,
                            0.38616385993716174
                        ],
                        [
                            -0.19788835903829885,
                            1.3284595557770533,
                            0.44599058038861195,
                            -0.8205673225764165,
                            0.15711315576834473
                        ],
                        [
                            -0.5741889761628616,
                            -0.3039021604066694,
                            0.2688510727765674,
                            0.07347195496394798,
                            0.29641224812013633
                        ],
                        [
                            1.0400708878008262,
                            -0.06575128821292409,
                            0.26624953826938746,
                            -0.14832058481603594,
                            0.5938537986999841
                        ],
                        [
                            -1.0537791186196406,
                            -0.2564525773586528,
                            -0.5819729689059381,
                            -0.9403463629197553,
                            1.5653478732293404
                        ],
                        [
                            -0.5805228471394626,
                            0.3990216924110555,
                            1.4223603535465648,
                            -0.4721705499436857,
                            2.13685198394758
                        ],
                        [
                            -0.13325435413459275,
                            0.04519692040945911,
                            -1.6165570615555498,
                            0.5263967650981893,
                            0.8563807908530519
                        ],
                        [
                            0.23061979868732374,
                            -1.5242258787749692,
                            -0.531839798287072,
                            1.5238058026511911,
                            -0.9943248076638632
                        ],
                        [
                            0.2889499703313658,
                            -0.5707661291489461,
                            0.6235040860742003,
                            -0.38771128734504967,
                            0.43473974024774065
                        ],
                        [
                            -0.08240556535982146,
                            -0.36922888908355134,
                            0.8927481875244578,
                            -0.185528499383957,
                            -0.828949490836097
                        ],
                        [
                            -0.8598280470465203,
                            -0.5005088284252188,
                            -0.22923764452899786,
                            -0.4308945707115205,
                            -0.49067719060947984
                        ],
                        [
                            0.01957028047887438,
                            -0.19402085257249824,
                            -0.25437101630893355,
                            -0.4977207700162244,
                            -0.30360271682284595
                        ]
                    ],
                    "rows": 49,
                    "cols": 5
                },
                {
                    "data": [
                        [
                            -0.1722247399152482,
                            -0.11394854749559968,
                            -0.05981944112942461,
                            -0.048106773258087064,
                            1.6808366079260413
                        ],
                        [
                            0.9125575170967282,
                            0.06981758269267013,
                            1.143672350823119,
                            -1.1573680995023676,
                            -1.3202096451984464
                        ],
                        [
                            -1.3908205566484528,
                            -0.8947031757397403,
                            0.2508065918230289,
                            -1.0002632515363061,
                            -0.08221815663568766
                        ],
                        [
                            -0.21766719170145588,
                            0.5551087853769918,
                            -1.5629150581947469,
                            0.06421235311074236,
                            -0.6913939592520082
                        ],
                        [
                            -1.3315421786200483,
                            0.6087364885772863,
                            -1.067742232602824,
                            0.2925802403551909,
                            -0.8553057913661589
                        ]
                    ],
                    "rows": 5,
                    "cols": 5
                },
                {
                    "data": [
                        [
                            0.12577368951532097
                        ],
                        [
                            1.3308169162843329
                        ],
                        [
                            0.49446040748046705
                        ],
                        [
                            -0.6928948412606907
                        ],
                        [
                            -0.48776000731929914
                        ]
                    ],
                    "rows": 5,
                    "cols": 1
                }
            ],
            "biases": [
                {
                    "data": [
                        [
                            -0.5016815010661926,
                            0.21683763854888438,
                            0.5103007271665969,
                            0.5225453812891924,
                            -0.24536501165934166
                        ]
                    ],
                    "rows": 1,
                    "cols": 5
                },
                {
                    "data": [
                        [
                            -1.0397523933366535,
                            0.8919110387859717,
                            -0.1872321248827018,
                            0.9718299140280349,
                            -0.5739905508230487
                        ]
                    ],
                    "rows": 1,
                    "cols": 5
                },
                {
                    "data": [
                        [
                            0.01780529548243237
                        ]
                    ],
                    "rows": 1,
                    "cols": 1
                }
            ]
        },
        {
            "type": "Genetic_Fully_Connected_Neural_Network",
            "activation_function_name": "tanh",
            "activation_function": {},
            "length": 3,
            "width": 5,
            "weights": [
                {
                    "data": [
                        [
                            -0.29817273384503407,
                            0.9619400971504237,
                            -0.6916707419732286,
                            -0.27387958680364277,
                            -1.34330110036638
                        ],
                        [
                            -0.3086265993742816,
                            1.1163669404211243,
                            0.7999584257010588,
                            -0.2293366053353365,
                            0.22808208870634017
                        ],
                        [
                            0.7509613267696704,
                            -1.312334524828218,
                            -0.9415797000713593,
                            -0.0622413142652356,
                            1.2686199676659622
                        ],
                        [
                            0.24939710111384805,
                            -1.1084216775567421,
                            1.6689852084642816,
                            0.4801129581678541,
                            1.4590706109736762
                        ],
                        [
                            -0.7642932118231154,
                            0.3006115926867179,
                            -0.01367513261457709,
                            0.8335902618030842,
                            -1.7822398285213488
                        ],
                        [
                            -1.665846447753816,
                            -0.39547560146995697,
                            -1.1055894968853213,
                            -0.40240574625434045,
                            -0.0569355155085971
                        ],
                        [
                            0.7289929216629458,
                            0.34637456585582266,
                            -0.13444149791226578,
                            0.5193704753457042,
                            -0.3549930008945942
                        ],
                        [
                            -0.2434197210266644,
                            -0.7718742280445642,
                            1.5270002203060917,
                            -0.30252642416774006,
                            -0.0483259311497819
                        ],
                        [
                            -1.0411743379609841,
                            0.26091802906910744,
                            -0.2707796386316227,
                            -0.43909393577877714,
                            0.17425533088129752
                        ],
                        [
                            0.1954522961586882,
                            -0.3228238806954197,
                            1.118213213852353,
                            1.3443275121066716,
                            2.774384033000667
                        ],
                        [
                            0.38654618806491803,
                            -0.6350805091968217,
                            -1.7521591582975673,
                            0.4540185826932905,
                            0.24492795260692812
                        ],
                        [
                            -0.20770665119217252,
                            -0.023996969369371603,
                            0.4123962587945187,
                            -0.3363381662419145,
                            1.6382065592442028
                        ],
                        [
                            1.202154014399503,
                            1.198646305092208,
                            -0.9458911904833179,
                            -1.5291273723996808,
                            0.6207379314462322
                        ],
                        [
                            -0.03402603542104632,
                            0.2795968263680366,
                            1.301049937920535,
                            -0.9873679087839372,
                            -0.04220024082115181
                        ],
                        [
                            1.3768160087020767,
                            0.15933356594645787,
                            0.25400083417043473,
                            -0.3221092484546502,
                            0.30804876010821325
                        ],
                        [
                            0.17579859562455802,
                            -1.4576652868644753,
                            -0.36871074096790657,
                            -0.31093902963630493,
                            -0.5348456524269518
                        ],
                        [
                            0.32836058141235647,
                            0.15969047708374728,
                            -0.3813158797190399,
                            0.5777195262145125,
                            -1.3193240564215445
                        ],
                        [
                            -0.1191527949288056,
                            -0.2659889341055672,
                            0.5073926967021368,
                            -0.8780449675331048,
                            -0.5491166465605964
                        ],
                        [
                            0.4739678220748834,
                            -0.22275992679357315,
                            0.23275137461362627,
                            -0.3931537080194847,
                            0.1677294509979368
                        ],
                        [
                            -0.03676816526460247,
                            1.3919252837080336,
                            1.11904809033964,
                            -0.6409189387223104,
                            0.6794461295299559
                        ],
                        [
                            0.7400612080023243,
                            -1.6384319734259396,
                            -1.852218624113327,
                            -0.43348569921189817,
                            -0.514124152516188
                        ],
                        [
                            0.1412698872417657,
                            0.5126765606202524,
                            0.05243436804536983,
                            -0.4513717672240033,
                            -0.18745066125393994
                        ],
                        [
                            -0.7624372961901986,
                            0.30780543677138295,
                            -0.8113970258461278,
                            -0.24653251204371807,
                            -1.2756614774851802
                        ],
                        [
                            0.10858202299547046,
                            0.828899771745855,
                            -0.5242467024843802,
                            -0.21749478695029945,
                            0.03163137385448511
                        ],
                        [
                            -0.5310684162510594,
                            0.6959155182451304,
                            -0.8315393125483472,
                            0.8669660368590655,
                            0.506318576377471
                        ],
                        [
                            -0.25618973181196963,
                            0.5618360515203874,
                            0.1314768760018239,
                            0.5270775825443821,
                            -0.12073133725998741
                        ],
                        [
                            -1.5473523296295155,
                            0.9323079089777746,
                            -0.48237830267070536,
                            0.04573256327420931,
                            -0.7096526455085037
                        ],
                        [
                            0.3855535818032698,
                            -1.555075378307921,
                            0.12331850499561618,
                            -0.016421395468498523,
                            0.7908706986208456
                        ],
                        [
                            -0.5024251606097616,
                            -1.574553777374482,
                            0.8347075186805522,
                            -0.42860838668423296,
                            -0.8113379596798587
                        ],
                        [
                            -0.5787612133828856,
                            -0.09755080862886112,
                            -0.2295372189927638,
                            0.8896604897631404,
                            1.0751031597692142
                        ],
                        [
                            0.8032547922120088,
                            -0.6023608108366567,
                            -0.6485293274154824,
                            0.920879223740872,
                            -0.0312553591316167
                        ],
                        [
                            -0.597432313001597,
                            0.02463278166176952,
                            -0.17517954510121836,
                            0.3226032521220141,
                            0.2059677791608876
                        ],
                        [
                            1.6997008307699546,
                            0.7564711540612239,
                            1.0211306154654154,
                            -0.01696190201445158,
                            0.5318468162193861
                        ],
                        [
                            0.27092266875500326,
                            -0.37330757197708797,
                            0.47906653312457986,
                            1.9172864268248557,
                            -0.6670281565001743
                        ],
                        [
                            0.33187283661873446,
                            0.2220555926173442,
                            1.0774946379928312,
                            -0.47250190102827516,
                            -0.955242453821969
                        ],
                        [
                            0.012973548663457679,
                            -0.004086394085369059,
                            0.33740430955333495,
                            -0.5213057323424451,
                            1.0412639837912003
                        ],
                        [
                            -1.5579284648683225,
                            -0.9245209910953642,
                            1.3307326061368494,
                            0.06747475875561948,
                            -0.0755840303200257
                        ],
                        [
                            -1.545614672052386,
                            1.3960536795746794,
                            -0.03356658802340015,
                            -0.6831648469501141,
                            0.38616385993716174
                        ],
                        [
                            -0.19788835903829885,
                            1.3284595557770533,
                            0.31400598937253754,
                            -0.8205673225764165,
                            0.15711315576834473
                        ],
                        [
                            -0.5741889761628616,
                            -0.3039021604066694,
                            0.2688510727765674,
                            -0.7675625990270905,
                            0.29641224812013633
                        ],
                        [
                            1.229212227767127,
                            -0.06575128821292409,
                            0.26624953826938746,
                            -0.09062364710446447,
                            0.5085431285509379
                        ],
                        [
                            -1.0537791186196406,
                            -0.2564525773586528,
                            -0.5819729689059381,
                            -0.158264879014929,
                            1.5653478732293404
                        ],
                        [
                            0.4154149806960763,
                            -0.5683819191056392,
                            0.4354105078838362,
                            -0.7618222692666208,
                            2.13685198394758
                        ],
                        [
                            -0.13325435413459275,
                            0.5962260349838844,
                            -1.1650751182302885,
                            0.5263967650981893,
                            0.8563807908530519
                        ],
                        [
                            -0.06117589779128174,
                            -1.5242258787749692,
                            0.3260809909775218,
                            1.5238058026511911,
                            -0.10548742938556066
                        ],
                        [
                            0.2889499703313658,
                            -0.3802745334408804,
                            0.6235040860742003,
                            -0.38771128734504967,
                            0.43473974024774065
                        ],
                        [
                            -0.22519043413554374,
                            -0.36922888908355134,
                            0.8927481875244578,
                            -0.16412417555924597,
                            -1.3338442976284786
                        ],
                        [
                            -0.22464602605263106,
                            -0.5005088284252188,
                            -0.22923764452899786,
                            -0.4308945707115205,
                            -0.49067719060947984
                        ],
                        [
                            0.01957028047887438,
                            -0.8139494649859011,
                            -0.25437101630893355,
                            -0.41586399891206416,
                            -0.30360271682284595
                        ]
                    ],
                    "rows": 49,
                    "cols": 5
                },
                {
                    "data": [
                        [
                            0.3142075212798332,
                            -0.11394854749559968,
                            -0.05981944112942461,
                            -0.048106773258087064,
                            1.6808366079260413
                        ],
                        [
                            0.9125575170967282,
                            0.06981758269267013,
                            1.143672350823119,
                            -1.1573680995023676,
                            -1.3202096451984464
                        ],
                        [
                            -0.4663682198556196,
                            -0.8947031757397403,
                            0.2508065918230289,
                            -1.0002632515363061,
                            0.8364666487413985
                        ],
                        [
                            -0.21766719170145588,
                            0.5551087853769918,
                            -1.5629150581947469,
                            0.06421235311074236,
                            -0.6913939592520082
                        ],
                        [
                            -1.3315421786200483,
                            0.6087364885772863,
                            -0.5438122701869204,
                            0.2925802403551909,
                            -0.9352319974089683
                        ]
                    ],
                    "rows": 5,
                    "cols": 5
                },
                {
                    "data": [
                        [
                            0.12577368951532097
                        ],
                        [
                            0.9952827164189446
                        ],
                        [
                            0.49446040748046705
                        ],
                        [
                            -0.6928948412606907
                        ],
                        [
                            -0.48776000731929914
                        ]
                    ],
                    "rows": 5,
                    "cols": 1
                }
            ],
            "biases": [
                {
                    "data": [
                        [
                            -0.5016815010661926,
                            0.9251435177511866,
                            0.5103007271665969,
                            0.9185754904537511,
                            -0.24536501165934166
                        ]
                    ],
                    "rows": 1,
                    "cols": 5
                },
                {
                    "data": [
                        [
                            -1.0397523933366535,
                            0.8919110387859717,
                            -0.833229760863714,
                            0.9718299140280349,
                            -0.5739905508230487
                        ]
                    ],
                    "rows": 1,
                    "cols": 5
                },
                {
                    "data": [
                        [
                            0.14044969384422945
                        ]
                    ],
                    "rows": 1,
                    "cols": 1
                }
            ]
        },
        {
            "type": "Genetic_Fully_Connected_Neural_Network",
            "activation_function_name": "tanh",
            "activation_function": {},
            "length": 3,
            "width": 5,
            "weights": [
                {
                    "data": [
                        [
                            -0.29817273384503407,
                            0.9619400971504237,
                            0.19344823585603232,
                            -0.27387958680364277,
                            -1.34330110036638
                        ],
                        [
                            -0.3086265993742816,
                            1.1163669404211243,
                            0.7999584257010588,
                            -0.2293366053353365,
                            0.22808208870634017
                        ],
                        [
                            0.7509613267696704,
                            -0.35897151911842595,
                            -0.9415797000713593,
                            -0.0622413142652356,
                            1.2686199676659622
                        ],
                        [
                            0.24939710111384805,
                            -1.1084216775567421,
                            1.978685765043695,
                            0.4801129581678541,
                            1.4590706109736762
                        ],
                        [
                            -0.7642932118231154,
                            0.3006115926867179,
                            -0.01367513261457709,
                            0.8335902618030842,
                            -1.7822398285213488
                        ],
                        [
                            -1.665846447753816,
                            -0.39547560146995697,
                            -1.1055894968853213,
                            -0.40240574625434045,
                            -0.0569355155085971
                        ],
                        [
                            0.7289929216629458,
                            0.34637456585582266,
                            -0.13444149791226578,
                            0.5193704753457042,
                            -0.3549930008945942
                        ],
                        [
                            -0.2434197210266644,
                            -0.36962690487647454,
                            1.5270002203060917,
                            -0.30252642416774006,
                            -0.0483259311497819
                        ],
                        [
                            -0.3732142209943199,
                            0.26091802906910744,
                            -0.2707796386316227,
                            -0.43909393577877714,
                            0.17425533088129752
                        ],
                        [
                            0.1954522961586882,
                            -0.3228238806954197,
                            1.118213213852353,
                            1.3443275121066716,
                            2.774384033000667
                        ],
                        [
                            0.4987492416800632,
                            -0.6350805091968217,
                            -1.7521591582975673,
                            0.4540185826932905,
                            0.5312219717800257
                        ],
                        [
                            -0.20770665119217252,
                            -0.023996969369371603,
                            0.4123962587945187,
                            -0.3363381662419145,
                            2.252617484553362
                        ],
                        [
                            0.5856485332215255,
                            1.198646305092208,
                            -0.9458911904833179,
                            -1.5291273723996808,
                            -0.13718434659792142
                        ],
                        [
                            -0.46024367190966176,
                            0.2795968263680366,
                            1.301049937920535,
                            -0.9873679087839372,
                            -0.04220024082115181
                        ],
                        [
                            1.3768160087020767,
                            0.15933356594645787,
                            0.25400083417043473,
                            -0.3221092484546502,
                            0.30804876010821325
                        ],
                        [
                            0.17579859562455802,
                            -1.4576652868644753,
                            -0.36871074096790657,
                            -0.31093902963630493,
                            -0.5348456524269518
                        ],
                        [
                            0.32836058141235647,
                            0.15969047708374728,
                            -0.3813158797190399,
                            0.5777195262145125,
                            -1.3193240564215445
                        ],
                        [
                            -0.1191527949288056,
                            -0.2659889341055672,
                            0.5073926967021368,
                            -0.8780449675331048,
                            -0.5491166465605964
                        ],
                        [
                            0.4739678220748834,
                            -0.22275992679357315,
                            0.23275137461362627,
                            0.11783623856248315,
                            0.1677294509979368
                        ],
                        [
                            -0.03676816526460247,
                            1.3919252837080336,
                            1.11904809033964,
                            -0.6409189387223104,
                            0.6794461295299559
                        ],
                        [
                            0.5825675918547215,
                            -0.743510569562869,
                            -1.852218624113327,
                            -0.43348569921189817,
                            -0.514124152516188
                        ],
                        [
                            0.1412698872417657,
                            0.5126765606202524,
                            0.05243436804536983,
                            -0.4513717672240033,
                            -0.18745066125393994
                        ],
                        [
                            -0.7624372961901986,
                            0.30780543677138295,
                            -0.8113970258461278,
                            -0.24653251204371807,
                            -1.2756614774851802
                        ],
                        [
                            0.10858202299547046,
                            0.828899771745855,
                            -1.3116500900699597,
                            -1.0791452442805212,
                            -0.30299992744071336
                        ],
                        [
                            -0.5310684162510594,
                            0.6959155182451304,
                            -0.8497130734579434,
                            0.8669660368590655,
                            0.506318576377471
                        ],
                        [
                            -0.25618973181196963,
                            0.5618360515203874,
                            0.1314768760018239,
                            0.5270775825443821,
                            -0.12073133725998741
                        ],
                        [
                            -1.5473523296295155,
