{"0":{"type":"Genetic_Combined_Network","activation_function_name":"tanh","activation_function":{},"networks":[{"type":"Genetic_Convolutional_Neural_Network","activation_function_name":"swish","activation_function":{},"length":1,"width":4,"height":4,"weights":[],"biases":[],"kernels":[{"data":[[0.004024605970652018,0.055014508235959214,-0.0455581120824759,0.01861645212775115],[0.1247337830660934,0.057857836548076025,0.09136380546782258,0.049532676585809454],[-0.07621591180097986,0.006989479576426816,0.014399862893117066,0.03627421482247645],[0.08713903867518119,-0.030790325672870156,-0.044903489379541583,0.08399966038645529]],"rows":4,"cols":4}]},{"type":"Genetic_Flatten","activation_function_name":"identity","activation_function":{}},{"type":"Genetic_Fully_Connected_Neural_Network","activation_function_name":"tanh","activation_function":{},"length":3,"width":5,"weights":[{"data":[[-0.2930876882701527,0.08249178362315279,-0.14660916669882104,-0.18606345719865436,-0.3566237174288364],[0.3851816274419068,0.09821370970383035,0.5315160253162111,0.05250477402232838,0.5029280326987468],[-0.5685395719648437,-0.2288473055639941,0.202405927716118,0.4466171244183185,-0.3070760407454831],[-0.544928230326572,-0.04637653702785272,0.510599578812181,0.324454567770551,-0.4152610955507385],[-0.5150299913202957,-0.6280268188909803,0.10105172733388444,-0.0978247665138175,-0.6317067175940984],[-0.16072552078145255,0.1506142506674593,0.00017313144153896295,0.5063142216086403,0.04342666166457561],[0.2775839508250239,-0.35641472872767027,-0.3527391394304282,-0.3486832890152759,0.36159415699475006],[0.551026695924923,-0.223677087545835,-0.6083985216709762,-0.5059488170669564,0.27309131263645564],[0.4639484239934241,0.456692188352665,-0.16076515266646646,0.5698951404003539,-0.3204840047405038],[-0.5878314780225445,-0.6050556053053104,-0.09719380333865436,-0.2157358091160355,-0.5394676081692216],[0.3631416725276493,-0.1053163152284128,0.6137412979946517,-0.5064358288527395,-0.26598592434799256],[0.14685216598522152,0.2656612858844259,0.39295288996986333,-0.49720514737560156,-0.13204565183533498],[-0.575591819037395,-0.2546974792537031,0.3870538120917892,0.32403581883176635,-0.2402723684628927],[0.3808246712248929,0.622575598611161,-0.404487352106006,0.5237319150144756,-0.41250966577577747],[0.42046665590029136,-0.3792489160765255,-0.5169801545388528,-0.0065277595765985685,0.5519738629453715],[-0.4446867439140332,0.5397003225790261,-0.10408347207902582,0.03693610409523979,0.2041834767731213]],"rows":16,"cols":5},{"data":[[-0.42541074082189156,-0.34201593368336236,0.031560558445401725,0.49480589976249945,-0.3285268265672696],[0.6136477743736274,-0.35513589399356144,-0.292061768623774,-0.17499320134423654,0.385670819277501],[0.5851868121385156,-0.09117385455678192,0.6080539842520888,-0.38821606565575506,0.6088561545005533],[-0.23397882853346755,0.2797761590544969,-0.5227923148919541,-0.3415239429819913,0.3523679496802473],[-0.09877072748245042,0.24354469722418268,0.5532365220852197,0.4806896836996937,-0.5511836305715568]],"rows":5,"cols":5},{"data":[[0.26401498603156726],[0.25517831896784865],[-0.06946909400667341],[-0.44920767582639914],[-0.1817666596517588]],"rows":5,"cols":1}],"biases":[{"data":[[0.4473659585011696,0.13212275229429926,0.0775739016631399,-0.18983700990551164,0.6108572750532998]],"rows":1,"cols":5},{"data":[[0.37586653366541084,0.42401718033075847,-0.3480202820065404,-0.4739172080014292,0.20873420787035088]],"rows":1,"cols":5},{"data":[[-1.8592759239426497]],"rows":1,"cols":1}],"process":[{"data":[[0.17834725372295335,0.7998720002694468,0.779590505639232,0.9840443063240025,null,null,null,null,null,null,null,null,null,null,null,null,-0.14584266347349442,0.0770701422311381,-0.05051184226160934,-0.08146106770692729,-0.12913831428312486,-0.09287270859685319,-0.09865182484503994,0.049201762953758145,-0.06747659162145754,0.1648269206568458,-0.19421599222953997,0.05051894618194328,-0.05486209078875074,0.23952954914886376,-0.023259361046025828,0.13316264748359571]],"rows":1,"cols":32}]}],"length":3,"score":0},"1":{"type":"Genetic_Combined_Network","activation_function_name":"tanh","activation_function":{},"networks":[{"type":"Genetic_Convolutional_Neural_Network","activation_function_name":"swish","activation_function":{},"length":1,"width":4,"height":4,"weights":[],"biases":[],"kernels":[{"data":[[0.10160942613522034,-0.0463970159052578,0.10074020542068718,0.10456536294363411],[0.07234980982925104,-0.12199574312096972,0.08532882090618699,-0.08558201834297291],[-0.039526442912004356,0.04178836441946204,0.08324480527639033,0.05452837889733009],[-0.038001560141184665,0.08724603704065531,-0.08115632312364462,0.10869527177418059]],"rows":4,"cols":4}]},{"type":"Genetic_Flatten","activation_function_name":"identity","activation_function":{}},{"type":"Genetic_Fully_Connected_Neural_Network","activation_function_name":"tanh","activation_function":{},"length":3,"width":5,"weights":[{"data":[[-0.15734607854476043,0.1325202096807412,0.49485683251549867,0.5575664863323919,-0.05050586356064173],[0.4639339327584803,-0.2868231386703547,0.15002404885597598,0.12458550252337024,0.39749766498295663],[-0.31479782718002514,0.220861053416475,0.5300493476912346,0.1576438497135436,0.439725085553687],[-0.3369378281931716,-0.03162913927768582,0.5813648352773948,0.13505705946615978,-0.11732254916256421],[-0.3309983465343764,0.4807907054177058,0.14548759201940764,0.6019402599876972,0.26029220126996844],[0.3698558560724776,0.5368225766181393,-0.18327539180627167,-0.388890715691076,-0.27599478743135153],[0.4060559789074066,0.6014836502796955,0.3133568283739154,0.6262487069149743,-0.02359726084400591],[-0.06116702108508349,-0.14455199521618842,-0.4027784385535949,0.4547344704444592,0.34177947233102274],[-0.20773990388235666,0.17357161090890785,-0.044228793632792876,-0.4359525482086268,-0.2692362730029241],[-0.4501177806000525,-0.09936914080622812,-0.46428726589712854,-0.37962035681030293,0.43905876573635017],[-0.3946955955595796,0.4582120662119724,0.011276831862470912,0.40954763408952116,-0.18017010689206175],[-0.22470887651474253,0.26794775645717533,0.42501538160105223,-0.09962080472493991,-0.6173843457149045],[0.4922482441162905,-0.28369325058339073,0.08929631113984171,-0.5909737593252801,-0.34157155765188046],[0.013372688618122233,-0.4914526521976868,0.2006486692193127,0.6046654396050115,-0.024033503910767834],[-0.03485416163008962,-0.5281585845597159,0.19781693336008976,-0.25540636811258105,0.6267192268633495],[0.6016754397463064,-0.5603467981174247,0.3665716246838348,0.18547523451649908,-0.1044264587507934]],"rows":16,"cols":5},{"data":[[0.5716415435416059,-0.5826460593953282,-0.26426571965834184,-0.042367345089174606,-0.4339210968386648],[0.36325808575555235,-0.13258550356576712,0.005910961517372355,0.5813342511494386,-0.5336634093577006],[-0.21976655601638537,0.5506093959717737,-0.5664506438384452,-0.5004029944516166,0.22313804393575049],[0.277006160384569,0.39459256352108946,0.4831556647956212,0.04815672463575959,-0.29026968891088323],[0.492994596188232,0.23212497220794848,-0.1581891157480375,0.49767869531565573,-0.36141723038106416]],"rows":5,"cols":5},{"data":[[0.0014022935977043014],[0.38115782246861196],[-0.5741712621195966],[-0.19565697043955976],[-0.04097512058996591]],"rows":5,"cols":1}],"biases":[{"data":[[0.3333119592737793,-0.4269082799165941,0.0722837027881703,0.5386232578803171,-0.05648424455810704]],"rows":1,"cols":5},{"data":[[0.5635362666639346,-0.45200925518897256,0.07839955343317263,0.20108818970593687,0.016777048162450552]],"rows":1,"cols":5},{"data":[[-1.898198570409221]],"rows":1,"cols":1}],"process":[{"data":[[-0.037147993396630774,0.26262800239402395,0.7006275682258569,0.6354905752381814,null,null,null,null,null,null,null,null,null,null,null,null,-0.09611000743005438,-0.06777299218193199,-0.10255899076107655,0.16927667689122577,0.17057356422491785,0.4041507856083761,-0.07718350935511244,0.02204519254218256,-0.1129230134725253,-0.10341757583281877,-0.10419754096070993,0.38965265631163337,-0.13109052270823682,0.44857005680845624,-0.10244561467492802,-0.11202497578126802]],"rows":1,"cols":32}]}],"length":3,"score":0},"population":[{"type":"Genetic_Combined_Network","activation_function_name":"tanh","activation_function":{},"networks":[{"type":"Genetic_Convolutional_Neural_Network","activation_function_name":"swish","activation_function":{},"length":1,"width":4,"height":4,"weights":[],"biases":[],"kernels":[{"data":[[0.004024605970652018,0.055014508235959214,-0.0455581120824759,0.01861645212775115],[0.1247337830660934,0.057857836548076025,0.09136380546782258,0.049532676585809454],[-0.07621591180097986,0.006989479576426816,0.014399862893117066,0.03627421482247645],[0.08713903867518119,-0.030790325672870156,-0.044903489379541583,0.08399966038645529]],"rows":4,"cols":4}]},{"type":"Genetic_Flatten","activation_function_name":"identity","activation_function":{}},{"type":"Genetic_Fully_Connected_Neural_Network","activation_function_name":"tanh","activation_function":{},"length":3,"width":5,"weights":[{"data":[[-0.2930876882701527,0.08249178362315279,-0.14660916669882104,-0.18606345719865436,-0.3566237174288364],[0.3851816274419068,0.09821370970383035,0.5315160253162111,0.05250477402232838,0.5029280326987468],[-0.5685395719648437,-0.2288473055639941,0.202405927716118,0.4466171244183185,-0.3070760407454831],[-0.544928230326572,-0.04637653702785272,0.510599578812181,0.324454567770551,-0.4152610955507385],[-0.5150299913202957,-0.6280268188909803,0.10105172733388444,-0.0978247665138175,-0.6317067175940984],[-0.16072552078145255,0.1506142506674593,0.00017313144153896295,0.5063142216086403,0.04342666166457561],[0.2775839508250239,-0.35641472872767027,-0.3527391394304282,-0.3486832890152759,0.36159415699475006],[0.551026695924923,-0.223677087545835,-0.6083985216709762,-0.5059488170669564,0.27309131263645564],[0.4639484239934241,0.456692188352665,-0.16076515266646646,0.5698951404003539,-0.3204840047405038],[-0.5878314780225445,-0.6050556053053104,-0.09719380333865436,-0.2157358091160355,-0.5394676081692216],[0.3631416725276493,-0.1053163152284128,0.6137412979946517,-0.5064358288527395,-0.26598592434799256],[0.14685216598522152,0.2656612858844259,0.39295288996986333,-0.49720514737560156,-0.13204565183533498],[-0.575591819037395,-0.2546974792537031,0.3870538120917892,0.32403581883176635,-0.2402723684628927],[0.3808246712248929,0.622575598611161,-0.404487352106006,0.5237319150144756,-0.41250966577577747],[0.42046665590029136,-0.3792489160765255,-0.5169801545388528,-0.0065277595765985685,0.5519738629453715],[-0.4446867439140332,0.5397003225790261,-0.10408347207902582,0.03693610409523979,0.2041834767731213]],"rows":16,"cols":5},{"data":[[-0.42541074082189156,-0.34201593368336236,0.031560558445401725,0.49480589976249945,-0.3285268265672696],[0.6136477743736274,-0.35513589399356144,-0.292061768623774,-0.17499320134423654,0.385670819277501],[0.5851868121385156,-0.09117385455678192,0.6080539842520888,-0.38821606565575506,0.6088561545005533],[-0.23397882853346755,0.2797761590544969,-0.5227923148919541,-0.3415239429819913,0.3523679496802473],[-0.09877072748245042,0.24354469722418268,0.5532365220852197,0.4806896836996937,-0.5511836305715568]],"rows":5,"cols":5},{"data":[[0.26401498603156726],[0.25517831896784865],[-0.06946909400667341],[-0.44920767582639914],[-0.1817666596517588]],"rows":5,"cols":1}],"biases":[{"data":[[0.4473659585011696,0.13212275229429926,0.0775739016631399,-0.18983700990551164,0.6108572750532998]],"rows":1,"cols":5},{"data":[[0.37586653366541084,0.42401718033075847,-0.3480202820065404,-0.4739172080014292,0.20873420787035088]],"rows":1,"cols":5},{"data":[[-1.8592759239426497]],"rows":1,"cols":1}],"process":[{"data":[[0.17834725372295335,0.7998720002694468,0.779590505639232,0.9840443063240025,null,null,null,null,null,null,null,null,null,null,null,null,-0.14584266347349442,0.0770701422311381,-0.05051184226160934,-0.08146106770692729,-0.12913831428312486,-0.09287270859685319,-0.09865182484503994,0.049201762953758145,-0.06747659162145754,0.1648269206568458,-0.19421599222953997,0.05051894618194328,-0.05486209078875074,0.23952954914886376,-0.023259361046025828,0.13316264748359571]],"rows":1,"cols":32}]}],"length":3,"score":0},{"type":"Genetic_Combined_Network","activation_function_name":"tanh","activation_function":{},"networks":[{"type":"Genetic_Convolutional_Neural_Network","activation_function_name":"swish","activation_function":{},"length":1,"width":4,"height":4,"weights":[],"biases":[],"kernels":[{"data":[[0.07967243292669751,-0.03907255265882503,0.03707072553397672,-0.09323758415909528],[0.005468815671664573,0.11221538018027677,0.047359281110290086,-0.12467857418140449],[0.12101221966453851,0.08617771085137294,0.041476176315402735,0.007241963079688829],[-0.101510101332909,-0.07767275917964617,-0.02620848113167612,-0.009813364516842449]],"rows":4,"cols":4}]},{"type":"Genetic_Flatten","activation_function_name":"identity","activation_function":{}},{"type":"Genetic_Fully_Connected_Neural_Network","activation_function_name":"tanh","activation_function":{},"length":3,"width":5,"weights":[{"data":[[-0.23103903119095895,0.11234894912208694,-0.5204821007757563,-0.4817554058190445,0.38463021306147954],[-0.40264261651870153,0.27506162437734244,0.3063008856440109,0.615700590292426,0.12964909213455397],[0.2808292678382416,-0.42418123892064447,0.42671478588812983,0.2181112741698231,0.6134347663093319],[-0.44474317740703956,0.32636367823972606,0.3123205698680028,0.08679648477714196,-0.5102350138903629],[-0.5270872996881297,-0.0002825116479405555,-0.631308265397298,0.13410567108070034,0.03337478316196906],[-0.4005767734440302,-0.1453726836431491,-0.5420736667755657,0.43705807568654215,-0.10834959966707403],[0.33914160431277235,0.03486579326760852,0.2547167913637766,-0.5187479770573052,-0.5028342019760731],[-0.3229743437379291,-0.29124194649633384,-0.5541113022361348,0.08312400407234588,0.16207726256926025],[0.5663276683374897,-0.2777472671306389,0.08267484790741886,-0.06821661221902488,-0.00951440150134166],[0.19036009230647016,-0.430230252805454,-0.006514703374902256,0.14345940849023645,0.6035605763213043],[0.05508959761961076,-0.08063553503522625,-0.19090453038686553,0.20044833154203734,-0.45247935838397774],[0.4251455363344667,0.1146678190501274,0.31450424521334963,-0.003619340209053442,-0.5329253700345892],[-0.19999176362363702,0.118729092903048,-0.07131878277535195,0.25971219848540356,-0.36946524161185773],[-0.23997779347948545,-0.3245695324342786,0.5084885444419961,0.5692646504784192,0.19531729012799004],[0.14690328054318685,0.12627801712773348,0.08256951141813808,0.5241062734009755,-0.3703241625159774],[-0.5308010904947102,-0.24726443551695704,0.1363127518403765,0.5728148266715574,0.12878629020635965]],"rows":16,"cols":5},{"data":[[0.5963632251207168,0.36058506876919216,-0.4959113600368362,-0.5377330193968908,0.3521657679429268],[0.3403042793167424,0.6271501651129701,0.04801875954490031,0.02041518476043278,-0.10669095211721565],[-0.5738599397093278,0.4059180117402126,-0.43298984434001286,0.014290811088487248,0.22350118939388935],[-0.3625881766684325,-0.6251593570326311,-0.17539561336320902,-0.07914557606869689,-0.630244179097442],[-0.03917033261782908,-0.6197778618920416,-0.5643485267073136,-0.08279690799284793,0.24547973270462511]],"rows":5,"cols":5},{"data":[[-0.3665294356863376],[-0.6039840226858849],[0.23339576113217977],[0.5301964012476866],[-0.5148544220211735]],"rows":5,"cols":1}],"biases":[{"data":[[0.5179271773487231,-0.501315046615149,-0.43762089743500077,0.6074492291446638,0.4344998445717927]],"rows":1,"cols":5},{"data":[[-0.3230180024656239,-0.07617889924346442,0.25964353148060626,-0.316230784213469,-0.03661477915022227]],"rows":1,"cols":5},{"data":[[0.4999085165901809]],"rows":1,"cols":1}]}],"length":3}],"generation":1,"number":2,"umpire":{"board":{"data":[[1,1,-1,-1,1,-1,1],[-1,1,1,1,-1,1,1],[-1,1,-1,1,-1,-1,-1],[1,1,1,1,1,1,-1],[1,1,-1,-1,1,-1,-1],[-1,1,-1,-1,-1,1,-1],[-1,-1,-1,1,1,1,-1]],"rows":7,"cols":7},"size":7},"length":2}