{"population":[{"type":"Genetic_Combined_Network","activation_function_name":"tanh","activation_function":{},"networks":[{"type":"Genetic_Convolutional_Neural_Network","activation_function_name":"swish","activation_function":{},"length":1,"width":4,"height":4,"weights":[],"biases":[],"kernels":[{"data":[[-0.05516488966745814,-0.03403080328243513,-0.03137677099081004,0.0800739176371067],[-0.00864297232775263,-0.036514401871026,0.12471967400559225,0.005519513104358054],[0.11844490507509736,-0.0010214147498732173,-0.09429104337332828,-0.005047288336399891],[0.10073797433921211,-0.08309710874351489,-0.10697707909471316,-0.056276485467879]],"rows":4,"cols":4}]},{"type":"Genetic_Flatten","activation_function_name":"identity","activation_function":{}},{"type":"Genetic_Fully_Connected_Neural_Network","activation_function_name":"tanh","activation_function":{},"length":3,"width":9,"weights":[{"data":[[0.4227682014282585,0.35454598253029135,0.14720710800844972,0.31897280804133454,-0.4013439399042383,0.2436476752643951,-0.2761388582085651,-0.37591224510440363,-0.3114799304941709],[0.429864673925629,0.3466697433721541,-0.2282482914231595,0.3115720144481302,-0.0903659963574841,-0.16964872105496911,-0.2402323123933783,-0.1525227883032369,0.38673729088022996],[0.34438205463571814,-0.24151376555031054,0.43727649103472205,0.31252440120967123,-0.05698047975239893,0.07232120682719595,-0.31818445305270737,0.3610300554773242,0.4361147107594317],[-0.13093820075924362,0.4126183608136782,0.024406753025556487,-0.04333055566657941,-0.00565615759603478,-0.18789466572175878,0.4030404077488942,-0.20797807482605773,-0.42586517115610045],[-0.3478671158980079,-0.39207985626399555,0.22838832548052548,0.3761315476353565,0.1368551990875695,-0.09807401377845702,-0.23694340084602394,-0.24028206154557713,-0.39670658418005705],[0.07489065032485617,-0.3920529537486949,-0.05130586980526575,0.19007012918523208,-0.0711808935029452,-0.24933672221172398,-0.42427722301927273,-0.2431960765514063,-0.11170507277770848],[0.4710887722801746,0.2138549235523369,-0.18963732429586008,-0.04220242523356735,0.06173531671341457,0.18004991291917283,-0.07700922748828741,0.1361477510516206,-0.2384611436508146],[0.17818149710068523,0.2731471244068538,-0.1915848282138774,0.26743864472433837,-0.2800665175785196,-0.42275098983750725,-0.19533294634407827,0.06175669141496947,-0.40949947775408224],[-0.2422577539043031,-0.3972343585610514,0.10575495248323111,-0.4078389135026374,0.2993043681077387,0.200917225858188,-0.31277880973080313,-0.3138263650475036,-0.160084707560067],[0.040960325763877634,0.17617027953032982,0.17970825836176316,0.37183217023038895,-0.001633030705014938,0.1971079060826862,0.0028750098653393995,-0.04212894935854438,-0.16354711921803367],[0.43074369461400197,-0.08471878328073996,0.2564641745118911,-0.297252786499685,-0.27179672450022196,-0.42200492138303236,-0.3774790734715915,0.10835443787964873,0.25858420717928876],[0.2382845257720644,0.3395859086170461,-0.43528646053797815,-0.12822739944404712,0.07291514689122244,0.27162767524237585,0.18368359962649422,0.26893855616570933,0.21621521644057068],[0.35913380991006516,-0.04078992376374371,0.24286771135667706,0.4486943714379622,-0.09380715451566085,0.17660082379967,0.07242136306182091,0.004278381664208069,-0.0856515586182671],[0.0718020994326389,-0.15523418447840692,0.4120623381642936,-0.4002377506349688,-0.1891801545372977,-0.4268207608576121,-0.1495195873437869,-0.3399541792220657,-0.04757771941483697],[-0.14170230873653547,0.44994703370563677,0.3548073734792359,0.33374187147381645,0.3328908562561428,-0.0396581096937287,0.2915469894054782,0.33459094778975,-0.46941383141273496],[0.4328881666220751,0.37997722475645923,-0.3438673493701608,0.15240260246949516,-0.16035652207613066,-0.19795748550157669,-0.42041907618347746,0.15794839722999068,0.39575837906070876]],"rows":16,"cols":9},{"data":[[-0.15909610872636712,-0.01085020273355225,0.08722293040199647,0.1761589091892133,0.4601847788393492,0.326632405262801,-0.28938834478152214,-0.3435065041335107,-0.1711895675494441],[0.2225260102634439,-0.13643983304945806,-0.30032947534167725,-0.1521311139328537,0.006913204057238475,0.41624869904826167,-0.4620542765023409,-0.2516113153414042,-0.28078690805054396],[-0.3689696875896182,0.3857373706685082,0.34856142556376607,0.03939389919603148,-0.08683978968231144,-0.4493848826041486,0.011210716891179334,0.10505738165772188,0.4382238143401337],[-0.0575393156917997,-0.37037317316054585,-0.36894885425445706,-0.255803808964267,-0.20328016076595307,0.11916530498343733,-0.3736713799840696,0.17657923253832916,0.035494641438658735],[-0.24435257969695673,0.04979467230006179,-0.32110058727663393,-0.31341491682572264,-0.4338581939267497,0.32879127133223485,-0.3732045229682375,0.40189202506759947,0.09509401588717663],[0.1698172790040581,0.24730016910261618,0.24460757308461145,-0.37554324394140337,0.45722127926216816,-0.14187126569823835,-0.45583900062368643,-0.2320310882473266,0.14927918354930392],[0.3064669574514174,-0.43444269624699977,-0.40390777087898416,-0.3570719186848366,-0.17958960301313934,-0.4287788767048085,0.03945761991459665,-0.02798202623078564,-0.2203624130791461],[0.11457566122368752,-0.2255358109852669,0.0913028044523345,0.31673919142238804,-0.13079076643261361,0.46777983100018067,-0.34764097322243065,0.3638067899969215,0.26271243530563726],[0.25347630348233896,-0.30804398929797455,-0.40817053904345596,-0.23789749213100161,0.05090009023429793,0.0031522692340386397,-0.34496384207430236,-0.21503615422748543,-0.2448358361941538]],"rows":9,"cols":9},{"data":[[0.4333819073502137],[0.35068224575871493],[0.14964025116689333],[0.34517118766096994],[0.2895252169707337],[-0.04346796646371151],[-0.04390062860601428],[-0.07218761351332353],[-0.431229237489452]],"rows":9,"cols":1}],"biases":[{"data":[[-0.47016630236236645,-0.33941228239931576,0.4232159291924871,-0.17380848858621312,0.059142165730268446,0.2687914737995545,0.05608484985501833,-0.13185747101279408,-0.23933206814231883]],"rows":1,"cols":9},{"data":[[0.005043273853173472,0.06787141718554052,-0.35716227938008066,-0.011594772891720562,-0.18050942516656113,-0.24703492331204205,0.219091994851274,0.4325666437012892,0.18012382892702855]],"rows":1,"cols":9},{"data":[[-1.680590717737851]],"rows":1,"cols":1}]}],"length":3},{"type":"Genetic_Combined_Network","activation_function_name":"tanh","activation_function":{},"networks":[{"type":"Genetic_Convolutional_Neural_Network","activation_function_name":"swish","activation_function":{},"length":1,"width":4,"height":4,"weights":[],"biases":[],"kernels":[{"data":[[-0.1504490620052834,-0.4475777207101935,-0.9089602459538532,-1.9172424173850202],[-0.24008272286225374,-0.6295491487084257,-0.784713050933983,-0.0017606092358867231],[-0.8367155306847032,-0.7623656816161222,-0.28923284028702156,0.6272927481101331],[-0.41617730506181516,-0.3033131256366619,0.6786318606007398,-0.3925026686993822]],"rows":4,"cols":4}]},{"type":"Genetic_Flatten","activation_function_name":"identity","activation_function":{}},{"type":"Genetic_Fully_Connected_Neural_Network","activation_function_name":"tanh","activation_function":{},"length":3,"width":9,"weights":[{"data":[[0.4227682014282585,0.577731634061871,1.5510237071780932,1.3098910242035053,1.5524178788911436,-0.2693979924125892,-0.8576447075913798,0.22087059583974145,0.922880415688879],[-0.7731690502150523,-0.3045249269675703,0.36211504117468607,1.0830776672885882,-0.0903659963574841,0.6764195227978318,0.513583125930525,1.0129128571093835,-0.541358308330796],[0.3591589644269573,0.21350207776918007,0.017154120032127906,0.31252440120967123,0.12963160747625402,0.18239417527790103,0.6813898426398288,0.49023552629284084,0.1476352725543859],[0.5112668660052202,0.4126183608136782,0.7368877234024511,1.788352815678775,-0.11187772011019681,-0.2744546446807823,1.1821225727320215,-0.20797807482605773,-1.5889384746285908],[0.048578719064493736,0.9645924607128649,-1.1608794890013812,0.3761315476353565,1.5804566880992477,-0.09807401377845702,0.09380716360887442,-1.6698276363544111,-0.19706654880073748],[0.802303478972608,-0.4325128890989449,-0.4362391336686069,0.9645897407931734,-0.06043533354502739,-0.730258531559264,-1.4148928799115512,1.2185850113089,-0.11170507277770848],[-2.02686363043634,0.0813970474774286,-0.18963732429586008,-1.7895256160908288,0.40388502113902214,0.5829264147918978,0.1580720947953289,-1.3570333938194512,-0.05986560651902395],[0.17818149710068523,0.9939426048294184,0.73156044851058,0.20740674779520263,0.8481360076728157,-1.2139481936789562,0.09006499496549392,0.604909750836754,-0.8453957410053743],[1.8654894286373098,-0.3972343585610514,0.04336605716209707,-1.1449277310360366,1.3248081542802566,0.2641973821096879,-1.3098880782452276,0.4754602214663941,-0.38485711619872387],[0.019118352839313735,0.8285606517602564,1.0504284573807805,1.2516344980172112,-0.5069524097706375,2.2419701299661194,-0.8730265092171037,-0.04212894935854438,-0.16354711921803367],[1.3271495504945294,-0.5223355802649463,0.2564641745118911,0.17491773236261898,0.8027107053926545,-0.6096932870352978,-0.26052501338001555,0.10835443787964873,0.8599282843677418],[-0.22822552504747007,0.3395859086170461,-0.9360071881237308,-0.19916836372027236,0.7318116221720006,0.3992521946739336,1.2879648336268446,3.300489165682392,-1.2392285717052793],[1.188369727028515,0.174867080319127,0.545321116995908,1.6735099108785092,-0.6269741827714819,1.0659369915777588,-1.2929960085312966,0.40458448440681893,1.7288497875778197],[0.29538394027720916,-0.15523418447840692,0.09076104718352163,-0.4002377506349688,-1.794306403264797,-3.080235656264892,0.10555348671624398,-0.7839340996520949,-0.04757771941483697],[0.7179412134253913,0.40174763135021374,1.2732134485237783,1.2809639413740523,0.19622558585387395,-0.35862696278025674,0.9941176659403661,0.48281748299754046,-2.0737938598168135],[0.4328881666220751,0.08210831629995519,0.4397322731135249,0.5715909670633823,0.2821302273857629,-1.0277318509271332,-0.4938845958657685,0.2653756139572312,-1.6794231255654815]],"rows":16,"cols":9},{"data":[[1.360916677649394,1.8070468720747317,1.2657750421952971,-0.21046226035636195,-0.04921348726053165,0.09367013716414885,-0.7893905545738193,0.2005662282712315,-0.5910077816485362],[0.2225260102634439,0.49619001302965504,-0.30032947534167725,-0.2505881356935019,-0.17111509721285378,0.8846666154106699,-0.4620542765023409,0.7377899861501183,-0.15835577756231112],[-0.3689696875896182,0.3857373706685082,2.0610222790828656,0.5021850073216894,-0.517528212443179,-0.6240614606145862,-3.201506442245718,0.7771974684017304,1.2485128048035095],[-0.8685676450759306,0.41112471082563484,-0.36894885425445706,0.3455682247921885,-1.9175226113032136,-1.6320197940066934,0.9900944932412623,-0.15910871379242952,-0.27134641674904914],[0.0015898950443000714,-0.46072652657375723,-0.32110058727663393,-0.16128939122096264,-0.5640782172699308,0.5662954792408494,-2.670700564407788,0.9328630826627562,0.36954838263237133],[-0.3091205106961269,-0.08930645978678364,0.3395277209217542,0.9348595349496853,1.050076992218095,-0.4984916325790285,-1.0859175515772015,0.6963332780726221,-0.09304504167188621],[-0.481077134800856,-0.7131778359740464,0.6962624710581902,-0.25875157922378644,0.5521244221599866,0.2779025742696777,0.9410546648033455,-0.008504219040195604,-1.3465936755357686],[-0.5601208242029998,0.7033000811365819,-0.13352210699482137,0.05291734147716132,-0.5926963454713121,0.1781574853242196,1.4037002767699787,0.3638067899969215,0.9556642030649796],[-0.006439611195377726,1.158513132843714,-2.15141806743054,-0.620946108617337,1.5710936329540983,-2.392564871010691,0.9062265460952934,-0.21503615422748543,0.37656301293524064]],"rows":9,"cols":9},{"data":[[0.9750086202270374],[1.677544803758189],[-0.11635792932548483],[-0.24656859176161872],[1.2185208957703377],[-0.9964268823723402],[-0.7111287698221541],[-2.1068585292167956],[-0.19183809544977426]],"rows":9,"cols":1}],"biases":[{"data":[[-0.1514954151583513,0.1230361413087131,1.084477658096521,0.6638807104555435,-1.0479809163605636,0.8788657615784525,-0.6400246314058782,0.9798862833044641,0.07245865400833007]],"rows":1,"cols":9},{"data":[[2.3615640835566083,0.03061620791426556,-2.4459183057370435,0.6641760746643453,-1.1136334209902337,-0.31489934948837606,-0.466543129492762,0.4325666437012892,0.5596900517772041]],"rows":1,"cols":9},{"data":[[-2.7554689158218277]],"rows":1,"cols":1}]}],"length":3},{"type":"Genetic_Combined_Network","activation_function_name":"tanh","activation_function":{},"networks":[{"type":"Genetic_Convolutional_Neural_Network","activation_function_name":"swish","activation_function":{},"length":1,"width":4,"height":4,"weights":[],"biases":[],"kernels":[{"data":[[-0.1504490620052834,-0.4475777207101935,-0.9089602459538532,-1.9172424173850202],[-0.24008272286225374,-0.6295491487084257,-0.784713050933983,-0.0017606092358867231],[-0.8367155306847032,-1.7159325019682812,-0.9640295049603359,0.6272927481101331],[-0.41617730506181516,-0.3033131256366619,0.6786318606007398,-0.3925026686993822]],"rows":4,"cols":4}]},{"type":"Genetic_Flatten","activation_function_name":"identity","activation_function":{}},{"type":"Genetic_Fully_Connected_Neural_Network","activation_function_name":"tanh","activation_function":{},"length":3,"width":9,"weights":[{"data":[[0.4227682014282585,0.577731634061871,1.5510237071780932,1.9860785720886356,1.5524178788911436,-0.2693979924125892,-0.8576447075913798,0.19940260823734968,0.922880415688879],[-0.7731690502150523,-0.3045249269675703,0.36211504117468607,1.0830776672885882,-0.0903659963574841,0.6764195227978318,0.513583125930525,1.0129128571093835,-0.541358308330796],[0.3591589644269573,0.21350207776918007,0.017154120032127906,0.31252440120967123,0.12963160747625402,0.18239417527790103,0.6813898426398288,0.49023552629284084,0.1476352725543859],[0.5112668660052202,0.4126183608136782,0.7368877234024511,1.788352815678775,-0.11187772011019681,-0.2744546446807823,1.1821225727320215,0.04834547283804125,-1.5889384746285908],[0.048578719064493736,0.9645924607128649,-1.1608794890013812,0.3761315476353565,1.5804566880992477,-0.09807401377845702,0.09380716360887442,-1.6698276363544111,-0.19706654880073748],[0.802303478972608,-0.4325128890989449,-0.4362391336686069,0.9645897407931734,-0.06043533354502739,-0.730258531559264,-1.3194932442593603,1.2185850113089,0.22463850651868578],[-2.02686363043634,0.0813970474774286,-0.18963732429586008,-1.7895256160908288,0.40388502113902214,0.5829264147918978,0.1580720947953289,-1.3570333938194512,-0.05986560651902395],[0.17818149710068523,0.9939426048294184,0.73156044851058,0.33019338330784165,0.8481360076728157,-1.2139481936789562,0.3509681023078355,0.604909750836754,-0.8453957410053743],[1.8654894286373098,-0.3972343585610514,0.04336605716209707,-1.1449277310360366,1.3248081542802566,0.2641973821096879,-1.3098880782452276,0.4754602214663941,-0.38485711619872387],[0.019118352839313735,0.7193718330484336,1.0504284573807805,1.2516344980172112,-0.5069524097706375,2.2419701299661194,-0.8730265092171037,-0.04212894935854438,-0.06527114196092632],[1.3271495504945294,-0.7067364516648462,0.2564641745118911,0.17491773236261898,0.8027107053926545,-0.6096932870352978,-0.26052501338001555,0.10835443787964873,0.8599282843677418],[0.39080952263467905,0.3395859086170461,-1.6037902943923057,-0.19916836372027236,0.7318116221720006,0.3992521946739336,1.2879648336268446,3.300489165682392,-1.2392285717052793],[1.188369727028515,0.174867080319127,0.545321116995908,1.6735099108785092,-0.6269741827714819,1.0659369915777588,-1.2929960085312966,0.40458448440681893,1.7288497875778197],[0.29538394027720916,-0.15523418447840692,0.09076104718352163,0.24026978204096827,-1.794306403264797,-3.080235656264892,0.10555348671624398,-0.7839340996520949,-0.04757771941483697],[0.7179412134253913,0.40174763135021374,1.2732134485237783,1.2809639413740523,0.19622558585387395,-0.35862696278025674,-0.398768184519227,0.3843266040087925,-1.807874452379901],[0.7395824407362097,0.08210831629995519,0.4397322731135249,0.5715909670633823,0.2821302273857629,-1.0277318509271332,-0.4938845958657685,0.2653756139572312,-1.6794231255654815]],"rows":16,"cols":9},{"data":[[1.360916677649394,1.8070468720747317,1.2657750421952971,-0.21046226035636195,-0.04921348726053165,0.09367013716414885,-0.7893905545738193,0.2005662282712315,-0.5910077816485362],[0.2225260102634439,0.49619001302965504,-0.30032947534167725,-0.2505881356935019,-0.17111509721285378,0.8846666154106699,-0.4620542765023409,0.7377899861501183,-0.15835577756231112],[-0.3689696875896182,0.3857373706685082,2.0610222790828656,0.5021850073216894,-0.517528212443179,-0.6240614606145862,-3.201506442245718,1.6433080223706211,1.2485128048035095],[-1.0274410446422162,0.41112471082563484,-0.36894885425445706,0.3455682247921885,-0.6056197946186004,-1.6320197940066934,0.9900944932412623,-0.15910871379242952,-0.27134641674904914],[0.0015898950443000714,-0.46072652657375723,-0.32110058727663393,-0.16128939122096264,-0.5640782172699308,0.5662954792408494,-2.670700564407788,0.9328630826627562,0.36954838263237133],[-0.3091205106961269,-0.08930645978678364,0.3395277209217542,1.4802255608630777,1.050076992218095,-0.4984916325790285,-1.0859175515772015,0.6963332780726221,-0.09304504167188621],[-0.481077134800856,-0.7131778359740464,0.6962624710581902,-0.25875157922378644,0.5521244221599866,0.2779025742696777,0.9410546648033455,0.1357263475273478,-1.3465936755357686],[-0.5601208242029998,0.7033000811365819,-0.13352210699482137,0.05291734147716132,-0.5926963454713121,0.1781574853242196,1.4037002767699787,0.3638067899969215,0.9556642030649796],[-0.006439611195377726,1.158513132843714,-2.15141806743054,-0.620946108617337,1.5710936329540983,-2.392564871010691,0.9062265460952934,-0.21503615422748543,0.37656301293524064]],"rows":9,"cols":9},{"data":[[0.9750086202270374],[0.8673281325923179],[-0.11635792932548483],[-0.24656859176161872],[2.0375348891295295],[-0.9964268823723402],[-0.7111287698221541],[-2.1068585292167956],[-0.19183809544977426]],"rows":9,"cols":1}],"biases":[{"data":[[-0.1514954151583513,0.1230361413087131,1.084477658096521,0.6638807104555435,-1.0479809163605636,0.8788657615784525,-0.6400246314058782,0.9798862833044641,0.07245865400833007]],"rows":1,"cols":9},{"data":[[2.3615640835566083,0.03061620791426556,-2.4459183057370435,0.6641760746643453,-1.1136334209902337,-0.31489934948837606,-0.466543129492762,0.4325666437012892,0.5596900517772041]],"rows":1,"cols":9},{"data":[[-2.190615220216669]],"rows":1,"cols":1}]}],"length":3},{"type":"Genetic_Combined_Network","activation_function_name":"tanh","activation_function":{},"networks":[{"type":"Genetic_Convolutional_Neural_Network","activation_function_name":"swish","activation_function":{},"length":1,"width":4,"height":4,"weights":[],"biases":[],"kernels":[{"data":[[-0.1504490620052834,0.033829144982512105,-0.9089602459538532,-1.9172424173850202],[-0.24008272286225374,-1.3592420741182176,-0.784713050933983,-0.0017606092358867231],[-0.8367155306847032,-0.7623656816161222,-0.9640295049603359,0.6272927481101331],[-0.41617730506181516,-0.3033131256366619,0.6786318606007398,-0.3925026686993822]],"rows":4,"cols":4}]},{"type":"Genetic_Flatten","activation_function_name":"identity","activation_function":{}},{"type":"Genetic_Fully_Connected_Neural_Network","activation_function_name":"tanh","activation_function":{},"length":3,"width":9,"weights":[{"data":[[0.4227682014282585,0.577731634061871,1.5510237071780932,1.3098910242035053,1.5524178788911436,-0.2693979924125892,-0.8576447075913798,0.19940260823734968,0.922880415688879],[-0.7731690502150523,-0.3045249269675703,0.36211504117468607,1.0830776672885882,-0.5162002933333623,0.6764195227978318,0.513583125930525,1.0129128571093835,-0.541358308330796],[0.3591589644269573,0.21350207776918007,0.017154120032127906,-0.5395497883773162,0.12963160747625402,0.18239417527790103,0.6813898426398288,0.49023552629284084,0.1476352725543859],[0.5112668660052202,0.4126183608136782,0.7368877234024511,1.788352815678775,-0.11187772011019681,-0.2744546446807823,1.1821225727320215,-0.20797807482605773,-1.5889384746285908],[0.048578719064493736,0.9645924607128649,-1.1608794890013812,0.3761315476353565,1.5804566880992477,-0.09807401377845702,0.09380716360887442,-1.6698276363544111,-0.19706654880073748],[0.802303478972608,-0.4325128890989449,-0.4362391336686069,0.9645897407931734,0.5406304116153338,-0.730258531559264,-1.3194932442593603,1.2185850113089,-0.11170507277770848],[-2.02686363043634,0.0813970474774286,-0.18963732429586008,-1.7895256160908288,0.40388502113902214,0.5829264147918978,0.1580720947953289,-1.3570333938194512,-0.05986560651902395],[0.17818149710068523,0.9939426048294184,0.73156044851058,0.20740674779520263,0.8481360076728157,-1.2139481936789562,-0.10488319053416584,0.5731247787724338,-0.08970108237308727],[1.8654894286373098,-0.3972343585610514,0.04336605716209707,-1.1449277310360366,1.3248081542802566,0.2641973821096879,-1.3098880782452276,0.4754602214663941,-0.38485711619872387],[0.019118352839313735,0.8285606517602564,1.0504284573807805,1.2516344980172112,-0.5069524097706375,2.2419701299661194,-0.8730265092171037,-0.04212894935854438,-0.16354711921803367],[1.3271495504945294,-0.5223355802649463,0.2564641745118911,0.17491773236261898,0.8027107053926545,-0.6096932870352978,-0.26052501338001555,0.10835443787964873,0.8599282843677418],[0.39080952263467905,0.3395859086170461,-1.6037902943923057,-0.19916836372027236,0.7318116221720006,-0.13871319284949823,1.2879648336268446,3.300489165682392,-1.2392285717052793],[1.188369727028515,0.174867080319127,0.545321116995908,1.6735099108785092,-0.6269741827714819,0.9087648945302131,-1.5096455467052592,0.40458448440681893,1.7288497875778197],[0.29538394027720916,-0.15523418447840692,0.09076104718352163,-0.4002377506349688,-1.794306403264797,-3.080235656264892,0.10555348671624398,-0.7839340996520949,-0.04757771941483697],[0.7179412134253913,0.40174763135021374,1.2732134485237783,1.2809639413740523,0.19622558585387395,0.5696760725204648,-0.398768184519227,0.48281748299754046,-2.0737938598168135],[0.4328881666220751,0.08210831629995519,0.4397322731135249,0.5715909670633823,0.2821302273857629,-1.0277318509271332,-0.4938845958657685,0.2653756139572312,-1.6794231255654815]],"rows":16,"cols":9},{"data":[[1.360916677649394,1.8070468720747317,1.2657750421952971,-0.21046226035636195,-0.04921348726053165,0.09367013716414885,-0.7893905545738193,0.2005662282712315,-0.5910077816485362],[0.2225260102634439,0.49619001302965504,-0.30032947534167725,-0.2505881356935019,-0.17111509721285378,0.8846666154106699,-0.4620542765023409,0.7377899861501183,-0.15835577756231112],[-0.3689696875896182,0.3857373706685082,2.0610222790828656,0.5021850073216894,-0.517528212443179,-0.6240614606145862,-3.201506442245718,0.7771974684017304,0.7188574231658791],[-0.8685676450759306,0.41112471082563484,-0.36894885425445706,0.3455682247921885,-1.3493666423509392,-1.6320197940066934,0.9900944932412623,-0.15910871379242952,-0.27134641674904914],[0.0015898950443000714,-0.46072652657375723,-0.32110058727663393,-0.16128939122096264,-0.5640782172699308,0.5662954792408494,-2.670700564407788,0.08421863682405584,0.36954838263237133],[-0.3091205106961269,-0.08930645978678364,0.3395277209217542,0.9348595349496853,1.050076992218095,-0.4984916325790285,-1.0859175515772015,-0.13582156437199955,-0.09304504167188621],[0.19892943110495076,-0.7131778359740464,0.6962624710581902,-0.25875157922378644,0.5521244221599866,0.2779025742696777,0.9410546648033455,0.1357263475273478,-1.3465936755357686],[-0.5601208242029998,0.7033000811365819,-0.13352210699482137,0.05291734147716132,-0.5926963454713121,0.1781574853242196,1.4037002767699787,0.3638067899969215,0.1349377524057953],[-0.006439611195377726,1.158513132843714,-2.15141806743054,-0.4165684073048862,1.5710936329540983,-2.392564871010691,0.9062265460952934,-0.21503615422748543,0.37656301293524064]],"rows":9,"cols":9},{"data":[[0.9750086202270374],[0.8673281325923179],[-0.11635792932548483],[-0.24656859176161872],[2.0375348891295295],[-0.9964268823723402],[-0.7111287698221541],[-2.1068585292167956],[-0.992960208127261]],"rows":9,"cols":1}],"biases":[{"data":[[-0.1514954151583513,0.1230361413087131,1.084477658096521,0.6638807104555435,-1.0479809163605636,0.8788657615784525,-0.6400246314058782,0.9798862833044641,0.07245865400833007]],"rows":1,"cols":9},{"data":[[2.3615640835566083,0.03061620791426556,-2.4459183057370435,0.9693359230840244,-1.1136334209902337,-0.31489934948837606,-0.466543129492762,0.4325666437012892,0.41712230879727397]],"rows":1,"cols":9},{"data":[[-2.190615220216669]],"rows":1,"cols":1}]}],"length":3},{"type":"Genetic_Combined_Network","activation_function_name":"tanh","activation_function":{},"networks":[{"type":"Genetic_Convolutional_Neural_Network","activation_function_name":"swish","activation_function":{},"length":1,"width":4,"height":4,"weights":[],"biases":[],"kernels":[{"data":[[-0.1504490620052834,-0.4475777207101935,-0.9089602459538532,-1.9172424173850202],[-0.24008272286225374,-0.6295491487084257,-0.784713050933983,-0.0017606092358867231],[-0.8367155306847032,-0.7623656816161222,-0.9640295049603359,0.6272927481101331],[-0.41617730506181516,-0.3033131256366619,0.6786318606007398,-0.3925026686993822]],"rows":4,"cols":4}]},{"type":"Genetic_Flatten","activation_function_name":"identity","activation_function":{}},{"type":"Genetic_Fully_Connected_Neural_Network","activation_function_name":"tanh","activation_function":{},"length":3,"width":9,"weights":[{"data":[[0.4227682014282585,0.577731634061871,0.5560881637874218,1.3098910242035053,1.5524178788911436,-0.2693979924125892,-0.8334269594153949,0.19940260823734968,0.922880415688879],[-0.7731690502150523,-0.3045249269675703,0.36211504117468607,1.0830776672885882,-0.0903659963574841,0.6764195227978318,0.513583125930525,1.0129128571093835,-0.541358308330796],[0.3591589644269573,0.21350207776918007,0.017154120032127906,1.0812363482857932,0.12963160747625402,0.3272731280628216,0.6813898426398288,0.49023552629284084,0.1476352725543859],[0.5112668660052202,0.46581428475109776,0.7368877234024511,1.788352815678775,-0.11187772011019681,-0.2744546446807823,1.1821225727320215,-0.20797807482605773,-1.5889384746285908],[0.048578719064493736,0.9645924607128649,-1.1608794890013812,0.3761315476353565,1.5804566880992477,-0.09807401377845702,0.09380716360887442,-1.6698276363544111,-0.19706654880073748],[0.802303478972608,-0.4325128890989449,-0.4362391336686069,0.9645897407931734,-0.06043533354502739,-0.730258531559264,-1.1052720743046032,1.2185850113089,-0.11170507277770848],[-2.02686363043634,0.0813970474774286,-0.18963732429586008,-1.7895256160908288,0.40388502113902214,0.5829264147918978,0.1580720947953289,-1.3570333938194512,-0.05986560651902395],[0.17818149710068523,0.9939426048294184,0.73156044851058,0.20740674779520263,0.8481360076728157,-1.2139481936789562,0.09006499496549392,0.604909750836754,-0.8453957410053743],[1.8654894286373098,-0.3972343585610514,0.04336605716209707,-1.1449277310360366,1.3248081542802566,0.2641973821096879,-1.3098880782452276,0.4754602214663941,-0.38485711619872387],[0.019118352839313735,0.8285606517602564,1.0504284573807805,1.2516344980172112,-0.5069524097706375,2.2419701299661194,-0.8730265092171037,-0.04212894935854438,-0.16354711921803367],[1.3271495504945294,-0.5223355802649463,0.9329031930379132,0.7597387474043666,0.8027107053926545,-0.6096932870352978,-0.26052501338001555,0.10835443787964873,0.8599282843677418],[0.39080952263467905,0.3395859086170461,-1.6037902943923057,-0.19916836372027236,0.7318116221720006,0.3992521946739336,1.2879648336268446,3.300489165682392,-1.2392285717052793],[1.188369727028515,0.174867080319127,0.9554270075427547,1.6735099108785092,0.05437360602016805,1.0659369915777588,-1.2929960085312966,0.40458448440681893,1.7288497875778197],[0.29538394027720916,-0.15523418447840692,0.09076104718352163,-0.4002377506349688,-1.794306403264797,-3.080235656264892,0.10555348671624398,-0.7839340996520949,-0.04757771941483697],[0.7179412134253913,0.40174763135021374,1.2732134485237783,1.2809639413740523,0.19622558585387395,0.5696760725204648,-0.398768184519227,0.48281748299754046,-2.0737938598168135],[0.4328881666220751,0.08210831629995519,0.4397322731135249,0.5715909670633823,0.2821302273857629,-1.0277318509271332,-0.4938845958657685,0.8431918607125539,-1.6794231255654815]],"rows":16,"cols":9},{"data":[[1.360916677649394,1.61520266942486,1.2657750421952971,-0.21046226035636195,-0.04921348726053165,0.09367013716414885,-0.7893905545738193,0.2005662282712315,-0.5910077816485362],[0.16161128896546173,0.9937784658715172,-0.30032947534167725,-0.2505881356935019,-0.17111509721285378,0.8846666154106699,-0.4620542765023409,0.7377899861501183,-0.15835577756231112],[-0.3689696875896182,0.3857373706685082,2.0610222790828656,0.5021850073216894,-0.517528212443179,-0.6240614606145862,-3.201506442245718,1.6433080223706211,0.7188574231658791],[-0.8685676450759306,0.41112471082563484,-0.36894885425445706,0.3455682247921885,-1.3493666423509392,-1.6320197940066934,0.9900944932412623,-0.15910871379242952,-0.27134641674904914],[0.0015898950443000714,-0.46072652657375723,-0.32110058727663393,-0.16128939122096264,-0.5640782172699308,0.5662954792408494,-2.670700564407788,0.9328630826627562,0.36954838263237133],[-0.3091205106961269,-0.08930645978678364,0.3395277209217542,0.9348595349496853,1.050076992218095,-0.4984916325790285,-1.0859175515772015,0.6963332780726221,-0.09304504167188621],[-0.481077134800856,-0.7131778359740464,0.6962624710581902,-0.25875157922378644,0.5521244221599866,0.2779025742696777,0.9410546648033455,0.1357263475273478,-1.3465936755357686],[-0.5601208242029998,0.7033000811365819,-0.13352210699482137,0.05291734147716132,-0.5926963454713121,0.1781574853242196,1.4037002767699787,0.3638067899969215,0.9556642030649796],[-0.006439611195377726,1.158513132843714,-2.15141806743054,-0.620946108617337,1.5710936329540983,-2.392564871010691,0.9062265460952934,-0.21503615422748543,0.37656301293524064]],"rows":9,"cols":9},{"data":[[0.9750086202270374],[0.8673281325923179],[-0.11635792932548483],[-0.24656859176161872],[2.0375348891295295],[-1.9426603637452784],[-0.7111287698221541],[-2.1068585292167956],[-0.19183809544977426]],"rows":9,"cols":1}],"biases":[{"data":[[-0.1514954151583513,0.1230361413087131,1.084477658096521,0.6638807104555435,-1.0479809163605636,0.8788657615784525,-0.6400246314058782,0.9798862833044641,0.07245865400833007]],"rows":1,"cols":9},{"data":[[2.3615640835566083,0.03061620791426556,-2.4459183057370435,0.6641760746643453,-1.1136334209902337,-0.31489934948837606,-0.466543129492762,0.4325666437012892,-0.20193220205222984]],"rows":1,"cols":9},{"data":[[-2.7554689158218277]],"rows":1,"cols":1}]}],"length":3},{"type":"Genetic_Combined_Network","activation_function_name":"tanh","activation_function":{},"networks":[{"type":"Genetic_Convolutional_Neural_Network","activation_function_name":"swish","activation_function":{},"length":1,"width":4,"height":4,"weights":[],"biases":[],"kernels":[{"data":[[-0.1504490620052834,-0.4475777207101935,-0.9089602459538532,-1.9172424173850202],[-0.24008272286225374,-1.3592420741182176,-0.784713050933983,-0.0017606092358867231],[-0.8367155306847032,-0.7623656816161222,-0.9640295049603359,0.6272927481101331],[-0.41617730506181516,-0.3033131256366619,0.6786318606007398,-0.3925026686993822]],"rows":4,"cols":4}]},{"type":"Genetic_Flatten","activation_function_name":"identity","activation_function":{}},{"type":"Genetic_Fully_Connected_Neural_Network","activation_function_name":"tanh","activation_function":{},"length":3,"width":9,"weights":[{"data":[[0.4227682014282585,0.577731634061871,1.5510237071780932,1.3098910242035053,1.5524178788911436,-0.2693979924125892,-0.8576447075913798,0.19940260823734968,0.922880415688879],[-0.7731690502150523,-0.3045249269675703,0.36211504117468607,1.0830776672885882,-0.0903659963574841,0.6764195227978318,0.513583125930525,1.0129128571093835,-0.541358308330796],[0.3591589644269573,0.21350207776918007,0.017154120032127906,0.31252440120967123,0.12963160747625402,0.18239417527790103,0.6813898426398288,0.49023552629284084,0.1476352725543859],[0.5112668660052202,0.4126183608136782,0.7368877234024511,1.788352815678775,-0.11187772011019681,-0.2744546446807823,1.1821225727320215,-0.20797807482605773,-1.5889384746285908],[0.048578719064493736,0.9645924607128649,-1.1608794890013812,0.3761315476353565,1.5804566880992477,-0.09807401377845702,0.09380716360887442,-1.6698276363544111,-0.19706654880073748],[0.802303478972608,-0.4325128890989449,-0.4362391336686069,0.9645897407931734,-0.06043533354502739,-0.730258531559264,-1.3194932442593603,1.2185850113089,-0.49725708750212005],[-2.02686363043634,0.0813970474774286,-0.18963732429586008,-1.7895256160908288,0.40388502113902214,0.5829264147918978,0.1580720947953289,-1.3570333938194512,-0.05986560651902395],[0.17818149710068523,0.9939426048294184,0.73156044851058,0.20740674779520263,0.8481360076728157,-1.2139481936789562,0.3509681023078355,0.604909750836754,-0.8453957410053743],[1.8654894286373098,-0.3972343585610514,0.04336605716209707,-1.1449277310360366,1.3248081542802566,0.2641973821096879,-1.3098880782452276,0.4754602214663941,-0.38485711619872387],[0.019118352839313735,0.8285606517602564,1.0504284573807805,1.2516344980172112,-0.5069524097706375,2.2419701299661194,-0.8730265092171037,-0.04212894935854438,-0.16354711921803367],[1.3271495504945294,-0.5223355802649463,0.2564641745118911,0.17491773236261898,0.8027107053926545,-0.6096932870352978,-0.26052501338001555,0.10835443787964873,0.8599282843677418],[0.39080952263467905,0.3395859086170461,-1.6037902943923057,-0.19916836372027236,0.7318116221720006,0.3992521946739336,1.2879648336268446,3.300489165682392,-1.2392285717052793],[1.188369727028515,0.174867080319127,0.545321116995908,1.6735099108785092,-0.6269741827714819,1.0659369915777588,-1.2929960085312966,0.40458448440681893,1.7288497875778197],[0.29538394027720916,-0.15523418447840692,0.09076104718352163,-0.4002377506349688,-1.794306403264797,-3.080235656264892,0.10555348671624398,-0.7839340996520949,-0.04757771941483697],[0.7179412134253913,0.40174763135021374,1.2732134485237783,1.2809639413740523,0.19622558585387395,0.5696760725204648,-0.398768184519227,0.48281748299754046,-2.0737938598168135],[0.4328881666220751,0.08210831629995519,0.4397322731135249,0.5715909670633823,0.2821302273857629,-1.0277318509271332,-0.4938845958657685,0.2653756139572312,-1.6794231255654815]],"rows":16,"cols":9},{"data":[[1.360916677649394,1.8070468720747317,1.2657750421952971,-0.21046226035636195,-0.04921348726053165,0.09367013716414885,-0.7893905545738193,0.2005662282712315,-0.858635390384048],[0.2225260102634439,1.3385854080799593,-0.30032947534167725,-0.2505881356935019,-0.17111509721285378,0.8846666154106699,-0.4620542765023409,-0.0165671871761357,-0.15835577756231112],[-0.3689696875896182,0.3857373706685082,2.0610222790828656,0.5021850073216894,0.16763734270012431,-0.6240614606145862,-3.201506442245718,0.7771974684017304,0.7188574231658791],[-0.8685676450759306,0.41112471082563484,-0.36894885425445706,0.3455682247921885,-1.3493666423509392,-1.6320197940066934,0.9900944932412623,-0.15910871379242952,-0.27134641674904914],[0.0015898950443000714,-0.46072652657375723,-0.32110058727663393,-0.16128939122096264,-1.4011431030223247,0.5662954792408494,-2.670700564407788,0.9328630826627562,0.36954838263237133],[-0.3091205106961269,-0.08930645978678364,0.3395277209217542,0.9348595349496853,1.050076992218095,-0.4984916325790285,-1.0859175515772015,0.6963332780726221,-0.09304504167188621],[0.38360611387635823,-0.7131778359740464,0.6962624710581902,-0.25875157922378644,0.5521244221599866,0.2779025742696777,0.9410546648033455,0.1357263475273478,-1.3465936755357686],[-0.5601208242029998,0.7033000811365819,-0.13352210699482137,0.05291734147716132,-0.5926963454713121,0.1781574853242196,1.4037002767699787,0.3638067899969215,0.9556642030649796],[-0.006439611195377726,1.158513132843714,-2.15141806743054,-0.620946108617337,1.5710936329540983,-2.392564871010691,0.9062265460952934,-0.21503615422748543,0.37656301293524064]],"rows":9,"cols":9},{"data":[[0.9750086202270374],[0.8673281325923179],[-0.11635792932548483],[-0.24656859176161872],[2.0375348891295295],[-0.9964268823723402],[-0.7111287698221541],[-2.1068585292167956],[-0.19183809544977426]],"rows":9,"cols":1}],"biases":[{"data":[[-0.1514954151583513,0.1230361413087131,1.084477658096521,0.6638807104555435,-1.0479809163605636,0.8788657615784525,-0.6400246314058782,0.9798862833044641,0.07245865400833007]],"rows":1,"cols":9},{"data":[[2.3615640835566083,0.03061620791426556,-1.875804271316448,0.6641760746643453,-1.1136334209902337,-0.31489934948837606,-0.466543129492762,0.5640104878474541,0.41712230879727397]],"rows":1,"cols":9},{"data":[[-2.190615220216669]],"rows":1,"cols":1}]}],"length":3},{"type":"Genetic_Combined_Network","activation_function_name":"tanh","activation_function":{},"networks":[{"type":"Genetic_Convolutional_Neural_Network","activation_function_name":"swish","activation_function":{},"length":1,"width":4,"height":4,"weights":[],"biases":[],"kernels":[{"data":[[-0.1504490620052834,-0.4475777207101935,-0.9089602459538532,-1.9172424173850202],[-0.24008272286225374,-0.6295491487084257,-0.784713050933983,-0.0017606092358867231],[-0.8367155306847032,-0.7623656816161222,-0.9640295049603359,0.6272927481101331],[-0.41617730506181516,-0.3033131256366619,0.6786318606007398,-0.3925026686993822]],"rows":4,"cols":4}]},{"type":"Genetic_Flatten","activation_function_name":"identity","activation_function":{}},{"type":"Genetic_Fully_Connected_Neural_Network","activation_function_name":"tanh","activation_function":{},"length":3,"width":9,"weights":[{"data":[[0.4227682014282585,0.577731634061871,1.5510237071780932,1.3098910242035053,1.6027708399377865,-0.2693979924125892,-0.8576447075913798,0.19940260823734968,0.922880415688879],[-0.7731690502150523,-0.3045249269675703,0.36211504117468607,1.0830776672885882,-0.0903659963574841,0.6764195227978318,0.513583125930525,1.0129128571093835,-0.541358308330796],[0.3591589644269573,0.21350207776918007,0.017154120032127906,0.31252440120967123,0.12963160747625402,0.18239417527790103,0.6813898426398288,0.49023552629284084,0.1476352725543859],[1.2687835118978432,0.4126183608136782,0.7368877234024511,1.788352815678775,-0.11187772011019681,-0.2744546446807823,1.1821225727320215,-0.20797807482605773,-1.5889384746285908],[0.048578719064493736,0.9645924607128649,-1.1608794890013812,0.3761315476353565,1.5804566880992477,-0.09807401377845702,0.09380716360887442,-1.6698276363544111,-0.19706654880073748],[0.802303478972608,-0.4325128890989449,-0.4362391336686069,0.9645897407931734,-0.06043533354502739,-0.730258531559264,-1.3194932442593603,1.2185850113089,-0.11170507277770848],[-2.02686363043634,0.0813970474774286,-0.18963732429586008,-1.7895256160908288,0.40388502113902214,0.5829264147918978,0.1580720947953289,-1.3570333938194512,-0.05986560651902395],[0.17818149710068523,0.9939426048294184,0.73156044851058,0.33019338330784165,0.8481360076728157,-1.2139481936789562,0.3509681023078355,0.604909750836754,-0.8453957410053743],[1.8654894286373098,-0.3972343585610514,0.04336605716209707,-1.1449277310360366,1.3248081542802566,0.2641973821096879,-1.3098880782452276,0.4754602214663941,-0.38485711619872387],[0.019118352839313735,0.8285606517602564,1.0504284573807805,1.2516344980172112,-0.5069524097706375,2.2419701299661194,-0.8730265092171037,-0.04212894935854438,-0.16354711921803367],[1.3271495504945294,-0.5223355802649463,0.2564641745118911,0.17491773236261898,0.8027107053926545,-0.6096932870352978,-0.26052501338001555,0.10835443787964873,0.8599282843677418],[0.39080952263467905,0.3395859086170461,-1.6037902943923057,-0.19916836372027236,0.7318116221720006,0.3992521946739336,1.2879648336268446,3.300489165682392,-1.2392285717052793],[1.188369727028515,0.174867080319127,0.545321116995908,1.6735099108785092,-0.6269741827714819,1.0659369915777588,-1.2929960085312966,0.40458448440681893,1.7288497875778197],[0.29538394027720916,-0.15523418447840692,0.09076104718352163,-0.4002377506349688,-1.794306403264797,-3.080235656264892,0.10555348671624398,-0.7839340996520949,-0.04757771941483697],[0.7179412134253913,0.40174763135021374,1.2732134485237783,2.128994267607612,0.19622558585387395,-1.1918904273605968,-0.398768184519227,0.48281748299754046,-2.0737938598168135],[0.4328881666220751,0.08210831629995519,0.4397322731135249,0.5715909670633823,0.2821302273857629,-1.0277318509271332,-0.4938845958657685,0.2653756139572312,-1.6794231255654815]],"rows":16,"cols":9},{"data":[[1.360916677649394,1.8070468720747317,1.2657750421952971,-0.21046226035636195,-0.04921348726053165,0.09367013716414885,-0.7893905545738193,0.2005662282712315,-0.5910077816485362],[0.2225260102634439,0.49619001302965504,-0.30032947534167725,-0.2505881356935019,-0.17111509721285378,0.8846666154106699,-0.4620542765023409,0.7377899861501183,-0.15835577756231112],[-0.3689696875896182,0.3857373706685082,1.2921450933757548,0.5021850073216894,-0.517528212443179,-0.6240614606145862,-3.201506442245718,0.7771974684017304,1.2485128048035095],[-0.8685676450759306,0.41112471082563484,-0.36894885425445706,0.3455682247921885,-1.3493666423509392,-1.6320197940066934,0.9900944932412623,-0.15910871379242952,-0.27134641674904914],[0.0015898950443000714,-0.46072652657375723,-0.32110058727663393,-0.16128939122096264,-0.5640782172699308,0.5662954792408494,-2.670700564407788,0.9328630826627562,0.09836315753552172],[-0.3091205106961269,-0.08930645978678364,0.3395277209217542,0.9348595349496853,1.050076992218095,-0.4984916325790285,-1.0859175515772015,0.5743572214475863,-0.09304504167188621],[-0.5027516033627137,-0.7131778359740464,0.6962624710581902,-0.25875157922378644,0.5521244221599866,0.06352501174432357,0.9410546648033455,-0.008504219040195604,-1.3465936755357686],[-0.5601208242029998,0.7033000811365819,-0.13352210699482137,0.05291734147716132,-0.5926963454713121,0.1781574853242196,1.4037002767699787,-0.5111633589111451,0.9556642030649796],[-0.006439611195377726,1.158513132843714,-2.15141806743054,-0.620946108617337,1.5710936329540983,-2.392564871010691,0.9062265460952934,-0.21503615422748543,0.37656301293524064]],"rows":9,"cols":9},{"data":[[0.9750086202270374],[0.8673281325923179],[-0.11635792932548483],[-0.24656859176161872],[1.2185208957703377],[-0.9964268823723402],[-0.7111287698221541],[-2.1068585292167956],[-0.19183809544977426]],"rows":9,"cols":1}],"biases":[{"data":[[-0.1514954151583513,0.1230361413087131,1.084477658096521,0.6638807104555435,-1.0479809163605636,0.8788657615784525,-0.6400246314058782,0.9798862833044641,0.07245865400833007]],"rows":1,"cols":9},{"data":[[2.3615640835566083,-0.6760465188321416,-2.4303936107153232,0.6641760746643453,-1.1136334209902337,-0.31489934948837606,-0.466543129492762,0.4325666437012892,0.41712230879727397]],"rows":1,"cols":9},{"data":[[-2.190615220216669]],"rows":1,"cols":1}]}],"length":3},{"type":"Genetic_Combined_Network","activation_function_name":"tanh","activation_function":{},"networks":[{"type":"Genetic_Convolutional_Neural_Network","activation_function_name":"swish","activation_function":{},"length":1,"width":4,"height":4,"weights":[],"biases":[],"kernels":[{"data":[[-0.1504490620052834,-0.4475777207101935,-0.9089602459538532,-1.9172424173850202],[-0.24008272286225374,-1.3592420741182176,-0.784713050933983,-0.0017606092358867231],[-0.8367155306847032,-0.7623656816161222,-0.9640295049603359,0.6272927481101331],[-0.41617730506181516,-0.3033131256366619,0.6786318606007398,-0.3925026686993822]],"rows":4,"cols":4}]},{"type":"Genetic_Flatten","activation_function_name":"identity","activation_function":{}},{"type":"Genetic_Fully_Connected_Neural_Network","activation_function_name":"tanh","activation_function":{},"length":3,"width":9,"weights":[{"data":[[0.4227682014282585,0.577731634061871,1.5510237071780932,1.3098910242035053,1.5524178788911436,-0.2693979924125892,-0.8576447075913798,0.19940260823734968,0.922880415688879],[-0.7731690502150523,-0.3045249269675703,0.36211504117468607,1.0830776672885882,-0.0903659963574841,0.6764195227978318,0.513583125930525,1.0129128571093835,-0.541358308330796],[0.3591589644269573,0.21350207776918007,0.017154120032127906,0.31252440120967123,0.12963160747625402,0.18239417527790103,0.6813898426398288,0.49023552629284084,0.1476352725543859],[0.5112668660052202,0.4126183608136782,0.7368877234024511,1.788352815678775,-0.11187772011019681,-0.2744546446807823,1.1821225727320215,-0.20797807482605773,-1.5889384746285908],[0.048578719064493736,1.605482432427796,-1.1608794890013812,0.3761315476353565,1.5804566880992477,-0.09807401377845702,0.09380716360887442,-1.6698276363544111,-0.19706654880073748],[0.802303478972608,-0.4325128890989449,-1.1748062052430255,0.9645897407931734,-0.06043533354502739,-0.3320827377617712,-1.3194932442593603,1.2185850113089,-0.11170507277770848],[-2.02686363043634,0.0813970474774286,-0.18963732429586008,-1.7895256160908288,0.40388502113902214,0.5829264147918978,-0.1559783203126195,-1.3570333938194512,-0.05986560651902395],[0.17818149710068523,0.9939426048294184,0.73156044851058,0.20740674779520263,0.8481360076728157,-1.2139481936789562,0.3509681023078355,2.348280649658047,-0.8453957410053743],[1.8654894286373098,-0.3972343585610514,0.04336605716209707,-1.1449277310360366,1.3248081542802566,0.2641973821096879,-1.3098880782452276,0.4754602214663941,-0.38485711619872387],[0.019118352839313735,0.8285606517602564,1.0504284573807805,1.2516344980172112,-0.5069524097706375,2.2419701299661194,-0.8730265092171037,-0.04212894935854438,-0.16354711921803367],[1.3271495504945294,-0.5223355802649463,0.2564641745118911,0.17491773236261898,0.8027107053926545,-0.6096932870352978,-0.26052501338001555,0.10835443787964873,0.8599282843677418],[0.39080952263467905,0.3395859086170461,-1.6037902943923057,-0.19916836372027236,0.7318116221720006,0.3992521946739336,1.2879648336268446,3.300489165682392,-1.2392285717052793],[1.188369727028515,0.174867080319127,0.545321116995908,1.6735099108785092,-0.6269741827714819,1.0659369915777588,-1.2929960085312966,0.40458448440681893,1.7288497875778197],[0.29538394027720916,-0.15523418447840692,0.09076104718352163,-0.4002377506349688,-1.794306403264797,-3.080235656264892,0.10555348671624398,-0.7839340996520949,-0.04757771941483697],[0.7179412134253913,0.40174763135021374,1.2732134485237783,1.2809639413740523,0.19622558585387395,0.5696760725204648,-0.398768184519227,0.48281748299754046,-2.0737938598168135],[0.4328881666220751,0.08210831629995519,0.4397322731135249,0.5715909670633823,1.0719885540623473,-1.0277318509271332,-0.4938845958657685,0.2653756139572312,-1.6794231255654815]],"rows":16,"cols":9},{"data":[[1.360916677649394,1.8070468720747317,1.2657750421952971,-0.21046226035636195,-0.04921348726053165,0.2527908050137304,-0.7893905545738193,0.2005662282712315,-0.9696094585933606],[0.2225260102634439,0.49619001302965504,-0.30032947534167725,-0.2505881356935019,-0.17111509721285378,0.8846666154106699,-0.4620542765023409,0.7377899861501183,-0.15835577756231112],[-0.3689696875896182,0.3857373706685082,2.0610222790828656,0.5021850073216894,-0.517528212443179,-0.6240614606145862,-3.201506442245718,0.7771974684017304,0.7188574231658791],[-0.8685676450759306,0.41112471082563484,-0.36894885425445706,0.3455682247921885,-1.3493666423509392,-1.6320197940066934,0.9900944932412623,-0.15910871379242952,-0.27134641674904914],[0.0015898950443000714,-0.46072652657375723,-0.32110058727663393,-0.05627264402495846,-0.5640782172699308,0.5662954792408494,-2.670700564407788,0.9328630826627562,0.36954838263237133],[-0.3091205106961269,-0.08930645978678364,0.3395277209217542,0.9348595349496853,1.050076992218095,-0.4984916325790285,-1.0859175515772015,0.6963332780726221,-0.09304504167188621],[-0.481077134800856,-0.7131778359740464,0.6962624710581902,-0.25875157922378644,0.5521244221599866,0.2779025742696777,0.9410546648033455,0.1357263475273478,-1.3465936755357686],[-1.309537644733979,0.7033000811365819,-0.13352210699482137,-0.4013047038365649,-0.5926963454713121,0.1781574853242196,1.4037002767699787,0.3638067899969215,0.9556642030649796],[-0.006439611195377726,1.158513132843714,-2.15141806743054,-0.620946108617337,1.5710936329540983,-2.392564871010691,0.9062265460952934,-0.21503615422748543,0.37656301293524064]],"rows":9,"cols":9},{"data":[[0.9750086202270374],[0.8673281325923179],[-0.11635792932548483],[-0.24656859176161872],[2.0375348891295295],[-0.9964268823723402],[-0.7111287698221541],[-2.1068585292167956],[-0.19183809544977426]],"rows":9,"cols":1}],"biases":[{"data":[[-0.1514954151583513,0.1230361413087131,1.084477658096521,0.6638807104555435,-1.0479809163605636,0.8788657615784525,-0.6400246314058782,0.9798862833044641,0.07245865400833007]],"rows":1,"cols":9},{"data":[[2.3615640835566083,0.03061620791426556,-2.4459183057370435,0.6641760746643453,-1.1136334209902337,-0.31489934948837606,-0.466543129492762,0.4325666437012892,0.41712230879727397]],"rows":1,"cols":9},{"data":[[-2.190615220216669]],"rows":1,"cols":1}]}],"length":3},{"type":"Genetic_Combined_Network","activation_function_name":"tanh","activation_function":{},"networks":[{"type":"Genetic_Convolutional_Neural_Network","activation_function_name":"swish","activation_function":{},"length":1,"width":4,"height":4,"weights":[],"biases":[],"kernels":[{"data":[[-0.1504490620052834,-0.4475777207101935,-0.9089602459538532,-1.9172424173850202],[-0.24008272286225374,-0.6295491487084257,-0.784713050933983,-0.0017606092358867231],[-0.8367155306847032,-0.7623656816161222,-0.9640295049603359,0.6272927481101331],[-0.41617730506181516,-0.3033131256366619,0.6786318606007398,-0.3925026686993822]],"rows":4,"cols":4}]},{"type":"Genetic_Flatten","activation_function_name":"identity","activation_function":{}},{"type":"Genetic_Fully_Connected_Neural_Network","activation_function_name":"tanh","activation_function":{},"length":3,"width":9,"weights":[{"data":[[0.4227682014282585,0.577731634061871,1.5510237071780932,1.3098910242035053,1.5524178788911436,-0.2693979924125892,-0.8576447075913798,0.19940260823734968,0.922880415688879],[-0.7731690502150523,-0.3045249269675703,0.36211504117468607,1.0830776672885882,-0.0903659963574841,0.6764195227978318,0.513583125930525,1.0129128571093835,-0.541358308330796],[0.3591589644269573,0.21350207776918007,0.017154120032127906,0.31252440120967123,0.12963160747625402,0.18239417527790103,1.0096697982201106,0.49023552629284084,0.1476352725543859],[0.5112668660052202,0.4126183608136782,0.7368877234024511,1.788352815678775,-0.11187772011019681,-0.2744546446807823,1.1821225727320215,-0.20797807482605773,-1.5889384746285908],[0.048578719064493736,0.9645924607128649,-1.1608794890013812,0.3761315476353565,1.5804566880992477,-0.09807401377845702,0.09380716360887442,-1.6698276363544111,-0.19706654880073748],[0.802303478972608,-0.4325128890989449,-0.4362391336686069,0.9645897407931734,-0.06043533354502739,-0.730258531559264,-1.3194932442593603,1.2185850113089,-0.11170507277770848],[-2.02686363043634,0.0813970474774286,-0.18963732429586008,-1.7895256160908288,0.40388502113902214,0.5829264147918978,0.1580720947953289,-1.3570333938194512,-0.05986560651902395],[0.17818149710068523,0.9939426048294184,0.73156044851058,0.20740674779520263,0.8481360076728157,-1.2139481936789562,0.09006499496549392,0.604909750836754,-0.8453957410053743],[1.8654894286373098,-0.3972343585610514,0.04336605716209707,-1.1449277310360366,1.3248081542802566,0.2641973821096879,-1.3098880782452276,0.5544711931710444,-0.38485711619872387],[0.019118352839313735,0.8285606517602564,1.0504284573807805,1.2516344980172112,0.1900985484296931,2.2419701299661194,-0.8730265092171037,-0.04212894935854438,-0.16354711921803367],[1.3271495504945294,-0.5223355802649463,0.2564641745118911,0.17491773236261898,0.8027107053926545,-0.6096932870352978,-0.26052501338001555,0.10835443787964873,0.8599282843677418],[0.39080952263467905,0.3395859086170461,-0.9360071881237308,-0.19916836372027236,0.7318116221720006,0.3992521946739336,1.2879648336268446,3.300489165682392,-1.2392285717052793],[1.188369727028515,0.174867080319127,0.545321116995908,1.6735099108785092,-0.6269741827714819,1.0659369915777588,-1.2929960085312966,0.40458448440681893,1.7288497875778197],[0.29538394027720916,-0.15523418447840692,0.09076104718352163,-0.4002377506349688,-1.794306403264797,-3.080235656264892,0.10555348671624398,-0.7839340996520949,-0.04757771941483697],[0.795748611417133,0.40174763135021374,1.2732134485237783,1.2809639413740523,0.19622558585387395,-0.35862696278025674,-0.398768184519227,0.48281748299754046,-2.0737938598168135],[0.4328881666220751,0.08210831629995519,0.4397322731135249,0.5715909670633823,0.2821302273857629,-1.0277318509271332,-0.4938845958657685,0.2653756139572312,-1.6794231255654815]],"rows":16,"cols":9},{"data":[[1.360916677649394,1.8070468720747317,1.2657750421952971,-0.21046226035636195,-0.04921348726053165,0.09367013716414885,-0.7893905545738193,0.2005662282712315,-0.5910077816485362],[0.2225260102634439,0.49619001302965504,-0.30032947534167725,-0.2505881356935019,-0.17111509721285378,0.8846666154106699,-0.4620542765023409,0.7377899861501183,-0.15835577756231112],[-0.3689696875896182,1.1547375085715847,2.0610222790828656,0.5021850073216894,-0.517528212443179,-0.6240614606145862,-3.201506442245718,0.7771974684017304,0.7188574231658791],[-0.8685676450759306,0.41112471082563484,-0.36894885425445706,0.3455682247921885,-0.6056197946186004,-1.6320197940066934,0.9900944932412623,-0.15910871379242952,-0.27134641674904914],[0.0015898950443000714,-0.46072652657375723,-0.32110058727663393,-0.16128939122096264,-0.5640782172699308,0.5662954792408494,-2.670700564407788,0.9328630826627562,0.36954838263237133],[-0.3091205106961269,-0.08930645978678364,0.3395277209217542,0.9348595349496853,1.050076992218095,-0.4984916325790285,-1.0859175515772015,0.6963332780726221,-0.09304504167188621],[-0.481077134800856,-0.7131778359740464,0.6962624710581902,-0.25875157922378644,0.5521244221599866,0.2779025742696777,0.9410546648033455,-0.008504219040195604,-1.3465936755357686],[-0.3535595334579751,0.7033000811365819,-0.13352210699482137,0.05291734147716132,-0.5926963454713121,0.1781574853242196,1.4037002767699787,0.3638067899969215,0.9556642030649796],[-0.006439611195377726,1.158513132843714,-2.936919817401271,-0.620946108617337,1.5710936329540983,-2.392564871010691,0.9062265460952934,-0.21503615422748543,0.37656301293524064]],"rows":9,"cols":9},{"data":[[0.9750086202270374],[1.677544803758189],[-0.11635792932548483],[-0.24656859176161872],[2.0375348891295295],[-0.9964268823723402],[-0.7111287698221541],[-2.1068585292167956],[-0.19183809544977426]],"rows":9,"cols":1}],"biases":[{"data":[[-0.1514954151583513,0.1230361413087131,1.084477658096521,0.6638807104555435,-1.0479809163605636,0.8788657615784525,-0.6400246314058782,0.9798862833044641,0.15997276973016938]],"rows":1,"cols":9},{"data":[[2.3615640835566083,0.03061620791426556,-2.4459183057370435,0.6641760746643453,-1.1136334209902337,-0.04486810907362804,-0.466543129492762,0.4325666437012892,0.41712230879727397]],"rows":1,"cols":9},{"data":[[-2.7554689158218277]],"rows":1,"cols":1}]}],"length":3},{"type":"Genetic_Combined_Network","activation_function_name":"tanh","activation_function":{},"networks":[{"type":"Genetic_Convolutional_Neural_Network","activation_function_name":"swish","activation_function":{},"length":1,"width":4,"height":4,"weights":[],"biases":[],"kernels":[{"data":[[-0.1504490620052834,-0.4475777207101935,-0.9089602459538532,-1.9172424173850202],[-0.24008272286225374,-1.3592420741182176,-0.784713050933983,-0.0017606092358867231],[-0.8367155306847032,-0.7623656816161222,-0.9640295049603359,0.6272927481101331],[-0.41617730506181516,-0.3033131256366619,0.6786318606007398,-0.3925026686993822]],"rows":4,"cols":4}]},{"type":"Genetic_Flatten","activation_function_name":"identity","activation_function":{}},{"type":"Genetic_Fully_Connected_Neural_Network","activation_function_name":"tanh","activation_function":{},"length":3,"width":9,"weights":[{"data":[[0.4227682014282585,0.8678662687280507,1.5510237071780932,1.3098910242035053,1.5524178788911436,-0.2693979924125892,-0.8576447075913798,0.19940260823734968,0.922880415688879],[-0.7731690502150523,-0.3045249269675703,0.36211504117468607,1.0830776672885882,-0.0903659963574841,0.6764195227978318,0.513583125930525,1.0129128571093835,-0.541358308330796],[0.3591589644269573,0.21350207776918007,0.017154120032127906,0.31252440120967123,0.12963160747625402,0.18239417527790103,0.6813898426398288,0.49023552629284084,0.1476352725543859],[0.5112668660052202,0.4126183608136782,0.7368877234024511,1.788352815678775,-0.11187772011019681,-0.2744546446807823,1.1821225727320215,-0.20797807482605773,-1.5889384746285908],[0.048578719064493736,0.9645924607128649,-1.1608794890013812,0.3761315476353565,1.8891669123164037,-0.09807401377845702,0.09380716360887442,-1.6698276363544111,-0.19706654880073748],[0.802303478972608,-0.4325128890989449,-0.4362391336686069,0.9645897407931734,-0.06043533354502739,-0.730258531559264,-1.3194932442593603,1.2185850113089,-0.11170507277770848],[-2.02686363043634,0.0813970474774286,-0.18963732429586008,-1.7895256160908288,0.40388502113902214,0.5829264147918978,0.1580720947953289,-1.3570333938194512,-0.05986560651902395],[0.17818149710068523,0.9939426048294184,0.73156044851058,0.20740674779520263,0.8481360076728157,-1.2139481936789562,0.3509681023078355,0.604909750836754,-0.8453957410053743],[1.8654894286373098,-0.3972343585610514,0.04336605716209707,-1.1449277310360366,2.208408245691299,0.2641973821096879,-1.3098880782452276,0.4754602214663941,-0.38485711619872387],[0.019118352839313735,0.8285606517602564,1.0504284573807805,1.2516344980172112,-0.5069524097706375,2.2419701299661194,-0.8730265092171037,-0.04212894935854438,-0.16354711921803367],[1.3271495504945294,-0.5223355802649463,0.2564641745118911,0.17491773236261898,0.8027107053926545,-0.6096932870352978,-0.26052501338001555,0.10835443787964873,0.8599282843677418],[0.39080952263467905,0.3395859086170461,-1.6037902943923057,-0.19916836372027236,0.7318116221720006,0.3992521946739336,1.2879648336268446,4.12861171115763,-1.8905604966175145],[1.188369727028515,0.174867080319127,0.12161516032836461,1.6735099108785092,-0.6269741827714819,1.0659369915777588,-1.2929960085312966,0.40458448440681893,1.7288497875778197],[0.29538394027720916,-0.15523418447840692,0.09076104718352163,-0.4002377506349688,-1.794306403264797,-3.080235656264892,0.10555348671624398,-0.7839340996520949,-0.04757771941483697],[0.7179412134253913,0.40174763135021374,1.2732134485237783,1.2809639413740523,0.19622558585387395,0.5696760725204648,-0.398768184519227,0.48281748299754046,-2.0737938598168135],[0.4328881666220751,0.08210831629995519,0.4397322731135249,0.5715909670633823,0.2821302273857629,-1.0277318509271332,-0.4938845958657685,0.2653756139572312,-1.6794231255654815]],"rows":16,"cols":9},{"data":[[1.360916677649394,1.8070468720747317,1.2657750421952971,-0.21046226035636195,-0.04921348726053165,0.09367013716414885,-0.7591178721126335,0.2005662282712315,-0.5910077816485362],[0.2225260102634439,0.49619001302965504,-0.30032947534167725,-0.2505881356935019,-0.17111509721285378,0.8846666154106699,-0.4620542765023409,0.7377899861501183,-0.15835577756231112],[-0.3689696875896182,0.3857373706685082,2.0610222790828656,0.5021850073216894,-0.517528212443179,-0.6240614606145862,-3.201506442245718,0.7771974684017304,0.7188574231658791],[-0.8685676450759306,0.41112471082563484,-0.36894885425445706,0.3455682247921885,-1.3493666423509392,-2.3793883766551827,0.9900944932412623,-0.15910871379242952,-0.27134641674904914],[0.0015898950443000714,-0.46072652657375723,-0.32110058727663393,-0.16128939122096264,-0.5640782172699308,0.5662954792408494,-2.670700564407788,0.9328630826627562,0.36954838263237133],[-0.3091205106961269,-0.08930645978678364,0.3395277209217542,0.9348595349496853,1.050076992218095,-0.4984916325790285,-1.0859175515772015,0.6963332780726221,-0.09304504167188621],[-0.481077134800856,-0.7131778359740464,0.6962624710581902,-0.25875157922378644,0.5521244221599866,0.2779025742696777,0.9410546648033455,0.1357263475273478,-1.3465936755357686],[-0.5601208242029998,0.7033000811365819,-0.13352210699482137,0.05291734147716132,-0.5926963454713121,0.1781574853242196,1.4037002767699787,0.3638067899969215,0.9556642030649796],[-0.006439611195377726,1.158513132843714,-2.15141806743054,-0.620946108617337,1.5710936329540983,-2.392564871010691,0.9062265460952934,-0.21503615422748543,0.37656301293524064]],"rows":9,"cols":9},{"data":[[0.9750086202270374],[0.8673281325923179],[-0.11635792932548483],[-0.24656859176161872],[2.0375348891295295],[-0.9964268823723402],[-0.7111287698221541],[-2.1068585292167956],[-0.19183809544977426]],"rows":9,"cols":1}],"biases":[{"data":[[-0.1514954151583513,0.1230361413087131,1.751224252179405,0.6638807104555435,-1.0479809163605636,1.159697703649095,-0.6400246314058782,0.9798862833044641,0.07245865400833007]],"rows":1,"cols":9},{"data":[[2.3615640835566083,0.03061620791426556,-2.4459183057370435,0.6641760746643453,-1.1136334209902337,-0.31489934948837606,-0.466543129492762,0.4325666437012892,0.41712230879727397]],"rows":1,"cols":9},{"data":[[-1.658489494868432]],"rows":1,"cols":1}]}],"length":3},{"type":"Genetic_Combined_Network","activation_function_name":"tanh","activation_function":{},"networks":[{"type":"Genetic_Convolutional_Neural_Network","activation_function_name":"swish","activation_function":{},"length":1,"width":4,"height":4,"weights":[],"biases":[],"kernels":[{"data":[[-0.1504490620052834,-0.4475777207101935,-0.9089602459538532,-1.9172424173850202],[-0.24008272286225374,-0.6295491487084257,-0.27652987193482104,-0.0017606092358867231],[-0.8367155306847032,-0.12902904360728096,-0.9640295049603359,-0.2978901232109905],[-0.41617730506181516,-0.3033131256366619,0.6786318606007398,-0.3925026686993822]],"rows":4,"cols":4}]},{"type":"Genetic_Flatten","activation_function_name":"identity","activation_function":{}},{"type":"Genetic_Fully_Connected_Neural_Network","activation_function_name":"tanh","activation_function":{},"length":3,"width":9,"weights":[{"data":[[0.2874886672688173,0.577731634061871,1.5510237071780932,2.284066262514115,1.5524178788911436,-0.2693979924125892,-0.8334269594153949,0.19940260823734968,0.922880415688879],[-0.7731690502150523,-0.3045249269675703,0.19112600752560294,0.6513739122978186,-0.0903659963574841,0.3684254096523607,0.513583125930525,1.0129128571093835,-0.541358308330796],[0.3591589644269573,-0.47513167382489296,0.017154120032127906,-0.5619218432159305,0.12963160747625402,0.18239417527790103,1.0096697982201106,0.49023552629284084,0.1476352725543859],[0.5112668660052202,0.4126183608136782,0.7368877234024511,1.788352815678775,-0.11187772011019681,-0.2744546446807823,1.1821225727320215,-0.20797807482605773,-1.5889384746285908],[0.048578719064493736,1.3545949705142446,-1.1608794890013812,0.3761315476353565,1.5057859547865662,-0.162933045458304,0.09380716360887442,-1.6698276363544111,-0.19706654880073748],[0.802303478972608,-1.159668240435875,-0.4362391336686069,0.9645897407931734,-0.923866423259103,-0.730258531559264,-1.4148928799115512,0.6808043239857464,0.22463850651868578],[-2.02686363043634,-0.5076023210683718,-0.18963732429586008,-1.7895256160908288,0.40388502113902214,1.5595305387173708,0.1580720947953289,-1.3570333938194512,-0.05986560651902395],[0.17818149710068523,0.9939426048294184,0.73156044851058,0.33019338330784165,0.8481360076728157,-1.2139481936789562,0.09006499496549392,0.604909750836754,-0.8453957410053743],[1.8654894286373098,-0.3972343585610514,0.04336605716209707,-1.1449277310360366,1.3248081542802566,1.0450302575079764,-1.3098880782452276,0.4754602214663941,-0.38485711619872387],[0.019118352839313735,0.8285606517602564,0.9949019669710668,1.2516344980172112,-0.5069524097706375,1.9914304052924847,-0.018213002690371072,-0.04212894935854438,-0.16354711921803367],[1.3271495504945294,-1.419110977989476,0.2564641745118911,0.17491773236261898,0.8027107053926545,-0.6096932870352978,-0.26052501338001555,0.10835443787964873,0.8599282843677418],[0.39080952263467905,1.0008461451592825,-1.7109353086350998,-0.19916836372027236,0.7318116221720006,0.3992521946739336,1.2879648336268446,3.300489165682392,-1.2392285717052793],[1.188369727028515,0.174867080319127,0.545321116995908,1.9122558271144738,-0.6269741827714819,1.0659369915777588,-1.221556761911137,0.40458448440681893,2.381004532352453],[0.29538394027720916,-0.15523418447840692,0.09076104718352163,-0.4002377506349688,-1.794306403264797,-3.080235656264892,0.6489317012615781,-0.9014492582161888,-0.04757771941483697],[1.243482439678652,0.40174763135021374,1.2732134485237783,1.2809639413740523,0.19622558585387395,-0.35862696278025674,0.9941176659403661,0.48281748299754046,-2.0737938598168135],[0.4328881666220751,0.08210831629995519,0.4397322731135249,0.8064991083421749,0.2821302273857629,-1.0277318509271332,-0.4938845958657685,0.2653756139572312,-2.325430399129826]],"rows":16,"cols":9},{"data":[[1.360916677649394,1.8070468720747317,1.2657750421952971,-0.21046226035636195,-0.04921348726053165,0.09367013716414885,-0.7893905545738193,0.2005662282712315,-1.3551403227459204],[0.2225260102634439,0.49619001302965504,-0.30032947534167725,-0.2505881356935019,-0.17111509721285378,0.8846666154106699,-0.4620542765023409,0.7377899861501183,0.6181611144791002],[-0.3689696875896182,0.06845730506638503,2.0610222790828656,0.5021850073216894,-0.15035653250881564,-0.6240614606145862,-3.201506442245718,1.6433080223706211,1.2485128048035095],[-0.8685676450759306,0.41112471082563484,-0.36894885425445706,0.3455682247921885,-0.6056197946186004,-1.64778680102983,0.9900944932412623,-0.15910871379242952,-0.27134641674904914],[0.0015898950443000714,-0.46072652657375723,-0.32110058727663393,-0.16128939122096264,-0.5640782172699308,0.5662954792408494,-2.670700564407788,0.5796223437461878,0.36954838263237133],[-0.3091205106961269,-0.08930645978678364,0.3395277209217542,1.4802255608630777,1.050076992218095,-0.4984916325790285,-1.8331725629577331,0.6963332780726221,-0.09304504167188621],[-0.13741488809879487,-0.7131778359740464,0.6962624710581902,-0.15041648210109182,0.5521244221599866,0.2779025742696777,0.898445897511432,-0.008504219040195604,-1.3465936755357686],[-0.5601208242029998,0.7033000811365819,-0.13352210699482137,0.05291734147716132,-0.5926963454713121,-0.4286671906660242,1.4037002767699787,0.3638067899969215,0.9556642030649796],[-0.006439611195377726,1.158513132843714,-2.15141806743054,-0.0831588175821728,1.5710936329540983,-2.392564871010691,0.9062265460952934,-0.21503615422748543,0.37656301293524064]],"rows":9,"cols":9},{"data":[[1.7133139616941468],[1.677544803758189],[-0.11635792932548483],[-0.24656859176161872],[1.2185208957703377],[-0.9964268823723402],[-0.7111287698221541],[-2.1068585292167956],[-0.19183809544977426]],"rows":9,"cols":1}],"biases":[{"data":[[-0.0002604155059268143,0.521151345244927,1.084477658096521,0.6638807104555435,-1.8450601277283265,0.8788657615784525,-0.6400246314058782,0.9798862833044641,0.07245865400833007]],"rows":1,"cols":9},{"data":[[2.3615640835566083,0.03061620791426556,-2.4303936107153232,0.3615128882540217,-0.3421160099311862,-0.04486810907362804,-0.466543129492762,0.4325666437012892,1.2543987910100798]],"rows":1,"cols":9},{"data":[[-3.6776010213222308]],"rows":1,"cols":1}]}],"length":3},{"type":"Genetic_Combined_Network","activation_function_name":"tanh","activation_function":{},"networks":[{"type":"Genetic_Convolutional_Neural_Network","activation_function_name":"swish","activation_function":{},"length":1,"width":4,"height":4,"weights":[],"biases":[],"kernels":[{"data":[[-0.1504490620052834,-0.4475777207101935,-0.9089602459538532,-1.9172424173850202],[-0.24008272286225374,-1.3592420741182176,-0.784713050933983,-0.0017606092358867231],[-0.8367155306847032,-0.7623656816161222,-0.9640295049603359,0.6272927481101331],[-0.41617730506181516,-0.8232781361394002,0.6786318606007398,-0.3925026686993822]],"rows":4,"cols":4}]},{"type":"Genetic_Flatten","activation_function_name":"identity","activation_function":{}},{"type":"Genetic_Fully_Connected_Neural_Network","activation_function_name":"tanh","activation_function":{},"length":3,"width":9,"weights":[{"data":[[0.4227682014282585,0.577731634061871,1.5510237071780932,1.3098910242035053,1.5524178788911436,-0.2693979924125892,-0.8576447075913798,0.19940260823734968,0.922880415688879],[-0.7731690502150523,-0.3045249269675703,0.36211504117468607,1.0830776672885882,-0.0903659963574841,0.6764195227978318,0.513583125930525,1.0129128571093835,-0.541358308330796],[0.3591589644269573,0.21350207776918007,0.017154120032127906,0.31252440120967123,0.12963160747625402,0.18239417527790103,0.6813898426398288,0.49023552629284084,0.1476352725543859],[0.5112668660052202,0.4126183608136782,0.7368877234024511,1.788352815678775,-0.11187772011019681,-0.2744546446807823,0.39450126999749147,-0.20797807482605773,-1.5889384746285908],[0.048578719064493736,0.9645924607128649,-1.1608794890013812,0.3761315476353565,1.5804566880992477,-0.09807401377845702,0.09380716360887442,-1.6698276363544111,-0.19706654880073748],[0.802303478972608,-0.4325128890989449,-0.4362391336686069,0.9645897407931734,-0.06043533354502739,-0.730258531559264,-1.3194932442593603,1.2185850113089,-0.11170507277770848],[-1.0702795945062467,0.0813970474774286,-0.18963732429586008,-1.7895256160908288,0.40388502113902214,0.5829264147918978,0.1580720947953289,-1.3570333938194512,-0.05986560651902395],[0.17818149710068523,0.9939426048294184,0.73156044851058,0.20740674779520263,0.8481360076728157,-1.2139481936789562,0.3509681023078355,0.604909750836754,-0.8453957410053743],[1.8654894286373098,-0.3972343585610514,0.04336605716209707,-1.1449277310360366,1.3248081542802566,0.2641973821096879,-1.3098880782452276,0.4754602214663941,-0.38485711619872387],[0.019118352839313735,0.8285606517602564,1.0504284573807805,0.5192446430531032,-0.5069524097706375,2.2419701299661194,-0.8730265092171037,-0.04212894935854438,-0.16354711921803367],[1.3271495504945294,-0.5223355802649463,0.2564641745118911,0.17491773236261898,0.8027107053926545,-0.6096932870352978,-0.26052501338001555,0.10835443787964873,0.8599282843677418],[0.39080952263467905,0.3395859086170461,-1.6037902943923057,-0.19916836372027236,0.7318116221720006,0.3992521946739336,1.2879648336268446,3.300489165682392,-1.2392285717052793],[1.188369727028515,0.174867080319127,0.545321116995908,1.6735099108785092,-0.6269741827714819,1.0659369915777588,-1.2929960085312966,0.40458448440681893,1.7288497875778197],[0.29538394027720916,-0.15523418447840692,0.09076104718352163,-0.4002377506349688,-1.794306403264797,-3.080235656264892,0.10555348671624398,0.16474113347000152,-0.04757771941483697],[0.7179412134253913,0.40174763135021374,1.2732134485237783,1.2809639413740523,0.19622558585387395,0.5696760725204648,-0.398768184519227,0.48281748299754046,-2.0737938598168135],[0.4328881666220751,0.08210831629995519,0.4397322731135249,0.5715909670633823,0.2821302273857629,-1.0277318509271332,-0.4938845958657685,0.2653756139572312,-1.6794231255654815]],"rows":16,"cols":9},{"data":[[1.360916677649394,1.8070468720747317,1.2657750421952971,-0.21046226035636195,-0.04921348726053165,0.09367013716414885,-0.4324034765757525,0.2005662282712315,-0.5910077816485362],[0.2225260102634439,0.49619001302965504,-0.30032947534167725,-0.2505881356935019,-0.17111509721285378,0.8846666154106699,-0.4620542765023409,0.7377899861501183,-0.15835577756231112],[-0.3689696875896182,0.3857373706685082,2.0610222790828656,0.5021850073216894,-0.517528212443179,-0.6240614606145862,-3.201506442245718,0.7771974684017304,0.7188574231658791],[-0.8685676450759306,0.41112471082563484,-0.36894885425445706,0.3455682247921885,-1.3493666423509392,-1.6320197940066934,0.9946804896944228,-0.15910871379242952,-0.27134641674904914],[0.0015898950443000714,-0.46072652657375723,-0.32110058727663393,-0.16128939122096264,-0.5640782172699308,0.5662954792408494,-2.670700564407788,0.9328630826627562,0.36954838263237133],[-0.3091205106961269,-0.08930645978678364,0.3395277209217542,0.9348595349496853,1.050076992218095,-0.4984916325790285,-1.0859175515772015,0.6963332780726221,-0.09304504167188621],[-0.481077134800856,-0.7131778359740464,0.6962624710581902,-0.25875157922378644,0.5521244221599866,-0.24283731063056146,0.9410546648033455,0.1357263475273478,-1.3465936755357686],[-0.5601208242029998,0.7033000811365819,-0.13352210699482137,0.05291734147716132,-0.5926963454713121,0.1781574853242196,1.4037002767699787,0.3638067899969215,0.9556642030649796],[-0.006439611195377726,1.158513132843714,-1.8928192735753715,-0.620946108617337,1.5710936329540983,-2.392564871010691,0.9062265460952934,-0.21503615422748543,0.37656301293524064]],"rows":9,"cols":9},{"data":[[0.9750086202270374],[0.8673281325923179],[-0.11635792932548483],[0.09137750928483612],[2.0375348891295295],[-0.9964268823723402],[-0.7111287698221541],[-2.1068585292167956],[-0.19183809544977426]],"rows":9,"cols":1}],"biases":[{"data":[[-0.1514954151583513,0.1230361413087131,1.084477658096521,0.6638807104555435,-1.0479809163605636,0.8788657615784525,-0.6400246314058782,0.9798862833044641,0.07245865400833007]],"rows":1,"cols":9},{"data":[[2.3615640835566083,0.03061620791426556,-2.4459183057370435,0.6641760746643453,-1.1136334209902337,-0.31489934948837606,-0.466543129492762,0.4325666437012892,1.0691752811910407]],"rows":1,"cols":9},{"data":[[-2.190615220216669]],"rows":1,"cols":1}]}],"length":3},{"type":"Genetic_Combined_Network","activation_function_name":"tanh","activation_function":{},"networks":[{"type":"Genetic_Convolutional_Neural_Network","activation_function_name":"swish","activation_function":{},"length":1,"width":4,"height":4,"weights":[],"biases":[],"kernels":[{"data":[[0.5401263767416007,-0.4475777207101935,-0.9089602459538532,-1.9172424173850202],[-0.24008272286225374,-1.3592420741182176,-0.784713050933983,-0.0017606092358867231],[-0.8367155306847032,-0.7623656816161222,-0.9640295049603359,0.6272927481101331],[-0.41617730506181516,-0.3033131256366619,0.6786318606007398,-0.3925026686993822]],"rows":4,"cols":4}]},{"type":"Genetic_Flatten","activation_function_name":"identity","activation_function":{}},{"type":"Genetic_Fully_Connected_Neural_Network","activation_function_name":"tanh","activation_function":{},"length":3,"width":9,"weights":[{"data":[[0.4227682014282585,0.577731634061871,1.5510237071780932,1.702124997691084,1.5524178788911436,-0.2693979924125892,-0.8576447075913798,0.19940260823734968,0.922880415688879],[-0.7731690502150523,-0.3045249269675703,0.776567502911679,1.0830776672885882,-0.0903659963574841,0.6764195227978318,0.513583125930525,1.0129128571093835,-0.541358308330796],[0.3591589644269573,0.21350207776918007,0.017154120032127906,0.31252440120967123,0.12963160747625402,0.18239417527790103,0.6813898426398288,0.49023552629284084,0.1476352725543859],[0.5112668660052202,0.4126183608136782,0.7368877234024511,1.788352815678775,-0.11187772011019681,-0.2744546446807823,1.1821225727320215,-0.20797807482605773,-1.5889384746285908],[0.048578719064493736,0.9645924607128649,-1.1608794890013812,0.3761315476353565,1.5804566880992477,-0.162933045458304,0.09380716360887442,-1.6698276363544111,-0.19706654880073748],[0.802303478972608,-0.4325128890989449,-0.4362391336686069,0.9645897407931734,-0.06043533354502739,-0.730258531559264,-1.4148928799115512,1.2185850113089,0.22463850651868578],[-2.02686363043634,0.0813970474774286,-0.18963732429586008,-1.7895256160908288,0.40388502113902214,0.5829264147918978,0.1580720947953289,-1.3570333938194512,-0.05986560651902395],[0.17818149710068523,0.9939426048294184,0.73156044851058,0.33019338330784165,0.8481360076728157,-1.2139481936789562,0.3509681023078355,0.604909750836754,-0.8453957410053743],[1.8654894286373098,-0.3972343585610514,0.04336605716209707,-1.1449277310360366,1.3248081542802566,0.2641973821096879,-1.3098880782452276,0.4754602214663941,-0.38485711619872387],[0.019118352839313735,0.8285606517602564,1.0504284573807805,1.2516344980172112,-0.5069524097706375,2.2419701299661194,-0.8730265092171037,-0.04212894935854438,-0.16354711921803367],[1.3271495504945294,-0.5223355802649463,0.2564641745118911,0.17491773236261898,0.8027107053926545,-0.6096932870352978,-0.26052501338001555,0.10835443787964873,0.8599282843677418],[0.39080952263467905,0.3395859086170461,-1.6037902943923057,-0.19916836372027236,0.7318116221720006,0.3992521946739336,1.2879648336268446,3.300489165682392,-1.2392285717052793],[1.188369727028515,0.174867080319127,0.545321116995908,1.6735099108785092,-0.6269741827714819,1.0659369915777588,-1.2929960085312966,0.40458448440681893,1.7288497875778197],[0.29538394027720916,-0.15523418447840692,0.09076104718352163,-0.4002377506349688,-1.794306403264797,-3.080235656264892,0.4469394776015936,-0.7839340996520949,-0.04757771941483697],[0.7179412134253913,0.40174763135021374,1.2732134485237783,1.2809639413740523,0.19622558585387395,0.5696760725204648,-0.398768184519227,0.48281748299754046,-2.0737938598168135],[0.4328881666220751,0.08210831629995519,0.4397322731135249,0.5715909670633823,0.7097402071502035,-1.0277318509271332,-0.4938845958657685,0.2653756139572312,-1.6794231255654815]],"rows":16,"cols":9},{"data":[[1.360916677649394,1.8070468720747317,1.2657750421952971,-1.019521551617025,0.7662102272464237,0.09367013716414885,-0.7893905545738193,0.2005662282712315,-0.5910077816485362],[0.2225260102634439,0.49619001302965504,-0.30032947534167725,-0.2505881356935019,-0.17111509721285378,0.8846666154106699,-0.4620542765023409,0.7377899861501183,-0.15835577756231112],[-0.3689696875896182,0.3857373706685082,2.0610222790828656,0.5021850073216894,-0.517528212443179,-0.6240614606145862,-4.19702763030161,1.6433080223706211,0.7188574231658791],[-0.8685676450759306,0.41112471082563484,-0.36894885425445706,0.3455682247921885,-1.3493666423509392,-1.6320197940066934,0.9900944932412623,-0.15910871379242952,-0.27134641674904914],[0.0015898950443000714,-0.46072652657375723,-0.32110058727663393,-0.16128939122096264,-0.5640782172699308,0.5662954792408494,-2.670700564407788,0.9328630826627562,0.36954838263237133],[-0.3091205106961269,-0.08930645978678364,0.3395277209217542,0.9348595349496853,1.050076992218095,-0.4984916325790285,-1.0859175515772015,0.6963332780726221,-0.09304504167188621],[-0.481077134800856,-0.7131778359740464,0.6962624710581902,-0.25875157922378644,1.2505097345806537,0.2779025742696777,0.9410546648033455,0.1357263475273478,-1.3465936755357686],[-0.5601208242029998,0.7033000811365819,-1.106730137911412,0.05291734147716132,-0.5926963454713121,0.1781574853242196,1.4037002767699787,0.3638067899969215,0.9556642030649796],[-0.006439611195377726,1.158513132843714,-2.15141806743054,-0.620946108617337,1.5710936329540983,-2.392564871010691,0.9062265460952934,-0.21503615422748543,0.37656301293524064]],"rows":9,"cols":9},{"data":[[0.9750086202270374],[0.8673281325923179],[-0.11635792932548483],[-0.24656859176161872],[1.2185208957703377],[-0.9964268823723402],[-0.7111287698221541],[-2.1068585292167956],[-0.6264855891992986]],"rows":9,"cols":1}],"biases":[{"data":[[-0.1514954151583513,0.1230361413087131,1.084477658096521,0.6638807104555435,-1.0479809163605636,0.8788657615784525,-0.8027295527216838,0.9798862833044641,0.07245865400833007]],"rows":1,"cols":9},{"data":[[2.3615640835566083,0.8655561808212666,-2.4459183057370435,0.6641760746643453,-1.1136334209902337,-0.31489934948837606,-0.466543129492762,0.4325666437012892,0.5596900517772041]],"rows":1,"cols":9},{"data":[[-2.7554689158218277]],"rows":1,"cols":1}]}],"length":3},{"type":"Genetic_Combined_Network","activation_function_name":"tanh","activation_function":{},"networks":[{"type":"Genetic_Convolutional_Neural_Network","activation_function_name":"swish","activation_function":{},"length":1,"width":4,"height":4,"weights":[],"biases":[],"kernels":[{"data":[[-0.1504490620052834,-0.4475777207101935,-0.9089602459538532,-1.9172424173850202],[-0.24008272286225374,-1.3592420741182176,-0.784713050933983,-0.0017606092358867231],[-0.8367155306847032,-0.7623656816161222,-0.9640295049603359,0.6272927481101331],[-0.41617730506181516,-0.3033131256366619,0.6786318606007398,-0.3925026686993822]],"rows":4,"cols":4}]},{"type":"Genetic_Flatten","activation_function_name":"identity","activation_function":{}},{"type":"Genetic_Fully_Connected_Neural_Network","activation_function_name":"tanh","activation_function":{},"length":3,"width":9,"weights":[{"data":[[0.4227682014282585,0.577731634061871,1.5510237071780932,1.3098910242035053,1.5524178788911436,-0.2693979924125892,-0.8576447075913798,0.19940260823734968,0.922880415688879],[-0.7731690502150523,-0.3045249269675703,0.36211504117468607,1.0830776672885882,-0.0903659963574841,0.6764195227978318,0.513583125930525,1.0129128571093835,-0.541358308330796],[0.3591589644269573,0.21350207776918007,0.017154120032127906,0.31252440120967123,0.12963160747625402,0.18239417527790103,0.6813898426398288,0.49023552629284084,0.1476352725543859],[0.5112668660052202,0.4126183608136782,0.7368877234024511,1.788352815678775,-0.11187772011019681,-0.2744546446807823,1.1821225727320215,-0.20797807482605773,-1.5889384746285908],[0.048578719064493736,0.9645924607128649,-1.1608794890013812,0.3761315476353565,1.5804566880992477,-0.09807401377845702,0.09380716360887442,-1.6698276363544111,-0.19706654880073748],[0.802303478972608,-0.4325128890989449,-0.4362391336686069,0.9645897407931734,-0.06043533354502739,-0.730258531559264,-1.3194932442593603,1.2185850113089,-0.11170507277770848],[-2.02686363043634,0.0813970474774286,-0.18963732429586008,-1.7895256160908288,0.40388502113902214,0.5829264147918978,0.1580720947953289,-1.3570333938194512,-0.05986560651902395],[0.17818149710068523,0.9939426048294184,0.73156044851058,0.20740674779520263,0.8481360076728157,-1.2139481936789562,0.3509681023078355,0.604909750836754,-0.8453957410053743],[1.8654894286373098,-0.3972343585610514,0.04336605716209707,-1.1449277310360366,1.3248081542802566,0.2641973821096879,-1.3098880782452276,0.4754602214663941,-0.38485711619872387],[0.019118352839313735,0.8285606517602564,1.0504284573807805,1.2516344980172112,-0.5069524097706375,2.2419701299661194,-0.8730265092171037,-0.04212894935854438,-0.16354711921803367],[1.3271495504945294,-0.5223355802649463,0.2564641745118911,0.17491773236261898,0.8027107053926545,-0.6096932870352978,-0.26052501338001555,0.10835443787964873,0.8599282843677418],[0.39080952263467905,0.3395859086170461,-1.6037902943923057,-0.19916836372027236,0.7318116221720006,0.3992521946739336,1.2879648336268446,3.300489165682392,-1.2392285717052793],[1.188369727028515,0.174867080319127,0.545321116995908,1.6735099108785092,-0.6269741827714819,1.0659369915777588,-1.2929960085312966,0.40458448440681893,1.7288497875778197],[0.29538394027720916,-0.15523418447840692,0.09076104718352163,-0.4002377506349688,-1.794306403264797,-3.080235656264892,0.10555348671624398,-0.7839340996520949,-0.04757771941483697],[0.7179412134253913,0.40174763135021374,1.2732134485237783,1.2809639413740523,0.19622558585387395,0.5696760725204648,-0.398768184519227,0.48281748299754046,-2.0737938598168135],[0.4328881666220751,0.08210831629995519,0.4397322731135249,0.5715909670633823,0.2821302273857629,-1.0277318509271332,-0.4938845958657685,0.2653756139572312,-1.6794231255654815]],"rows":16,"cols":9},{"data":[[1.360916677649394,1.8070468720747317,1.2657750421952971,-0.21046226035636195,-0.04921348726053165,0.09367013716414885,-0.7893905545738193,0.2005662282712315,-0.5910077816485362],[0.2225260102634439,0.49619001302965504,-0.30032947534167725,-0.2505881356935019,-0.17111509721285378,0.8846666154106699,-0.4620542765023409,0.7377899861501183,-0.15835577756231112],[-0.3689696875896182,0.3857373706685082,2.0610222790828656,0.5021850073216894,-0.517528212443179,-0.6240614606145862,-3.201506442245718,0.7771974684017304,0.7188574231658791],[-0.8685676450759306,0.41112471082563484,-0.36894885425445706,0.3455682247921885,-1.3493666423509392,-1.6320197940066934,0.9900944932412623,-0.15910871379242952,-0.27134641674904914],[0.0015898950443000714,-0.46072652657375723,-0.32110058727663393,-0.16128939122096264,-0.5640782172699308,0.5662954792408494,-2.670700564407788,0.9328630826627562,0.36954838263237133],[-0.3091205106961269,-0.08930645978678364,0.3395277209217542,0.9348595349496853,1.050076992218095,-0.4984916325790285,-1.0859175515772015,0.6963332780726221,-0.09304504167188621],[-0.481077134800856,-0.7131778359740464,0.6962624710581902,-0.25875157922378644,0.5521244221599866,0.2779025742696777,0.9410546648033455,0.1357263475273478,-1.3465936755357686],[-0.5601208242029998,0.7033000811365819,-0.13352210699482137,0.05291734147716132,-0.5926963454713121,0.1781574853242196,1.4037002767699787,0.3638067899969215,0.9556642030649796],[-0.006439611195377726,1.158513132843714,-2.15141806743054,-0.620946108617337,1.5710936329540983,-2.392564871010691,0.9062265460952934,-0.21503615422748543,0.37656301293524064]],"rows":9,"cols":9},{"data":[[0.9750086202270374],[0.8673281325923179],[-0.11635792932548483],[-0.24656859176161872],[2.0375348891295295],[-0.9964268823723402],[-0.7111287698221541],[-2.1068585292167956],[-0.19183809544977426]],"rows":9,"cols":1}],"biases":[{"data":[[-0.1514954151583513,0.1230361413087131,1.084477658096521,0.6638807104555435,-1.0479809163605636,0.8788657615784525,-0.6400246314058782,0.9798862833044641,0.07245865400833007]],"rows":1,"cols":9},{"data":[[2.3615640835566083,0.03061620791426556,-2.4459183057370435,0.6641760746643453,-1.1136334209902337,-0.31489934948837606,-0.466543129492762,0.4325666437012892,0.41712230879727397]],"rows":1,"cols":9},{"data":[[-2.190615220216669]],"rows":1,"cols":1}]}],"length":3},{"type":"Genetic_Combined_Network","activation_function_name":"tanh","activation_function":{},"networks":[{"type":"Genetic_Convolutional_Neural_Network","activation_function_name":"swish","activation_function":{},"length":1,"width":4,"height":4,"weights":[],"biases":[],"kernels":[{"data":[[-0.1504490620052834,-0.4475777207101935,-0.9089602459538532,-1.9172424173850202],[-0.24008272286225374,-1.3592420741182176,-0.784713050933983,-0.0017606092358867231],[-0.8367155306847032,-0.7623656816161222,-0.9640295049603359,0.6272927481101331],[-0.41617730506181516,-0.3033131256366619,0.6786318606007398,-0.3925026686993822]],"rows":4,"cols":4}]},{"type":"Genetic_Flatten","activation_function_name":"identity","activation_function":{}},{"type":"Genetic_Fully_Connected_Neural_Network","activation_function_name":"tanh","activation_function":{},"length":3,"width":9,"weights":[{"data":[[0.4227682014282585,0.577731634061871,1.5510237071780932,1.3098910242035053,1.5524178788911436,-0.2693979924125892,-0.8334269594153949,0.19940260823734968,0.922880415688879],[-0.7731690502150523,-0.3045249269675703,0.36211504117468607,1.0830776672885882,-0.0903659963574841,0.6764195227978318,0.5062058028144192,1.0129128571093835,-0.541358308330796],[0.3591589644269573,0.21350207776918007,0.017154120032127906,0.31252440120967123,0.12963160747625402,0.18239417527790103,0.6813898426398288,0.49023552629284084,0.1476352725543859],[1.1749488942213562,0.4126183608136782,0.7368877234024511,1.788352815678775,-0.11187772011019681,-0.2744546446807823,1.1821225727320215,-0.20797807482605773,-1.5889384746285908],[0.048578719064493736,0.9645924607128649,-1.1608794890013812,0.3761315476353565,1.5804566880992477,-0.09807401377845702,0.09380716360887442,-1.6698276363544111,-0.19706654880073748],[0.802303478972608,-0.4325128890989449,-0.4362391336686069,0.9645897407931734,-0.06043533354502739,-0.730258531559264,-1.3194932442593603,1.2185850113089,0.22463850651868578],[-2.02686363043634,0.0813970474774286,-0.18963732429586008,-1.7895256160908288,0.40388502113902214,0.5829264147918978,0.1580720947953289,-1.3570333938194512,-0.05986560651902395],[0.17818149710068523,0.9939426048294184,0.73156044851058,0.33019338330784165,0.8481360076728157,-1.2139481936789562,0.09006499496549392,0.604909750836754,-0.8453957410053743],[1.8654894286373098,-0.3972343585610514,0.04336605716209707,-1.1449277310360366,1.3248081542802566,0.2641973821096879,-1.3098880782452276,0.4754602214663941,-0.38485711619872387],[0.019118352839313735,0.8285606517602564,1.0504284573807805,1.2516344980172112,-0.5069524097706375,2.2419701299661194,-0.8730265092171037,0.7006000486119086,-0.16354711921803367],[1.3271495504945294,-0.5223355802649463,1.2476128581465256,0.17491773236261898,0.8027107053926545,-0.6096932870352978,-0.26052501338001555,0.10835443787964873,0.8599282843677418],[0.39080952263467905,0.3395859086170461,-1.6037902943923057,-0.19916836372027236,0.7318116221720006,0.3992521946739336,1.2879648336268446,3.300489165682392,-1.2392285717052793],[1.188369727028515,0.174867080319127,0.545321116995908,1.6735099108785092,-0.6269741827714819,1.0659369915777588,-1.2929960085312966,0.40458448440681893,1.7288497875778197],[0.29538394027720916,-0.15523418447840692,0.09076104718352163,-0.4002377506349688,-1.794306403264797,-3.080235656264892,0.10555348671624398,-0.7839340996520949,-0.04757771941483697],[0.7179412134253913,0.15143719491258034,1.2732134485237783,1.2809639413740523,0.19622558585387395,-0.35862696278025674,-0.398768184519227,0.48281748299754046,-2.0737938598168135],[0.4328881666220751,0.08210831629995519,0.4397322731135249,1.2145293353589488,0.2821302273857629,-1.0277318509271332,-0.4938845958657685,0.2653756139572312,-1.6794231255654815]],"rows":16,"cols":9},{"data":[[1.360916677649394,1.8070468720747317,1.2657750421952971,-0.21046226035636195,-0.04921348726053165,0.09367013716414885,-0.7893905545738193,0.2005662282712315,-0.5910077816485362],[0.2225260102634439,0.49619001302965504,-0.30032947534167725,-0.2505881356935019,-0.17111509721285378,0.8846666154106699,-0.4620542765023409,0.7377899861501183,-0.15835577756231112],[0.2045939513530579,0.3857373706685082,2.0610222790828656,0.5021850073216894,-0.517528212443179,-0.6240614606145862,-3.201506442245718,1.6433080223706211,0.7188574231658791],[-0.8685676450759306,0.41112471082563484,-0.36894885425445706,0.3455682247921885,-1.3493666423509392,-1.6320197940066934,0.9900944932412623,-0.15910871379242952,-0.27134641674904914],[0.0015898950443000714,-0.46072652657375723,-0.32110058727663393,-0.16128939122096264,-0.5640782172699308,0.5662954792408494,-2.670700564407788,0.9328630826627562,0.36954838263237133],[-0.3091205106961269,-0.08930645978678364,0.3395277209217542,0.9348595349496853,1.050076992218095,-0.4984916325790285,-1.0859175515772015,0.6963332780726221,-0.09304504167188621],[-0.481077134800856,-0.7131778359740464,0.6962624710581902,-0.25875157922378644,0.5521244221599866,0.2779025742696777,0.9410546648033455,-0.008504219040195604,-1.3465936755357686],[-0.5601208242029998,0.7033000811365819,-0.13352210699482137,0.05291734147716132,-0.5926963454713121,0.1781574853242196,1.4037002767699787,0.3638067899969215,0.9556642030649796],[-0.006439611195377726,1.158513132843714,-2.15141806743054,-0.620946108617337,1.5710936329540983,-2.392564871010691,0.9062265460952934,-0.21503615422748543,0.37656301293524064]],"rows":9,"cols":9},{"data":[[0.9750086202270374],[1.677544803758189],[-0.11635792932548483],[-0.24656859176161872],[2.0375348891295295],[-0.9964268823723402],[-0.7111287698221541],[-2.1068585292167956],[-0.19183809544977426]],"rows":9,"cols":1}],"biases":[{"data":[[-0.1514954151583513,0.1230361413087131,1.084477658096521,0.6638807104555435,-1.0479809163605636,0.8788657615784525,-0.6400246314058782,0.9798862833044641,0.07245865400833007]],"rows":1,"cols":9},{"data":[[2.3615640835566083,0.03061620791426556,-2.4303936107153232,0.6641760746643453,-1.1136334209902337,-0.31489934948837606,-0.466543129492762,0.4325666437012892,0.5596900517772041]],"rows":1,"cols":9},{"data":[[-2.190615220216669]],"rows":1,"cols":1}]}],"length":3},{"type":"Genetic_Combined_Network","activation_function_name":"tanh","activation_function":{},"networks":[{"type":"Genetic_Convolutional_Neural_Network","activation_function_name":"swish","activation_function":{},"length":1,"width":4,"height":4,"weights":[],"biases":[],"kernels":[{"data":[[-0.1504490620052834,-0.1426205400681958,-1.9081585211400012,-2.529914234242363],[-0.24008272286225374,-1.3592420741182176,-0.784713050933983,0.34340472352494844],[-0.8367155306847032,-0.7623656816161222,-0.9640295049603359,0.6272927481101331],[-0.41617730506181516,-0.3033131256366619,0.6786318606007398,-0.3925026686993822]],"rows":4,"cols":4}]},{"type":"Genetic_Flatten","activation_function_name":"identity","activation_function":{}},{"type":"Genetic_Fully_Connected_Neural_Network","activation_function_name":"tanh","activation_function":{},"length":3,"width":9,"weights":[{"data":[[0.4227682014282585,0.577731634061871,1.5510237071780932,1.3098910242035053,1.5524178788911436,-0.2693979924125892,-0.8576447075913798,0.01076979726138938,0.922880415688879],[-0.7731690502150523,-0.3045249269675703,0.36211504117468607,1.9452378976945988,-0.6276708832931674,0.6764195227978318,1.417777301846347,1.0129128571093835,-0.541358308330796],[0.3591589644269573,0.6131786634961327,0.017154120032127906,0.31252440120967123,-0.36498676530871377,0.18239417527790103,0.6813898426398288,0.49023552629284084,0.1476352725543859],[0.5112668660052202,0.4126183608136782,0.7368877234024511,1.788352815678775,-0.11187772011019681,-0.2744546446807823,1.1821225727320215,0.23339394632089872,-1.5889384746285908],[0.048578719064493736,0.9645924607128649,-1.1608794890013812,0.3761315476353565,1.5804566880992477,-0.09807401377845702,0.09380716360887442,-1.6698276363544111,-0.19706654880073748],[0.802303478972608,-0.4325128890989449,-0.4362391336686069,0.9645897407931734,0.09826262222117932,-0.730258531559264,-1.3194932442593603,1.2185850113089,-0.11170507277770848],[-2.02686363043634,0.0813970474774286,-0.18963732429586008,-1.7895256160908288,0.6436983037242496,1.1168179703817933,0.1580720947953289,-1.3570333938194512,-0.05986560651902395],[0.17818149710068523,0.9939426048294184,0.44178663475084634,0.4658083307215557,0.8481360076728157,-1.6106136422868498,0.3509681023078355,0.604909750836754,-0.8453957410053743],[1.8654894286373098,-0.3972343585610514,0.04336605716209707,-1.1449277310360366,1.3248081542802566,0.2641973821096879,-0.9877395559672641,0.4754602214663941,-0.38485711619872387],[0.019118352839313735,0.8285606517602564,1.0504284573807805,2.094751340369989,-0.5069524097706375,2.2419701299661194,-1.6596505705455715,-0.04212894935854438,-0.16354711921803367],[1.3271495504945294,-0.5223355802649463,0.2564641745118911,0.17491773236261898,0.8027107053926545,-0.6096932870352978,-0.26052501338001555,0.10835443787964873,0.8599282843677418],[0.39080952263467905,0.3395859086170461,-1.6037902943923057,-0.4197261037429305,0.7318116221720006,0.3992521946739336,1.2879648336268446,3.300489165682392,-1.2392285717052793],[1.188369727028515,0.7767903795967188,0.9543578212896273,1.6735099108785092,-0.6269741827714819,1.0659369915777588,-1.2929960085312966,0.40458448440681893,2.106780645491831],[0.29538394027720916,-0.15523418447840692,0.09076104718352163,-0.4002377506349688,-1.794306403264797,-3.080235656264892,0.10555348671624398,-0.7839340996520949,-0.04757771941483697],[0.7179412134253913,0.40174763135021374,1.2732134485237783,1.2809639413740523,-0.3768931382853764,0.5696760725204648,-0.9187882144581452,0.48281748299754046,-2.4921300762202665],[0.4328881666220751,0.08210831629995519,0.4397322731135249,0.5715909670633823,0.2821302273857629,-1.0277318509271332,-1.4526968621734786,0.2653756139572312,-1.6794231255654815]],"rows":16,"cols":9},{"data":[[1.360916677649394,1.7542835830508734,1.2657750421952971,0.5029094402978003,-0.04921348726053165,0.09367013716414885,-0.7893905545738193,0.2005662282712315,-0.5910077816485362],[0.2225260102634439,0.49619001302965504,0.572496292011742,-0.2505881356935019,-0.17111509721285378,0.8846666154106699,-0.4620542765023409,0.7377899861501183,-0.15835577756231112],[-1.258733099926349,1.0622505635186723,2.5895814967095276,0.5021850073216894,-0.517528212443179,-1.053027648145597,-3.201506442245718,0.7771974684017304,0.7188574231658791],[-0.8685676450759306,0.41112471082563484,-0.6062186828667819,1.0299799097414617,-0.3758742035560234,-1.6320197940066934,0.9900944932412623,-0.15910871379242952,-0.27134641674904914],[0.0015898950443000714,-0.46072652657375723,-0.32110058727663393,-0.16128939122096264,-0.5640782172699308,0.5662954792408494,-2.670700564407788,0.9328630826627562,0.43858059348242784],[-0.3091205106961269,-0.08930645978678364,0.3395277209217542,0.9348595349496853,1.050076992218095,-0.7989613215387574,-1.0859175515772015,0.6963332780726221,-0.09304504167188621],[-0.481077134800856,-0.7131778359740464,0.6962624710581902,-0.25875157922378644,0.5521244221599866,0.2779025742696777,1.3921059453192113,0.1357263475273478,-1.3465936755357686],[-0.7721286171602488,0.7033000811365819,-0.13352210699482137,0.05291734147716132,-0.5926963454713121,0.0362769810375938,1.4037002767699787,0.3638067899969215,0.9556642030649796],[-0.9102802249791391,1.158513132843714,-2.15141806743054,-0.1521088116873589,1.5710936329540983,-2.392564871010691,0.9062265460952934,-0.21503615422748543,0.37656301293524064]],"rows":9,"cols":9},{"data":[[0.9750086202270374],[0.8673281325923179],[-0.5665585546106455],[-0.24656859176161872],[2.0375348891295295],[-0.5392029381996798],[-0.7111287698221541],[-2.1068585292167956],[-0.19183809544977426]],"rows":9,"cols":1}],"biases":[{"data":[[-0.1514954151583513,0.1230361413087131,0.2624703505481163,0.6638807104555435,-1.0479809163605636,0.8788657615784525,-0.6400246314058782,0.9798862833044641,0.07245865400833007]],"rows":1,"cols":9},{"data":[[2.3615640835566083,0.03061620791426556,-2.4459183057370435,0.6641760746643453,-1.1136334209902337,0.4482916745763976,-0.4035196949118518,0.4325666437012892,1.2565164988728714]],"rows":1,"cols":9},{"data":[[-2.190615220216669]],"rows":1,"cols":1}]}],"length":3},{"type":"Genetic_Combined_Network","activation_function_name":"tanh","activation_function":{},"networks":[{"type":"Genetic_Convolutional_Neural_Network","activation_function_name":"swish","activation_function":{},"length":1,"width":4,"height":4,"weights":[],"biases":[],"kernels":[{"data":[[-0.1504490620052834,-0.4475777207101935,-0.9089602459538532,-1.9172424173850202],[-0.24008272286225374,-1.2197255607188102,-0.784713050933983,-0.32922840767134975],[-0.8367155306847032,-0.7623656816161222,-0.9640295049603359,0.7629541394637487],[-0.3237595328338232,-0.3033131256366619,0.6786318606007398,0.3340255902537048]],"rows":4,"cols":4}]},{"type":"Genetic_Flatten","activation_function_name":"identity","activation_function":{}},{"type":"Genetic_Fully_Connected_Neural_Network","activation_function_name":"tanh","activation_function":{},"length":3,"width":9,"weights":[{"data":[[0.4227682014282585,0.577731634061871,1.5644426912856573,1.3098910242035053,1.286824738669217,-0.2693979924125892,-0.8334269594153949,0.19940260823734968,0.922880415688879],[-0.7731690502150523,-0.3045249269675703,0.36211504117468607,1.0830776672885882,-0.0903659963574841,0.6764195227978318,-0.441346274911931,1.0129128571093835,0.22719590326697214],[0.3591589644269573,0.2317552148856281,0.017154120032127906,0.31252440120967123,0.12963160747625402,0.16794342338386103,1.0096697982201106,0.49023552629284084,0.1476352725543859],[0.5112668660052202,0.4126183608136782,0.7368877234024511,1.788352815678775,-0.11187772011019681,-0.2744546446807823,1.1821225727320215,0.7390158659630301,-1.5889384746285908],[0.048578719064493736,0.9645924607128649,-1.1608794890013812,0.3761315476353565,1.5804566880992477,-0.162933045458304,0.6041726657939299,-1.6698276363544111,-0.19706654880073748],[0.802303478972608,-0.4325128890989449,-0.4362391336686069,0.9645897407931734,-0.06043533354502739,-0.730258531559264,-1.4148928799115512,1.2185850113089,-0.6310974436128456],[-2.02686363043634,0.0813970474774286,-0.18963732429586008,-1.7895256160908288,0.40388502113902214,0.5829264147918978,-0.6461532716315987,-1.3570333938194512,-0.05986560651902395],[0.17818149710068523,