{
    "0": {
        "type": "Genetic_Combined_Network",
        "activation_function_name": "tanh",
        "activation_function": {},
        "networks": [
            {
                "type": "Genetic_Convolutional_Neural_Network",
                "activation_function_name": "swish",
                "activation_function": {},
                "length": 1,
                "width": 4,
                "height": 4,
                "weights": [],
                "biases": [],
                "kernels": [
                    {
                        "data": [
                            [
                                -0.04972773190056945,
                                -0.107044917476259,
                                0.04425608950607268,
                                0.09051473108234664
                            ],
                            [
                                0.12453587521713227,
                                0.12401327093037257,
                                -0.005078658960128712,
                                -0.007842452755719875
                            ],
                            [
                                -0.047355286461163604,
                                -0.05430422908177651,
                                0.02732859879069721,
                                -0.016759284154117038
                            ],
                            [
                                0.016118657504055278,
                                -0.05068896125180472,
                                0.08452603338300313,
                                0.02518066803052227
                            ]
                        ],
                        "rows": 4,
                        "cols": 4
                    }
                ]
            },
            {
                "type": "Genetic_Flatten",
                "activation_function_name": "identity",
                "activation_function": {}
            },
            {
                "type": "Genetic_Fully_Connected_Neural_Network",
                "activation_function_name": "tanh",
                "activation_function": {},
                "length": 3,
                "width": 5,
                "weights": [
                    {
                        "data": [
                            [
                                -0.365217173225169,
                                0.1313414745710295,
                                0.3948586359387064,
                                -0.4786270328470344,
                                -0.1413490395576815
                            ],
                            [
                                0.18219699799343816,
                                0.16822164116100893,
                                0.3325345225878701,
                                -0.5092988750504315,
                                -0.12002443311284723
                            ],
                            [
                                0.35276740277112273,
                                0.16872205219342581,
                                -0.17092715789083748,
                                -0.20351413417956662,
                                -0.45575852126200084
                            ],
                            [
                                0.5699711511126155,
                                0.6042064164452403,
                                0.12220473921502828,
                                0.43767556770116434,
                                0.227214507859116
                            ],
                            [
                                -0.08301287931118527,
                                0.09876060747151535,
                                0.6004794897258492,
                                -0.15335964570353033,
                                0.2614252860364652
                            ],
                            [
                                0.006052274241724556,
                                -0.44450890888309785,
                                -0.2454544397493236,
                                0.08085389109872809,
                                0.13235008947054896
                            ],
                            [
                                0.5744668497869329,
                                -0.4335810384857868,
                                -0.35458597852523965,
                                0.49601984422669737,
                                0.13667638283062497
                            ],
                            [
                                -0.20843837968145262,
                                -0.33760469733142684,
                                0.17480545791414354,
                                -0.32129991351967635,
                                -0.20682499136693228
                            ],
                            [
                                0.12777012130939103,
                                -0.3167683544758499,
                                -0.2708061637244275,
                                -0.5650668837685106,
                                -0.19839613735396835
                            ],
                            [
                                0.5800603263222137,
                                0.5243905707048507,
                                0.6232958271238789,
                                -0.34747110006582577,
                                0.4755849289934715
                            ],
                            [
                                -0.2665803949044944,
                                0.6014939219659772,
                                -0.12634730854213136,
                                -0.09226758681219714,
                                0.2924788802856031
                            ],
                            [
                                0.12792036295278278,
                                0.374086454025985,
                                0.5592779557067907,
                                -0.03303469608280923,
                                0.023079040780460105
                            ],
                            [
                                -0.42896484654533257,
                                -0.6036691811202396,
                                -0.22212063493555903,
                                0.33409395550480314,
                                0.34310749036685645
                            ],
                            [
                                -0.3145609010980437,
                                -0.5978776929697174,
                                -0.3295345338816302,
                                -0.5175941331538065,
                                -0.2054855782668805
                            ],
                            [
                                -0.5261198787224585,
                                -0.13195345072905704,
                                0.011414881441988685,
                                -0.6031448054071206,
                                -0.5526327357800328
                            ],
                            [
                                -0.44670133972248477,
                                0.5328083124121289,
                                0.2669609504891535,
                                0.39103857164091643,
                                -0.547486840634201
                            ]
                        ],
                        "rows": 16,
                        "cols": 5
                    },
                    {
                        "data": [
                            [
                                -0.568966949466432,
                                0.031456224387490794,
                                -0.6211222897771701,
                                -0.21420641888133934,
                                -0.2653471172929046
                            ],
                            [
                                -0.5779865578697823,
                                -0.09409375931556237,
                                -0.5849559802258907,
                                -0.18474034410916632,
                                0.11047442937393726
                            ],
                            [
                                -0.38814439028260056,
                                -0.4664108143833647,
                                -0.5554683038388555,
                                0.24715888809656159,
                                -0.5479482150958208
                            ],
                            [
                                0.5020859892912146,
                                -0.1711451320294487,
                                0.5892899230442075,
                                -0.6050908169512647,
                                0.5753265033711253
                            ],
                            [
                                -0.08609839929856601,
                                -0.23244844168737028,
                                -0.23404942387419372,
                                0.1223353267002158,
                                -0.28357338679051436
                            ]
                        ],
                        "rows": 5,
                        "cols": 5
                    },
                    {
                        "data": [
                            [
                                0.5421798130890895
                            ],
                            [
                                -0.290687284048078
                            ],
                            [
                                -0.33130161750212683
                            ],
                            [
                                -0.37881321088592435
                            ],
                            [
                                0.10533822440271312
                            ]
                        ],
                        "rows": 5,
                        "cols": 1
                    }
                ],
                "biases": [
                    {
                        "data": [
                            [
                                -0.11466031409212318,
                                -0.5255177239211722,
                                -0.32924927597909764,
                                -0.4041711604565604,
                                0.38869535232223335
                            ]
                        ],
                        "rows": 1,
                        "cols": 5
                    },
                    {
                        "data": [
                            [
                                0.548032032979294,
                                0.5625286223885483,
                                -0.16050701948322224,
                                0.5435925084878117,
                                0.37346423241994176
                            ]
                        ],
                        "rows": 1,
                        "cols": 5
                    },
                    {
                        "data": [
                            [
                                -0.2336524090585721
                            ]
                        ],
                        "rows": 1,
                        "cols": 1
                    }
                ],
                "process": [
                    {
                        "data": [
                            [
                                0.7378268842901008,
                                -0.4603274633087442,
                                0.7132013168214306,
                                0.024558648736596744,
                                null,
                                null,
                                null,
                                null,
                                null,
                                null,
                                null,
                                null,
                                null,
                                null,
                                null,
                                null,
                                -0.007570544640442427,
                                0.026814702222558114,
                                0.05404946839542625,
                                0.12882018674912127,
                                0.05004044535570154,
                                0.11626527767495529,
                                -0.20486252780450293,
                                0.20103646174748585,
                                -0.0013288502208780677,
                                -0.044391653438634986,
                                -0.06478375477872139,
                                0.05309801756757172,
                                0.034669424616841506,
                                -0.1217548022746435,
                                0.2725229452929613,
                                0.01904848593570133
                            ]
                        ],
                        "rows": 1,
                        "cols": 32
                    }
                ]
            }
        ],
        "length": 3,
        "score": 19
    },
    "1": {
        "type": "Genetic_Combined_Network",
        "activation_function_name": "tanh",
        "activation_function": {},
        "networks": [
            {
                "type": "Genetic_Convolutional_Neural_Network",
                "activation_function_name": "swish",
                "activation_function": {},
                "length": 1,
                "width": 4,
                "height": 4,
                "weights": [],
                "biases": [],
                "kernels": [
                    {
                        "data": [
                            [
                                0.03195858219612652,
                                -0.01231428130117318,
                                -0.10702357421444697,
                                0.00040435434596786113
                            ],
                            [
                                0.062193369222884376,
                                0.10660215687648378,
                                -0.0025022868109643714,
                                -0.002217533312460662
                            ],
                            [
                                0.036227692596403016,
                                -0.11060345660374926,
                                -0.02767897303538791,
                                0.11553381701907312
                            ],
                            [
                                0.07128519903601005,
                                0.12284299026672119,
                                0.07108539319548934,
                                0.01147099569743959
                            ]
                        ],
                        "rows": 4,
                        "cols": 4
                    }
                ]
            },
            {
                "type": "Genetic_Flatten",
                "activation_function_name": "identity",
                "activation_function": {}
            },
            {
                "type": "Genetic_Fully_Connected_Neural_Network",
                "activation_function_name": "tanh",
                "activation_function": {},
                "length": 3,
                "width": 5,
                "weights": [
                    {
                        "data": [
                            [
                                -0.5231687011437454,
                                0.13138890733116795,
                                0.12166876061413624,
                                -0.006656211974414244,
                                -0.1624667128567736
                            ],
                            [
                                0.5239137112844228,
                                -0.005824110868768632,
                                0.612520819614568,
                                -0.13423281998555012,
                                0.0785065709784232
                            ],
                            [
                                -0.5033470061969995,
                                -0.18268334520261198,
                                -0.11737440039183979,
                                0.42575646452950994,
                                0.26404477498826295
                            ],
                            [
                                0.04894026456004754,
                                -0.395689112540608,
                                0.4397880887226297,
                                0.06723454175442414,
                                0.024041039907897688
                            ],
                            [
                                -0.11250267192760895,
                                -0.5969263035650335,
                                -0.23135590535136033,
                                -0.16044085550285672,
                                -0.5590756509444273
                            ],
                            [
                                0.3791764480701768,
                                -0.05185778801354356,
                                -0.6252202585203538,
                                -0.04941194493450493,
                                0.07047507558194714
                            ],
                            [
                                -0.37698617564109665,
                                0.5634638133627479,
                                0.0485027296345458,
                                -0.024217038510628952,
                                0.5844018978344058
                            ],
                            [
                                -0.13812543751960635,
                                0.5104542113106673,
                                -0.17196056876411228,
                                0.15110416956634135,
                                -0.3039827058689599
                            ],
                            [
                                0.25630316805930087,
                                -0.2885611683207725,
                                -0.3754588357425145,
                                -0.30543198641631575,
                                -0.07962449666089716
                            ],
                            [
                                0.04383435214175167,
                                0.34399017985275204,
                                0.1693454027910162,
                                -0.052176653598811434,
                                -0.13040174790327647
                            ],
                            [
                                -0.34005559239366867,
                                0.4124791269475994,
                                0.11557648970684144,
                                0.07119868424290747,
                                -0.22543350349395702
                            ],
                            [
                                -0.14775832622972937,
                                0.6175043051836324,
                                0.4151289052622029,
                                0.12785150980469653,
                                -0.04241242953040209
                            ],
                            [
                                0.35196934263121255,
                                -0.425209779232667,
                                -0.026110410839672814,
                                -0.09632995177744301,
                                0.06587655349096208
                            ],
                            [
                                0.21245682879953418,
                                -0.5167676553476483,
                                -0.5484320974485896,
                                0.23767093494458805,
                                -0.08154058863769954
                            ],
                            [
                                0.31171304490324814,
                                0.5826657309838987,
                                -0.48631516072578246,
                                0.12008507643182816,
                                0.2665510631032979
                            ],
                            [
                                -0.24342776193974008,
                                -0.23538025338234386,
                                0.30997192024813675,
                                0.5788777510441998,
                                0.13979343008645734
                            ]
                        ],
                        "rows": 16,
                        "cols": 5
                    },
                    {
                        "data": [
                            [
                                -0.26238000283804735,
                                0.19520724531344544,
                                -0.10577805578253485,
                                -0.17177182686744963,
                                -0.16125385442778525
                            ],
                            [
                                0.15379356492896587,
                                0.0394920218998659,
                                -0.5837948080032419,
                                0.5945083060782321,
                                0.5755667100306077
                            ],
                            [
                                0.041109573019671206,
                                -0.1590817774254489,
                                0.3077940404502833,
                                0.6315637828765118,
                                -0.33184914650225045
                            ],
                            [
                                -0.4321663883779583,
                                0.2989246593755044,
                                0.37698800440965524,
                                -0.019509997658014363,
                                -0.37174689563188884
                            ],
                            [
                                0.012092504453112798,
                                -0.41092295925360434,
                                -0.31681108366459637,
                                0.4071376024708723,
                                0.6322525807053158
                            ]
                        ],
                        "rows": 5,
                        "cols": 5
                    },
                    {
                        "data": [
                            [
                                -0.5407660932921083
                            ],
                            [
                                -0.2369057190827461
                            ],
                            [
                                -0.6157394605044101
                            ],
                            [
                                -0.5237995436908287
                            ],
                            [
                                -0.4417652837090865
                            ]
                        ],
                        "rows": 5,
                        "cols": 1
                    }
                ],
                "biases": [
                    {
                        "data": [
                            [
                                0.15427997932724494,
                                -0.3614025205166726,
                                -0.5118301395874906,
                                -0.06658436270892071,
                                0.25447792798459923
                            ]
                        ],
                        "rows": 1,
                        "cols": 5
                    },
                    {
                        "data": [
                            [
                                -0.2107450370452468,
                                0.047895053282668035,
                                0.007913771174796238,
                                -0.2955795598666592,
                                0.5458214615489397
                            ]
                        ],
                        "rows": 1,
                        "cols": 5
                    },
                    {
                        "data": [
                            [
                                -1.9664119997513048
                            ]
                        ],
                        "rows": 1,
                        "cols": 1
                    }
                ],
                "process": [
                    {
                        "data": [
                            [
                                0.3514521707476983,
                                -0.5959734523869655,
                                0.028836992554370777,
                                -0.3961994673053413,
                                null,
                                null,
                                null,
                                null,
                                null,
                                null,
                                null,
                                null,
                                null,
                                null,
                                null,
                                null,
                                0.026548361284485778,
                                -0.1193860176476524,
                                0.3120657036382896,
                                -0.054377643148600385,
                                -0.02511449132663465,
                                -0.028520845804592285,
                                0.013171534828110454,
                                -0.16613697383106651,
                                -0.029012933514817048,
                                -0.02513141204276368,
                                -0.04367656201085198,
                                -0.12348815477626526,
                                0.04298111669605242,
                                0.012464731008024229,
                                -0.12450346503292001,
                                -0.0609686178929593
                            ]
                        ],
                        "rows": 1,
                        "cols": 32
                    }
                ]
            }
        ],
        "length": 3,
        "score": 17
    },
    "2": {
        "type": "Genetic_Combined_Network",
        "activation_function_name": "tanh",
        "activation_function": {},
        "networks": [
            {
                "type": "Genetic_Convolutional_Neural_Network",
                "activation_function_name": "swish",
                "activation_function": {},
                "length": 1,
                "width": 4,
                "height": 4,
                "weights": [],
                "biases": [],
                "kernels": [
                    {
                        "data": [
                            [
                                0.06891066936577278,
                                -0.12358597915438457,
                                -0.041680527536312406,
                                0.04582002698237897
                            ],
                            [
                                0.10469490482483046,
                                0.10481568222654819,
                                -0.11872655082816147,
                                0.07177654331098449
                            ],
                            [
                                -0.12459660141275042,
                                0.06406524876923086,
                                -0.09706670448530202,
                                0.0609976169028526
                            ],
                            [
                                -0.11282289976005183,
                                -0.06319333458467913,
                                -0.00535084939142072,
                                -0.020598406070769293
                            ]
                        ],
                        "rows": 4,
                        "cols": 4
                    }
                ]
            },
            {
                "type": "Genetic_Flatten",
                "activation_function_name": "identity",
                "activation_function": {}
            },
            {
                "type": "Genetic_Fully_Connected_Neural_Network",
                "activation_function_name": "tanh",
                "activation_function": {},
                "length": 3,
                "width": 5,
                "weights": [
                    {
                        "data": [
                            [
                                0.14068776339636713,
                                -0.21018471930384913,
                                0.33938009081581266,
                                -0.00766085234972465,
                                -0.531495006593153
                            ],
                            [
                                -0.24795720128591608,
                                -0.5832998807460121,
                                -0.1620333294092186,
                                0.40228351501108817,
                                -0.5014621961554274
                            ],
                            [
                                0.05117546334237719,
                                0.4126904894894341,
                                -0.5791483522440801,
                                0.2992578643647505,
                                0.2747554733770719
                            ],
                            [
                                0.04829196078699359,
                                -0.2007465881242423,
                                0.27427210423881854,
                                -0.6209334489120056,
                                -0.288770729833163
                            ],
                            [
                                -0.29429337104547904,
                                -0.2115660230596543,
                                -0.5179816837098803,
                                0.29541328056640775,
                                -0.6077852726630852
                            ],
                            [
                                0.21554254584120217,
                                0.06254720941675757,
                                -0.39003934308613036,
                                0.07074773603959339,
                                0.32144182762341006
                            ],
                            [
                                0.4782021054633768,
                                -0.570126056511763,
                                -0.44002704611569105,
                                -0.2815722837436104,
                                -0.027569970220450754
                            ],
                            [
                                -0.08517470958714006,
                                0.2909575675145464,
                                0.002293703427889454,
                                0.21740049243757442,
                                -0.6063014281248006
                            ],
                            [
                                0.5798434425260065,
                                -0.37168322471910814,
                                0.028568401683950112,
                                0.6242371177660367,
                                -0.2173103576191289
                            ],
                            [
                                -0.11702342397237495,
                                0.10816372015236365,
                                -0.3640338378042468,
                                0.47746649208242586,
                                0.0829099472003977
                            ],
                            [
                                -0.024355758225003625,
                                -0.46391430970480324,
                                -0.6252249894247734,
                                0.5345536878935765,
                                -0.25850663684413633
                            ],
                            [
                                0.36806974348455124,
                                0.14868083411857916,
                                0.5487076504773235,
                                -0.41205890393220057,
                                -0.5453195825286657
                            ],
                            [
                                0.6278820607162963,
                                -0.1984613312195783,
                                0.6214550612937848,
                                -0.572061967239951,
                                -0.07436475953357344
                            ],
                            [
                                0.5080150678804893,
                                -0.5736010770198713,
                                0.2759105707858725,
                                0.4604009477748336,
                                -0.11059705348950827
                            ],
                            [
                                -0.45162683745205956,
                                0.009756178700020247,
                                0.339841102735996,
                                0.07862489928061675,
                                0.5171740063568945
                            ],
                            [
                                0.37568267137523764,
                                0.41135445317324887,
                                -0.4199842409571388,
                                -0.3242331960385881,
                                0.3890676496095952
                            ]
                        ],
                        "rows": 16,
                        "cols": 5
                    },
                    {
                        "data": [
                            [
                                0.22917730506718445,
                                0.25361350484925044,
                                0.22101930014726473,
                                -0.3859444989149973,
                                -0.4347093285096708
                            ],
                            [
                                -0.39642660186253575,
                                -0.6003787584389217,
                                -0.23436848759843854,
                                0.20735468234131502,
                                0.3073473826649383
                            ],
                            [
                                -0.37016803999286374,
                                -0.06504712520712011,
                                0.18854009982867895,
                                0.505930497714582,
                                -0.32419629507387804
                            ],
                            [
                                0.46767978831455087,
                                -0.22292566864249616,
                                0.1891680283376365,
                                -0.5796946455359592,
                                0.3247274143253713
                            ],
                            [
                                -0.48138614249644646,
                                -0.3578181412954059,
                                -0.012006837763707116,
                                -0.13331100052041,
                                0.2718809314151579
                            ]
                        ],
                        "rows": 5,
                        "cols": 5
                    },
                    {
                        "data": [
                            [
                                -0.504920994544436
                            ],
                            [
                                -0.3920710190168346
                            ],
                            [
                                0.6132059149622296
                            ],
                            [
                                -0.5631207570351261
                            ],
                            [
                                -0.13571421696267183
                            ]
                        ],
                        "rows": 5,
                        "cols": 1
                    }
                ],
                "biases": [
                    {
                        "data": [
                            [
                                0.04725611480046927,
                                0.3978577208279554,
                                -0.5892856060143129,
                                -0.2163098171878386,
                                0.37281389642686524
                            ]
                        ],
                        "rows": 1,
                        "cols": 5
                    },
                    {
                        "data": [
                            [
                                -0.2724068973114252,
                                -0.1803438247188366,
                                0.5360911622499929,
                                0.48412866942558275,
                                0.16496946273578567
                            ]
                        ],
                        "rows": 1,
                        "cols": 5
                    },
                    {
                        "data": [
                            [
                                -0.3003030128751174
                            ]
                        ],
                        "rows": 1,
                        "cols": 1
                    }
                ],
                "process": [
                    {
                        "data": [
                            [
                                -0.9601180850953264,
                                0.7422052629030298,
                                0.2931896444537898,
                                -0.15666006369786079,
                                null,
                                null,
                                null,
                                null,
                                null,
                                null,
                                null,
                                null,
                                null,
                                null,
                                null,
                                null,
                                0.6718186234002965,
                                -0.052889430252591324,
                                -0.21093834721802543,
                                0.02316658560703253,
                                -0.15040900148633252,
                                0.10434208215990076,
                                -0.052105278125888166,
                                -0.12304390011669744,
                                -0.030448032939387092,
                                -0.16702604409628616,
                                -0.017972075700367598,
                                0.24700038714506273,
                                0.2264580288900454,
                                0.30784052503503817,
                                -0.07691953088321087,
                                0.1339833670804034
                            ]
                        ],
                        "rows": 1,
                        "cols": 32
                    }
                ]
            }
        ],
        "length": 3,
        "score": 14
    },
    "3": {
        "type": "Genetic_Combined_Network",
        "activation_function_name": "tanh",
        "activation_function": {},
        "networks": [
            {
                "type": "Genetic_Convolutional_Neural_Network",
                "activation_function_name": "swish",
                "activation_function": {},
                "length": 1,
                "width": 4,
                "height": 4,
                "weights": [],
                "biases": [],
                "kernels": [
                    {
                        "data": [
                            [
                                -0.04584207084170061,
                                0.06729709886559093,
                                0.05183214332849656,
                                -0.01748245583265018
                            ],
                            [
                                -0.07557678483773211,
                                0.11579894019143022,
                                0.093511376039289,
                                -0.020320377965739544
                            ],
                            [
                                -0.06288741396088726,
                                0.11680706255321477,
                                0.06381517757771688,
                                0.08294933687475092
                            ],
                            [
                                -0.1032406087176746,
                                -0.06563192624063885,
                                -0.05368875298556752,
                                0.0788186683179335
                            ]
                        ],
                        "rows": 4,
                        "cols": 4
                    }
                ]
            },
            {
                "type": "Genetic_Flatten",
                "activation_function_name": "identity",
                "activation_function": {}
            },
            {
                "type": "Genetic_Fully_Connected_Neural_Network",
                "activation_function_name": "tanh",
                "activation_function": {},
                "length": 3,
                "width": 5,
                "weights": [
                    {
                        "data": [
                            [
                                0.5990879500079295,
                                0.41827735980783864,
                                0.05965017156379254,
                                -0.26768465730251345,
                                -0.04164348511150056
                            ],
                            [
                                -0.6319144638317631,
                                -0.6265036635895669,
                                -0.302303855933355,
                                -0.3114580018374461,
                                -0.4909546747826558
                            ],
                            [
                                0.3572349623990358,
                                0.5575855741699763,
                                0.07750784171270275,
                                0.07158713981793097,
                                0.3431681728250516
                            ],
                            [
                                0.022717412348251257,
                                0.27912443337774956,
                                0.3665764083526201,
                                -0.24394559431241583,
                                -0.4219670465548042
                            ],
                            [
                                -0.15655200640078484,
                                -0.2910536590152775,
                                -0.4829843959234796,
                                0.5414747446474325,
                                0.19556090997396028
                            ],
                            [
                                -0.09828660690450654,
                                -0.49436888866158984,
                                -0.2877404995954004,
                                0.37657804246268956,
                                -0.574529954373895
                            ],
                            [
                                0.0005115189576866448,
                                -0.6032828746779628,
                                0.49507295282851127,
                                -0.3279258583653996,
                                0.21321034546575077
                            ],
                            [
                                0.07323438362635172,
                                -0.2515174455309386,
                                0.3528144940096982,
                                -0.3299972708019281,
                                -0.03569050840278486
                            ],
                            [
                                0.447846581448635,
                                0.5411019332583009,
                                -0.5896431377587887,
                                0.18812443146683328,
                                -0.21625034117184078
                            ],
                            [
                                0.21343576016406632,
                                0.3076267914017652,
                                0.6308092036462615,
                                0.19896234882301134,
                                -0.11003412288289692
                            ],
                            [
                                -0.5327685486986473,
                                0.42926107200500907,
                                0.5111612149442143,
                                0.3246493306719017,
                                0.026609103620429043
                            ],
                            [
                                -0.031084091443845337,
                                0.48689516516722875,
                                -0.35441562493885675,
                                -0.5433813982850381,
                                0.6205589984387706
                            ],
                            [
                                0.3519320971033127,
                                -0.14517198132719603,
                                0.38958802384296376,
                                -0.05554773007328304,
                                0.20830994166702116
                            ],
                            [
                                -0.5307053074476422,
                                -0.446229333431922,
                                -0.3378460984574829,
                                0.30783297617804095,
                                -0.01623441607249135
                            ],
                            [
                                0.18166223231213002,
                                0.34417233031445155,
                                0.576479823047116,
                                -0.5453814138519407,
                                0.4285522923752185
                            ],
                            [
                                0.5064330677903178,
                                -0.5140481786714068,
                                0.2317212100773964,
                                0.046023590997503756,
                                -0.6321438275104518
                            ]
                        ],
                        "rows": 16,
                        "cols": 5
                    },
                    {
                        "data": [
                            [
                                0.5887018025710413,
                                0.35410699292353626,
                                -0.24508883877559554,
                                0.42670394491267855,
                                -0.516265471536687
                            ],
                            [
                                -0.0663410885165389,
                                -0.5499611317915338,
                                0.02431066416997322,
                                -0.5287886700717183,
                                0.07395169148034553
                            ],
                            [
                                -0.3389847693546723,
                                0.21658842504483977,
                                -0.3281737835965975,
                                -0.048179262803322104,
                                0.602272022257623
                            ],
                            [
                                0.181065675830297,
                                -0.527709203645066,
                                -0.10269572608419757,
                                0.02807769099287356,
                                -0.42066225495192716
                            ],
                            [
                                0.4251491732437731,
                                0.5726576912098793,
                                0.0825598802665132,
                                0.4944137247922823,
                                -0.5353166489806942
                            ]
                        ],
                        "rows": 5,
                        "cols": 5
                    },
                    {
                        "data": [
                            [
                                -0.42385140155976136
                            ],
                            [
                                0.04159176174082525
                            ],
                            [
                                0.22997909438722242
                            ],
                            [
                                0.04512360565791342
                            ],
                            [
                                0.5036808082812183
                            ]
                        ],
                        "rows": 5,
                        "cols": 1
                    }
                ],
                "biases": [
                    {
                        "data": [
                            [
                                -0.0332089723404741,
                                0.12083953117792172,
                                0.404267245938995,
                                -0.4658167231471366,
                                -0.44217246690474693
                            ]
                        ],
                        "rows": 1,
                        "cols": 5
                    },
                    {
                        "data": [
                            [
                                -0.3922141890178513,
                                0.13566616297648018,
                                -0.5020157262233906,
                                -0.069778690001218,
                                -0.4221436311045598
                            ]
                        ],
                        "rows": 1,
                        "cols": 5
                    },
                    {
                        "data": [
                            [
                                -1.433607582686676
                            ]
                        ],
                        "rows": 1,
                        "cols": 1
                    }
                ],
                "process": [
                    {
                        "data": [
                            [
                                0.8628217369646807,
                                0.8366824074859971,
                                0.3639053515977393,
                                -0.7337798107192586,
                                null,
                                null,
                                null,
                                null,
                                null,
                                null,
                                null,
                                null,
                                null,
                                null,
                                null,
                                null,
                                0,
                                0,
                                -0.026123928991608824,
                                0.07599023779919405,
                                0,
                                0,
                                -0.03173946208054715,
                                0.08482834662753878,
                                0,
                                0,
                                -0.048958012813659975,
                                0.08619736558254178,
                                0,
                                0,
                                0.04096162624166978,
                                0.192404763311168
                            ]
                        ],
                        "rows": 1,
                        "cols": 32
                    }
                ]
            }
        ],
        "length": 3,
        "score": 13
    },
    "4": {
        "type": "Genetic_Combined_Network",
        "activation_function_name": "tanh",
        "activation_function": {},
        "networks": [
            {
                "type": "Genetic_Convolutional_Neural_Network",
                "activation_function_name": "swish",
                "activation_function": {},
                "length": 1,
                "width": 4,
                "height": 4,
                "weights": [],
                "biases": [],
                "kernels": [
                    {
                        "data": [
                            [
                                -0.09786150786342379,
                                0.11541448181873015,
                                -0.08836123994760042,
                                0.010738472609304883
                            ],
                            [
                                -0.03162825283327325,
                                -0.05200667308350976,
                                -0.006143348688254058,
                                -0.01813097689397347
                            ],
                            [
                                -0.020808592622556243,
                                -0.10880458083750072,
                                -0.08859305463406125,
                                0.048961059183325994
                            ],
                            [
                                0.11283598525098326,
                                0.05341440335723169,
                                -0.006501220582048883,
                                0.07426962301942636
                            ]
                        ],
                        "rows": 4,
                        "cols": 4
                    }
                ]
            },
            {
                "type": "Genetic_Flatten",
                "activation_function_name": "identity",
                "activation_function": {}
            },
            {
                "type": "Genetic_Fully_Connected_Neural_Network",
                "activation_function_name": "tanh",
                "activation_function": {},
                "length": 3,
                "width": 5,
                "weights": [
                    {
                        "data": [
                            [
                                -0.4476456333154234,
                                0.5999188840649482,
                                -0.41424464291481156,
                                -0.043332182131517995,
                                0.4795522777072269
                            ],
                            [
                                -0.4923281495886684,
                                0.5371896722663724,
                                0.2785161965630251,
                                -0.009181224535926402,
                                -0.21464208510156707
                            ],
                            [
                                0.1685957696650521,
                                -0.5086947442487446,
                                0.35465886686733167,
                                -0.10360953002201467,
                                0.04548918817950267
                            ],
                            [
                                0.025185316851591418,
                                -0.17292932148102397,
                                -0.5552371863523037,
                                0.10041724641977275,
                                0.2271441318622833
                            ],
                            [
                                -0.3000347484472292,
                                -0.049488756549445866,
                                0.41726673251278906,
                                -0.18271649302961945,
                                0.23945546802570628
                            ],
                            [
                                0.4679491255077321,
                                0.2221055949913461,
                                0.4871515741338666,
                                0.5230211596862643,
                                0.44571053189827486
                            ],
                            [
                                0.5444774319880463,
                                0.3978830899524259,
                                -0.21516534712505453,
                                0.467226716316731,
                                0.12781477499395438
                            ],
                            [
                                0.3281056565601385,
                                0.35149849580187936,
                                0.33225134108439197,
                                -0.28110471157097644,
                                0.18080570897644302
                            ],
                            [
                                -0.3495188655144586,
                                -0.012217257109817636,
                                -0.22857055273348928,
                                0.20282203950464245,
                                0.17818517972030654
                            ],
                            [
                                0.569028337140771,
                                -0.12329633847993099,
                                -0.38767201974411414,
                                -0.5704248942813284,
                                0.43534348787402405
                            ],
                            [
                                0.09337878560582111,
                                -0.43077890754692205,
                                0.420631222636686,
                                -0.19772126711448262,
                                -0.32865539323716164
                            ],
                            [
                                0.5798793703542302,
                                -0.5825948743897904,
                                -0.20227766388934582,
                                -0.0667223611695036,
                                0.0607090174954861
                            ],
                            [
                                -0.5443099348408279,
                                0.6228871802261284,
                                0.5217144961291893,
                                -0.35163468907486856,
                                -0.4510804683997066
                            ],
                            [
                                -0.5569234263957955,
                                -0.2833277710801891,
                                -0.011276584913560667,
                                0.29133692687408524,
                                -0.575101401335566
                            ],
                            [
                                -0.34415775498712714,
                                0.53441436734788,
                                -0.38015725409667117,
                                -0.5821624000064762,
                                0.16023678295540253
                            ],
                            [
                                -0.154351574450134,
                                0.06728698913491264,
                                -0.21493233129868367,
                                -0.23876940230797702,
                                -0.6125977890292891
                            ]
                        ],
                        "rows": 16,
                        "cols": 5
                    },
                    {
                        "data": [
                            [
                                -0.6264753921034389,
                                -0.05093363896046196,
                                -0.40595117774844,
                                -0.029599286592530603,
                                -0.02545845948268765
                            ],
                            [
                                0.05501067831253798,
                                -0.3615690411661018,
                                0.5141007270316889,
                                0.3174537000022223,
                                0.5627678518299795
                            ],
                            [
                                -0.5920627037371554,
                                -0.4297032634099099,
                                0.5139085387008484,
                                0.445433726437816,
                                -0.26850684800328917
                            ],
                            [
                                0.2507736840782408,
                                -0.3796660002706766,
                                0.44352492251691245,
                                0.5868611319860355,
                                -0.5559895813404604
                            ],
                            [
                                0.26884383076592483,
                                -0.019805889154535575,
                                -0.10611761461926404,
                                -0.2902677056762876,
                                0.01567568944005739
                            ]
                        ],
                        "rows": 5,
                        "cols": 5
                    },
                    {
                        "data": [
                            [
                                -0.1751080764533339
                            ],
                            [
                                0.5010380207956697
                            ],
                            [
                                -0.3443874113145409
                            ],
                            [
                                -0.2991192878281016
                            ],
                            [
                                -0.038294713332782816
                            ]
                        ],
                        "rows": 5,
                        "cols": 1
                    }
                ],
                "biases": [
                    {
                        "data": [
                            [
                                0.1711611126876279,
                                -0.31886787699941743,
                                -0.24873336446706315,
                                0.060228201383594866,
                                0.3898060944824165
                            ]
                        ],
                        "rows": 1,
                        "cols": 5
                    },
                    {
                        "data": [
                            [
                                0.22372061709348773,
                                0.5288992939660612,
                                0.18051133208296413,
                                0.3879811332351758,
                                0.4480420646602747
                            ]
                        ],
                        "rows": 1,
                        "cols": 5
                    },
                    {
                        "data": [
                            [
                                -0.9046837009867135
                            ]
                        ],
                        "rows": 1,
                        "cols": 1
                    }
                ],
                "process": [
                    {
                        "data": [
                            [
                                0.9242503397872701,
                                -0.31805985490803845,
                                -0.9161475489382767,
                                0.27653145658841316,
                                null,
                                null,
                                null,
                                null,
                                null,
                                null,
                                null,
                                null,
                                null,
                                null,
                                null,
                                null,
                                -0.019107261063111575,
                                0.06947687296265938,
                                0.06199453232223556,
                                0.23850118784074342,
                                0.06725286423707233,
                                -0.06221119061861036,
                                -0.09652271366806607,
                                -0.12119041711367379,
                                -0.04709938931163554,
                                0.16338726662449954,
                                -0.11783445284704085,
                                -0.058106358864544246,
                                0.023622284152431935,
                                0.02780972208564886,
                                0.10431726679895238,
                                0.183346420543937
                            ]
                        ],
                        "rows": 1,
                        "cols": 32
                    }
                ]
            }
        ],
        "length": 3,
        "score": 13
    },
    "5": {
        "type": "Genetic_Combined_Network",
        "activation_function_name": "tanh",
        "activation_function": {},
        "networks": [
            {
                "type": "Genetic_Convolutional_Neural_Network",
                "activation_function_name": "swish",
                "activation_function": {},
                "length": 1,
                "width": 4,
                "height": 4,
                "weights": [],
                "biases": [],
                "kernels": [
                    {
                        "data": [
                            [
                                0.0666440578725575,
                                0.052716714559328415,
                                0.10751732064645858,
                                0.01852002100559902
                            ],
                            [
                                0.011439739650557113,
                                -0.05472259610953811,
                                -0.03468115438728203,
                                -0.020096765728548405
                            ],
                            [
                                -0.0017726932164294773,
                                -0.06051715192584273,
                                0.09041690462557023,
                                0.03729370895685302
                            ],
                            [
                                0.038702603083932696,
                                -0.08186023894944328,
                                -0.05846617188386516,
                                0.004924503740532826
                            ]
                        ],
                        "rows": 4,
                        "cols": 4
                    }
                ]
            },
            {
                "type": "Genetic_Flatten",
                "activation_function_name": "identity",
                "activation_function": {}
            },
            {
                "type": "Genetic_Fully_Connected_Neural_Network",
                "activation_function_name": "tanh",
                "activation_function": {},
                "length": 3,
                "width": 5,
                "weights": [
                    {
                        "data": [
                            [
                                0.5855043963504697,
                                -0.2296893152776569,
                                0.5886647520344752,
                                -0.5276480709341843,
                                0.18979170783098054
                            ],
                            [
                                -0.06315400133021669,
                                0.2662762030901582,
                                0.45730309383185197,
                                0.34858586395240665,
                                -0.6277115387307011
                            ],
                            [
                                -0.3757193691890804,
                                0.20820778728464964,
                                0.13375254047444873,
                                -0.15461612987884674,
                                0.31715349567722284
                            ],
                            [
                                0.16180505068052317,
                                0.25524348083633297,
                                -0.5869458434917629,
                                0.02832442178880048,
                                -0.03322760137806943
                            ],
                            [
                                -0.4635318960446386,
                                -0.4741490185383898,
                                0.45875545988999294,
                                0.5313821821755899,
                                -0.19325206189201902
                            ],
                            [
                                0.6310209693432303,
                                -0.3007132374578639,
                                0.13913738943626364,
                                -0.6154400529818328,
                                -0.35575342399269655
                            ],
                            [
                                0.1268544835566846,
                                0.5272074642803642,
                                0.5393562934045242,
                                -0.05072645812264057,
                                -0.5185705853311332
                            ],
                            [
                                0.6061590495122553,
                                0.40309743038797285,
                                -0.1948835981141592,
                                0.2814573254885644,
                                -0.5641114164344281
                            ],
                            [
                                0.261725783041719,
                                -0.429419516235342,
                                -0.36663934458284747,
                                0.5694343485564519,
                                -0.007127444508671325
                            ],
                            [
                                0.113175264474,
                                0.554683026740741,
                                0.6266877860731909,
                                -0.18361438957362874,
                                -0.5787597145493747
                            ],
                            [
                                0.022374822331330597,
                                -0.5688245450803144,
                                -0.2187991482452306,
                                -0.4856408437438063,
                                0.6040597795593057
                            ],
                            [
                                -0.35841060614162334,
                                0.5745712304243614,
                                0.1434374798187845,
                                -0.1919702406022473,
                                0.16863525598730433
                            ],
                            [
                                -0.2607987772645247,
                                0.49032470168195663,
                                -0.5907028268087485,
                                0.5629194331032727,
                                -0.601709473908724
                            ],
                            [
                                -0.5823026098178057,
                                0.20911268072285658,
                                0.41215265272293394,
                                -0.6139044737157058,
                                0.05716874390385945
                            ],
                            [
                                -0.31011284579256926,
                                -0.31900108602121524,
                                -0.492813412845754,
                                -0.44813072132854526,
                                -0.2044841949046833
                            ],
                            [
                                -0.24021054722420368,
                                0.315370778372158,
                                0.17189832167433802,
                                0.2835403942739325,
                                -0.33931929533316246
                            ]
                        ],
                        "rows": 16,
                        "cols": 5
                    },
                    {
                        "data": [
                            [
                                0.5948355335615504,
                                -0.05726159812432055,
                                -0.3586595714661805,
                                0.20901093751322353,
                                0.1094412631507795
                            ],
                            [
                                0.37985806371042347,
                                -0.28158876668707716,
                                -0.24203788070663287,
                                -0.39030154492257935,
                                -0.3249873714423685
                            ],
                            [
                                0.44581261823390916,
                                0.21052672970474187,
                                -0.4099846341614184,
                                -0.4952716939997444,
                                0.3085926379576632
                            ],
                            [
                                -0.16406538260158798,
                                -0.03949113586327542,
                                0.3383105180919931,
                                0.5796193588253172,
                                0.21103267260694972
                            ],
                            [
                                -0.25043256840665684,
                                0.32180035265626683,
                                -0.16060434306967042,
                                -0.19297305072193646,
                                -0.23542704705473722
                            ]
                        ],
                        "rows": 5,
                        "cols": 5
                    },
                    {
                        "data": [
                            [
                                -0.27645123250282033
                            ],
                            [
                                -0.05455428727551453
                            ],
                            [
                                -0.11047954047146916
                            ],
                            [
                                0.6188636810894089
                            ],
                            [
                                -0.20031015078221834
                            ]
                        ],
                        "rows": 5,
                        "cols": 1
                    }
                ],
                "biases": [
                    {
                        "data": [
                            [
                                0.1937856240193769,
                                -0.335719545088381,
                                0.5579702058819052,
                                0.44532128982720787,
                                0.14497378844008887
                            ]
                        ],
                        "rows": 1,
                        "cols": 5
                    },
                    {
                        "data": [
                            [
                                0.4501834243055607,
                                0.22493381646176117,
                                0.02938970252132096,
                                -0.09171821334355244,
                                -0.04514044802447998
                            ]
                        ],
                        "rows": 1,
                        "cols": 5
                    },
                    {
                        "data": [
                            [
                                1.7102677675459779
                            ]
                        ],
                        "rows": 1,
                        "cols": 1
                    }
                ],
                "process": [
                    {
                        "data": [
                            [
                                -0.48998720465888246,
                                -0.037917127413405805,
                                -0.19041720237184867,
                                -0.980385275530995,
                                null,
                                null,
                                null,
                                null,
                                null,
                                null,
                                null,
                                null,
                                null,
                                null,
                                null,
                                null,
                                -0.036587041576859866,
                                0.06853170442494481,
                                -0.07468827989623836,
                                -0.04211812449030861,
                                0.026631159423462877,
                                0.007418746002017055,
                                -0.03297057562175443,
                                0.03868738237851348,
                                0,
                                -0.0024561891982458,
                                -0.07891033934258529,
                                0.05122030071016184,
                                0,
                                0.0274873404687184,
                                -0.10347254897597505,
                                0.12187832811393691
                            ]
                        ],
                        "rows": 1,
                        "cols": 32
                    }
                ]
            }
        ],
        "length": 3,
        "score": 12
    },
    "6": {
        "type": "Genetic_Combined_Network",
        "activation_function_name": "tanh",
        "activation_function": {},
        "networks": [
            {
                "type": "Genetic_Convolutional_Neural_Network",
                "activation_function_name": "swish",
                "activation_function": {},
                "length": 1,
                "width": 4,
                "height": 4,
                "weights": [],
                "biases": [],
                "kernels": [
                    {
                        "data": [
                            [
                                -0.015131546184035616,
                                -0.06349326454594334,
                                0.02082937527241402,
                                0.07781777950047736
                            ],
                            [
                                0.06020614218038739,
                                -0.07072272086335007,
                                -0.059484756418463736,
                                0.04659309554891594
                            ],
                            [
                                -0.06316426909239686,
                                0.2046252268858395,
                                -0.04927243178878876,
                                0.08338872321859303
                            ],
                            [
                                0.11967949224587199,
                                -0.6540214703754574,
                                0.07856189019273391,
                                -0.08565326676300883
                            ]
                        ],
                        "rows": 4,
                        "cols": 4
                    }
                ]
            },
            {
                "type": "Genetic_Flatten",
                "activation_function_name": "identity",
                "activation_function": {}
            },
            {
                "type": "Genetic_Fully_Connected_Neural_Network",
                "activation_function_name": "tanh",
                "activation_function": {},
                "length": 3,
                "width": 5,
                "weights": [
                    {
                        "data": [
                            [
                                0.019392891332293376,
                                0.5182078603419443,
                                0.5194739736112369,
                                -0.4034033180705013,
                                -0.5263563931675027
                            ],
                            [
                                -0.19788566335195604,
                                -0.2750445287350005,
                                0.25293472541549783,
                                -0.40552633096659574,
                                -0.5769666954785867
                            ],
                            [
                                -0.03371609567017418,
                                0.3034450396815311,
                                0.04666129535872475,
                                -0.2805324384150264,
                                -0.5651134349309256
                            ],
                            [
                                0.31261153466759456,
                                0.282128164067391,
                                0.5831497328317071,
                                -0.3560689022213206,
                                -0.5183810013362471
                            ],
                            [
                                0.6000607736977412,
                                -0.0500319949505406,
                                0.17505431811975525,
                                -0.2596808373709429,
                                0.2149716857808589
                            ],
                            [
                                -0.19756760419099312,
                                0.11979932836722441,
                                0.24388643686101616,
                                0.45249576175178374,
                                0.32587339639096935
                            ],
                            [
                                -0.5246842559750154,
                                -0.6017910777081078,
                                0.0741541247795803,
                                -0.03896739307069554,
                                -0.09054984855983945
                            ],
                            [
                                0.4889874923807709,
                                0.4669985672442253,
                                -0.1786902077037552,
                                -0.38205707339754746,
                                0.17868677073940975
                            ],
                            [
                                -0.16671734123823995,
                                0.5973715729614495,
                                -0.3356643962354714,
                                -0.6009296283937885,
                                -0.299717790699921
                            ],
                            [
                                0.30573117832579444,
                                -0.6269591169461672,
                                -0.6056742142786028,
                                -0.33016562567080276,
                                -0.5299992546390757
                            ],
                            [
                                -0.3790499779492584,
                                -0.1646761553084841,
                                0.5251519422661887,
                                0.3109456280315901,
                                -0.54788434105568
                            ],
                            [
                                -0.24060416106509658,
                                -0.4831143729985051,
                                0.15313977279400032,
                                0.028431598637177376,
                                0.5497430024043862
                            ],
                            [
                                0.5447353797197855,
                                0.5562953925834643,
                                0.35808560329056005,
                                -0.05508443766296272,
                                0.5120095862063225
                            ],
                            [
                                0.5524535174996135,
                                -0.06607090755385335,
                                0.3245405248732878,
                                -0.018539705443241846,
                                -0.129521569453956
                            ],
                            [
                                0.33390671609906464,
                                0.4056670612981982,
                                0.10578922174218096,
                                -0.5686066872224547,
                                -0.5335377667508893
                            ],
                            [
                                -0.5181531254712359,
                                -0.30206304683598867,
                                0.4461345122489448,
                                0.5797287024851723,
                                -0.5570440499389117
                            ]
                        ],
                        "rows": 16,
                        "cols": 5
                    },
                    {
                        "data": [
                            [
                                -0.4530177157981177,
                                0.2907623382237283,
                                0.371855893981792,
                                -0.34530620265544315,
                                0.427394978331403
                            ],
                            [
                                -0.26871792781714937,
                                0.35500852534741295,
                                -0.3611408085112235,
                                -0.027003389345405,
                                -0.031015034455193363
                            ],
                            [
                                -0.14349466660810256,
                                0.19147217341872824,
                                0.5636448374594621,
                                0.46078875343123454,
                                -0.16358957319471376
                            ],
                            [
                                -0.5930210757415256,
                                -0.3877362918880089,
                                0.18079491943733825,
                                -0.25384073832271514,
                                0.5148874941758036
                            ],
                            [
                                -0.0033621670011648474,
                                -0.09849818919712008,
                                0.3473438356219274,
                                0.5529847153764303,
                                0.4138767047510338
                            ]
                        ],
                        "rows": 5,
                        "cols": 5
                    },
                    {
                        "data": [
                            [
                                -0.4255527431298138
                            ],
                            [
                                -0.5931531267754242
                            ],
                            [
                                -0.3686544229515424
                            ],
                            [
                                0.18357969625661089
                            ],
                            [
                                0.20162985532715902
                            ]
                        ],
                        "rows": 5,
                        "cols": 1
                    }
                ],
                "biases": [
                    {
                        "data": [
                            [
                                0.5262893179099931,
                                -0.42448603360157683,
                                0.08390093951283964,
                                0.4747452143740978,
                                -0.4974638952979367
                            ]
                        ],
                        "rows": 1,
                        "cols": 5
                    },
                    {
                        "data": [
                            [
                                -0.24323876491413082,
                                -0.0387548461299646,
                                0.33828700435651476,
                                0.5657119276964451,
                                -0.306315874515903
                            ]
                        ],
                        "rows": 1,
                        "cols": 5
                    },
                    {
                        "data": [
                            [
                                -1.3127663481651233
                            ]
                        ],
                        "rows": 1,
                        "cols": 1
                    }
                ],
                "process": [
                    {
                        "data": [
                            [
                                -0.16177802187734613,
                                0.1800328372188904,
                                -0.8462760598165935,
                                0.3721905155320431,
                                null,
                                null,
                                null,
                                null,
                                null,
                                null,
                                null,
                                null,
                                null,
                                null,
                                null,
                                null,
                                -0.18073224503193427,
                                -0.09711027384706172,
                                0.2638302837127968,
                                -0.27083941208668283,
                                -0.2017077624238346,
                                -0.200083028590385,
                                -0.07180862351487613,
                                0.7230305588435805,
                                0.5116310450168139,
                                0.2792450456867788,
                                -0.20157031609431547,
                                -0.1711794587950328,
                                0.340216921477203,
                                -0.25473032186726,
                                0.5153785173620129,
                                0.13920132295263563
                            ]
                        ],
                        "rows": 1,
                        "cols": 32
                    }
                ]
            }
        ],
        "length": 3,
        "score": 12
    },
    "7": {
        "type": "Genetic_Combined_Network",
        "activation_function_name": "tanh",
        "activation_function": {},
        "networks": [
            {
                "type": "Genetic_Convolutional_Neural_Network",
                "activation_function_name": "swish",
                "activation_function": {},
                "length": 1,
                "width": 4,
                "height": 4,
                "weights": [],
                "biases": [],
                "kernels": [
                    {
                        "data": [
                            [
                                -0.08758999351053315,
                                -0.021866851188077907,
                                -0.11657129886368267,
                                -0.08886324565034992
                            ],
                            [
                                -0.04748224062483414,
                                -0.014616396812223542,
                                -0.006815454989025027,
                                0.043694545130847307
                            ],
                            [
                                -0.1225071596900083,
                                0.018952555646655433,
                                -0.11218700965598633,
                                0.0027927491659061054
                            ],
                            [
                                -0.036430095620479,
                                0.07268947572514783,
                                0.029669703768820777,
                                0.0009917268823537162
                            ]
                        ],
                        "rows": 4,
                        "cols": 4
                    }
                ]
            },
            {
                "type": "Genetic_Flatten",
                "activation_function_name": "identity",
                "activation_function": {}
            },
            {
                "type": "Genetic_Fully_Connected_Neural_Network",
                "activation_function_name": "tanh",
                "activation_function": {},
                "length": 3,
                "width": 5,
                "weights": [
                    {
                        "data": [
                            [
                                -0.11130068874025426,
                                -0.21975047451642046,
                                0.06480445942476158,
                                -0.43020461512271013,
                                0.06109435943492288
                            ],
                            [
                                -0.09499478414158406,
                                -0.26921809360000476,
                                0.2185384934793038,
                                0.4783934990692691,
                                -0.146750696341738
                            ],
                            [
                                0.4961210813446008,
                                0.6079214572274678,
                                -0.24137885002095635,
                                0.44297485629222466,
                                0.21298820176505953
                            ],
                            [
                                0.18686738961889274,
                                -0.43755314333028034,
                                0.14171693782688538,
                                0.5163866889954549,
                                -0.4954366837039922
                            ],
                            [
                                -0.6057441446431155,
                                -0.10501462184201592,
                                0.4120056766620348,
                                0.3562373211700255,
                                -0.027262470265224464
                            ],
                            [
                                -0.04200778063083874,
                                0.0580386721325279,
                                -0.025586577826078687,
                                -0.0651381206953066,
                                0.2119298723985432
                            ],
                            [
                                -0.328895728932496,
                                -0.129588202968241,
                                -0.20353141550854395,
                                -0.29357494323831684,
                                0.523577470295908
                            ],
                            [
                                -0.19809140705979647,
                                0.26597774132794866,
                                -0.449094753680811,
                                -0.4545212135968727,
                                -0.0653863289888923
                            ],
                            [
                                0.11491320730644373,
                                -0.06380845087863996,
                                0.5824194805293903,
                                0.39670609699358667,
                                -0.21138596443035682
                            ],
                            [
                                0.5351104920990185,
                                0.19111561497470794,
                                0.43634663953179087,
                                0.44787583745924886,
                                -0.5144153609522681
                            ],
                            [
                                0.3121504948160307,
                                -0.45792183474334375,
                                -0.37718372367558,
                                0.024741421167657592,
                                -0.44229796475816724
                            ],
                            [
                                -0.5270565235859174,
                                0.5167770116419397,
                                -0.5127368038627739,
                                -0.20524123314422657,
                                -0.27566622175877936
                            ],
                            [
                                0.2696702077154524,
                                -0.18269377388818098,
                                0.38390451857485475,
                                -0.4392054107592732,
                                -0.17231630328383915
