{"0":{"type":"Genetic_Fully_Connected_Neural_Network","activation_function_name":"tanh","activation_function":{},"length":3,"width":5,"weights":[{"data":[[0.3883734697549213,-0.29539911276422537,0.19535611527459565,-0.39222989657639074,-0.39297753494953164],[0.27612142827324715,-0.5605353602053601,0.2361937241542284,0.3241938630454771,-0.010876258995365259],[-0.2257924366315321,0.5044195285875851,-0.5411821589514728,-0.23371177510713972,-0.23186197924302637],[-0.5933761076671803,0.187035837420109,-0.1195593935368877,0.5011565066983104,0.19803729809071907],[-0.16621710587556945,0.07311923737061454,-0.1575603828392418,-0.07891435219619947,0.034677823622828806],[0.5635993286792471,0.17518560281768084,-0.01802651456905873,-0.48859638686539675,0.5792339860986958],[0.5389968727306745,-0.1744578784824234,0.1216435912781859,-0.6205423185065057,-0.04973162849629162],[0.6322012311137365,-0.24196761283152937,-0.18888709682118218,-0.4935502199848403,0.5688717760691735],[0.2020561452708865,0.5620665033413803,0.17523251941807003,0.5177927077630433,0.3919236956773951],[-0.4635300636827546,-0.501640823437192,-0.08569342236822594,0.5285653694807878,-0.061296397182425286],[0.15449328836478873,0.41969750387996957,0.3029406732359771,0.6114169127704956,0.3913437634563885],[-0.6121455621163996,-0.5743901359375949,0.2460982572640234,-0.5206855368925953,0.3096600091344431],[0.4840681957583474,-0.3881352766874701,-0.308853789050416,-0.5837959525839964,0.3836952826368813],[0.5601550312356756,0.45100852177667916,-0.2564582045146092,-0.41633445992691687,-0.04312568675731389],[-0.3794989780048851,-0.5589691500902794,-0.2269332308368698,0.49651997667746245,-0.2788883096609721],[-0.5484652672583038,0.45909167063686046,-0.15208764343944536,-0.20649564892594408,0.07138339095767166],[-0.0025981493220142158,0.04889179420837171,0.42056588641664994,0.04209283304626923,0.5397130711824398],[-0.4135018026787872,0.2925791234380667,0.38368515488041,0.047653140439066925,-0.43748193684099984],[0.16687413830929582,0.2403143577582239,0.5891571666563615,0.06952809071925684,0.3814345286699186],[-0.21029490734495018,-0.45143561047119296,0.33378410094413297,0.164767043360103,0.4643277034361632],[0.41460617841138087,-0.00935383730136049,-0.05697826613929107,-0.406049672267074,-0.3482752288605984],[-0.5388717107701614,-0.19811440120648496,-0.573877972423094,0.5297026358972647,0.3046434445693463],[0.2115705944874263,-0.3745858602208397,0.21783546349815908,-0.1233253188619121,-0.16545903591827693],[0.008021789595773657,-0.016443158735488368,-0.15631728835241593,-0.03666990171441948,0.3615095695987428],[0.130111911486856,-0.48561821836033836,-0.5592289229620783,-0.19511357502319132,-0.17440996154182123],[0.5529487746247566,0.6046607619430729,0.5641626595825862,0.6290327639729396,-0.26311209506074007],[-0.40283598571333956,0.5099813453344287,-0.32369982591556773,0.06852844055302759,0.244894999978688],[0.22373273174644828,0.4551328836454961,0.039171396575745185,-0.16206244486709787,-0.15269395918952114],[0.203291607426284,-0.5541914729100172,0.3706155166718966,-0.041428911582923014,0.28669315160029774],[-0.26018946269225157,0.38305438624130006,0.4593598992887446,-0.11234989707742869,0.29370168528055823],[-0.12913240175417084,0.0716793280214305,-0.3129460404717877,-0.23890949788213764,-0.3927114532609177],[-0.6186862974895437,-0.3827788581662492,0.2414504470919985,-0.33956589677426513,-0.16557932779913268],[0.40603306592667016,-0.22976724858131947,-0.049976807177266235,0.40340333976132026,-0.5660533194260061],[-0.2064552945708051,0.02192487375264945,-0.626332764898415,-0.2267068354708686,0.5189409669339063],[0.5893936640962308,0.359575098346077,0.07945362039890634,-0.1408997585804755,0.6037299029650558],[0.18074737069078564,0.5533492361067164,0.2231249508818902,0.013730068333597653,0.4084229644968873],[-0.11819981113060102,0.5557406916308173,0.38145663885753994,0.23652417619042687,-0.25087119685828047],[0.4020492900162343,0.06688133141455994,-0.4435430436661541,0.20228439964106318,-0.516576242094582],[0.03850359005961508,0.29638589971005436,-0.1148055306145923,0.33385276554604704,-0.22781556722735255],[-0.17960936051670745,0.1111763289521509,0.32065841169761183,0.07639126798897868,0.4175681177665761],[0.07191810576075947,-0.07789840361961657,-0.36225920253905236,-0.228964262170567,0.10943566871365883],[0.007791618225138527,-0.28289653078102533,0.3977018713157853,-0.2529510821258831,-0.5033351565956227],[0.42466363786426603,0.46800218399368154,0.4892807067009225,-0.032386302192462565,0.08131486411759786],[0.09561124954961747,-0.3545035963012523,0.1959394994047409,0.026496986638426624,0.0731746074327731],[0.3289893209192217,0.29332469842502173,-0.5318656846778019,-0.4924422728862459,0.11526166090977241],[0.06984538619793808,-0.0929373157975343,0.1459193374980668,-0.004978823117172016,0.21499687071587126],[0.35097577924067935,0.585650670830636,0.5397388822806076,-0.05887600992508746,-0.5605250979762448],[-0.5649142876566393,0.3010630142443343,0.4455856183708956,0.129680626879949,-0.6317332141877011],[0.19551882641880286,-0.17723033080070988,-0.33931889956719485,-0.43668096522249317,0.2571213838971569]],"rows":49,"cols":5},{"data":[[-0.5647473469723016,-0.08610450265640991,-0.44647305849382,0.3420702448800966,-0.41443812637208377],[-0.385877447977721,0.4159381146087615,0.009953954458644469,-0.49757896529796203,0.49216047514722655],[-0.21359604598069235,0.1687636874153538,-0.2730055548628425,0.35187585570766067,-0.2984021065308908],[0.19179069956034409,0.013657185024218001,-0.11513787479827564,0.5717202412912783,-0.38811352754759404],[0.6203874613224887,0.570428302120401,-0.17124530679173047,0.5301538809050671,0.027892404146214186]],"rows":5,"cols":5},{"data":[[0.5663749107618421],[-0.6061416713095241],[-0.10820212920937591],[0.5938964231529348],[0.601258677476702]],"rows":5,"cols":1}],"biases":[{"data":[[-0.19264866354469576,0.0015758566934940999,-0.21104094267486126,0.3891141303549228,-0.35849687845564077]],"rows":1,"cols":5},{"data":[[-0.11050499545732138,-0.27899491533514964,-0.3198697660848929,0.273559233505764,0.1697964480321226]],"rows":1,"cols":5},{"data":[[-0.8064791885070512]],"rows":1,"cols":1}],"score":75},"1":{"type":"Genetic_Fully_Connected_Neural_Network","activation_function_name":"tanh","activation_function":{},"length":3,"width":5,"weights":[{"data":[[0.571147475793335,0.2391664877879686,-0.6274422057517128,-0.5447133424845227,0.14477787244819595],[-0.6022083533744557,-0.3020513467955256,0.23658333769335646,0.4663157760251437,-0.34321370192433603],[-0.4601224171780443,-0.031093871255139755,-0.34495093049260744,-0.20065118807858112,-0.5586425260295687],[0.6169742582226357,0.21291282346786974,0.39924963694763227,0.162929011199611,0.1159491509885125],[-0.08608728230947693,0.16043533474482197,0.08452204915292728,-0.23265086231164409,0.2710652796885154],[0.06203637755991932,-0.3716029614483967,0.46004177055229695,0.16617119308090772,0.134552913213928],[0.03791679698522279,-0.39211931566436486,-0.2905397870218207,-0.026956114947931303,-0.4858780543977702],[-0.5092801735852045,0.05129629106981767,-0.2270809567636295,-0.055120570221737414,0.08290910836298922],[0.6190825096712791,-0.5073502297047393,0.5664207548445622,0.06245798201632127,0.49352001076062374],[-0.6075595777189434,-0.034005571271716536,-0.5113054130500958,-0.28197191620900663,-0.33207519514573186],[0.2777642825510506,0.23712244652586464,0.35957088126685227,0.34767508895698784,-0.2379482548975587],[-0.20531542927673535,-0.2764986975814265,0.48033913624113145,0.4385795060025402,0.19271812614178785],[0.2951449952552542,0.5889520964639039,-0.5097431218602317,-0.5997145466404942,0.1770476834464265],[-0.04488181327181134,-0.27404787675450876,0.1521804246307014,-0.5028645024734566,-0.592064615171666],[0.056860567618573284,0.4890581241756856,-0.5516440874293008,0.5710564529836322,0.6097278520439796],[0.12546088004803252,-0.08268808720006275,0.02605869479663695,-0.08595923669464622,0.14519840994761832],[-0.010237896390344944,0.5996133689559036,0.6277152464336644,0.5630771379455072,0.18699372485048626],[0.3439748647705344,-0.617690470543991,-0.3939407663127072,0.3015187082887549,0.33491405602145224],[-1.2134662759246058,-0.4358589254622303,-0.575477119651568,-0.049603847292264254,0.15276869074269664],[0.13341634507626124,0.5781653978325325,-0.3539237961557504,0.33761012508834637,-0.25061146169488513],[-0.18836492827134704,0.5373369780592667,0.29155399519274894,-0.616812314289274,-0.5932500894729521],[0.49858566049285946,0.03677904057892815,0.2714288878652795,-0.2624084824862088,0.08818623365624179],[0.07049516304126145,-0.4089131249700921,0.596844165025834,0.5452240443229251,0.18781884626481743],[-0.5207655009712787,0.08650700049634319,-0.3242651709150953,-0.19370993491098687,0.2036976834307644],[-0.08179319360047883,0.013788200162652954,-0.5497466298780934,0.6064464257658395,-0.3532169742889674],[-0.3769264386936969,0.09801982260475575,-0.5173950098369027,-0.14444772672307568,-0.3779030502387728],[-0.190664128702715,-0.29672467322549273,0.4195431843056448,-0.06919383803451962,0.2578096471033177],[0.0409206018874123,0.5904669056217747,-0.14912894303038765,-0.5214140254289559,-0.16670853825114093],[-0.5793541891951485,-0.09590126256219977,0.33625673185848826,-0.2182107504376983,-0.5370654841507647],[-0.33018654510225726,-0.23721223402733854,-0.3483838091075789,0.4445804979888245,0.16321753117279575],[-0.1802751926137431,-0.07255784679110196,0.13082296051363695,0.469076726762179,0.5585712176959419],[0.2602654805045768,-0.23242095375347419,0.4893475863217812,-0.034833983357636523,0.4776791379159654],[-0.5014793967173808,-0.6085480638012515,0.023752247070250938,-0.2927604856678678,-0.23915708521211815],[-0.310626810256587,0.16226098893483118,0.47520084668415635,0.03709741479019912,-0.179551842582111],[-0.18435850436811138,0.14934498455026154,-0.4163932380575159,0.5608557571764217,0.1950417710121062],[0.23999645528028068,-0.1009405958455501,0.34299888949944246,-0.09458931584597502,-0.45854459458226143],[-0.3502264270120805,0.0481158489326153,0.3692911427422445,-0.5171203302146448,-0.15348529873347028],[0.4048526786013975,-0.021736136534147122,0.1937013363727406,-0.3752695727537812,0.07035838493563505],[0.4298394622759009,-0.41275461724568496,-0.061150950854602475,0.3071467732629576,0.30066111500463655],[0.46895951077437226,-0.4154702042795659,-0.15472631660765862,-0.5625562762809987,-0.05032209273472873],[0.5482214836571033,-0.5202907891599905,0.5695087589351144,-0.5457127235752073,-0.009646492705918651],[0.026887803967921103,0.2501241083233835,0.3012009552809363,0.2880340709278189,-0.0482461283589966],[0.27341563248987205,0.6271859410523902,-1.1365962214697802,0.1322711897218854,-0.5968463750922208],[-0.1329155124480168,0.5334732427523392,0.21237372095445792,-0.27342746662200784,-0.5173868307342521],[0.3352759957447035,-0.24098826171727994,-0.5837786051222125,0.11863123265035287,-0.5212983657420859],[0.0563108537028885,-0.26553805716908074,-0.06595235396365424,0.5923507163060824,0.5020305144099492],[0.5389992819585413,-0.6069299368024952,-0.6274709085320509,0.5409755115339081,0.5889412677837819],[-0.05135630574874844,-0.01521794355218163,0.33273386852805376,-0.28917903830575026,-0.5316286634911779],[-0.5830973658594123,0.44955383978975777,0.10576897917851233,-0.42951333163404054,0.4419870315570009]],"rows":49,"cols":5},{"data":[[-0.4061319277803893,0.5800993561009028,-0.5871461342620955,-0.2519656990379213,0.11588475230463711],[-0.44824532535142,-0.16301936666296546,-0.3778063922070681,-0.26816551224012586,0.6005997431639474],[0.2171853978077936,0.5826398718520351,-0.5244903057181889,-0.14913928870572277,-0.500324363709861],[-0.1897206252063717,-0.3779910861825419,0.5157173638569197,0.3424519772627578,0.10971444604721976],[-0.6156173129351937,-0.5366223138748113,-0.5503066586241916,0.37533572257033115,-0.04258773036339624]],"rows":5,"cols":5},{"data":[[-0.12709157045624436],[0.4407380028072046],[0.14432363232392334],[0.3810613001874149],[-0.577524813752731]],"rows":5,"cols":1}],"biases":[{"data":[[-0.0776789053056576,0.2898224695905375,-0.6309843137134761,-0.1823803984810752,0.11651821365426503]],"rows":1,"cols":5},{"data":[[0.10320324293755101,-0.09669340086289611,0.36875625125087597,0.09937807114564781,-0.1878755854841129]],"rows":1,"cols":5},{"data":[[-1.367987316818696]],"rows":1,"cols":1}],"score":62},"2":{"type":"Genetic_Fully_Connected_Neural_Network","activation_function_name":"tanh","activation_function":{},"length":3,"width":5,"weights":[{"data":[[-0.6120365698933968,0.21967107523634516,0.36590856401046074,0.21387025207857951,-0.43054429410815803],[-0.6133040280944534,-0.22703319862320598,0.12650075435948321,1.1724178650607433,0.35743219348739497],[0.5721440899298099,-0.31397746655542214,0.4720881689246793,0.09913648402215826,0.21535538552452094],[0.3763466386399129,0.30949938047921155,0.19176863827285665,-0.49780820851348406,0.6569963541463475],[-0.1759811752668373,-0.4772407031401703,0.1292343441379138,-0.26328742130329624,-0.3049774296404967],[-0.6060919034683754,0.236994147534155,-0.19213071599358938,-0.20035420142782892,0.6183660880126902],[0.3219290162505617,-0.6214168249165547,-0.5199786130289942,0.36467825945229077,0.5784709303483075],[0.9117960861163192,-0.5192112216136456,0.9750939668966949,0.8958808866780847,-0.4699768848860799],[-0.1947209328024262,0.08914285999125404,-0.5425983939248934,1.0986727478977052,0.5867801140067086],[-0.42551954545809934,-0.5920258602695928,-0.3634340197977237,0.2873443046512001,-0.4211205521097712],[1.0753270140557256,-0.26910878858571113,-0.19874794861164088,-0.15903921202879712,0.25869856460214324],[0.21247113986734628,-0.8023271922429672,-0.36857151335261956,-0.5026482024866715,-0.27199431104693966],[-0.8842644478808523,-0.4230223057335712,-0.2627360047041256,-0.7403670083873295,-0.24316852045991677],[-0.18862669552158162,0.35474221439066433,-0.5389882599093134,0.47136809304888394,-0.44372995576188745],[0.16168809118594568,-0.4392836798007708,0.8492937219732983,-0.49714869611911444,0.4733132106800775],[0.5197208733657613,-0.3183004003027002,-0.8426648045453978,-1.322344196362967,-0.2085229928265436],[0.583617717874463,-0.1043271241562572,-0.07091660026258798,-0.3987413673236364,-0.1812281975379976],[-0.9045373409604375,-0.2603268683124715,0.3980997546556631,0.39322708846238674,0.03633424316129721],[0.08967021393308258,-1.2025908116914072,-0.5781140336902849,0.2102906285220724,0.12215537881238679],[-0.19214617693275685,0.49964333596505905,-0.3902856625884571,0.12214046238690793,-0.335635296901699],[-0.4067724981483954,-0.08036285210299106,0.08814663616302844,-1.0930046235790332,0.15739766805369812],[0.42009276230551257,0.03103430783810035,0.049169408301971966,0.494469548383066,0.37217621779400817],[0.5797406786299899,-0.4426310455515956,-0.27942742277186366,-0.40473776293882624,0.019185493972476368],[0.016943902575935716,0.9688960887055562,0.85849058500057,-0.13931508231467696,-0.4742117255711614],[0.0019746991673835344,-0.7118331470388342,0.3079678628592224,0.06281697303596487,-0.5232114857856515],[-0.20847628118964362,-1.0600581382886496,-0.14538605564400245,-0.2851841917932254,-0.37045304147079844],[0.08593275835094985,0.030494574071362024,0.15736864685287152,0.07874644549715051,0.19677240868538487],[0.25672329289242873,0.479222536434363,0.0778769956735163,-0.06599556795497068,0.38998947532689304],[0.42722613401995774,-0.07775948990752278,0.057704470874775635,-0.06434737924682218,0.10006495004123983],[-0.1370806412534712,0.1216542779507,-0.43616307528736065,0.4408997314851287,-0.5981580548621276],[-0.21234496800363528,-0.36158478096974006,0.5875154773852971,0.9052171565738516,0.4981211780131222],[0.12045412721671767,0.22204031157082282,-0.45967415165256886,0.5760757108824257,-0.010598924908355695],[-0.4221700148015004,-0.4676132168687317,0.16622131281792538,0.6219572127769978,0.4440925196615231],[0.21894321085716728,-0.562662701504278,-0.3280425341896134,0.05679264087970701,0.06684205697782869],[0.29255141795677936,0.0641388775347031,-0.20629608534689728,-0.3112940049956812,-0.40494452854918944],[0.37356585257359365,-0.349590443052026,0.5981324512365229,-1.2407583151310357,-0.46271116268750856],[0.2565074326092304,-0.44741254087895543,0.3226464554825079,-0.030559589914379497,-0.6079408751069056],[0.1279512118548594,0.12797800063434295,-0.03302771902491,-0.6645431701703369,0.28768934825952747],[-0.3817476307852125,0.7816275492662503,0.5765041536751982,0.4107799627027944,-0.009396438357651039],[0.37446979283303494,-0.5773993894909373,0.13618822398234934,1.000611026303154,0.5723978232328739],[-0.13579161142649787,0.30350133745553554,0.08455505843795728,0.5709623684256675,-0.48492276355371755],[-0.07837544430435461,0.19588638252553156,0.045293949640302436,-1.1088769519827961,1.310624913223808],[0.46696750486577104,0.21123639581037282,-0.512693146564481,0.3070148581532569,-0.27132698944794],[-0.3322363267033229,-0.4783364429921441,-0.28912139576146195,-0.3132493629305453,0.39058020558464546],[0.4876762993631454,-0.003956507862585389,-0.42887514592988757,-0.20943430083623826,0.4167005473338319],[0.8251101375344825,-0.38517246467790056,0.21483599031056413,0.4955294077285788,0.6136733410366447],[-0.5259296245622336,-0.07819071817635559,0.20865596471600464,-0.47214405125879993,-0.6460869996168308],[0.48831009202640485,-0.36173298163509926,0.6008674939013011,-1.2270377763923206,-0.23623555420791975],[-0.5246630903369984,0.22962833924920475,0.5692487125983461,0.23418844761123836,0.376921702866384]],"rows":49,"cols":5},{"data":[[-0.3581921757500114,-0.20931723167374042,0.5887086718224297,-0.12812813856154612,-0.18263268271749236],[-0.15582966183669866,-0.8829294546309422,0.0807488677309852,0.2933221702819688,-0.5658816476045712],[0.611745593009336,-0.5495299591394537,0.019587119940030474,0.019101074644804955,0.3789303876966699],[0.2322152719868007,0.2150396199310365,0.38627276299675073,0.4259236605572135,1.1098296761308104],[-0.1491627257768327,0.6033178283804992,-0.5224235508854708,-0.22677696716969276,0.06680664833486559]],"rows":5,"cols":5},{"data":[[-0.5958162428456885],[0.2821745411542257],[0.3229637430145822],[-0.59780365819631],[0.9790419692800163]],"rows":5,"cols":1}],"biases":[{"data":[[0.999125341699765,0.049007913190988885,-0.3410131002348611,-0.4979003027510932,0.04549557094704756]],"rows":1,"cols":5},{"data":[[0.6949871239592742,-0.28917670597101075,-0.48200810627703283,0.22682562798021533,0.33591803012719434]],"rows":1,"cols":5},{"data":[[1.9464449376942783]],"rows":1,"cols":1}],"score":61},"3":{"type":"Genetic_Fully_Connected_Neural_Network","activation_function_name":"tanh","activation_function":{},"length":3,"width":5,"weights":[{"data":[[-0.20304464926627405,-0.5247999938369422,0.2957801500863937,0.4581567376428048,-0.3533178379322716],[0.3034716599625334,-0.3803202851013434,0.3569539964018543,0.09960157614888543,-0.12709591749199542],[0.5197875544818754,0.0342770934947731,-0.35456510151628134,-0.5694845210914016,-0.5622599818797134],[-0.2378087678542881,0.40150348803248426,-0.6161852898554065,-0.11651903875648464,-0.60878699808096],[0.588808799655911,0.24497495607826866,-0.1250518352533135,-0.6154245264952086,0.3917415645436776],[-0.2825677763161575,-0.11479036905176629,-0.15213504656201382,-0.4821354738750504,0.5802097366257083],[-0.615728656398241,0.4154019603902559,-0.474202174087869,0.06179632939851942,0.44526399170574466],[-0.06788555487386642,0.026439546746261953,0.11538466768041385,-0.09467862266348155,-0.5198964191471984],[0.3678339483604664,-0.13579125042864607,0.4238195155443985,0.4832804772427575,-0.1382818961578401],[0.17511583477393416,0.5133021162355508,-0.5899923580686526,0.2651668438294554,0.2768835626874629],[-0.2721609534284999,0.573051545337733,0.5508549780995929,-0.15297672432029422,-0.0666203066372885],[0.15177659982682865,-0.5860976856350955,-0.5581079472070359,0.2906250859493064,0.2127001763625263],[-0.26541056244786315,-0.006951285641827834,-0.21026953037405702,-0.6235299958767824,0.12448666669003491],[0.6158380237400001,0.02464541292213361,-0.18857648775343938,0.0940551174496458,-0.3521376067718438],[0.03093577813995928,0.38160518408244953,-0.4967871699030854,-0.39684673592359615,0.10706521634317225],[0.4530523897436732,-0.4878544187585297,0.3313704682258261,0.49778894408318547,0.17267310629165858],[0.40648405562294065,0.5108302999593644,0.3686414710005797,0.13667192415409446,0.5387181713921941],[0.13728612080722843,-0.2337594989131623,-0.04844949769672188,0.29228887511347634,-0.13056762195391658],[-0.5960539983059285,-0.14711502031211987,0.24628283653099106,-0.08125051105473598,-0.2491348009524965],[-0.05644047839678087,0.34312658790791584,-0.5378399194438062,0.6204224329175544,-0.03818545367530797],[0.028423453113913987,0.5698504493905858,0.19882421947662576,0.2664015923803426,-0.03919788098936957],[-0.16724739626267462,0.09767769914431305,-0.5908700301439197,0.36161941985929447,0.5394589137814976],[0.529739291896019,-0.5878775761339284,0.5255859892725685,-0.4937658552851006,0.6313897599363766],[0.6304082844229771,0.39272156478701675,-0.1363275153543393,-0.3716114708740657,0.5955940172240045],[0.09975174881426525,0.5694945217152304,-0.44662671476049737,0.05191434587604744,0.3236734977812166],[0.32229530122433353,-0.17535008397469423,0.006389254887514693,0.6172594734586815,0.10650266368456028],[-0.56298042609693,0.32519430225341756,-0.21754849149345032,-0.07318537984561765,0.5149452151919073],[-0.04718630744313941,0.021240627271422938,0.3928775459055628,0.10905204976340646,-0.41225897313699306],[0.5819240237540554,0.23259384034461147,-0.6274427942535948,0.42760221061554393,0.22127968103535414],[0.14770459211174006,0.4706821368128937,-0.5869076647203507,0.2765782690358818,0.5463456261953317],[-0.22619955012809131,-0.014888958100081832,0.0646216911552336,-0.6016181002898238,0.3793303531557211],[-0.23695148581925576,0.47325676058285476,-0.07033484588473532,-0.4573985953374797,0.06264307021776173],[-0.28814254571833453,-0.08165288897661416,0.3797701084465523,0.2950814525283292,0.49510193352061355],[0.46191413685081695,0.6109844782914179,0.14354384130919376,0.25958816795790196,0.2527726165276966],[0.6138941391232771,0.5410590070539203,-0.023464538077442955,0.6226588227149552,-0.14576215522169214],[0.43894770641109915,-0.5915345689120305,-0.5084985899948211,-0.6521122881064814,-0.2294857220097297],[-0.45256711165262414,-0.005551748404663106,0.06096825092841846,0.5885541792920305,-0.0665957204312211],[0.10940628520852402,-0.2301646011887552,-0.2119746254130681,0.3636932957155656,0.5543244999203566],[-0.5671891320404516,0.3665651370612831,-0.07134457215428915,0.39837278160863604,-0.2952181787745393],[0.4549383132633124,-0.32363484266877623,0.1427618126295663,0.3690932972005161,-0.15136724247109457],[-0.5542585950958682,0.2656382863889641,-0.1357604668270864,-0.537290877739659,-0.48280055655030557],[0.10592765772223864,-0.5770531105265091,0.6196875192326307,0.09693984060415087,-0.4450176389225136],[0.18665179664851816,-0.3171123328737435,0.6208520664962812,0.08927174741106321,-0.3628618212993996],[0.25786121667585976,0.45077833381290133,-0.5137486643758286,-0.06098882925790373,-0.6237448489015232],[-0.5265235997159967,-0.13496173198186268,0.04341249358918778,-0.015409208824882259,0.2648946546248987],[0.04771304238634668,-0.2436112632002477,0.3223463409520862,-0.13793152133477207,0.3802848684642414],[0.49426410752536204,0.20079904942139912,0.43144916422617435,-0.25422203118331543,0.6235272157489798],[0.050639251712908846,0.25884371149187296,-0.13838548029497824,0.5100431198211126,-0.4455459534627653],[-0.0005795221379252609,0.6031607627935738,0.0003804444846875912,-0.6305660719109094,-0.18446476109891416]],"rows":49,"cols":5},{"data":[[-0.40286108434917006,0.2032812993210269,0.21621115901162125,-0.37365668614281994,-0.5314868845316019],[-0.22049347660627958,0.061101390946302805,-0.1356069840245184,-0.387093109672925,0.5785311647642252],[0.3000101621373526,0.21682256523911952,-0.24580812529976495,-0.40104352687269457,-0.10937203897692616],[-0.5663869209034502,-0.03141071972878506,0.49037560103234223,0.08439413025142815,0.5105159031919121],[-0.22320531511397473,-0.3239955866247705,0.5636850673850667,0.571655122772451,-0.2022911321858558]],"rows":5,"cols":5},{"data":[[0.3374188557334463],[-0.40111324967594675],[0.2433028700408858],[0.6106133305777651],[0.18627962746335922]],"rows":5,"cols":1}],"biases":[{"data":[[0.13387506279634037,-0.24341565771226692,-0.44784785355774626,0.0747239993944418,0.12204409297755846]],"rows":1,"cols":5},{"data":[[-0.4964512999186249,-0.31075011733850566,0.5761275938684632,0.43456533889601134,0.17262620860486544]],"rows":1,"cols":5},{"data":[[-0.6547905206739726]],"rows":1,"cols":1}],"score":61},"4":{"type":"Genetic_Fully_Connected_Neural_Network","activation_function_name":"tanh","activation_function":{},"length":3,"width":5,"weights":[{"data":[[-1.3609414549813332,0.27895057753065455,0.32354275985337716,0.01772103921937568,0.4909630814040326],[0.0953607093477729,-0.03012826931645529,-0.5528794266149142,0.4592338892209747,0.15014562981788548],[0.20728259350741607,0.25936420000300486,0.2084116721803249,-0.2175149340992537,-0.3074757435331743],[-0.6137246937728382,0.182998300027021,0.16155399045533772,0.8478224740194005,-0.16041721140761978],[0.007011024785675235,-0.15588911979590891,0.5676421091981613,0.14725416758860777,0.09470644023287265],[-0.5847481027636591,-0.5869907070272246,0.3225243826888456,0.5392535582797737,0.534789925707449],[-0.02193849785142895,0.1075815180704558,0.21336376834836446,-1.5910700367332553,-0.01984674369978998],[0.4088773356159694,0.6056082220569136,0.5616556790596191,-0.6529886746698412,-0.023893716576947107],[0.11993517909284074,-0.47166638334176275,-0.6013366107106408,-0.4307546800264488,-0.5662099170495861],[0.501651185084711,-0.059732315971861426,0.31077088137337616,-0.703676571035754,-0.06203768194859123],[0.5360763455883754,0.051683144360854354,-0.35980487763120766,0.011186631782710413,0.5786429939273176],[0.08828175428356695,0.1267447623687997,-0.11702755290781554,0.3698246135897776,-0.5819548257023058],[-0.47919342391927366,-0.4194882896366245,0.2982129158339022,-0.3859825775382067,-0.6626676744599067],[-0.5582324046671702,0.3700731776450085,-0.02548112982761852,0.14773025530074835,0.15674235066114314],[0.36632576949201034,0.2732403257944744,-0.15240272731947782,0.18022913920203953,-0.3651579477219992],[0.020745282732344956,0.1299213119172015,-0.5486175103992784,0.3919411577476846,0.12839592933810187],[-0.38900261956059645,0.5421782597926145,0.473607760090755,-0.37508393375253546,-0.322613259168577],[-0.596284976633769,0.3463457875384356,0.28909423624673064,-0.4541219782579047,-0.521531032658202],[-0.3964891937842561,-0.16769786466500336,-0.4690329548352326,0.532901495888083,-0.09845903385002332],[0.297776185260882,0.3828993563413121,0.12423662495789167,0.08188859954809793,0.7763147855199148],[0.15721976100323043,0.10699898425631651,-0.10103771966192743,0.1960467557177149,0.2412506493345892],[-0.23981154302955185,-0.3455196481233897,-0.3906549873090591,-0.5700727001195628,-0.5070524680687996],[0.23492417591779283,0.02722410645023936,-0.42099169360639344,0.17606036280818435,0.4259708079296225],[-0.19350060153770965,-0.2809636443610627,0.30699458935832186,-0.2356549922637675,0.11123782981545835],[0.36528581833491514,0.49916949383296344,0.14581291028644186,0.5734819911076541,0.10406861221828252],[-0.393965227165345,-0.3502829509452699,0.3210774146188453,0.13161516111547839,0.6255939688454384],[-0.02792854516924353,-0.1152363967899281,-0.3058923284999224,-0.4938838905582567,-0.32636450771716236],[-0.15148590785312407,-0.17062003237368065,0.11240722890842883,-0.6078407400253849,0.5616763705158228],[0.3734355475483734,0.6307271524053747,-0.14378451478520932,-0.12989703006898706,-0.3138586757770309],[0.004458932425563213,-0.3889165885151807,-1.0912045794456806,0.9425596148468403,0.4482348025838198],[-0.30100873098178726,-0.19931885694906587,0.24513756490238323,0.5243617343717768,0.5099626809193639],[0.11541380426080136,0.5666631366423046,0.03410144826649519,-1.1761655119716796,0.09686777478075301],[0.43298461623450896,0.25508276103578864,0.5743279078325794,-0.16261826102787313,-0.6099193963711216],[1.1896684953520111,0.47438812587347506,-1.1382276268910423,1.367722108136796,0.35619475920256893],[-0.40125037670828156,0.4884274689869729,-0.4187408789606778,-0.9147167113785692,0.07713044783540786],[-0.07793238674794833,-0.069476175113646,-0.11165734376892415,-0.04257268694255578,-0.23205540684791928],[-0.052377165244569236,0.09227763860947479,-0.14744728130521445,-0.5023869353662669,0.6059740187081766],[0.6240912760344958,-0.13672634546801762,-0.29648632224920846,-0.041013998269932725,-0.5399196763109135],[0.5852350920601549,0.14507989135364455,0.3026889869760805,0.4346963119147146,-0.45155992594918115],[-0.138240537913413,-0.603214760873799,-0.013414009398735494,-0.16602243282194318,-0.1648594213117591],[0.15574839663969153,-0.44955509586426007,-0.4772918918022475,-0.7671647234127082,0.3790552917529777],[-0.002280261588444443,0.4202910111780944,0.5102816606901917,0.35466740482673687,-0.01687084031175117],[-0.029614957454356272,0.6308657601238892,0.9845912394158138,0.47431826649101866,0.8777195346948128],[0.5406934430439445,0.14205725649720344,-0.10338027105665579,-0.4651290598646503,-0.029191846361180662],[-0.27996923702640136,0.3872092831485762,-0.3135734567169783,-0.2529118911060924,-0.28787815611099665],[1.253539294209776,0.43819148164075067,0.14181447985611317,-0.44738516622106284,0.04370143860359694],[-0.4665138001124947,0.26421985109379065,0.598862790071155,-0.4173393457726907,0.5843288446027851],[0.3617934923829732,0.10840347540163157,-0.11198021277758019,-0.05868660400398005,0.34931827282396716],[-0.0696423059377285,0.7894696787583733,0.25716064812377937,-0.431164923968268,-0.11751910217196655]],"rows":49,"cols":5},{"data":[[-0.5210196276866111,-0.4061533896376645,-0.3997034769663578,-0.18701272187040408,-0.2776040177735547],[0.8741979888589422,-1.2066231157004603,0.2671785099428306,0.9968846384202024,-0.3141083678472794],[0.49997915186649133,0.2736131044906964,-0.23199242156842906,-1.445599215766204,-0.0450954214397602],[0.0951716246578102,-1.0011934528771478,-0.3727816698016042,-0.5164730416703986,0.6014445259030454],[-0.06723724177133454,0.03190096047210416,0.0006373349336392664,0.055594504478904544,-0.3577511784566303]],"rows":5,"cols":5},{"data":[[-0.39860374256515874],[-0.3849636316608492],[-0.5990475011661193],[-0.013483070029754197],[0.4578167645951818]],"rows":5,"cols":1}],"biases":[{"data":[[-0.257738107778758,0.5265989562947162,1.1268579192843435,0.3901254250374928,0.30426711244595106]],"rows":1,"cols":5},{"data":[[0.11457808733434525,-0.4766296787303438,-0.2590462945973633,-0.5983280251755667,0.5342739158424701]],"rows":1,"cols":5},{"data":[[1.480658525550616]],"rows":1,"cols":1}],"score":53},"5":{"type":"Genetic_Fully_Connected_Neural_Network","activation_function_name":"tanh","activation_function":{},"length":3,"width":5,"weights":[{"data":[[-0.36945130311344976,-0.6289047537809449,0.4226165790967397,0.4385955815320918,-0.049980198773534934],[-0.4206821946235116,-0.20509193544264623,0.494294913131876,-0.3439382078299148,-0.5703075090849645],[-0.27358406781308736,-0.6234652909981517,-0.5077278272673877,-0.03138353754782019,0.4571144010890818],[-0.5913549822243497,-0.01694679179983243,0.4322495575988351,-0.09695157547398339,0.21779021029894144],[0.6072602075861463,0.15829361836421516,0.27849909729137146,0.14097526655774267,0.3705590462643199],[-0.48132661186127845,-0.6112242972131343,-0.2081414539811391,0.16702423683364578,0.10739302179305801],[-0.08929381327822591,0.24433983611543914,-0.010132031013199632,-0.34443574681009004,0.2749085139646447],[-0.07773029993703519,0.36723235462895154,0.49904473731338966,-0.6187754618824589,0.030780796383742252],[-0.5495312139180722,0.4910889643521302,0.5216885526265177,-0.030451800886595437,0.16501010291233523],[-0.45711052303550703,-0.40396523586504435,0.4557770647237887,0.548810093840324,0.5072358245523645],[-0.0908748313113143,0.12001279381618504,-0.4097413387484028,-0.08848972914603898,0.27143554170239553],[-0.3091286731883271,-0.32126596518835543,0.6071451995678175,0.5372997617414297,-0.34050720500007653],[-0.19823744296628146,0.21305010678694103,-0.013855787684023015,0.5872978201619521,-0.17443185631425295],[0.004830706267906004,0.03796710324510441,0.34277280215118955,0.4848063599884447,-0.4249315042677695],[1.043455728270215,-0.11082841406234756,-0.5521993415965597,-0.6162443593407116,-0.3346985042510817],[-0.411485180518005,0.031025107043427386,-0.0640317299180902,-0.14506555607361882,0.046952211788882474],[0.5315471321699989,0.057341028938183033,-0.3393308717176269,0.15966234656001674,-0.2115544916016715],[-0.06807292782262854,-0.47008652543287593,0.5896263844007602,0.5279240061857753,0.4979143619910155],[0.34354756243281487,-0.3814864333305547,0.36156179733052335,-0.27283085908380694,0.03284203177878496],[-0.3450627295721445,-0.35372397312279436,-0.3439001052572202,0.776918007015982,0.2975340228945974],[-0.5198208011355469,0.2059725514821643,0.14592456111676597,0.002362972208388304,0.262821666102594],[-0.2992759802644361,-0.5733837333845399,0.2932866976315087,0.17873235099918724,0.5204761865945384],[-0.0958073341864843,-0.44132973669667774,0.07869833066859683,-0.5262841779779774,0.3663866177588834],[-0.046781931961411415,-0.04363509335468981,-0.3275052511034803,0.27021611353767583,-0.20840404409177274],[0.1289698801481979,-0.4890072775491119,-0.2527086215797168,0.10171915894677258,-0.28982434264763446],[-0.20002489402052331,-0.395553980934511,0.5490057394310046,0.12164769039308139,-0.5678932760935047],[-0.4438323746385328,-0.0894782394577881,-0.2806391065108245,-0.2305078315947521,0.5442399546508461],[0.09016289058905956,-0.3384193629478873,-0.3782192051670537,0.06850162870330158,-0.5482889967548114],[-0.4319723553031786,-0.5490363868001121,0.3019401203387788,0.3029771793349444,0.43356808868298935],[0.3848868385460166,0.49695625097620005,-0.5253270435010543,-0.40151442957685707,-0.3073799895328693],[0.26772324680913906,-0.24385549996009948,0.282434900795541,0.09269542736168111,-0.004473260864696786],[0.17912398168951676,-0.07773096340953647,-0.4326031751529034,0.6184643564933627,0.3115465795076773],[0.06339007078772854,-0.5427145561540985,-0.015296219701927249,0.5445016543323108,-0.4135144002417296],[0.3934603177708163,0.05347125142867844,0.06635412907544819,0.47861017376482234,0.32728704720538315],[-0.14882930325295343,0.24307166743750452,-0.23386952198768543,0.42310352686180713,-0.2620589034623829],[0.5911336369606528,-0.22234675365070283,0.5764841548647631,0.1962566015256274,-0.20404681798483051],[0.06352196352167784,0.6169734297127115,-0.29373014478179027,-0.16381614047835558,-0.533487327296729],[-0.3478190804237385,0.24077221432910184,0.5126113971174211,-0.3222159931820781,0.17450835442499874],[-0.027644038089075666,0.2628597799776174,0.4453271151366372,-0.23754430980039506,0.3024981365199174],[0.08153868724255238,-0.20446096655330137,-0.21408899064805567,0.005359575970771562,-0.3976492355686521],[0.48893144894848645,-0.1717015590949987,0.008042828207921304,0.5849699429145799,-0.28845147031917134],[-0.42380864636929155,-0.6176689328521434,-0.08436950348654249,-1.0586614146539604,-0.29701055143652605],[-0.2775899416633515,0.29715968178511243,-0.42714165633083234,0.4185159253650233,-0.5591801552085326],[-0.5622200830711845,-0.19384437553545958,-0.2942571729107633,0.6196189847635716,-0.499344655279275],[-0.5870646620802303,0.5184689198833283,0.26784500822624235,-0.17941390267809684,0.3842351992508824],[0.23910275753070973,-0.06380973722770832,0.4775384000940447,0.28350172058591516,0.35952032093754777],[-0.12325503727426743,0.5599965762649124,-0.5107313594208132,-0.07740782087413425,-0.5552182531152959],[-0.5797178626843723,-0.1362836281263999,-0.055641331281777014,-0.3865261003009448,0.0398490186836029],[-0.26737917803176475,-0.03817593348913659,-0.25655665586352233,0.4405399884706984,-0.43627467232232625]],"rows":49,"cols":5},{"data":[[0.15782705002656852,0.07528319265323252,-0.2908375368659603,-0.2216026593296099,0.38336706565213313],[0.2777735398598982,0.21678893704635455,0.11505762744148983,-0.08537722029056995,0.09374447084824525],[-0.12322404737460721,0.5567289228367003,-0.4077715977028396,-0.4407302981692248,0.13091341582051655],[-0.4263128045578902,-0.32802029837489727,0.003669843058559299,0.24143303885205916,0.44407945982935504],[0.013409501813356654,0.23245481397584544,-0.6268624346306498,0.2528694999441149,0.435482141482298]],"rows":5,"cols":5},{"data":[[0.22323435344194684],[0.38618835966486637],[-0.18509002791323595],[-0.5770090615168773],[0.5714553850490909]],"rows":5,"cols":1}],"biases":[{"data":[[0.5747436824237381,-0.27703694597649237,0.2868463552000006,-0.4740301386984884,0.06521993966368263]],"rows":1,"cols":5},{"data":[[-0.6322986312003775,0.11775678479771377,0.4873794004458339,0.42089452950548806,0.5179061105468101]],"rows":1,"cols":5},{"data":[[-1.7989629133284701]],"rows":1,"cols":1}],"score":50},"6":{"type":"Genetic_Fully_Connected_Neural_Network","activation_function_name":"tanh","activation_function":{},"length":3,"width":5,"weights":[{"data":[[-0.12204491085414378,-0.30922201871003535,0.30075146216979204,-0.5696793038119513,-0.39991866576846835],[-0.4776558078446316,0.4191555184264727,0.0695768686716223,-0.5427564525872457,-0.25815180112489616],[0.07965086814119703,-0.09613264915107071,0.5077873009961641,-0.2723778622887345,-0.21462270812128764],[0.21421820820190596,0.4961432128760124,0.392837475432898,0.10512578352645174,-0.5242010901220693],[0.7838263265304,0.6076177509100817,-0.038345069533964396,-0.39791135218741913,-0.5942408394621224],[0.6015775055423832,-0.36074105714301175,-0.023236803198564197,-0.2017312874445634,0.17233264871472337],[-0.20740164859745489,-0.03418110232775582,0.48188379158757255,0.2361941958071033,0.22823338228031675],[-0.5354727656444598,-0.5898852359172799,-0.397206182650648,-0.3898704593094707,0.3122120446186428],[0.19471691784433554,-0.3990619430297016,-0.27421100993134256,0.4553074944203629,0.5298446466352478],[-0.13455167193736692,0.024578336250067667,-0.3853694431760695,0.28888547855323227,0.25201032129716117],[-0.0928292094014096,-0.5407490697863887,-0.544533932965453,0.278551699385409,0.23272164373352644],[0.24093130298857907,-0.5763838208423798,0.18129893938311117,0.47017164154932134,-0.053214688456205264],[-0.3783633603834246,0.5304891462151676,0.42663785145553096,0.1376116330317687,-0.331570042799226],[-0.4572687712585608,0.012846423279516243,-0.6173419904474061,0.2790416880350684,0.625889158102045],[0.1394574736720258,-0.565452760463002,-0.49718190126746176,-0.4995930944472674,0.5929080562440646],[0.46439306211146203,-0.15433099158994903,0.10492785941667851,-0.16429447857871718,-0.025117296466053048],[-0.44645892470588744,-0.5853950921583312,-0.46421072088778287,-0.39223121129607574,0.573941184608849],[-0.11655674400605588,0.038994844236776134,-0.5332991534597376,-0.1849448840307525,-0.5967890295530065],[-0.2004592395078863,-0.44524575780031095,0.5283735622806035,-0.34882794092742125,-0.5241882071212479],[-0.5469177873093485,0.23935224686610956,-0.15906928368204523,-0.5791496231299339,0.27778768029997747],[-0.49314947668431436,-0.5653231981222607,0.06021291430626699,0.5953497114771196,0.5028508360807813],[-0.4237884985018606,-0.20670152445095655,0.2864443114006383,-0.26008389276522814,0.3078532835481857],[0.40488833937777424,0.25041989254041713,0.0564150319890059,0.45344843762025233,0.27037081019723],[0.6178174588741693,0.430618919531274,-0.5417932211855909,-0.21458538898765522,-0.16640320042217518],[0.15643644172984764,0.3327658690972532,0.6154505310470021,0.48711346950999085,0.5311513039830618],[0.17464439483315528,-0.3582475000811671,0.5782842858164303,-0.4877148563954927,-0.5796618553642726],[0.354543260665245,0.5574586247377848,-0.43002424687936813,-0.6218525137701104,0.16341269606660425],[0.25735471971742163,0.24870403115293,0.6060341046812515,0.44935536983658153,-0.023146533167554738],[-0.07737159829889376,-0.20155361919729037,-0.17443025155617364,0.27172879335185873,0.30349864972127044],[0.3241186812063185,-0.20947716652838178,-0.4198317113965703,-0.21206048500105798,0.22094829797496784],[-0.31066956916159955,0.03910888713921945,-0.5186016088010544,-0.3292514732929226,-0.046215311618875654],[-0.0790002094557891,-0.01842560771699905,-0.3367409955557237,-0.05131661808928957,-0.34316331375676207],[-0.362206170988692,0.868776336203156,0.5129423424835644,0.02117147681612992,0.6082346624561594],[-0.2132699647641374,-0.07838609946937994,-0.29341436646431485,-0.6066943830117197,0.42059399987349627],[0.23645827035661768,0.5875035597040628,-0.13895940428201956,-0.15442965777557568,0.2125726897533672],[0.13094624982770464,0.5167762561245461,0.6246690138976709,-0.5321941664041655,-0.54015010948257],[0.03699272596274623,-0.5480501719831857,0.16322250121746024,0.6069238065357592,-0.6258907223017817],[-0.4345380142521241,0.17600464494164741,0.4768901995106438,0.13450178663908047,0.5714041014311848],[-0.15692596100544048,-0.4587669860534586,0.46709556927228085,0.5606777934856807,-0.10374214016031336],[-0.19669875161668499,-0.5293900694578907,0.5860106236139111,-0.046715747914103704,0.0586788505380853],[0.061393717920710376,0.295753575474705,-0.5348528607899588,0.4471342270445432,-0.151909413128214],[0.3573513523801412,-0.4778193425596418,0.3049053732077906,0.3157811456893827,0.6275989135530144],[-0.34740697008901145,0.11041570381241703,-0.005975198435431532,-0.35026512646358443,0.17906104272092246],[0.2085957100140834,0.32406590828508747,-0.4977148054041062,-0.1799111323400577,-0.2994493043983674],[0.09676087605432837,0.5133242732555526,-0.5446909265321389,0.6084016545984549,0.37049860922373307],[0.4489311015879557,0.4979433109237253,-0.4466228174548519,0.8814036377343248,-0.22488998629195417],[0.5020134226307287,-0.32701936244596136,0.4130615488677216,-0.44092650462938127,-0.25658315966890594],[0.6135401777088645,0.44684772291244157,0.224857766489957,0.4140604659106743,0.0923248674890375],[0.011267381755821985,0.23508235679261075,0.4337568968158061,-0.006556458897980038,0.39957699235790384]],"rows":49,"cols":5},{"data":[[-0.3235473569007309,0.06679517480712051,-0.40024105379514346,0.19913864109321044,-0.5676308929040521],[0.0038368520415025128,0.29996684406040464,0.4847058198446563,0.16760244059069507,-0.4576471222646941],[0.1843744399916326,-0.23517168650839754,0.5996991600767423,0.18064932944745243,-0.6109873265322121],[0.1639201711584054,0.5781889772105346,0.5985635108223721,0.20947713807943394,-0.49016692338633033],[-0.07591407740177424,0.08984556486380847,0.6918193296411042,0.6138372396283406,-1.4647592845209685]],"rows":5,"cols":5},{"data":[[-0.06475516049523089],[0.291337090002423],[-0.5335534025325089],[-0.5550250580442089],[0.44573389486822257]],"rows":5,"cols":1}],"biases":[{"data":[[-0.2830881419416561,-0.4448406231581703,0.3488952773543513,-0.6089916991010307,-0.4015469923201039]],"rows":1,"cols":5},{"data":[[0.4870256996576911,-0.46121717607145235,-0.35642514219365795,-0.40221463997129087,-0.2579525364396532]],"rows":1,"cols":5},{"data":[[1.143898317639029]],"rows":1,"cols":1}],"score":49},"7":{"type":"Genetic_Fully_Connected_Neural_Network","activation_function_name":"tanh","activation_function":{},"length":3,"width":5,"weights":[{"data":[[-0.37837970728932374,-0.11751372865319255,-0.5632094854519452,0.5488973136206168,-0.4111192564053264],[-0.21229625602176136,-0.32087836325755276,-0.3838742898036226,0.5849578518774674,0.4584329560859888],[-0.4855562579599196,0.4416044341949245,-0.2038277892477704,-0.18259060625251256,-0.20853350030748782],[0.5278417735357369,0.17712886403863454,-0.4272622039609324,0.5136765711078466,0.4702382341254181],[-0.352008523186436,-0.6142904319217218,0.6074725982462718,0.43294734088469977,0.6220760837732927],[-0.35379310216567783,-0.27013430511265313,-0.32806858959482665,-0.09099324483802242,0.24684121655115576],[0.20693269325129646,0.4724189033219438,-0.362925770197341,0.40955467397744383,0.4593440427854397],[-0.39691275809111703,-0.29183359239887174,-0.5468723642362782,0.07276282983918922,-0.27070997448342166],[0.6228720107315024,0.6193339040735432,0.6226890680463177,-0.06668040264104047,-0.21627343180282715],[-0.2892292116289935,0.4436240571633569,-0.24247908184120223,-0.3325813513501418,0.16347893460347224],[0.349768905869099,-0.39324357393316517,0.010428646324259227,-0.025154376929518,0.5191070375248987],[-0.006168795197424187,0.4118346110002253,0.507834376102376,0.5300484230574917,0.49643559670788484],[-0.43489880249567436,-0.35797616165684437,0.27224493162570207,0.421557053099931,0.33618058575859117],[-0.16289415449012187,-0.3175428519496982,-0.012713769528023333,-0.15720339752400717,0.20371413594793472],[-0.4977528976612216,0.6210040479081615,-0.43641731020164104,-0.47834211979192715,0.26831158216830214],[0.0482961251183432,0.22307137150604506,-0.026119037718214527,-0.4594267994102921,0.604254438758914],[0.06964729766419271,-0.06337154820334219,-0.25173936516059564,0.5283781215448472,0.1356580970044576],[-0.5907088810857548,0.6262068943191026,-0.299496698159436,0.13602208891300296,-0.5270082571952288],[0.20604992755942658,-0.14866228892691039,-0.14436120896522606,0.11018579071198582,-0.11464173158107178],[-0.10692563374259301,-0.5768415173719054,0.41631285852566224,0.13434397404524348,0.34422803572813965],[-0.2952650427881274,0.5038672791342871,-0.23762078982753,0.39388257909502816,-0.22639395084548433],[-0.34695306944680276,-0.0073289432167325495,-0.36694804130644826,0.5007107026731563,0.21307660094061284],[0.2691922528716872,-0.4100443733092496,0.02747938044009609,0.18385751939436826,0.04786796422217997],[-0.4728581778436137,-0.5248078014399447,-0.4637785536078815,-0.5434481430256102,-0.5190741320301221],[-0.3744089765912901,-0.09876322744110894,-0.1591742941663328,-0.05516238165749518,-0.06566439960897795],[-0.08923258230749476,-0.2480161346663131,0.3831802142286822,-0.34933769015745075,-0.5159398488008113],[-0.18024076443359227,0.5218418364553142,-0.5059380571350276,0.025667850400362013,-0.32816971929816335],[0.2025185828980177,-0.6189108072677072,0.5235696716926594,0.008862996558734789,0.3816973455446361],[-0.5785589249417583,-0.3620732553970297,0.5189078093355668,-0.482488220188166,0.6306745666906551],[-0.4046582417540178,-0.13622612772342763,-0.15525293522405034,0.3095569638223912,0.5403440502124458],[0.3559903533831018,-0.6045177514172625,0.41008573650541885,-0.08116275391603293,0.3327262843490557],[0.20570188618067756,-0.5527097133452914,0.17181158539889574,0.34422123869468113,-0.10920450913710195],[0.23157127096734068,-0.3330454331963374,0.4120018341445488,-0.40410349676275853,0.6120453197977357],[-0.4039775536449819,-0.5322080773059897,0.18006344781352987,-0.1738918676481387,0.5098390920423298],[0.39563128456356056,0.13198117012714364,0.3444735229414642,-0.37508281895359924,-0.08717835085451475],[0.2646035832957381,0.5089156767243909,-0.46030175518427685,-0.2164779446802929,0.6214683626224002],[-0.130779610307822,0.4889305715148482,0.2680079885119353,0.4000767137713461,-0.4727955663013424],[-0.4008373870146564,-0.4986588058520412,-0.20066934185939506,0.3708935868544378,0.13505264709377343],[0.25670825633495314,0.5572755070296501,0.22530159719430476,-0.23062400494313365,0.6282007169130659],[-0.09071720028496441,0.5697110183069769,0.16191817907556072,-0.5226039370383692,0.5988612644677639],[0.3417550367088911,0.13532808251805206,-0.20548775762258578,-0.15896168388600393,-0.4150223817783462],[-0.06491020448445559,-0.009285878093554694,-0.5608026380070978,0.2096207203763775,0.148421492761359],[-0.41873059242357147,-0.1822555377929426,0.04849288187702172,0.28880048777318723,0.23575847448495374],[0.06192029734953843,0.5384315327435409,-0.1593145794879706,-0.39795765470715455,0.3704694469597495],[0.7727328712752768,-0.46162572116274564,-0.28168457394906943,-0.08409208654559966,0.26768898281441184],[0.11453269939486513,0.5330932923958799,0.4460185688393519,-0.4679008313377524,0.3774623674584466],[-0.6227910143579131,0.4348027893922483,-0.23932897912848225,0.43816480683974274,-0.16015457724464288],[0.34070755947285764,0.5859711067414332,0.45617516498567134,-0.18981346399509574,0.24478691367248376],[0.3627551348423427,-0.5811560912623326,0.23737551312950173,-0.09223337374332666,-0.475480143265833]],"rows":49,"cols":5},{"data":[[-0.3330269894204026,0.5851984036789161,0.3448468015817161,0.17095095041270483,0.06994413677580817],[0.34409720626545065,-0.46558646685208566,-0.3834571329612733,0.26856703263315873,-0.09925560993719418],[0.2716987379143933,0.22061559999547756,-0.33822531955086016,0.40048757765127624,-0.38257863416014803],[-0.18571105278913125,-0.1214496429717734,-0.2990897507653908,0.3868006940601723,-0.45166994812754724],[0.4752530250894563,-0.5653323776769621,0.5458873328449795,-0.14874376867478353,0.5884725192258827]],"rows":5,"cols":5},{"data":[[0.34892630839841093],[-0.16221496016789305],[0.18259619615784292],[0.41821403511106636],[-0.4587288913257938]],"rows":5,"cols":1}],"biases":[{"data":[[0.42969125425508187,0.5916444033063656,-0.023051838115940974,-0.4623687369886031,-0.43490689445894026]],"rows":1,"cols":5},{"data":[[-0.37301691923762637,0.44135788624859446,-0.39677408824694343,0.08239321169040345,0.29705839560298064]],"rows":1,"cols":5},{"data":[[0.20742403675469578]],"rows":1,"cols":1}],"score":48},"8":{"type":"Genetic_Fully_Connected_Neural_Network","activation_function_name":"tanh","activation_function":{},"length":3,"width":5,"weights":[{"data":[[-0.10715666218342194,-0.3083853975584635,-0.0757039401315332,0.601648371684209,0.26533586082468846],[0.5748015600542249,0.14086539341771737,0.5749606263517935,0.1577839511627773,0.5488605184274601],[0.009524889411574994,-0.4593546695660963,-0.42701473370458604,0.5152415299246026,-0.5536082168099303],[-0.3806711530698946,0.3857536193571714,-0.4109285067613716,-0.10333331020679838,0.21793991848691757],[-0.61891515314087,-0.12217543219532284,-0.03972704942726697,0.5199639578666228,-0.13484892999322654],[0.09048511911202457,-0.0005356731493655696,-0.2278323415597849,0.5419988953329558,0.31144835511662994],[-0.07332572656650223,0.5881289842163983,0.175770108306144,0.21157361145352452,0.5222735807719148],[0.3219685364667833,0.18317813876971842,-0.5838161194196112,0.2712816426882881,0.5646111665214554],[-0.6091305239245319,-0.41919943435903534,-0.4294164307752143,0.5368417808983064,-0.33985476789990565],[0.49793852244916004,-0.37623673228384213,-0.05071798536344503,0.2426280295993553,-0.05771293476369117],[-0.25242261352576745,-0.09253502817402064,0.572785524506542,-0.1774633335192795,-0.31018309154870766],[0.031075322576368778,-0.010871787664493052,0.16303720261400176,0.5662212754966125,0.39926230066357477],[-0.5295685952080132,-0.5220567911930443,0.14877394455220025,0.553736429113412,0.15129699806211128],[-0.43537603091662685,-0.24620973437671329,-0.17065724732304255,0.3392404284521893,0.47766556577721764],[-0.4381104826466934,0.03685893767430489,-0.29849754213763163,-0.5273894498495293,0.07697467131975026],[0.36868645361308716,-0.04873381659968538,-0.12624642768475905,0.519417045482794,0.22971944738976735],[0.42436975887457534,-0.013848471537346804,-0.4277920574876943,0.5448097502043271,-0.41291815363506734],[0.06752056290321273,-0.30866947860097316,-0.08522412174187165,0.22341139147211397,0.5899188487207656],[0.5635464978720857,0.4608025694276228,-0.028880595455727114,-0.5657514390233527,0.19383022522999668],[-0.015180872745002365,0.23629767288839731,-0.5691723607409092,-0.2972443352358889,-0.10971913820042802],[0.4571426331168507,-0.520304741178947,-0.5198067969512468,0.42640394437329326,0.05527301356772511],[-0.4285160041966562,-0.23188582299909966,-0.43384385826614247,-0.32998361684942273,-0.24164981234870705],[0.2652420008778476,0.49051772111918485,0.3670134930001592,0.3751178479843302,0.49451134094614047],[-0.5182965017436818,-0.07934561025159784,0.33939286002360836,0.322701508242648,0.6259227401753026],[-0.061934486913529624,0.6294238329697753,0.3615483903464179,0.11962143648505294,0.3200378413683646],[0.5358153249379883,-0.45858779272083144,-0.2856888110278114,0.3626128717755811,0.38459213738815873],[0.28670426764684687,0.2092669705599065,0.5604708850660851,0.2334772375008094,0.10840274108769994],[-0.06989947204579477,0.19133171628791837,0.38028919523550664,-0.28449205250406134,-0.19567412950317287],[0.20247615849280343,0.005915525285323018,0.608287020577579,-0.03309716074683122,-0.43716629606854907],[0.4791924971939638,-0.2870626549898799,0.5851029630648426,0.5979005837029271,-0.02603910563633997],[-0.08488917516608692,0.4326844524988071,0.4820752244386991,-0.01650156657868476,0.5704266709691637],[0.524066843589469,0.12201564029526966,-0.6100147196535074,-0.462711019012342,-0.28937683423901583],[0.054682919349077166,0.5001787920859629,0.5440593893014135,-0.18183719111980012,0.5190853675598446],[-0.32583909814876016,-0.2792900235088237,0.248854690625621,-0.39200341926668336,-0.043904679382875206],[0.24962223215238644,-0.41183518716134,0.5857189492256925,-0.5295213084051095,0.19436589700063042],[-0.03433849049927638,0.3990704285142956,0.48854331691414826,-0.5512478645980876,-0.4844201040401697],[-0.28946672036229565,-0.6311605024786802,-0.3645928654749699,0.3300813616761519,-0.31467377741616703],[0.4567412938550089,-0.05388572222926886,-0.5665629896782493,0.08688047267728541,0.020470395624408028],[-0.2728758305407003,0.1216154191899755,0.3596467620848159,-0.4008121107340239,0.2526453094696179],[0.3606471330333772,-0.47038913629912393,0.07321138916139158,-0.48770272896672434,-0.47623201011642896],[0.21024933053616499,-0.6166020567443483,0.4234972796344747,-0.42069886367639986,0.42102956708528483],[-0.3840720560284555,0.4304048860124059,-0.3355143241746944,0.3406183915113097,0.14024512648443532],[-0.32243373483489013,-0.25756491970512796,0.25356760255530764,-0.12891603495173157,0.529189730488598],[-0.38771437628867716,-0.37738469191174706,-0.2672497468833094,0.5422408860479271,0.6321966810487956],[-0.6104508583823572,0.5118038725987069,-0.0403233438473133,-0.23777505569680318,0.17262954084155518],[-0.3736740818007795,-0.2887886909470541,-0.1954358316200966,-0.2743250697364212,-0.0773432799493942],[0.35103759807543866,-0.08950363574116164,0.029700965195368294,0.47299241855356866,0.06404404707579096],[0.29508862160442,0.45496869933091016,0.39997330254780716,-0.3316255898795324,0.28705791903838734],[0.3086669692633631,-0.5011733536032188,0.18216776823126346,-0.07948279736348524,-0.21989452040128427]],"rows":49,"cols":5},{"data":[[-0.4453310656417304,0.13119755629834054,-0.5395355370398409,0.39018611566304395,-0.24584669378121013],[-0.4447395306622748,-0.6114425460289927,-0.5470532034995014,0.3430167874470852,-0.47693268998713073],[0.2950060602409604,0.13904677939294177,0.08099076990740275,-0.008591898571610967,-0.4565927402621713],[-0.48575725442976364,-0.5064355882064348,0.4827319940573027,-0.15710576799648723,0.5198106707774947],[0.021551697818792834,0.5760539969617169,-0.0407100503760045,-0.3547049752387956,0.22525544849099324]],"rows":5,"cols":5},{"data":[[0.3505905513747145],[-0.32100321677287175],[-0.18641796541813666],[-0.2642469483828368],[-0.48207305242620113]],"rows":5,"cols":1}],"biases":[{"data":[[0.4713921474214242,-0.006551413080060744,-0.3843410978429339,-0.3545420138337151,0.3611665155529786]],"rows":1,"cols":5},{"data":[[0.42464767686170174,-0.5277072858555163,0.08604757456279026,0.08516677964830477,0.6047045951629979]],"rows":1,"cols":5},{"data":[[0.4195963708851176]],"rows":1,"cols":1}],"score":41},"9":{"type":"Genetic_Fully_Connected_Neural_Network","activation_function_name":"tanh","activation_function":{},"length":3,"width":5,"weights":[{"data":[[-0.4304915923245571,0.5395982985424013,-0.09701990052843908,0.003222968342425628,0.6758157561782139],[0.11399009467217357,0.6060972787290879,0.4735457534325949,0.48725745223998945,-0.0201858002336774],[-0.4366172819287124,0.5631483744647935,0.41738609480110633,0.02817331423824794,0.4604183905331227],[-0.4494625717368519,0.5266636853695831,0.31500764641067497,-0.21712672368231967,0.1864698287412505],[0.24912784085708636,0.39702040817402456,-0.4101168731700091,0.5069470043900483,0.30227707201325293],[-0.6258117085600369,-0.1874891322127829,0.28449985309754183,0.059228575453255446,0.5088192608536882],[-0.35318885034309105,0.5714936170225828,0.21999743991593013,-0.19380347532430753,-0.5827963791846137],[-0.5119034837003538,0.12085110057462459,0.24032943350855443,-0.28299332009723643,-0.027533412766975577],[0.33507942488204395,0.1719275423612798,-0.052048934155297016,0.3279738012549323,-0.5183861605519725],[-0.2536334408341735,0.28148788935654917,-0.5866759480371433,0.4797809627135838,-0.5588790956846478],[-0.5363923160264078,-1.038915622596882,0.5680536059150516,-0.25676171506574436,0.1339941253681796],[0.10693354049969717,-0.3219201835306679,0.5715346427327854,-0.390477400097957,-0.5984913240440914],[-0.27747977723859274,-0.3287895523542657,0.476782262624038,0.20421410935627526,0.16454967071983045],[-0.6060886447943593,-0.06720101830211901,0.29623701516087597,-0.06298376367125716,0.47048426735568016],[-0.3438773824487982,0.568809605117453,-0.3445038234108777,-0.44911914681066145,0.49139078581101064],[-0.11128832061941338,-0.16370999533901656,0.3760740165918217,0.9559512631268301,0.4782796530762055],[0.3515889106797272,-0.12278298673769,0.4346873685161358,-0.6621010445469626,0.36044926858846527],[0.05209968596085353,-0.35174276048837927,0.3617948117766443,-0.6611403033160813,0.34790575509421634],[0.40363222086354367,0.439792007752573,0.38770481015042124,-0.4601652531097146,0.43177662160598385],[0.784529207319834,-0.09606428685077399,-0.22253438977250176,0.06993108923467761,-0.783644051993252],[-0.40559776195893554,-0.39018124792202374,-0.44360927784426135,-0.6054338041338534,-0.11414130988976139],[0.520001553726098,-0.2238238896751618,0.02723614494111213,-0.1932313848471756,-0.175175146357269],[0.17371417454213262,-0.5633653089564148,-0.5481074371215034,-0.9006347091860316,0.8312338787726332],[0.42205263138020277,0.24872746091532585,0.24284831288286873,0.38996770164763467,0.1842480171711236],[0.3682790996830472,-0.5772381944898731,-0.10501300511847522,-0.2598309425448577,-0.34851035362325566],[1.3268764538774178,0.2289723163717022,0.4985234876781267,-0.5312925438307075,0.5891169255654072],[0.5396678899136901,-0.021455127369150152,-0.8506579047088979,0.2304398260984835,0.4246993232679773],[0.4361497185636485,0.2279296570689849,-0.4631449019819719,0.11666589224906909,-0.5352813203860084],[0.39203932728149754,-0.3845943701056656,-0.3407391792861706,-0.6503155883344801,0.06938919298235073],[-0.42595828058523494,0.5585075288153962,0.9836054821523974,0.3113700475820854,-0.5066118312963557],[0.8520876107361843,0.07906435092765862,-0.10549566014088789,-0.6228971979397915,0.0072003868736024],[-0.8856721997721143,-0.1454789415072329,0.5610901661662495,-0.5230486287562041,-0.4570450105283597],[-0.18825445353739037,-0.33306676948992797,0.0023350477829518204,0.3660445945135761,0.5840292553257471],[-0.4574368098522507,0.32927692233783934,-0.12058540040166506,0.5537753120006962,-0.05443927260179627],[0.21125245877710846,-1.2904833238384132,-1.4913618195379943,-0.14667226611767478,0.14847806766739557],[0.4705665933911497,-0.5016109875656336,0.5145535229385574,-0.4964811281202845,-0.38890741800260287],[0.5733389280643423,-0.1787896961758049,0.1508294390760636,-0.08844949670844991,-0.2129680136465383],[-0.6987927963038949,0.31266475558026136,-0.4909935017628776,-0.09370583467973367,-0.1231080178158645],[-0.5963045112017062,0.5347313022721698,-0.5733257008464697,-0.5347464187339945,0.28634568894412626],[0.4496326476050231,0.5791958374537048,-0.20553458619417178,-0.31249122761472226,-1.0065832496699885],[-0.3095775056891765,-0.38846187821695577,0.7856480607004523,-0.3085981188376145,-0.031958050375674556],[-0.5951862976805595,-0.6071887772879707,-0.525854978593484,0.08312681625171271,0.5648253116075622],[-0.2871106596591635,0.5732672118698842,-0.41184322373116306,0.8758088735576113,-0.4382626567742747],[-0.5872388631865995,0.24222705579150478,-0.17882406539512943,-0.17343018354247844,-0.1164077920022047],[0.6148661383442686,0.43834384272937865,0.056036106763738054,0.05542571320332863,-0.13417227650286598],[-0.3788396636719979,0.5933149944026276,0.19690943167544725,-0.42891634770820775,0.05441784720112258],[0.5183430223904409,0.4926182742469498,0.313940853521248,0.24597207496868242,-0.030842945336240688],[-0.38500526391950846,-0.3797636075654947,-0.611971577052407,0.23108385870928397,-0.35476968767268735],[0.2005976209292526,-0.059242000301533454,-0.34723706183670605,0.3652503011214307,-0.5748914750953996]],"rows":49,"cols":5},{"data":[[0.31017222344399376,0.2692694959469717,-0.050596139201863455,-0.4146985143895525,-0.3869242038209211],[-0.06814743161517071,0.21611793106147187,-0.3383321158376033,0.4833273923189611,0.37296897906651993],[0.22713588633418685,0.02427281351432853,0.007532469679327974,-0.43736179640148326,-0.411551457916092],[-0.6209570997908661,0.5680495771520815,0.11376000998022985,-0.18925947967921897,-0.15135668546869468],[-0.2607264360406157,-0.2642819025327328,-0.30094899417454646,0.4961985636766819,-0.5460485104837283]],"rows":5,"cols":5},{"data":[[0.5220539683517309],[0.3035547613963194],[-0.23029860571290953],[-0.5670766924102678],[0.09060238486863112]],"rows":5,"cols":1}],"biases":[{"data":[[-0.0762511779890717,-0.12927508126924445,-1.4060569820458981,0.2797393206801322,-0.31060138830218786]],"rows":1,"cols":5},{"data":[[-0.39572570669094165,-0.5692759191114228,-0.4559035416770553,0.5028359416014253,0.1366166832184341]],"rows":1,"cols":5},{"data":[[-1.121491187522322]],"rows":1,"cols":1}],"score":35},"10":{"type":"Genetic_Fully_Connected_Neural_Network","activation_function_name":"tanh","activation_function":{},"length":3,"width":5,"weights":[{"data":[[0.25521366567430803,-0.5079037872692415,-0.23857951256466003,-0.39216828801145953,-0.6156952447888324],[0.3119208585374045,-0.3872983782556737,-0.17199118538991454,0.29425685815696506,-0.591933974216137],[-0.1540614508706528,-0.3544661881060946,0.38641748954640753,-0.5019042585470956,0.5657334669765491],[0.385837789705478,0.1790664266054334,-0.8922486136919975,-0.3242271816008705,-0.4258167743220099],[0.08748040390895521,0.5268368291781588,0.2807277428250164,-0.048303774607898094,-0.4629893485309211],[0.34115028230992955,0.08789325548565027,-0.2954174963251754,0.27171531983147373,-0.492029075682146],[0.3012204891139564,-0.6196446920438005,-0.5982532776964735,-0.1336804047602262,0.11104398769594015],[-0.24349375506209103,0.10434839901536304,-0.4214475384516285,-0.21710472124751898,-0.5652015433618652],[-0.5713436550684398,0.3294961199517656,-0.07602430875981865,0.5430269326009143,0.3265474021995422],[0.37804481647595445,-0.11931456655487392,-0.5986593593500763,-0.11830901043675894,0.4254063060205718],[0.5122770852701959,-0.44214694567569396,0.2583587293853717,-0.1218040127849433,-0.5709776087670053],[-0.5832434746694705,0.35613167206024293,-0.17560382361944687,-0.2574568094835399,0.34308117594810544],[0.19894398854140238,0.1606302226928782,-0.5972192650638535,-0.19365036215979323,-0.12549423565425333],[0.25839236758413503,-0.19639841244825149,0.33179586873411987,0.45352162612790264,-0.1674338169574375],[0.6225134710404949,-0.016867293402539712,0.11092774970582457,0.09286281443516269,0.46124739842630685],[-0.5637909395485775,0.27554536685121495,-0.3064744247089079,0.269669844802551,0.09904048284116287],[0.5386197175014876,0.29189232112058333,0.10447965468691314,0.5099109674884592,0.4543403223874634],[0.15403814886010037,-0.14134942356443822,-0.24502457243165163,-0.11231465447149298,0.48802105564467096],[-0.3185130203179847,-0.6202775180587656,-0.5864976824945062,-0.4489407372912399,0.266653963412888],[-0.22336385252039692,0.11004704351588332,0.08365002869797222,-0.08176942515965109,0.14567881248526915],[-0.4238049906619363,0.2145912215321795,-0.20102704414576966,0.6037969008013697,-0.2971065418810517],[0.46944664150344256,0.2586854442032507,-0.16440415801032027,-0.5172066919047629,0.5809239036492913],[0.6068605960075479,0.11048088725368888,-0.6172690386937266,-0.15450565537180055,0.08314573270393767],[0.5528501889724309,0.6083750350468982,0.6104472426912588,0.2660093562167885,0.05799302021605847],[-0.020484815672664972,0.3345743123320704,-0.22396170755095784,0.29602023584114506,-0.2603182205604449],[-0.23985837733504287,-0.07865275814613765,-0.434244086187915,0.10254473396699194,0.38977810587239214],[0.09141965887703075,0.3791028552886898,-0.5704541516997468,-0.017561095004517774,0.2263055410734669],[0.036795166970580606,-0.2709564318536312,-0.052151824929807425,-0.3968729578734774,-0.09637564627528591],[-0.4621754705772501,-0.3341194343453572,0.2896310696233958,0.4878406543069876,0.13966102575889824],[-0.6305151026847994,-0.5705109627060775,0.5374533731814222,0.4655627415439193,-0.53717350742393],[0.3520303937512848,0.4245361606363811,-0.3065275511893651,0.4543908438157599,0.22953021842630167],[-0.2543577381569468,0.030434888927041943,-0.6106095306558044,-0.13018442939840988,0.4209801899072682],[-0.4951741245882597,0.2484882267712509,-0.5311926985693183,0.5864771835002958,0.5054483275294178],[0.15950682645833067,-0.12275486350208498,0.3786119582407123,0.44960581144765843,-0.3258628673276822],[0.2055524965548479,0.27448823957202095,-0.5868784869045686,-0.26982014830711976,-0.253430863244739],[0.21940117717902527,-0.5617494546452833,-0.26138259928003427,0.08671519540347132,-0.4453462531339886],[0.3827549545149553,-0.3394016716094716,-0.008492816858903735,0.2541903901820905,-0.14515827741118767],[0.36297965466485776,-0.21208433592461715,-0.15276825838330585,-0.19292605736472768,0.23996035393931506],[0.4170841794181915,-0.5543721729209858,-0.176745611991491,0.4783399288826006,-0.3345604841623255],[-0.549046242922984,0.5961791049549473,-0.6069575502253458,0.0852674074648304,0.5855410146437032],[-0.30956618024343857,0.555118232105721,0.6312236310699461,0.03859139649444567,0.5934034796535196],[0.5482701862582456,0.48173589157376706,-0.5912934070043385,-0.47182229592543173,0.2829654241087225],[-0.10346835545534357,-0.4590422890032549,0.24141070956991548,0.4808324354430963,-0.2490526913607286],[0.02138916316922172,0.3786466359858224,0.2037673912070171,0.14248126637142075,-0.2462939474932722],[-0.09541880924036585,0.3821667959421277,0.04360477811161755,-0.6148611112733354,0.07157146957562933],[0.1985204212825394,0.31225064175764766,-0.2914020936945075,0.5796594346862864,0.013796935392261645],[-0.5497548607677408,0.09074837829564922,0.05505990967402094,0.3304450503067028,0.40017971513790007],[0.0964689436096782,0.06495759942662307,0.006385411507346946,-0.553966309583294,-0.5657087886297789],[-0.5892625769756966,-0.14432852695624218,0.19896006373563904,0.3843381735140943,0.2075244410848477]],"rows":49,"cols":5},{"data":[[0.26563937974180357,0.22005713936229093,-0.057719307881121576,0.1846947667219216,-0.3127156502262374],[-0.09469565584651536,-0.218824082629258,0.022479304706926113,-0.5041952153550682,0.44615392133822973],[-0.0992067963784694,-0.40028282158960377,0.5071249651857405,0.29516651063850907,0.22363507652653614],[-0.20216327520600957,-0.4660660601482056,0.603412719990916,-0.1667389434496427,-0.037426189520360004],[0.3501394734531417,-0.4927563763178637,-0.10834717739937125,-0.6214006585581969,0.4837282039374148]],"rows":5,"cols":5},{"data":[[0.5312191113337259],[-0.6075474305536338],[0.4441068902951812],[-0.1667012481003733],[-0.2232210438024996]],"rows":5,"cols":1}],"biases":[{"data":[[-0.27093837545889665,0.45825987153305114,-0.14292369126434773,0.3736643261591813,0.19934793031794246]],"rows":1,"cols":5},{"data":[[-0.5916267483623318,0.00014719834554564353,0.5745828803931735,0.41801370310057057,-0.3404812795831863]],"rows":1,"cols":5},{"data":[[-1.7605984248949582]],"rows":1,"cols":1}],"score":33},"11":{"type":"Genetic_Fully_Connected_Neural_Network","activation_function_name":"tanh","activation_function":{},"length":3,"width":5,"weights":[{"data":[[-0.1919601941030519,-0.5721804184731021,-0.01761094189081174,0.31781462393798404,0.5973416049694988],[0.3051851028562716,-0.22356872443035922,0.3022172406044464,-0.19493165998603504,0.11406376559810337],[0.540635817520123,0.3447734712212982,0.4045292848269878,0.27508428911188615,-0.58351835579611],[0.4453380184618724,-0.38576299347137066,-0.28759355800428865,-0.18954841778034007,-0.5324973156965775],[0.32131232785464975,-0.5928598095181501,0.5412626489613827,-0.0020601413699485533,-0.43902129510140625],[0.06553806634484396,-0.5427741801209963,-0.18163310491691448,-0.5551739403020131,0.5425263496644723],[0.4669569371065793,-0.4415293140753268,-0.12707007358080255,-0.15202195123538778,-0.0012727449138325996],[0.2437163834771696,-0.25759860448265964,-0.22367162842172408,-0.047932487720034146,0.23428148507047314],[0.4898292367233989,-0.3629144269500725,0.3488014001576225,-0.34186255586980796,0.4903316504853057],[-0.5685732818272847,-0.5121452476855078,-0.31456044039315695,-0.14115067189206676,-0.3927642552712338],[0.3106945470222124,-0.6019194427034869,-0.40240835079619847,-0.11234602002682714,0.5451894275650192],[0.1913143561583091,0.5146534133180785,-0.4399678438524506,0.40487702682701526,0.27548759181231186],[0.5961409238340966,0.6088387401376462,0.581120868164487,0.5732315826091758,0.42046782694896273],[-0.06517252883919264,0.23631856896239808,-0.29501586448521305,0.1559725946478153,0.21701204001800237],[-0.16529123272178312,0.262327468613128,0.38835988842741515,-0.1903376544131017,-0.2987713842404617],[0.026534309863699812,-0.2295156226206415,-0.44186815829940707,-0.0919092882626322,0.36135843230846315],[-0.47152256763619516,-0.009750841765119643,0.31037230308036134,0.15812464607802706,0.13653181225003289],[-0.6032141619344545,-0.3282348586705508,-0.28845881449786004,-0.45323322481052686,0.5669565821289773],[-0.43823685432638343,0.3624855210230312,-0.24775959447020857,-0.3262705157112118,0.3286055493709656],[0.5102946217171243,-0.04243804947484607,0.3403880814171401,0.06280865078106447,-0.07078099568732962],[0.3210504918317668,0.52338240394297,0.15679187135084535,0.1385075111323991,0.09100706749175955],[-0.16237739834658607,-0.36231526560433636,-0.35749809755526984,-0.27347447511685347,-0.17840676340689063],[0.030751423996523045,-0.24716338573625818,-0.40077329759431146,-0.3273488623945342,0.20056053599225357],[0.10046176370282138,0.486484528823128,-0.3362018540435518,-0.1306190295408901,-0.5988239203135524],[-0.023455388755943652,-0.026626645393615003,0.6046083924518258,-0.01119458792755461,-0.6273563666832245],[0.07326641114201493,0.10981764916653071,-0.5658345987914853,0.10483465667139072,-0.5474050932338761],[-0.23627350409356893,-0.40318358064619664,-0.16278003363285753,-0.6154675592687346,0.4006269488000761],[0.07507978187799787,0.4490963062673233,0.23848689663989672,-0.6282075881874366,0.5175625456000184],[0.08893370241456465,0.35407158205264994,-0.10527265476093996,-0.100222041839537,0.41785344530572677],[0.337953237674281,-0.20145772930940922,-0.24183053182223246,0.15212205409439494,-0.5150125325269754],[0.34729550429263745,-0.11011547722318037,0.12609414082268605,0.5950830494621483,-0.37832087962139116],[-0.06123491242523967,-0.6243863137999128,-0.036147319421373725,0.15642457723510947,-0.1873772710494413],[-0.08876751079477292,0.47851927241029085,-0.623095397702799,-0.08777096221090686,0.07521556959445617],[0.355206180867847,-0.07736490315052719,-0.02023698979499818,-0.5632069689642681,0.04860054689008872],[0.3812681463167111,-0.30058097453753607,-0.4246118941006915,0.4905809680083835,-0.28270092042194483],[0.4667641149245709,0.33068804626950254,-0.0007816324578061918,-0.3527079553920425,0.47343821033151384],[-0.5683882502193068,0.39110590432266146,-0.39072168459314444,0.36901063444406934,-0.48719327207173596],[0.44909548188298903,0.6292140511865564,0.2833674346441415,0.5057841461022556,-0.18987746263826658],[0.6034404235423583,0.011770771707075328,-0.33661441917197105,0.18010438693815484,0.5886205847584921],[0.5501460285371683,0.08228617172356827,0.295059196116067,0.39783017654458946,0.44454702475489033],[-0.5596757874571274,0.13729024815680252,-0.24466657489882576,-0.2103753659874277,0.2516281359010927],[-0.5553469512035729,-0.5198745933300107,0.1269609206793879,0.42369011935589257,-0.39910579691971987],[-0.2433229156223999,-0.29956825881994503,-0.15881545645989437,0.05437601358709753,0.4852874657261087],[-0.10321848877660425,0.3272894006586954,0.6086794488908944,-0.5572507689966985,0.6257004860054616],[0.12290000419229395,0.019370358560064575,-0.029313654980257797,0.21336398083229913,0.30503399743658993],[0.17426121672116127,0.6205101885577287,0.1435307273820562,-0.6124226819386186,-0.28711387011529604],[-0.36578756734724005,-0.3076329060630773,0.44560330016299704,-0.43878967860529694,-0.04819333647590121],[0.00960614585961127,-0.5509065128010779,0.27352475378724994,0.30619698562155195,0.5497823497800695],[-0.3478937258210629,-0.46955319459040945,0.6120300689791752,0.0514161319886293,0.06816905809559938]],"rows":49,"cols":5},{"data":[[0.47539915917685033,0.34401557327414073,0.20456788075001484,-0.2917997494609524,-0.11640396524428476],[0.19572188319568468,0.417520724826626,0.4962471795271037,-0.14553892415916647,0.3590063922142672],[0.040412718383362106,0.007864521805684433,0.3129952559563071,0.580763925075734,-0.13155129074463903],[0.05722706176395617,0.3183694517540833,-0.18703116000708256,0.14595364742358855,-0.13579714359909512],[0.39449204127496224,0.2336967957283981,0.18866855616302508,-0.23845475237561564,0.4945685134768589]],"rows":5,"cols":5},{"data":[[0.051076656482255726],[0.21705681145474653],[-0.07461977206960048],[-0.23164371769859773],[-0.004356845782728755]],"rows":5,"cols":1}],"biases":[{"data":[[0.16812097794544514,-0.5879267357706917,-0.16783692459321722,0.3951457700173758,-0.619703659229215]],"rows":1,"cols":5},{"data":[[-0.5492632936524439,-0.41820792737419865,-0.566776270025401,0.5337564625962283,-0.6022004577077285]],"rows":1,"cols":5},{"data":[[-1.1847521667424683]],"rows":1,"cols":1}],"score":31},"12":{"type":"Genetic_Fully_Connected_Neural_Network","activation_function_name":"tanh","activation_function":{},"length":3,"width":5,"weights":[{"data":[[-0.10350520343563176,-0.07683351057768642,0.10054430570451946,0.2576329592258474,-0.11711517552777789],[0.3409008058411252,0.34783760752600074,-0.11936071039554572,0.46483808727940473,0.26611797543290233],[-0.3625516455907257,0.4362080315329764,-0.3777750919070746,0.5607109752771846,-0.5529201631167651],[0.0314929777975521,-0.5040734148728436,-0.2621952137278282,-0.049988238720286585,0.4239129197468575],[0.40002181512268375,0.2773373955523523,-0.18455533377932692,0.4315492280478641,-0.32077696927876714],[-0.050000985895943185,0.26408050502826946,0.2403086620048149,0.5137708829442932,0.17411969200285757],[-0.023198270037041516,0.5810204755059513,0.2131790869245231,-0.14497272403325262,0.17188039236618463],[0.43681386285699303,0.13086249563881627,-0.2562454927334887,-0.15562062749946795,0.42747200508199035],[-0.3495846540963069,-0.5363108644463797,-0.6300852525460016,-0.5561527375568605,0.049174682921379984],[-0.13281042495526038,-0.019661914980122694,-0.014369694628745216,-0.33324639627237973,0.2548695419073665],[0.24264224531745746,-0.294722778978277,0.35127481290286683,0.4208552807597247,-0.27749586372678414],[0.30943202678766246,-0.034786075589305306,0.11975800424926647,-0.1322162200820615,0.40179324567362273],[0.07934316074091712,-0.5580635083099282,0.21560634848595905,0.5621359673022628,0.1924742044377747],[-0.3671433930082524,0.5144916635256109,0.18318053900912773,-0.37054119284566867,-0.33769988894909675],[-0.4902952809792427,0.462403669111167,0.47880231349928953,0.06233226781693039,-0.3243418325520032],[0.31928040890717857,-0.21036478554224988,0.26876554513618595,-0.5685117440367654,-0.2685331656349862],[-0.23226096626268142,0.6008603616030043,0.22202616877786438,0.5070881821341257,-0.07275165845297056],[0.3630271944919349,-0.2711083439490969,-0.5442870704780428,0.18496354829990969,0.18675855405076575],[0.24922787943351324,-0.3994078526870412,-0.6163184365083312,0.4444146712411095,-0.42826456343600033],[0.4121666293863913,-0.3686537137294586,-0.2640157150994455,-0.028511058153665638,0.5576067766727187],[0.23593105814023208,-0.23352322565651087,0.22760088811894819,-0.2598904201366904,0.1675157776443965],[0.19331686194299605,0.49444574601019653,0.46540235771863897,0.5936526221597231,-0.6212366471480943],[0.48529800294950665,0.47980247889623723,0.5030671180223301,-0.44884122365964924,0.1914101476676407],[-0.07686085546271104,-0.007325539328129237,-0.3777423140503996,0.25911260214744025,-0.40541205898650945],[-0.34407917931314885,-0.26804756140935093,0.23388616373212825,-0.36376301751694384,0.1504017762494227],[-0.4538742012601727,0.4999488693869279,0.31606363143374283,0.018672197455292788,0.28894563301582515],[0.07125630833290883,-0.49774801763843357,0.14323476949508288,0.5764811597127191,0.1191395531269751],[0.35050465261448815,-0.4389917754169425,0.0009613385365413297,0.23121933339056358,-0.21255186061011083],[-0.2759883703221442,0.572478685530611,0.4673464493436222,0.6150530795371448,-0.41685614537186977],[0.40712844463400005,-0.16380185286079468,0.1802138663226424,-0.3736207086568905,-0.09637145848273407],[-0.35275547583958344,0.15318968185888152,0.22990791971399732,-0.29131552043135983,0.6215828935338787],[-0.09161905965762104,-0.3538370438073808,0.24332436250716988,-0.15068813418976734,0.22296429881216118],[-0.362970897891531,0.3882317459350799,-0.2177716991681589,0.11039078251072412,-0.1216213050683684],[0.07003469840894837,0.26576653328689503,0.24471564111210614,0.4817143179035389,0.30228322716032036],[-0.2692133550919663,0.14453146199245717,-0.07068080838868139,-0.03387967017540429,0.022000973821148382],[-0.07150563954444575,0.44486933490696917,0.33655255038118964,-0.009900756688759954,-0.5502877106799682],[0.027166460655563888,0.2699949290058793,0.6267363711682088,0.5040650073045627,0.0397750963284613],[-0.37683710780181234,0.07192796345539097,-0.4263774934242504,-0.548855054401442,0.5557196555963311],[0.4189976891989808,0.5690619404179701,-0.4097952916876578,-0.278731993657743,0.3338959122442912],[0.3607534345480456,-0.5042686092816241,0.09902794943080134,0.40966763573712206,0.48445366651058797],[0.3202841356101603,0.44103880729234674,0.26765129587165926,-0.03153994968009555,-0.04199270931295991],[0.18013930205217762,0.4253258300417199,-0.4300689967042773,0.43966740501040247,-0.45217265394940814],[-0.2514843996687468,-0.2953067455831682,-0.317780808530219,-0.48699400435911866,-0.3939836877784285],[0.5729432573367181,-0.2842306820899482,-0.24426545686429832,0.4024013295914704,-0.1947843295309318],[-0.004641295363791482,-0.33626732564250883,0.10660639322566957,-0.2224295284916843,0.5964697391774616],[0.07225411072540829,0.39390796110025567,-0.37194564450333284,0.19072555982253284,0.44663554251185683],[0.6051309587366936,0.17714867809949103,0.5993121717974096,-0.19832361130377504,-0.5278468062307008],[0.2460183703308454,-0.08276623449437687,-0.6086583123679166,0.5360163004150194,0.14130035814952505],[0.49155703155793845,0.5967317019129563,0.3540146009523062,0.46166870812751903,-0.05614099708294532]],"rows":49,"cols":5},{"data":[[0.0787061862113913,-0.18050727393646296,-0.6180211144058299,0.21770333604225597,-0.10229614717489471],[-0.14361827371416963,-0.4625297060187577,-0.5628424686507429,0.19398127521619032,-0.3782593154546999],[-0.3983502913818093,-0.4724688121870712,0.3071171899648796,-0.4601471521560538,0.38416993637926933],[0.4072958533992184,-0.10400508791436346,-0.5066543112487655,-0.21360411603168633,-0.1929227916498446],[0.4826069946260918,-0.4022958611834357,-0.4771828462555512,-0.08478219864818462,-0.15758475350027518]],"rows":5,"cols":5},{"data":[[0.6205430292522518],[-0.45084527819352155],[0.5260528576316489],[-0.12721075365025558],[0.4545554501399619]],"rows":5,"cols":1}],"biases":[{"data":[[0.5991443020528558,0.623296687784708,-0.5833287201807429,0.6288021007154827,0.4090689883530459]],"rows":1,"cols":5},{"data":[[0.34697779636586396,-0.37661255248993997,-0.044311877796296924,0.4078737297360359,-0.3161168008074524]],"rows":1,"cols":5},{"data":[[-1.913403323068935]],"rows":1,"cols":1}],"score":31},"13":{"type":"Genetic_Fully_Connected_Neural_Network","activation_function_name":"tanh","activation_function":{},"length":3,"width":5,"weights":[{"data":[[-0.38845445837712045,0.3363257494575823,0.15351427345859625,-0.31856252598984897,-0.11812930776735711],[-0.41404989195794406,0.49050016206481317,-0.30261941418655747,-0.00277242876377557,0.02236922702704614],[0.21420477985970715,-0.24565280747292859,0.11544785896923014,0.4851206954633595,0.582041517639484],[0.4948105148964305,-0.2637953091569183,0.2709470051865126,0.0017502827397049912,0.3714568539668995],[-0.580068779320516,-0.4605367684144288,0.4065169877658244,0.27185795019005915,0.35643715190781455],[0.1575607700134913,0.0767411339587042,0.5244206134490815,0.5395982972682911,-0.012108598049450236],[-0.4653570746438404,0.08967518265300595,-0.2596091590742134,-0.4456259685855,0.32162491472518556],[-0.15902046799546946,-0.34634342725974654,-0.12290521916406533,-0.5323443100867924,-0.4417711421468213],[0.3124991355270962,0.1852092210709645,0.5061641888594381,-0.2519424228865521,-0.2036532629559282],[-0.3343014809056588,-0.5012318120069182,0.07728074515223625,-0.38302258612507245,0.38783443456081323],[0.41645673413573847,-0.38247228035939285,-0.43259132921289484,0.5081339208170634,-0.3375195534562721],[-0.309276392981811,0.38880661035346653,0.4428914563062814,-0.008739073992887487,0.5274579262515101],[0.2614807686873642,0.5089825494600934,0.5743226441103164,0.370990893428775,-0.05103544842506716],[0.15527650350731712,-0.1120416888307173,-0.32849238305145495,0.5293267238087115,-0.4420424717778459],[-0.18782287698798658,0.4149775704687583,0.5670990621918245,-0.3797053127324166,-0.01016564129643013],[0.13649853498002223,0.06497405220601701,-0.01606968786155586,0.5908724118968132,0.4888541114216117],[0.204934175397078,0.331857745045565,-0.5822058959372651,0.41596847231566203,0.19838144096604754],[0.10702741078598467,0.4021932519443208,-0.5286324800935945,0.6132230124711149,0.6142462469009146],[0.016287124566481972,-0.1386091048773153,0.3270532409665324,-0.18370114586994185,-0.5466160134624474],[-0.33543476505722536,0.2989673195301395,0.28896964619301735,-0.6424393328261457,-0.4361281815991613],[-0.1788839095272782,0.03953494787575219,-0.53051395782717,-0.28556481454791915,0.03734351071515453],[0.41132566813137095,-0.31290617078706867,0.5258469213982231,-0.21710576548465094,-0.6241098427882446],[-0.557080958745978,0.3538812923472166,-0.5900235029500455,0.07982074461101234,0.2778805966322492],[0.10181580962999669,-0.11404707099916986,-0.004225034605076642,0.5194827928595465,-0.3493500072960074],[0.2576367408796626,-0.1626425603418219,-0.1678203753842135,0.35651271367164533,0.4758408644815426],[-0.18860745330460893,0.05359411278806443,0.5850349300382155,0.4196539918701235,-0.4302812042724419],[0.010679263452226744,-0.10903762993785965,0.3735843585287338,-0.14208744600048392,0.4152785174219525],[-0.5751860036004268,0.423242378912373,0.4079003383861064,0.27562291574101944,0.08660679679940696],[-0.15465684916025627,0.040069724373022066,-0.5910021053790153,-0.545830547937297,-0.4281428407820641],[-0.6165519159646615,0.18204842715783318,0.39839374847556763,0.14091500987683764,-0.3504388899563544],[0.11389333610574177,0.044150784271101376,-0.021562487718360217,0.4771395533906008,-0.26833067368167557],[0.018228618344392464,-0.46986789818348873,-0.584653763104864,0.22523564003123478,0.4273953241744672],[0.34159754960351807,0.6247571317176774,0.513726396908809,0.48941829888803057,-0.45397272977124775],[0.08514223916396853,-0.6087516745520309,0.23153164676264293,-0.058718822629270265,0.46178756493154904],[-0.563762828901438,-0.2227071999482952,0.6316872052558973,0.027837208760222946,0.3054429913014861],[0.4756198651965592,0.050582045595223744,-0.47001003596977586,0.26333562551594947,0.5870469461608606],[0.5719030863650011,-0.5562453329211399,-0.4127823082932925,-0.20728630641661028,-0.18375374910710318],[0.44461776513999546,-0.16771736283021405,-0.10491819641955584,0.12601926860098248,-0.3802367418832157],[0.23614169166215634,-0.337753723212207,0.022346961891426705,0.5502822785965528,-0.5411066397892886],[-0.4981725322476958,-0.15657396229888712,-0.13387028658479394,-0.5598015442405435,-0.6310927879933208],[0.48517975858885654,0.08260341909837095,0.08833920311157237,-0.2973735039695349,-0.12572758464165856],[0.25023694460473433,0.4757468839612346,0.18218042861915154,0.4844553261982198,0.024516771344736905],[0.22122589582096278,-0.2820615936983301,0.05069612273488363,-0.4775485078145682,0.5783477674043267],[0.07849033579479196,0.188903347898668,0.2709991067108423,-0.300546393909291,0.6007493884587943],[0.596813539948893,-0.506529689779015,0.5024415972510115,0.3316964291917145,0.13151471172381307],[0.5118075870137726,-0.20511694629559085,-0.190284007857912,-0.5673123564168768,0.21252282976662565],[-0.09464344395153303,-0.3521184488951727,0.1350188373789077,-0.2517412885120808,-0.3410642581926353],[0.39668805014481756,-0.5322673013353695,0.5494992085946536,-0.4449751803494636,0.3556253595869355],[0.6263086293193953,-0.6170611319552889,-0.1510363511986566,-0.08112229229123616,0.2699717951648954]],"rows":49,"cols":5},{"data":[[-0.5339697218681793,0.1542335377606874,0.1874179689786192,0.22549953200616318,0.23989599484064597],[0.01688244637817292,0.3204709651594212,-0.35491204630513473,0.25309028279868073,-0.6113307925266034],[-0.6173962641951939,0.5520462998627663,0.41969705156893605,-0.26965104161726905,-0.3071855649252988],[0.20746892524184377,-0.38115593684036064,0.05815063906381519,0.13871512979727826,0.31469510520004],[0.6226269242476339,0.04960613117280747,0.3151016419046254,-0.4455843392910799,0.4906773122038415]],"rows":5,"cols":5},{"data":[[0.29766244253237945],[-0.0760273191237485],[-0.5782967780400986],[0.19141413802930266],[0.4987229401507016]],"rows":5,"cols":1}],"biases":[{"data":[[-0.5132494662834839,0.02118558157390296,-0.400494216635818,0.16379456947178725,-0.17139255307540457]],"rows":1,"cols":5},{"data":[[0.4257797434288484,0.216389531723085,-0.33099842970720256,0.3031815144923129,0.013443306735062591]],"rows":1,"cols":5},{"data":[[-0.02385877986008378]],"rows":1,"cols":1}],"score":30},"14":{"type":"Genetic_Fully_Connected_Neural_Network","activation_function_name":"tanh","activation_function":{},"length":3,"width":5,"weights":[{"data":[[-0.21479239389651134,-0.19039133165586236,0.4259791746250184,0.19410757810540344,-0.038929983092658535],[-0.2885115736736705,-0.09008229525295307,-0.2852841090445314,-0.16428380433883957,-0.09533561723925392],[-0.16113367304444873,-0.618979929015691,-0.4300481721310596,0.499629563847068,0.1168070582149864],[-0.40903390745639995,0.6228599541392861,0.17209692950616134,-0.01849803968398382,0.5248905757861674],[0.2423649307929378,-0.4215475867430824,-0.430154894247028,-0.1499045612607603,-0.5401289404319013],[0.2909827655574136,0.20830797327473805,0.168041644340857,-0.40655421404003833,0.439920910193911],[-0.358491436630532,0.11999400332019612,0.026976052940470008,0.17392649909515642,0.12460291681127689],[-0.3844031545120554,-0.10748299495470602,0.5638919568177786,0.45170657867414515,-0.31695817529529985],[-0.5854397879367608,0.6099208176735409,0.5998602023985136,-0.6002911482661816,-0.4807942363668326],[0.5996523901264076,-0.48889174941852886,0.057527332717056616,0.624089057868743,0.36698667314843897],[0.47614310127300546,-0.3900308960578718,-0.04956987554203431,0.4219299898564679,-0.09112688893080857],[0.28501260339075085,0.5908041218750001,0.05784419112178138,-0.41182477630114633,0.3529083384544093],[0.30910121947024893,-0.08491704654856107,0.3719894585942081,0.33945282039089497,-0.4731003246361665],[0.18890340794955926,0.08653097059630865,0.4425370403574649,-0.2395323289100989,-0.025807423406831315],[0.03232749003715271,0.06832715412878493,-0.009251297470493577,-0.3774821256309088,-0.02690618012007188],[0.4178297383872893,0.25213591077762754,-0.0499102928176032,0.08747178141590371,-0.47726665974589877],[0.17360689202153445,0.18587312508385845,-0.35467866066822934,-0.13393891817205353,-0.4770983364147833],[0.6016059583246859,0.44913607194895666,0.26573203693862957,0.31947390742922377,-0.03097736132690935],[-0.07600258856719647,0.18253278023330977,0.4852553472978882,0.0883428148321372,0.5040915316907447],[0.29101910758006494,0.008676236321622751,-0.43383032335462807,-0.22065443977877286,0.520193096462825],[-0.2353128133152349,0.49104883836166624,-0.15498412955511984,-0.5482838869105545,0.07020863400155207],[-0.5238682633728511,-0.4947827014592247,-0.031569598143532156,-0.032490521992955254,-0.03451661996577324],[-0.6145354457090265,-0.5144989968293256,0.4900131602053828,0.11390361884711363,0.25031779502814533],[0.13757033069986346,0.37973787833576195,-0.32098449925145034,0.4738240159176821,0.49662270870294817],[0.33469415497798966,0.30609663583651286,-0.24374203356374735,-0.2802869709004542,-0.22162320343518552],[0.3145452110901119,0.06353431085455832,0.2916011133243352,-0.5841553183105621,-0.0173884305648105],[-0.012542636257780534,0.6300459205768891,-0.015973548016899753,-0.13108132422644536,-0.41909383203860173],[0.010913635858612073,0.3196885900159535,0.5369462398335961,0.6250608054073271,0.39769669443569483],[0.2660618153217351,-0.4419059586921662,-0.39830580808060423,-0.2564163040363976,0.3071288267414402],[-0.6073403981168326,0.06743128104059169,0.6033725947797546,0.34834761788337265,-0.3282945162651168],[-0.03749786666738504,0.3626754304346805,0.6003278353968511,0.509803613969874,-0.39932522441682544],[-0.22284184357389952,-0.17411621122700185,-0.09255386893380287,-0.23858696187373413,0.03311309235655025],[-0.36480690357027795,-0.10081689306417861,-0.34504773352064605,0.4432654425825269,0.48532392531814944],[0.26764087134474723,-0.024694711251851048,-0.054762589092447335,-0.1289427548760213,0.4323778996711658],[-0.6039365212720103,0.16741914953094988,0.3710181244311418,-0.08737492060952402,0.402385286190449],[0.040170261841147206,0.5322218678198937,-0.041522796225615576,0.3414907310507606,0.2790766434699544],[0.5242196222750266,-0.23972306451453626,-0.10377643840532727,-0.5692599260236256,-0.09437319217829619],[0.2588120574800536,0.5028859218919542,0.12561410577074664,-0.47245597605582157,0.19347455943175382],[-0.30023284207689427,-0.21473027928271926,0.36652391887390867,-0.5479197329146737,0.5487428555151865],[-0.07917024898597783,-0.1777920384307608,-0.11181010081743285,0.16348809564154573,0.13071886038494207],[0.38040286907284493,0.6243140729352592,-0.3971404523684237,0.2277238088115577,-0.42229124501095433],[0.19314855646453616,-0.3461682024311939,-0.20170751036588855,-0.5457176178523112,-0.09929115998919287],[-0.4317340149791639,0.49390045335921856,0.5637864888572314,0.28922635558946974,-0.2828174057775086],[-0.4418918459757202,0.1744786919412273,0.49477635067410236,0.3122360711572875,0.32795427608524824],[-0.17184412073931216,0.5931742656140898,-0.4814782380973651,-0.4501026311408956,-0.030246303309266375],[0.5051632122144484,0.249407390864929,-0.40739059184664994,-0.2663162808063889,0.0255620609223644],[-0.15079055451352882,0.33187201272838507,-0.020632049601179654,-0.025155144857122336,0.37381038079609435],[0.1672920911573136,-0.48247017128226755,-0.395641992736334,0.07508391043070986,-0.5651253604763185],[0.3437970403845987,0.31195432088302927,-0.04571368377737779,0.403082179390006,-0.3023165775820771]],"rows":49,"cols":5},{"data":[[-0.5114493547496538,0.5721229743633687,-0.3562645680057471,-0.5745511701158311,0.15272492544055455],[0.5303861295323272,0.5027223627917362,0.3922492851582522,-0.5569519146818254,-0.36401767829725673],[-0.48042958668704583,0.4654931854404151,0.49689128299532,-0.30154128434643374,0.14118813732157512],[-0.56671133857191,-0.37204242298627543,0.2459299448701316,0.07322291616570492,0.10713609271364767],[-0.3999374266213059,0.5052972081972631,-0.23409101632233992,-0.6052708569736985,-0.1168859824484517]],"rows":5,"cols":5},{"data":[[-0.14961612224317952],[-0.3597312542772921],[-0.404792043138546],[0.07364505754672421],[-0.6043911613270598]],"rows":5,"cols":1}],"biases":[{"data":[[-0.26773101907804925,0.4269021554393865,-0.5188944841472167,0.10031509494020834,-0.3438430311346895]],"rows":1,"cols":5},{"data":[[0.019121722793607115,-0.36339276585719915,0.5589822023140829,-0.3024921529411169,-0.5238979527245988]],"rows":1,"cols":5},{"data":[[-1.881287713690102]],"rows":1,"cols":1}],"score":30},"15":{"type":"Genetic_Fully_Connected_Neural_Network","activation_function_name":"tanh","activation_function":{},"length":3,"width":5,"weights":[{"data":[[0.4135743217710484,-0.10112021028749622,0.1312784108953312,-0.5126632168824324,-0.21773473385842934],[0.05228685451416662,0.0359839257067566,-0.10677358471709118,-0.4140409544688684,-0.004865027345206334],[-0.26663410467990556,-0.22358285155639798,0.32556656752633617,-0.021069178442490465,-0.030676127751394673],[-0.08395948463764003,-0.46701477145824594,0.17848880171511983,-0.3631983297376459,-0.4815482318335954],[0.5833534387440782,0.392285534832363,-0.19704622684783787,-0.0010961000278182094,0.28727649320191967],[0.38918785641732917,-0.49316112864240086,0.27995474485704397,0.25822311072948373,0.3208277287132516],[-0.37219483350156596,0.45406129045971055,-0.42298320100188896,0.46024213591647295,0.3236378783411235],[-0.012829837490272132,-0.2597689961904554,-0.43668355652381546,-0.389890622765669,0.5145821453592517],[-0.40576214735367105,-0.0024291034728159333,-0.04962649518043871,0.07032964504961885,0.547294356586612],[-0.09161540782120459,0.3960656937794272,-0.6217401915206989,-0.5206701422347282,0.2883305193326676],[-0.16089610086640735,0.45728773181918475,0.2366263508119762,0.3301954696053708,-0.15280519306881893],[0.5349008800487103,-0.6216939275042704,0.34917552073525027,1.3851034257945205,0.28572939893101096],[-0.3352134248445381,-0.3826255488016548,0.1614358704837022,-0.03264345040144993,-0.592760315723719],[0.07828851923555892,-0.10770372396665932,0.12273233841957377,0.6264701147124228,0.1731015358042947],[0.556888405982371,-0.2765112448735806,-0.10166207047592024,-0.550184338532368,0.19747179016905367],[-0.320286778733939,0.48986516340192454,-0.11946379918735095,0.29046019890307273,0.5866729562240927],[-0.5588124849282898,0.47083356248990027,-0.10780508394607159,-0.4426833805158765,-0.3990190930031241],[0.550570675646649,0.6036323713776711,0.2734155662681992,0.42672130484171805,-0.576297213198563],[0.07400404657762248,-0.6081539749947112,-0.4309127702113846,0.26831816817240506,-0.2279740622823103],[-0.4982818410381877,0.018073856808651267,-0.4881911012435575,0.4500376457019827,0.20863434327365402],[-0.024150534935033274,-0.21192457173151655,0.1765404005320245,-0.08096659582242267,0.21184645069670885],[-0.12505914623559833,0.016874257085609603,-0.40368761452742985,0.30484696474096207,-0.17239093017046797],[-0.5441672873870492,0.02927914919718603,0.5825778564345795,0.19829419179055138,0.22784857978289635],[0.2156708067066596,-0.021584336919359844,-0.45403895260048244,-0.5280133440951256,0.5428932406152169],[-0.4068038173394979,-0.4228277156448329,-0.36457315049010885,-0.43774915890844557,0.49104757074255234],[0.38811227705452944,-0.6035517918482682,0.5350309872946435,0.05507986622438412,-0.08626269674762364],[0.06561098406505933,0.4694377201235359,-0.5835786832066815,0.6173039743504734,-0.21437193132256488],[0.28545088799483936,-0.5205398277888433,0.5765571437275346,0.37935898830089215,-0.5741245286753236],[-0.5994957749362354,0.199025489104742,-0.2819170662651885,0.20194425887272605,-0.22363949833961405],[0.2579363459686112,0.6110385139586274,0.49131126018734145,0.2593042099660822,0.21968742309270048],[0.17629418888943257,-0.5085416701722139,0.46972424357640796,0.43688172175052736,-0.13530636217851388],[-0.32970326352608026,-0.5509152008265819,0.06909582135443561,-0.5429041025515062,0.5874537785886852],[-0.3843374395506396,0.6157933642879706,-0.5131439435626636,0.3242466040409465,-0.48691825288720086],[0.4638682876952047,0.04084686317488818,0.0011554722887817178,0.3004364787909436,-0.5570527843175754],[-0.5940853173259395,-0.6034052405979292,0.4938511837475378,-0.32974995537666624,-0.48669840289845695],[-0.20712345350308828,-0.5758079313963959,0.36770983396426193,0.5434724688432684,-0.28243902694942297],[0.18912563972923782,0.3260135491230678,0.24272210267788497,-0.3840424324563311,0.4001730394308333],[0.5648254022284915,-0.1534573242018317,0.5894922952908588,-0.0982083723528078,-0.07311510780900136],[-0.099918550263051,0.33734667149501446,0.5788013379575944,0.22631530436775174,0.01600323111013265],[-0.1612734518855751,-0.03956697168604619,-0.15912606023070197,-0.4762705110367967,0.32396347660721025],[-0.4452738763229125,-0.2069688591228246,-0.15798916861877826,0.39411774667122945,0.4909108582503188],[0.016856068686050357,-0.36909047088380764,-0.27305185735889415,0.3150642405374507,0.37202159618923913],[0.2113576625693434,0.25715051256627863,0.598468397488092,0.22348397626865962,0.289820805944278],[-0.12307373578532768,0.16181145740108077,0.6063248639860725,0.5022326277132001,0.06869464693456886],[-0.594437601037452,-0.10505127429754432,0.47678948506616614,-0.1860189508960438,0.09978534984478149],[-0.4393202792033507,0.594506018912042,0.2846430790254942,-0.08050976757102149,-0.07889791187264301],[0.5656598486833416,0.3297244885610994,0.036855690500253876,-0.3627049851934446,0.4610389434974812],[0.3495233940197571,0.5167619466600132,0.12769258209452122,0.015302074833269739,0.045347963498071436],[-0.3607863761846126,-0.11896542433771944,-0.3916174578864098,0.31247657047053845,-0.211386052741251]],"rows":49,"cols":5},{"data":[[-0.5670685594762224,-0.4166405274416625,0.08837280320633578,-0.4078628461202322,0.4494443097314621],[0.16838478553518407,0.4353529474566465,0.5070670579481501,0.5241929685694876,-0.31393286059990533],[0.2953915809784978,-0.022981245948422088,0.5295832796366549,0.2642059837082595,0.3551046165003506],[-0.3035522509408822,-0.08056032169928351,0.3902988477314453,0.13670351718033255,-0.27201139393926044],[0.5093125485436552,0.2300672433451756,0.01469554777364209,0.2941321183126001,0.3608250048761238]],"rows":5,"cols":5},{"data":[[0.5532929935874302],[0.38367088393711396],[-0.41231075400780315],[0.1243166769321613],[0.08415197764839259]],"rows":5,"cols":1}],"biases":[{"data":[[0.2615489841757975,0.5519907716494842,0.30007974181695063,0.018816950114952095,0.277445781262444]],"rows":1,"cols":5},{"data":[[-0.09428318843259736,-0.4879670300178765,0.22171280506981797,0.22206222124047534,0.4207125580425603]],"rows":1,"cols":5},{"data":[[-0.1590095973725978]],"rows":1,"cols":1}],"score":29},"16":{"type":"Genetic_Fully_Connected_Neural_Network","activation_function_name":"tanh","activation_function":{},"length":3,"width":5,"weights":[{"data":[[-0.3110829378147444,0.27991604966884764,-0.05618500946784496,-0.19485915090732922,-0.56569753685069],[0.37906471081069676,-0.19418587445179097,-0.2205486160079218,0.0563350526743487,-0.29520872196030096],[0.22858359061620817,0.025513438753001015,0.22770451114186324,0.3792698302010808,0.15524798310355098],[0.15113322023766215,-0.07643284188791881,-0.4844377436459765,0.2996293216413331,-0.38814128825298444],[-0.1408916613221764,-0.09017458796481742,0.1941910407949254,0.10110523579821797,-0.6241512422097222],[-0.018242333693374687,-0.2682414769424574,0.38611611735366025,-0.3046530744264805,0.5247182529854748],[0.6322244238483412,-0.03584100841360086,0.17996204511861932,-0.3309508363308633,-0.5714941052844643],[0.2145168059306829,0.5359583618553583,1.5411476110741553,-0.37074571046856514,-0.48134296500728047],[0.08699806119387574,-0.11790401071229634,-0.14891535356031407,0.04147116370377299,-0.09169781925377267],[0.25937035260866137,-0.22063626043807175,-0.14674565967044909,0.045159649250804144,0.01395574883645593],