{
    "0": {
        "type": "Genetic_Combined_Network",
        "activation_function_name": "tanh",
        "activation_function": {},
        "networks": [
            {
                "type": "Genetic_Convolutional_Neural_Network",
                "activation_function_name": "swish",
                "activation_function": {},
                "length": 1,
                "width": 4,
                "height": 4,
                "weights": [],
                "biases": [],
                "kernels": [
                    {
                        "data": [
                            [
                                0.04007409926601291,
                                0.807941180019657,
                                -0.11305174948195368,
                                -0.04067485812973026
                            ],
                            [
                                0.027702891062043933,
                                0.11446619769490357,
                                0.6985821793489855,
                                0.8201046357778383
                            ],
                            [
                                -0.05940730077571299,
                                -0.009708822057978406,
                                -0.12151243645781207,
                                -0.8367409247756339
                            ],
                            [
                                0.0511139779326093,
                                0.09562944217185315,
                                -0.054086055938528166,
                                0.8420128704428094
                            ]
                        ],
                        "rows": 4,
                        "cols": 4
                    }
                ]
            },
            {
                "type": "Genetic_Flatten",
                "activation_function_name": "identity",
                "activation_function": {}
            },
            {
                "type": "Genetic_Fully_Connected_Neural_Network",
                "activation_function_name": "tanh",
                "activation_function": {},
                "length": 3,
                "width": 5,
                "weights": [
                    {
                        "data": [
                            [
                                -0.512119475841636,
                                0.2076804913786954,
                                -0.5924065782038807,
                                0.5281149120960554,
                                0.5045347664273114
                            ],
                            [
                                -0.15204319799091828,
                                -0.3490574673981967,
                                0.21863973594832356,
                                -0.4468449926333359,
                                -0.5332223133029208
                            ],
                            [
                                -0.45143659931045055,
                                0.1959974963469834,
                                -0.05480480216927375,
                                0.3526808376895498,
                                0.19094891921808557
                            ],
                            [
                                -1.1003149589775847,
                                -0.3387223614392178,
                                -0.24504364573661727,
                                -0.06867600917926282,
                                -0.44647926717706826
                            ],
                            [
                                0.0666499043229325,
                                0.5386005860125305,
                                0.16948585905856833,
                                -0.08772594078505941,
                                -0.32792976629928006
                            ],
                            [
                                0.34040357797156645,
                                -0.5401300619572617,
                                -0.09020949785222142,
                                0.46825996559037675,
                                0.1630213273691193
                            ],
                            [
                                0.9189366359435234,
                                -0.18864728891210686,
                                -0.5429661009432278,
                                -0.3106907820853532,
                                -0.2634749209536222
                            ],
                            [
                                0.05691845570497858,
                                -0.4035772157254452,
                                0.09365200652966704,
                                -0.16073567051794024,
                                0.35249211044717993
                            ],
                            [
                                0.6322745361209356,
                                1.3128556476641782,
                                0.33363318203300935,
                                0.15374939886051955,
                                0.30160662902186613
                            ],
                            [
                                -0.04325864256620889,
                                0.38963372512688843,
                                0.11444431733761593,
                                -0.12529172245068843,
                                0.3519714613484861
                            ],
                            [
                                -0.3051618833009657,
                                -0.5840277694758729,
                                -0.07618280041894886,
                                0.36284071637462434,
                                -0.22795249470852147
                            ],
                            [
                                -0.3662323616116839,
                                0.3337543891898684,
                                -0.46308496327162496,
                                -0.6847710915040807,
                                0.5075678389249069
                            ],
                            [
                                -0.5755788426129184,
                                -0.21152072786680676,
                                0.5127183441815122,
                                -0.3914011902538069,
                                -0.15038372769479014
                            ],
                            [
                                0.4883441859765012,
                                -0.1497901883082813,
                                -0.6082026761948026,
                                0.10513697097582721,
                                -0.07666484021151587
                            ],
                            [
                                -0.1661547548072966,
                                0.25337502077797913,
                                0.008384678652290978,
                                0.319787311892745,
                                -0.3753601692764573
                            ],
                            [
                                -0.6134969150093812,
                                0.0399992780255809,
                                1.136938339694411,
                                0.5592574394235061,
                                -0.6188536846368695
                            ]
                        ],
                        "rows": 16,
                        "cols": 5
                    },
                    {
                        "data": [
                            [
                                0.3351811741048292,
                                -0.7204122078264263,
                                0.01891234285103185,
                                0.48840730879178423,
                                -0.40299537539334207
                            ],
                            [
                                -0.165263880840278,
                                -0.43792343622117025,
                                -0.25718330237431664,
                                0.8075060569857802,
                                -0.393023091041209
                            ],
                            [
                                -0.06179977263250623,
                                0.586334214291258,
                                -0.03862569730491549,
                                -0.010272216618822638,
                                -0.048342329811649445
                            ],
                            [
                                0.2663242091078195,
                                0.2678958418077167,
                                0.3476921494322796,
                                0.4457180483192782,
                                0.4463572599415172
                            ],
                            [
                                0.014907394275355415,
                                0.17990019924439948,
                                0.3447136285207519,
                                -0.4424929781155601,
                                -0.5793881694521703
                            ]
                        ],
                        "rows": 5,
                        "cols": 5
                    },
                    {
                        "data": [
                            [
                                0.32747773345343606
                            ],
                            [
                                0.5432301665130755
                            ],
                            [
                                0.14647110531373028
                            ],
                            [
                                0.452148452462559
                            ],
                            [
                                -0.8356361327393486
                            ]
                        ],
                        "rows": 5,
                        "cols": 1
                    }
                ],
                "biases": [
                    {
                        "data": [
                            [
                                0.2154438545202326,
                                0.28119043717693065,
                                0.22997904793618498,
                                -0.014214829792506352,
                                -0.5010269879287915
                            ]
                        ],
                        "rows": 1,
                        "cols": 5
                    },
                    {
                        "data": [
                            [
                                -0.5473885900233111,
                                -0.383436245321962,
                                -0.37795661173036205,
                                -0.5968492338290814,
                                -0.5148081581775665
                            ]
                        ],
                        "rows": 1,
                        "cols": 5
                    },
                    {
                        "data": [
                            [
                                0.3336118841301854
                            ]
                        ],
                        "rows": 1,
                        "cols": 1
                    }
                ],
                "process": [
                    {
                        "data": [
                            [
                                0.7460875701988336,
                                -0.9127421145859489,
                                -0.5863170915711473,
                                0.6790377881348171,
                                null,
                                null,
                                null,
                                null,
                                null,
                                null,
                                null,
                                null,
                                null,
                                null,
                                null,
                                null,
                                0.09142571660955033,
                                -0.0448937009632463,
                                0.594798390529697,
                                0.6055471504338922,
                                0.47564883461093427,
                                -0.2629609623322522,
                                1.30477592564745,
                                -0.2696925683476824,
                                0.06923695733002977,
                                -0.23583467332884178,
                                0.15159133868500857,
                                0.5613985569763088,
                                0.6423963664367897,
                                -0.25115089596634055,
                                0.6189887619699733,
                                -0.26180170551600507
                            ]
                        ],
                        "rows": 1,
                        "cols": 32
                    }
                ]
            }
        ],
        "length": 3,
        "score": 26
    },
    "1": {
        "type": "Genetic_Combined_Network",
        "activation_function_name": "tanh",
        "activation_function": {},
        "networks": [
            {
                "type": "Genetic_Convolutional_Neural_Network",
                "activation_function_name": "swish",
                "activation_function": {},
                "length": 1,
                "width": 4,
                "height": 4,
                "weights": [],
                "biases": [],
                "kernels": [
                    {
                        "data": [
                            [
                                -0.019417636116086323,
                                0.035275248904873935,
                                0.03321845573673232,
                                -0.09682714627595934
                            ],
                            [
                                -0.03328326679548205,
                                0.05880293215401,
                                -0.11251706105211112,
                                0.12161482270597679
                            ],
                            [
                                0.016649168136058268,
                                0.05646699158691437,
                                -0.0827533300486551,
                                0.4100360238902465
                            ],
                            [
                                -0.05171649615610685,
                                -0.08097459761144654,
                                -0.04293733252136639,
                                -0.0915804697268553
                            ]
                        ],
                        "rows": 4,
                        "cols": 4
                    }
                ]
            },
            {
                "type": "Genetic_Flatten",
                "activation_function_name": "identity",
                "activation_function": {}
            },
            {
                "type": "Genetic_Fully_Connected_Neural_Network",
                "activation_function_name": "tanh",
                "activation_function": {},
                "length": 3,
                "width": 5,
                "weights": [
                    {
                        "data": [
                            [
                                0.04657452295202403,
                                0.38469357696474166,
                                -0.23449083704218282,
                                -0.2785262784269598,
                                -0.3220109575211612
                            ],
                            [
                                -0.5021312769327209,
                                0.22540844692743764,
                                0.3815619117320111,
                                0.5722161076654195,
                                0.5125624534773576
                            ],
                            [
                                0.6311311390299944,
                                -0.3781672484934038,
                                -0.5417248158625145,
                                0.31694912308254175,
                                0.11995296278426365
                            ],
                            [
                                0.36912453529156997,
                                -0.2112827356057627,
                                -0.17710867688488527,
                                0.379309467649019,
                                -0.029374040271855268
                            ],
                            [
                                0.17941451993632712,
                                -0.10108004204586618,
                                -0.05690982540596579,
                                0.29555120217413594,
                                0.1707758630041673
                            ],
                            [
                                -0.04338513975380469,
                                0.46867711058624534,
                                0.6057951548693289,
                                0.41973093696945313,
                                -0.5139129099765554
                            ],
                            [
                                0.5761024931155568,
                                0.08985275737878579,
                                -0.4626904324401801,
                                -0.47424219389581596,
                                0.6022841286352449
                            ],
                            [
                                -0.2376657769186622,
                                0.6067595983431938,
                                -0.553422455957688,
                                -0.3311696455365607,
                                -0.5921067334525169
                            ],
                            [
                                0.33963505807313665,
                                0.5388271008826451,
                                0.3282136820557091,
                                -0.1528984854160293,
                                -0.07185160177925948
                            ],
                            [
                                0.47726559253803835,
                                -0.14146480847904755,
                                -0.42536236813418066,
                                0.4068346432500302,
                                -0.2722325134453144
                            ],
                            [
                                -0.14164891781679162,
                                0.5488215017203293,
                                -0.252534768253025,
                                -0.6121373491988602,
                                0.03754028719499214
                            ],
                            [
                                -0.173288115874354,
                                0.030791500822243238,
                                0.3012457178778784,
                                0.35358517298466063,
                                -0.1882168052582329
                            ],
                            [
                                -0.5907251497211028,
                                0.24171966278150656,
                                -0.5790692826333117,
                                0.5485358413989208,
                                0.32498743051072293
                            ],
                            [
                                -0.5897993701345476,
                                0.16424789627878927,
                                0.36692208130656256,
                                0.17127035517158473,
                                0.3614196709454169
                            ],
                            [
                                0.0640066620657239,
                                -0.2016742936356805,
                                -0.1934779326339846,
                                0.4328774746316322,
                                0.4194962212699798
                            ],
                            [
                                -0.5374366447545877,
                                -0.20665689550799693,
                                -0.15184977877197578,
                                0.2439095198566422,
                                0.40781347786889727
                            ]
                        ],
                        "rows": 16,
                        "cols": 5
                    },
                    {
                        "data": [
                            [
                                -0.27460757592424445,
                                -0.008103382495426324,
                                0.5703077496134543,
                                0.45829426365510373,
                                -0.3683134889385899
                            ],
                            [
                                -0.5967121807818536,
                                -0.48487032256992296,
                                -0.4866173893100011,
                                0.38935595063336886,
                                0.12219715869900578
                            ],
                            [
                                -0.5576266656614984,
                                -0.18021945207667733,
                                -0.3463152637552729,
                                0.08153198690575308,
                                -0.40579960909812207
                            ],
                            [
                                -0.037612427645968026,
                                0.6069356273614159,
                                0.23285451196647924,
                                0.3007727695007019,
                                0.3800037157477663
                            ],
                            [
                                -0.3014810096649232,
                                0.05821894004809772,
                                0.5509941295595038,
                                0.2498796113547736,
                                0.5478593063283005
                            ]
                        ],
                        "rows": 5,
                        "cols": 5
                    },
                    {
                        "data": [
                            [
                                -0.4137116589913873
                            ],
                            [
                                -0.1795519530559936
                            ],
                            [
                                -0.10193721774658347
                            ],
                            [
                                -0.18245405314546337
                            ],
                            [
                                -0.6217707340184642
                            ]
                        ],
                        "rows": 5,
                        "cols": 1
                    }
                ],
                "biases": [
                    {
                        "data": [
                            [
                                -0.026813999973089975,
                                0.5143507975948411,
                                -0.16029532199239746,
                                0.5100550510286188,
                                -0.343284691119654
                            ]
                        ],
                        "rows": 1,
                        "cols": 5
                    },
                    {
                        "data": [
                            [
                                0.5217155143975015,
                                0.0959636007965675,
                                -0.24033238901614667,
                                0.46313424641746936,
                                0.23937960434181493
                            ]
                        ],
                        "rows": 1,
                        "cols": 5
                    },
                    {
                        "data": [
                            [
                                -1.4240369109410311
                            ]
                        ],
                        "rows": 1,
                        "cols": 1
                    }
                ],
                "process": [
                    {
                        "data": [
                            [
                                -0.8208914446631854,
                                -0.6286780258532594,
                                -0.2177933776211911,
                                0.6834360630121261,
                                null,
                                null,
                                null,
                                null,
                                null,
                                null,
                                null,
                                null,
                                null,
                                null,
                                null,
                                null,
                                0.07575458964061633,
                                -0.19003310776669594,
                                -0.059692655973672126,
                                -0.023405937504069923,
                                0.074757832667027,
                                0.01575921888102739,
                                0.024676311784277902,
                                -0.08853492783708926,
                                0.024448124872082342,
                                -0.027436577246788756,
                                -0.009379810933778373,
                                -0.17828933001967226,
                                0.008288200756160213,
                                -0.008255286968849014,
                                0.03956199185638594,
                                0.0062471487084983495
                            ]
                        ],
                        "rows": 1,
                        "cols": 32
                    }
                ]
            }
        ],
        "length": 3,
        "score": 20
    },
    "2": {
        "type": "Genetic_Combined_Network",
        "activation_function_name": "tanh",
        "activation_function": {},
        "networks": [
            {
                "type": "Genetic_Convolutional_Neural_Network",
                "activation_function_name": "swish",
                "activation_function": {},
                "length": 1,
                "width": 4,
                "height": 4,
                "weights": [],
                "biases": [],
                "kernels": [
                    {
                        "data": [
                            [
                                -0.03147500829497907,
                                -0.04146521419180271,
                                -0.11167594698238698,
                                -0.09385555146829816
                            ],
                            [
                                -0.036104879192924266,
                                0.0033102565798371897,
                                0.09581465209783152,
                                0.09096743868957091
                            ],
                            [
                                0.0220212051545714,
                                0.014114955126502016,
                                -0.10250122759267599,
                                0.11330236991601711
                            ],
                            [
                                0.021772314740148346,
                                -0.10844384288299841,
                                0.0950881959733682,
                                -0.053199001567634796
                            ]
                        ],
                        "rows": 4,
                        "cols": 4
                    }
                ]
            },
            {
                "type": "Genetic_Flatten",
                "activation_function_name": "identity",
                "activation_function": {}
            },
            {
                "type": "Genetic_Fully_Connected_Neural_Network",
                "activation_function_name": "tanh",
                "activation_function": {},
                "length": 3,
                "width": 5,
                "weights": [
                    {
                        "data": [
                            [
                                0.42854447319607525,
                                -0.12397290108539834,
                                0.1961958475297335,
                                -0.12303585606191227,
                                0.4317544344000723
                            ],
                            [
                                -0.44322787827515014,
                                -0.015417956202858357,
                                0.3040412739103806,
                                0.05158410747271624,
                                -0.21425141845351148
                            ],
                            [
                                -0.6042613000333863,
                                0.16789662176870934,
                                -0.16074787068034369,
                                -0.4518651915998634,
                                0.060328471968793894
                            ],
                            [
                                0.575319014635342,
                                -0.5241457325328743,
                                -0.24840994309035322,
                                0.07874915707352673,
                                -0.5489636067694195
                            ],
                            [
                                0.1303887377122164,
                                0.511831363930559,
                                -0.45170218906711945,
                                0.23921025917650057,
                                0.4919888750946727
                            ],
                            [
                                0.4220002511594445,
                                0.5784067847859317,
                                -0.13080833953731663,
                                -0.4934664555580837,
                                -0.46679384624848336
                            ],
                            [
                                0.6217102598280823,
                                -0.5662461551952602,
                                -0.4693381907377642,
                                -0.18759640930110158,
                                0.38125463840601276
                            ],
                            [
                                -0.4192531352056628,
                                0.5343950923941445,
                                0.4645718839903787,
                                -0.05898279307833262,
                                -0.5183096933465337
                            ],
                            [
                                0.21539412452967857,
                                -0.6039571784119233,
                                -0.03792771787855293,
                                -0.32593930134795773,
                                -0.11281392962295093
                            ],
                            [
                                0.2918326334159164,
                                -0.29533629339427686,
                                0.24637096938945874,
                                -0.5874549248272407,
                                -0.604790889217319
                            ],
                            [
                                -0.27743525271646785,
                                -0.12902135514083046,
                                0.5663584376525732,
                                -0.48209921765083746,
                                0.26400335405073433
                            ],
                            [
                                0.36482656389239043,
                                -0.6095905486353341,
                                -0.3920691301924432,
                                -0.06484653031337619,
                                -0.44565681738229934
                            ],
                            [
                                -0.29667552789980745,
                                -0.5417778054004654,
                                -0.46056653989669943,
                                -0.4010535809615522,
                                -0.5162281442372988
                            ],
                            [
                                0.16839357234925323,
                                -0.17474066198387753,
                                -0.3556495118004342,
                                -0.2881738776971326,
                                -0.151715580810146
                            ],
                            [
                                0.04089110318576214,
                                -0.4365021966055932,
                                -0.3748817883218718,
                                0.11341131200915512,
                                0.3582533677101583
                            ],
                            [
                                -0.022220417478066835,
                                -0.12355966945258577,
                                -0.6055171871347214,
                                -0.5733581871084783,
                                -0.5852476673363253
                            ]
                        ],
                        "rows": 16,
                        "cols": 5
                    },
                    {
                        "data": [
                            [
                                0.15378558128998993,
                                -0.6137845708167201,
                                -0.256215974124434,
                                0.18390590217159383,
                                0.22026544157653608
                            ],
                            [
                                -0.6077953159233374,
                                -0.4499566989750867,
                                0.2233955649150381,
                                -0.4744670171687212,
                                -0.3738647280019249
                            ],
                            [
                                0.4273758037809168,
                                -0.10187804443656422,
                                0.13560877590288756,
                                0.34475725556308895,
                                -0.408916300612818
                            ],
                            [
                                -0.13554667630065795,
                                -0.06668239511062428,
                                -0.15713383474263432,
                                -0.44408079915248155,
                                -0.48432971738812813
                            ],
                            [
                                0.23294580016691668,
                                0.129581433481213,
                                0.552912726083817,
                                0.21813246570646624,
                                0.6040646079061767
                            ]
                        ],
                        "rows": 5,
                        "cols": 5
                    },
                    {
                        "data": [
                            [
                                -0.40422703608615385
                            ],
                            [
                                -0.13233374725875638
                            ],
                            [
                                -0.1511863029477929
                            ],
                            [
                                -0.4548634373244827
                            ],
                            [
                                0.8831265618937159
                            ]
                        ],
                        "rows": 5,
                        "cols": 1
                    }
                ],
                "biases": [
                    {
                        "data": [
                            [
                                -0.15805409452903588,
                                -0.5304052214996028,
                                0.43380374118630755,
                                0.609626389425685,
                                -0.33042681592730266
                            ]
                        ],
                        "rows": 1,
                        "cols": 5
                    },
                    {
                        "data": [
                            [
                                0.19438434167519367,
                                -0.5889485682256635,
                                0.026662864275202532,
                                -0.47650930775403205,
                                -0.06769423891348147
                            ]
                        ],
                        "rows": 1,
                        "cols": 5
                    },
                    {
                        "data": [
                            [
                                1.4107398969974678
                            ]
                        ],
                        "rows": 1,
                        "cols": 1
                    }
                ],
                "process": [
                    {
                        "data": [
                            [
                                0.5631073998028717,
                                0.47083038820769296,
                                -0.9437624333468717,
                                0.21279194978149807,
                                null,
                                null,
                                null,
                                null,
                                null,
                                null,
                                null,
                                null,
                                null,
                                null,
                                null,
                                null,
                                0.08675013384300194,
                                0.08237340369710261,
                                -0.016104220163392535,
                                0.03669735154180226,
                                -0.036612945121433774,
                                -0.009306295544351074,
                                -0.002506190837424611,
                                -0.031164523973936948,
                                -0.081508262615906,
                                -0.038827976568182265,
                                0.08399269511386823,
                                0.09771573654115971,
                                0.013646377321582087,
                                -0.011099224321235881,
                                0.09673651820342802,
                                0.12986994802913976
                            ]
                        ],
                        "rows": 1,
                        "cols": 32
                    }
                ]
            }
        ],
        "length": 3,
        "score": 20
    },
    "3": {
        "type": "Genetic_Combined_Network",
        "activation_function_name": "tanh",
        "activation_function": {},
        "networks": [
            {
                "type": "Genetic_Convolutional_Neural_Network",
                "activation_function_name": "swish",
                "activation_function": {},
                "length": 1,
                "width": 4,
                "height": 4,
                "weights": [],
                "biases": [],
                "kernels": [
                    {
                        "data": [
                            [
                                0.026794486137312945,
                                -0.03129007617473323,
                                0.015643695894130505,
                                -0.03480480382228485
                            ],
                            [
                                -0.07482075700201868,
                                -0.09339811473817894,
                                0.058508564816157405,
                                -0.025727868304642687
                            ],
                            [
                                -0.09205159545517033,
                                0.07841418920054927,
                                0.04340971604919486,
                                -0.012258915313367924
                            ],
                            [
                                0.03117576997333721,
                                0.06379464801919826,
                                0.02073820814422711,
                                -0.017713361221635082
                            ]
                        ],
                        "rows": 4,
                        "cols": 4
                    }
                ]
            },
            {
                "type": "Genetic_Flatten",
                "activation_function_name": "identity",
                "activation_function": {}
            },
            {
                "type": "Genetic_Fully_Connected_Neural_Network",
                "activation_function_name": "tanh",
                "activation_function": {},
                "length": 3,
                "width": 5,
                "weights": [
                    {
                        "data": [
                            [
                                0.22999776590990648,
                                0.1580297510810763,
                                0.48970688570245197,
                                -0.49154135656484776,
                                -0.30323038383572587
                            ],
                            [
                                -0.4921161825480595,
                                0.43138793296843597,
                                -0.2531049354277819,
                                -0.30499776662252825,
                                0.1741537287315248
                            ],
                            [
                                0.01043406452258919,
                                0.17545637080079488,
                                -0.5937156659812531,
                                0.21223151416124253,
                                0.5864357931148753
                            ],
                            [
                                -0.3006694738406048,
                                -0.3988314787355316,
                                -0.44381720700230726,
                                -0.2509744753652202,
                                0.5438896035613117
                            ],
                            [
                                -0.39351028472954785,
                                0.625461045912391,
                                0.3759324297834754,
                                -0.028859944853630644,
                                0.38078248285197913
                            ],
                            [
                                -0.37795021031728,
                                0.5892244395071491,
                                -0.3576487988189117,
                                0.4220874915846578,
                                0.5368366727582753
                            ],
                            [
                                -0.0534966275150289,
                                0.09554272560149356,
                                0.33712369413393867,
                                0.12429075548441913,
                                -0.03795459194334794
                            ],
                            [
                                -0.05726857554247876,
                                -0.1790531664042525,
                                0.20520993701789225,
                                0.010863218143473833,
                                0.33764102206780316
                            ],
                            [
                                0.4484812513963571,
                                0.4201131656057904,
                                -0.08281982759147034,
                                0.577364310437189,
                                -0.0790729321584048
                            ],
                            [
                                0.22340018808713027,
                                -0.45616222563750825,
                                -0.03038854240471904,
                                -0.13039397447257783,
                                0.21091748583797923
                            ],
                            [
                                0.4598711789936668,
                                -0.12901382821354343,
                                0.003485675119360636,
                                0.24625260317258454,
                                -0.36963547067964486
                            ],
                            [
                                0.04701666779757931,
                                -0.038094048342892504,
                                0.5902976040676866,
                                -0.11311042426063345,
                                0.154861814151847
                            ],
                            [
                                0.37175741432627535,
                                -0.47414570537190087,
                                -0.44662527533971613,
                                -0.3238163454743747,
                                0.5831256051468479
                            ],
                            [
                                0.46477243200748064,
                                0.45044020424468945,
                                -0.43048037585006077,
                                0.5534465437150564,
                                0.027500829301643392
                            ],
                            [
                                0.47885274526286364,
                                -0.5965896718572823,
                                -0.373248407237982,
                                0.2716612070208977,
                                -0.6172937575131514
                            ],
                            [
                                -0.1974872023946911,
                                0.4145539828156235,
                                -0.3282080072271692,
                                0.622094821113853,
                                -0.0531328625938353
                            ]
                        ],
                        "rows": 16,
                        "cols": 5
                    },
                    {
                        "data": [
                            [
                                0.531143389496721,
                                -0.015939463019837126,
                                -0.2169434003965321,
                                0.4630737728197777,
                                -0.5933817575493767
                            ],
                            [
                                -0.4945717087685052,
                                0.26163887614711734,
                                -0.3176716377209983,
                                -0.33429280139715317,
                                0.4922641270619064
                            ],
                            [
                                -0.06755600000422347,
                                0.17704096656981408,
                                0.18252430284319904,
                                -0.37813979961589705,
                                0.6278254620248146
                            ],
                            [
                                -0.07161312328708848,
                                -0.6121513945939013,
                                0.4709475447435574,
                                -0.029468569590772778,
                                -0.3830135483193152
                            ],
                            [
                                0.30256324701010334,
                                0.5107049660659809,
                                0.2492571638901941,
                                0.5940016867190736,
                                -0.567835252463372
                            ]
                        ],
                        "rows": 5,
                        "cols": 5
                    },
                    {
                        "data": [
                            [
                                -0.012322622739723435
                            ],
                            [
                                -0.5534162681017839
                            ],
                            [
                                0.07564636013235276
                            ],
                            [
                                0.2693895216043089
                            ],
                            [
                                0.38077365796191837
                            ]
                        ],
                        "rows": 5,
                        "cols": 1
                    }
                ],
                "biases": [
                    {
                        "data": [
                            [
                                0.07729476389960614,
                                -0.34651438732281875,
                                -0.2672123961906876,
                                0.3788139690581534,
                                0.0410054581586279
                            ]
                        ],
                        "rows": 1,
                        "cols": 5
                    },
                    {
                        "data": [
                            [
                                0.07322627670396674,
                                0.036605967976924364,
                                0.48975831907649814,
                                0.4452079404433,
                                0.5798973404664384
                            ]
                        ],
                        "rows": 1,
                        "cols": 5
                    },
                    {
                        "data": [
                            [
                                0.9595778681285996
                            ]
                        ],
                        "rows": 1,
                        "cols": 1
                    }
                ],
                "process": [
                    {
                        "data": [
                            [
                                -0.49938997358126924,
                                -0.33988703319317537,
                                0.1818712979254049,
                                0.7149207822366801,
                                null,
                                null,
                                null,
                                null,
                                null,
                                null,
                                null,
                                null,
                                null,
                                null,
                                null,
                                null,
                                -0.01068444305444976,
                                -0.04262826398023421,
                                0.01574742277804579,
                                0.051165996507427654,
                                -0.07334181308249711,
                                -0.05319701826167493,
                                0.018372163274378687,
                                -0.05392817970165555,
                                -0.010966445185666774,
                                0.04970435015214091,
                                0.14020629428795156,
                                0.049292130848229136,
                                -0.06884831785605745,
                                0.04251454076771249,
                                0.12334636629162302,
                                -0.00797637167910304
                            ]
                        ],
                        "rows": 1,
                        "cols": 32
                    }
                ]
            }
        ],
        "length": 3,
        "score": 18
    },
    "4": {
        "type": "Genetic_Combined_Network",
        "activation_function_name": "tanh",
        "activation_function": {},
        "networks": [
            {
                "type": "Genetic_Convolutional_Neural_Network",
                "activation_function_name": "swish",
                "activation_function": {},
                "length": 1,
                "width": 4,
                "height": 4,
                "weights": [],
                "biases": [],
                "kernels": [
                    {
                        "data": [
                            [
                                0.02646030180652109,
                                0.05260831496399904,
                                -0.10449530996554712,
                                0.03366896549213405
                            ],
                            [
                                -0.05075788561796041,
                                0.010674041296773962,
                                0.11412764180101581,
                                0.000741153832543584
                            ],
                            [
                                0.06597515097447876,
                                0.074220912449171,
                                -0.11270257794519711,
                                0.0016879515229671904
                            ],
                            [
                                -0.08115987086334997,
                                -0.09326253678520674,
                                0.023032057454694332,
                                -0.12010873261530258
                            ]
                        ],
                        "rows": 4,
                        "cols": 4
                    }
                ]
            },
            {
                "type": "Genetic_Flatten",
                "activation_function_name": "identity",
                "activation_function": {}
            },
            {
                "type": "Genetic_Fully_Connected_Neural_Network",
                "activation_function_name": "tanh",
                "activation_function": {},
                "length": 3,
                "width": 5,
                "weights": [
                    {
                        "data": [
                            [
                                0.5598570643643901,
                                -0.26247238893784125,
                                -0.4405670486635987,
                                -0.23632561591827514,
                                -0.6143536779112037
                            ],
                            [
                                -0.5025963255669167,
                                0.15330816149104326,
                                0.38037113684825824,
                                -0.1480264612255051,
                                -0.2048236914263777
                            ],
                            [
                                0.6021161222140075,
                                -0.6043174221662855,
                                0.4762477911895515,
                                0.1729004597021643,
                                0.5319997496585221
                            ],
                            [
                                -0.24284923784971923,
                                0.05712363189334479,
                                -0.18471012983488796,
                                0.6185387751399409,
                                0.3001581823166614
                            ],
                            [
                                -0.014664209074233898,
                                -0.4835749400948562,
                                0.4523165899001488,
                                0.23405995657558568,
                                0.520213761335463
                            ],
                            [
                                -0.01688186632263528,
                                0.5491066006244877,
                                0.5591702540992403,
                                -0.18650291591858342,
                                0.3505898127138539
                            ],
                            [
                                0.5049160306809517,
                                -0.4983124140261471,
                                0.1418976230330996,
                                -0.5647067906158197,
                                -0.3164855124132132
                            ],
                            [
                                -0.049327614205259065,
                                0.13024380001006639,
                                -0.5382554398444154,
                                0.007702918065086812,
                                -0.18858719481296068
                            ],
                            [
                                -0.5893233791581372,
                                0.13391641510748725,
                                -0.037065643432664726,
                                0.6115513451966837,
                                0.4160389252207579
                            ],
                            [
                                0.03168542384881737,
                                -0.38961226269745847,
                                -0.5587784872379041,
                                0.11833927267706648,
                                -0.05120227646652087
                            ],
                            [
                                -0.4629501695803005,
                                0.49256794131701526,
                                -0.2154047750620642,
                                -0.19881098846831052,
                                0.021812182806281315
                            ],
                            [
                                0.10240366734780963,
                                -0.15952673057170783,
                                0.17286610025829102,
                                0.2177249529498624,
                                -0.14701407883964626
                            ],
                            [
                                -0.23209803299076984,
                                -0.6130052109002376,
                                0.43263269496018314,
                                -0.19235786471150093,
                                -0.5288046385499584
                            ],
                            [
                                -0.26201031690904125,
                                0.5101807199970919,
                                -0.6031055313134156,
                                0.23148913437597285,
                                0.5122816011608479
                            ],
                            [
                                0.4858244943448517,
                                -0.2956880613544715,
                                0.060782139226055035,
                                -0.19242601906464346,
                                0.605818656994253
                            ],
                            [
                                0.3390595657514727,
                                -0.5410732100543068,
                                0.4067182975281986,
                                0.12016799650507659,
                                -0.5501998469163473
                            ]
                        ],
                        "rows": 16,
                        "cols": 5
                    },
                    {
                        "data": [
                            [
                                -0.5012579123918317,
                                0.32809939922202463,
                                0.5782922474270016,
                                -0.5614496418928706,
                                -0.10476097728434466
                            ],
                            [
                                -0.4498469693107918,
                                -0.4599113649170116,
                                0.3310748833440202,
                                -0.10778264448397931,
                                0.2402492001296628
                            ],
                            [
                                -0.22106133528451413,
                                -0.3170111368273715,
                                -0.23850905748802909,
                                0.27516091129958037,
                                0.49791628689046674
                            ],
                            [
                                0.5567250943096508,
                                0.1731763178652038,
                                -0.09508880652446851,
                                0.41681937454956275,
                                0.06351121414526287
                            ],
                            [
                                0.0030704959554377327,
                                -0.4959525850364468,
                                -0.21234462671402576,
                                0.031332444901829924,
                                -0.3122349331793617
                            ]
                        ],
                        "rows": 5,
                        "cols": 5
                    },
                    {
                        "data": [
                            [
                                0.6316610697792626
                            ],
                            [
                                0.4372749973429413
                            ],
                            [
                                -0.14270469936761082
                            ],
                            [
                                0.08272084208857029
                            ],
                            [
                                -0.6311564906526941
                            ]
                        ],
                        "rows": 5,
                        "cols": 1
                    }
                ],
                "biases": [
                    {
                        "data": [
                            [
                                -0.2545411902646694,
                                0.4142649895066922,
                                0.1806605146551641,
                                -0.1622656876274847,
                                -0.11253928423037479
                            ]
                        ],
                        "rows": 1,
                        "cols": 5
                    },
                    {
                        "data": [
                            [
                                0.5957724055220887,
                                -0.07962127829417566,
                                -0.2501996324471201,
                                -0.15792897621341442,
                                -0.2354624605806453
                            ]
                        ],
                        "rows": 1,
                        "cols": 5
                    },
                    {
                        "data": [
                            [
                                -1.8747821522186792
                            ]
                        ],
                        "rows": 1,
                        "cols": 1
                    }
                ],
                "process": [
                    {
                        "data": [
                            [
                                0.1441324647603559,
                                -0.22160668534367733,
                                0.04286514657873042,
                                -0.6975048180660757,
                                null,
                                null,
                                null,
                                null,
                                null,
                                null,
                                null,
                                null,
                                null,
                                null,
                                null,
                                null,
                                0.13093776010320968,
                                -0.08975746795847347,
                                -0.006567815352753451,
                                -0.08071581926532048,
                                -0.029362024985504595,
                                0.1028529973258147,
                                -0.16579689230706704,
                                0.1424059521046603,
                                -0.01711271934848296,
                                -0.03441796816637009,
                                0.08239459964553086,
                                -0.0331403935843172,
                                0.13077248350672485,
                                -0.044829138870399896,
                                -0.0988689809327711,
                                -0.001634930297845602
                            ]
                        ],
                        "rows": 1,
                        "cols": 32
                    }
                ]
            }
        ],
        "length": 3,
        "score": 12
    },
    "5": {
        "type": "Genetic_Combined_Network",
        "activation_function_name": "tanh",
        "activation_function": {},
        "networks": [
            {
                "type": "Genetic_Convolutional_Neural_Network",
                "activation_function_name": "swish",
                "activation_function": {},
                "length": 1,
                "width": 4,
                "height": 4,
                "weights": [],
                "biases": [],
                "kernels": [
                    {
                        "data": [
                            [
                                0.11291801118890149,
                                -0.10322153704020748,
                                0.14476429673716384,
                                0.008136600578578235
                            ],
                            [
                                -0.009604293546323972,
                                0.8870234151624645,
                                -0.005417258271764869,
                                0.0638659091834245
                            ],
                            [
                                -0.013815826409009357,
                                0.027007704031296764,
                                -0.03737405829848989,
                                -0.004868783857671588
                            ],
                            [
                                0.07982629386463225,
                                0.6548823749548043,
                                0.1126926792378467,
                                0.002481326992837929
                            ]
                        ],
                        "rows": 4,
                        "cols": 4
                    }
                ]
            },
            {
                "type": "Genetic_Flatten",
                "activation_function_name": "identity",
                "activation_function": {}
            },
            {
                "type": "Genetic_Fully_Connected_Neural_Network",
                "activation_function_name": "tanh",
                "activation_function": {},
                "length": 3,
                "width": 5,
                "weights": [
                    {
                        "data": [
                            [
                                -0.4077052267197787,
                                0.3848481934911774,
                                0.4294413469102422,
                                0.4291090967781952,
                                -0.48316581235504946
                            ],
                            [
                                -0.29642462585933615,
                                -0.053588023782227996,
                                0.014041138434740898,
                                -0.06318325662183721,
                                -1.4437700599767838
                            ],
                            [
                                0.15704749216859185,
                                -0.39442722196911734,
                                0.34702409949378327,
                                0.21161573728906746,
                                0.2820700784410131
                            ],
                            [
                                -0.17911952276018828,
                                0.606171338785525,
                                -0.054042731497234375,
                                -0.4997550888531045,
                                0.3384022921257079
                            ],
                            [
                                -0.44864763295561744,
                                0.688851734867983,
                                -0.11279322293970727,
                                0.12865921997958168,
                                0.4838075997421672
                            ],
                            [
                                -0.17331808071239294,
                                0.4524768589563848,
                                -0.1537540105493313,
                                0.18376255789083767,
                                -0.08502959892099386
                            ],
                            [
                                0.18718700057494095,
                                0.27120883485569,
                                0.2422270326155307,
                                -0.04521882171145448,
                                -0.15847936428502152
                            ],
                            [
                                -0.3673630639168159,
                                -0.606172917870439,
                                -0.42480800076936853,
                                -0.1920730375417749,
                                -0.5479372512580698
                            ],
                            [
                                -0.3345506901177594,
                                -0.06351173088792367,
                                0.20978568968938116,
                                0.41791213537320737,
                                0.470309039323532
                            ],
                            [
                                -0.5251244010449638,
                                -0.4114633389950181,
                                -0.3449113725482169,
                                0.4797332848367297,
                                0.30856634588908793
                            ],
                            [
                                0.23918009960647768,
                                -0.26465283135816714,
                                0.17187678128180783,
                                -0.4160898760595032,
                                -0.599062285513131
                            ],
                            [
                                0.4372480073784484,
                                -0.5111274776508246,
                                0.40057580660305625,
                                -0.2831877045317321,
                                0.2003975158594577
                            ],
                            [
                                -0.28152761498516166,
                                0.17333609276246126,
                                0.41566886547575993,
                                0.22180689679319976,
                                -0.49721057431103716
                            ],
                            [
                                -0.06761102375459434,
                                -0.585597747074414,
                                -0.28381801469144263,
                                0.5686903802293001,
                                0.34627679415038365
                            ],
                            [
                                0.4009795449300131,
                                -0.4074978400886416,
                                -0.09451259340539334,
                                -0.2544467291909594,
                                -0.5708439643590385
                            ],
                            [
                                0.2828498322347306,
                                -0.5128514173986221,
                                0.37575743419211505,
                                -0.5914952499971745,
                                -0.07824041707788915
                            ]
                        ],
                        "rows": 16,
                        "cols": 5
                    },
                    {
                        "data": [
                            [
                                0.4961006951806034,
                                -0.06147769281442188,
                                0.04957768041785586,
                                -0.37291335779134643,
                                0.6068963591265594
                            ],
                            [
                                -0.5067741572147083,
                                0.5537056088429523,
                                0.5566441913646651,
                                -0.40487818729308894,
                                -0.26167306837751525
                            ],
                            [
                                -0.6103672768680839,
                                -0.2545937549740589,
                                0.09994438418482952,
                                0.464875411544409,
                                -0.3247804579910944
                            ],
                            [
                                -0.5979628306346175,
                                -0.3481971759963326,
                                0.12593934605936927,
                                0.08470628635584951,
                                -0.027084076181460866
                            ],
                            [
                                -0.5581468061530009,
                                0.36282142282806,
                                0.48058660469808606,
                                0.7306396615147133,
                                0.268431150660935
                            ]
                        ],
                        "rows": 5,
                        "cols": 5
                    },
                    {
                        "data": [
                            [
                                0.08773731154484972
                            ],
                            [
                                -0.1288660420012441
                            ],
                            [
                                0.7267209903648439
                            ],
                            [
                                0.03529966438050076
                            ],
                            [
                                -0.45431032941478783
                            ]
                        ],
                        "rows": 5,
                        "cols": 1
                    }
                ],
                "biases": [
                    {
                        "data": [
                            [
                                0.20070939848440947,
                                0.4351853830408482,
                                0.006347913225927813,
                                0.19515384258938928,
                                -0.9396038842568981
                            ]
                        ],
                        "rows": 1,
                        "cols": 5
                    },
                    {
                        "data": [
                            [
                                -0.30357628559566185,
                                -0.2867853912072709,
                                -0.004190057984158735,
                                -0.11834002949726431,
                                -0.4647413239458192
                            ]
                        ],
                        "rows": 1,
                        "cols": 5
                    },
                    {
                        "data": [
                            [
                                0.5416578367141485
                            ]
                        ],
                        "rows": 1,
                        "cols": 1
                    }
                ],
                "process": [
                    {
                        "data": [
                            [
                                0.30997053169518507,
                                -0.4622154513235337,
                                0.3743263435455928,
                                -0.5943353449603173,
                                null,
                                null,
                                null,
                                null,
                                null,
                                null,
                                null,
                                null,
                                null,
                                null,
                                null,
                                null,
                                0.47874268530223735,
                                0.0980243216816821,
                                0.12948270846701956,
                                -0.2562886347843842,
                                0.7029701322198683,
                                0.01278212984483144,
                                -0.040494291620635635,
                                -0.008407287908375695,
                                0.756263731676391,
                                -0.07648642163937011,
                                0.014832420871144095,
                                0.0027159657897359874,
                                -0.03630331848088821,
                                -0.19798114876315762,
                                -0.07749756654294584,
                                -0.2592904527071573
                            ]
                        ],
                        "rows": 1,
                        "cols": 32
                    }
                ]
            }
        ],
        "length": 3,
        "score": 10
    },
    "6": {
        "type": "Genetic_Combined_Network",
        "activation_function_name": "tanh",
        "activation_function": {},
        "networks": [
            {
                "type": "Genetic_Convolutional_Neural_Network",
                "activation_function_name": "swish",
                "activation_function": {},
                "length": 1,
                "width": 4,
                "height": 4,
                "weights": [],
                "biases": [],
                "kernels": [
                    {
                        "data": [
                            [
                                -0.10170000394878576,
                                0.6764754110560636,
                                -0.08593445276022371,
                                -0.05439080670427776
                            ],
                            [
                                0.011727539392934916,
                                -0.10697412977119092,
                                -0.05101529256081805,
                                0.01269053915594287
                            ],
                            [
                                0.06121851428743469,
                                -0.07825231207967248,
                                0.043178774108110274,
                                -0.04259762639019338
                            ],
                            [
                                0.12124812655304829,
                                0.020862109619666835,
                                -0.01505446130884136,
                                -0.015360420394313623
                            ]
                        ],
                        "rows": 4,
                        "cols": 4
                    }
                ]
            },
            {
                "type": "Genetic_Flatten",
                "activation_function_name": "identity",
                "activation_function": {}
            },
            {
                "type": "Genetic_Fully_Connected_Neural_Network",
                "activation_function_name": "tanh",
                "activation_function": {},
                "length": 3,
                "width": 5,
                "weights": [
                    {
                        "data": [
                            [
                                0.4120910386327317,
                                0.3306076871009538,
                                0.6046178829292104,
                                -0.5264235910837668,
                                -0.018160053536277233
                            ],
                            [
                                -0.1547205183754645,
                                0.2229178865289662,
                                -0.6184136227120647,
                                -0.007872427216827673,
                                -0.22057629963442812
                            ],
                            [
                                0.05613331911692046,
                                0.6135455384935312,
                                0.32968489993154465,
                                0.5870834965511821,
                                0.39865905106876404
                            ],
                            [
                                -0.43976080333621315,
                                -0.08929519609532635,
                                0.029598623970584888,
                                -0.11249315296209847,
                                -0.24609186696121624
                            ],
                            [
                                0.620145536183696,
                                0.6304037889324092,
                                0.6199566191173428,
                                -0.027221140161131436,
                                -0.2669946852967185
                            ],
                            [
                                0.5628428475831412,
                                -0.5019143801322135,
                                -0.6108432343465378,
                                0.3481499563004314,
                                -0.5852576544031057
                            ],
                            [
                                0.290563672637237,
                                -0.21582286538710851,
                                0.4935253541231675,
                                -0.0012482655332587494,
                                0.429391447636438
                            ],
                            [
                                -0.3924743595619425,
                                0.5245974179299191,
                                0.4446693621523516,
                                -0.09143486542815683,
                                -0.3075721736006816
                            ],
                            [
                                0.30201552210796373,
                                -0.036725071746144054,
                                0.32475926777265096,
                                -0.5350115627696708,
                                0.2714051476861318
                            ],
                            [
                                -0.43109674550317617,
                                0.23496360217730292,
                                -0.2638448514167561,
                                -0.28598720766924574,
                                0.07522561760935227
                            ],
                            [
                                0.31345195827432837,
                                0.5594741500903667,
                                0.4653758112612622,
                                -0.285505922814505,
                                -0.27988579085243154
                            ],
                            [
                                -0.44424577025445516,
                                -0.12333617150275415,
                                -0.4919987017842401,
                                0.3845716984384439,
                                -0.007449935961076908
                            ],
                            [
                                -0.028891383863635167,
                                -0.04889904434187756,
                                -0.5020773396007165,
                                -0.6007811532247072,
                                -0.08527662476686611
                            ],
                            [
                                -0.261852725306897,
                                0.27234534494987916,
                                -0.16298970486464184,
                                -0.4352714547955526,
                                -0.046211437421011116
                            ],
                            [
                                -0.13993742740782533,
                                0.48599839910230924,
                                -0.5584902034709741,
                                -0.033798244205241294,
                                -0.40618625757173143
                            ],
                            [
                                0.030083765855664468,
                                -0.537224686857409,
                                0.44268547260854474,
                                -0.46944930792625167,
                                -0.2516713567490298
                            ]
                        ],
                        "rows": 16,
                        "cols": 5
                    },
                    {
                        "data": [
                            [
                                0.572515481895579,
                                0.34076950924271926,
                                0.4073717992469278,
                                -0.4475534736975729,
                                0.58670399405714
                            ],
                            [
                                -0.4276926162151776,
                                -0.6241211339731766,
                                0.6321204545081917,
                                0.5527381444298115,
                                0.5803182076548661
                            ],
                            [
                                -0.587681246005677,
                                0.5864741967877828,
                                -0.11090729109120184,
                                -0.4840876787809728,
                                -0.0904478399693696
                            ],
                            [
                                0.2955162404960098,
                                0.40179412853603524,
                                -0.3179509772413502,
                                -0.32553141393992663,
                                0.24667818424514507
                            ],
                            [
                                0.417998583291063,
                                -0.5011732964947396,
                                0.4727746585849904,
                                -0.6249581796524395,
                                -0.3744581754781555
                            ]
                        ],
                        "rows": 5,
                        "cols": 5
                    },
                    {
                        "data": [
                            [
                                0.5394864253034288
                            ],
                            [
                                0.1018403897567172
                            ],
                            [
                                -0.2591593210324874
                            ],
                            [
                                0.5944827760546761
                            ],
                            [
                                0.3001854681144357
                            ]
                        ],
                        "rows": 5,
                        "cols": 1
                    }
                ],
                "biases": [
                    {
                        "data": [
                            [
                                0.5810654916570287,
                                0.46036070359066,
                                0.23643837058419484,
                                -0.15001001037729367,
                                0.04059112329971951
                            ]
                        ],
                        "rows": 1,
                        "cols": 5
                    },
                    {
                        "data": [
                            [
                                -0.4321476396377791,
                                -0.1372224646309538,
                                -0.34417646480074365,
                                -0.27419361846849366,
                                -0.3151316496900992
                            ]
                        ],
                        "rows": 1,
                        "cols": 5
                    },
                    {
                        "data": [
                            [
                                0.7213563639906466
                            ]
                        ],
                        "rows": 1,
                        "cols": 1
                    }
                ],
                "process": [
                    {
                        "data": [
                            [
                                -0.33795721280685775,
                                -0.16616387040692038,
                                -0.7750291500226134,
                                0.2313160388678419,
                                null,
                                null,
                                null,
                                null,
                                null,
                                null,
                                null,
                                null,
                                null,
                                null,
                                null,
                                null,
                                0.5039219661763388,
                                0.04722575103592845,
                                0.061320950835077166,
                                0.03316113208920496,
                                -0.03219304885152774,
                                -0.22259690186560008,
                                -0.06325562661656124,
                                -0.2631157760402256,
                                -0.10564958859667702,
                                0.5669679162850512,
                                0.06794569169052794,
                                0.1351137656341288,
                                0.005898153097444301,
                                -0.09909881582245948,
                                -0.03682410007847203,
                                0.026445796855647668
                            ]
                        ],
                        "rows": 1,
                        "cols": 32
                    }
                ]
            }
        ],
        "length": 3,
        "score": 10
    },
    "7": {
        "type": "Genetic_Combined_Network",
        "activation_function_name": "tanh",
        "activation_function": {},
        "networks": [
            {
                "type": "Genetic_Convolutional_Neural_Network",
                "activation_function_name": "swish",
                "activation_function": {},
                "length": 1,
                "width": 4,
                "height": 4,
                "weights": [],
                "biases": [],
                "kernels": [
                    {
                        "data": [
                            [
                                0.09950070399008731,
                                0.10745948932841726,
                                -0.09019043572367574,
                                0.10145137206494786
                            ],
                            [
                                0.08010292312298295,
                                0.10478835909903061,
                                0.07702466747500636,
                                -0.05831928902361766
                            ],
                            [
                                0.10426480699805774,
                                -0.0665339951677838,
                                -0.10860118993862694,
                                0.028553149448850734
                            ],
                            [
                                -0.06554634297618145,
                                -0.11855460246184601,
                                -0.10850217442377774,
                                0.05233385086938003
                            ]
                        ],
                        "rows": 4,
                        "cols": 4
                    }
                ]
            },
            {
                "type": "Genetic_Flatten",
                "activation_function_name": "identity",
                "activation_function": {}
            },
            {
                "type": "Genetic_Fully_Connected_Neural_Network",
                "activation_function_name": "tanh",
                "activation_function": {},
                "length": 3,
                "width": 5,
                "weights": [
                    {
                        "data": [
                            [
                                -0.14193167029637263,
                                -0.3501996584680219,
                                0.3566494471729569,
                                0.061325568481038845,
                                -0.36974910143675194
                            ],
                            [
                                0.5590630275700796,
                                0.5528221494831475,
                                -0.6246631827106615,
                                -0.6002445706907685,
                                0.565224826506706
                            ],
                            [
                                -0.4495355040210235,
                                0.058265735815923314,
                                0.09808641733727215,
                                0.6202818560956234,
                                -0.4388571491775793
                            ],
                            [
                                0.07841206665956718,
                                0.3656299674344376,
                                0.2143650101696628,
                                -0.249735905313482,
                                0.2958198670020933
                            ],
                            [
                                0.1809304407638069,
                                0.3353775147744127,
                                -0.1270829832541951,
                                0.21032870621875957,
                                -0.6210847021674608
                            ],
                            [
                                0.21140126170296308,
                                0.21700820622651093,
                                0.21402071918741267,
                                -0.57701442636356,
                                0.6068150969063079
                            ],
                            [
                                0.11424138827144234,
                                0.39877709577733766,
                                -0.5698627611949599,
                                -0.5098819324285899,
                                0.2910747308364004
                            ],
                            [
                                0.23284303292946237,
                                0.12164907869759066,
                                0.06402216742122752,
                                -0.1006002627860791,
                                -0.2835926767111505
                            ],
                            [
                                0.6057539164880058,
                                -0.22226939841140025,
                                0.10520894265672359,
                                0.056239120529247094,
                                0.30287759414322185
                            ],
                            [
                                -0.1963406480199867,
                                -0.07736180836646807,
                                0.4425528751971061,
                                0.1059444920537342,
                                0.1048715690224064
                            ],
                            [
                                -0.41000803495255855,
                                0.596659884952711,
                                -0.4734363169119287,
                                0.4667632918455629,
                                0.04486813558913881
                            ],
                            [
                                -0.5299340541304642,
                                -0.4335069449363416,
                                -0.4114639307143489,
                                0.5657586206993321,
                                0.013364798396084605
                            ],
                            [
                                -0.05627119041052491,
                                -0.28471665049916633,
